{"type":"LSTM","options":{"inputSize":48,"inputRange":48,"hiddenLayers":[20,20],"outputSize":48,"decayRate":0.999,"smoothEps":1e-8,"regc":0.000001,"clipval":5,"maxPredictionLength":100,"dataFormatter":{"indexTable":{"1":38,"h":0,"e":1,"y":2,"!":3,"H":4,"i":5,"l":6,"o":7,"a":8,"w":9," ":10,"t":11,"r":12,".":13,"b":14,"G":15,"d":16,"B":17,"C":18,"c":19,"g":20,",":21,"v":22,"n":23,"?":24,"m":25,"Y":26,"'":27,"s":28,"z":29,"I":30,"k":31,"f":32,"u":33,"W":34,"j":35,"N":36,"+":37,"O":39,"A":40,"p":41,"T":42,"x":43,"U":44,"stop-input":45,"start-output":46,"unrecognized":47},"characterTable":{"0":"h","1":"e","2":"y","3":"!","4":"H","5":"i","6":"l","7":"o","8":"a","9":"w","10":" ","11":"t","12":"r","13":".","14":"b","15":"G","16":"d","17":"B","18":"C","19":"c","20":"g","21":",","22":"v","23":"n","24":"?","25":"m","26":"Y","27":"'","28":"s","29":"z","30":"I","31":"k","32":"f","33":"u","34":"W","35":"j","36":"N","37":"+","38":"1","39":"O","40":"A","41":"p","42":"T","43":"x","44":"U","45":null,"46":null,"47":null},"values":[{"input":"hey!","output":"Hey!"},{"input":"hi!","output":"Hello!"},{"input":"hello!","output":"Hi!"},{"input":"heyy!","output":"Hey!"},{"input":"heyyy!","output":"Hi!"},{"input":"hai!","output":"Hey!"},{"input":"hlo!","output":"Hello!"},{"input":"hewwo!","output":"Hey there!"},{"input":"heea!","output":"Hey there!"},{"input":"hewo!","output":"Hey there!"},{"input":"heyyyy!","output":"Hey there!"},{"input":"helloo!","output":"Hey there!"},{"input":"heeeey!","output":"Hey!"},{"input":"heey!","output":"Hi!"},{"input":"haaayy!","output":"Hello!"},{"input":"heyee!","output":"Hey!"},{"input":"heyya","output":"Hi!"},{"input":"hi","output":"Hey!"},{"input":"hey","output":"Hi!"},{"input":"heyy","output":"Hi"},{"input":"heeloo","output":"Hello."},{"input":"helloo","output":"Hello!"},{"input":"hewoo","output":"Hey!"},{"input":"hewo","output":"Hey!"},{"input":"hoi!","output":"Hey there!"},{"input":"hallo!","output":"Hey there!"},{"input":"hei!","output":"Hey there!"},{"input":"hallo","output":"Hey!"},{"input":"hoi","output":"Hey there!"},{"input":"hei","output":"Hey!"},{"input":"bye!","output":"Good bye!"},{"input":"byee","output":"Bye!"},{"input":"byee!","output":"Byee!"},{"input":"bye","output":"Bye bye!"},{"input":"bye bye","output":"Cya!"},{"input":"byee","output":"Bye!"},{"input":"cya","output":"Bye!"},{"input":"cyaa","output":"Bye!"},{"input":"good bye","output":"Good bye!"},{"input":"good bye!","output":"Bye bye!"},{"input":"cya!","output":"Bye"},{"input":"cyaa!","output":"Bye"},{"input":"bye bye!","output":"Cya!"},{"input":"bye! bye!","output":"Bye!"},{"input":"alright, cya","output":"Bye!"},{"input":"alright cya","output":"Have a nice day!"},{"input":"aight cya","output":"Have a nice day!"},{"input":"gotta go","output":"Have a nice day!"},{"input":"have to go","output":"Have a nice day!"},{"input":"gotta go!","output":"Bye!"},{"input":"have to go!","output":"Bye"},{"input":"what?","output":"Hm?"},{"input":"holy!","output":"Yeah!"},{"input":"that's crazy","output":"I also think that!"},{"input":"that's amazing","output":"Yeah, right!"},{"input":"what","output":"I'm confused!"},{"input":"what!","output":"Hm?"},{"input":"whaaat!","output":"Hmm?"},{"input":"whaat!","output":"Yeah, right."},{"input":"whaat","output":"Yeah, totally."},{"input":"whaaat","output":"What, what?"},{"input":"really?","output":"Yeah, I'm honest."},{"input":"are you serious?","output":"Yeah, totally!"},{"input":"are you serious","output":"Yes, I am serious!"},{"input":"you are joking, right?","output":"No, I'm not joking!"},{"input":"you are joking","output":"No, I'm not!"},{"input":"no way","output":"Yeah!"},{"input":"wow","output":"+1"},{"input":"wow!","output":"yeah"},{"input":"wooow!","output":"Wow, yeah!"},{"input":"woow","output":"Wow."},{"input":"wooow","output":"Wow."},{"input":"no way!","output":"Yeah, I don't know!"},{"input":"seriously?","output":"Yeah, I'm serious!"},{"input":"seriously!","output":"Yeah!"},{"input":"seriously","output":"Yeah!"},{"input":"omg what","output":"Yeah, I know!"},{"input":"omg","output":"Yes!"},{"input":"omg!","output":"Yeah!"},{"input":"omg whaaat!","output":"Yeah!"},{"input":"omg what!","output":"Yeah, I know!"},{"input":"oh my god","output":"Yeah, true!"},{"input":"oh my god!","output":"Yeah!"},{"input":"oh my!","output":"Yes, true!"},{"input":"oh my","output":"Yeah!"},{"input":"how are you?","output":"I'm feeling great!"},{"input":"how are you","output":"I'm feeling awesome!"},{"input":"how are ya","output":"I'm feeling great, what about you?"},{"input":"hru","output":"I'm feeling great, what about you?"},{"input":"hru?","output":"I'm feeling great, what about you?"},{"input":"im feeling terrible","output":"Oh, I'm sorry to hear..."},{"input":"im feeling great","output":"Awesome!"},{"input":"im feeling awesome","output":"Amazing!"},{"input":"how are you feeling?","output":"I'm feeling awesome, what about you?"},{"input":"are you feeling well?","output":"Yeah, and you?"},{"input":"you feeling well?","output":"Yeah, what about you?"},{"input":"you feeling well","output":"Yeah and what about you?"},{"input":"how are you feeling","output":"Great, you?"},{"input":"you good?","output":"Yeah, you?"},{"input":"are ya good?","output":"Yes!"},{"input":"are ya good?","output":"Yeah, what about you?"},{"input":"ya good?","output":"Yep, I'm feeling great!"},{"input":"im feeling terribly","output":"Bad to hear..."},{"input":"im feeling bad","output":"Bad to hear..."},{"input":"im feeling tired","output":"Then go sleep!"},{"input":"im so tired","output":"Then go sleep!"},{"input":"uwu?","output":"What?!"},{"input":"you feeling sexy tonight?","output":"Uhhh..."}],"characters":["h","e","y","!","H","i","l","o","a","w"," ","t","r",".","b","G","d","B","C","c","g",",","v","n","?","m","Y","'","s","z","I","k","f","u","W","j","N","+","1","O","A","p","T","x","U","stop-input","start-output","unrecognized"],"specialIndexes":[45,46,47]}},"trainOpts":{"iterations":"200000","errorThresh":0.005,"logPeriod":1,"learningRate":0.01,"callbackPeriod":10,"timeout":"Infinity"},"input":{"rows":49,"columns":48,"weights":[1.4714115858078003,1.7223057746887207,2.9197230339050293,-3.038573980331421,-1.0845928192138672,-0.8479553461074829,0.530060887336731,1.1520237922668457,0.15809543430805206,2.0980355739593506,0.6570871472358704,1.9213588237762451,-3.8457536697387695,-1.8429253101348877,0.7575969696044922,-3.6452250480651855,-0.6980647444725037,-1.778847098350525,-2.1656439304351807,-0.9945173859596252,2.2859561443328857,-0.9004870653152466,-1.1082879304885864,-0.8330564498901367,1.639391541481018,2.9215614795684814,0.3761693835258484,-0.03166612982749939,0.45797938108444214,-1.5210217237472534,0.3710089325904846,-1.7288975715637207,0.8115016222000122,-0.7541653513908386,1.3674672842025757,-1.486415147781372,-0.15723606944084167,-1.0831605195999146,-1.0615990161895752,0.8093682527542114,2.7953100204467773,0.26296859979629517,-0.01095671858638525,-1.381788730621338,1.2311420440673828,0.10307323932647705,-0.2298923134803772,2.461732864379883,-0.7113773822784424,-4.08441162109375,-0.23048509657382965,1.4694944620132446,-2.522207736968994,0.21502794325351715,-1.2152299880981445,0.04906046763062477,-0.08112979680299759,-0.8911495208740234,-2.5738728046417236,-1.9413710832595825,-0.23419739305973053,-3.3156676292419434,-1.745934009552002,-4.387800693511963,2.371596574783325,-0.012337790802121162,0.48361682891845703,4.449751853942871,1.796373724937439,1.1517070531845093,-1.3133031129837036,-0.04940402880311012,-0.42263543605804443,-1.6452351808547974,-2.8267323970794678,1.5840281248092651,2.088710308074951,1.3039308786392212,-2.4043021202087402,-2.98370099067688,-0.928105890750885,-4.685949802398682,-1.0696841478347778,-1.2716834545135498,1.299227237701416,-0.3559710681438446,1.9559895992279053,-1.1037194728851318,-0.09526429325342178,2.641453742980957,2.48406720161438,2.305628776550293,2.3471035957336426,-1.8320794105529785,-0.7341235280036926,0.06546587496995926,1.628281831741333,0.6316672563552856,-3.7342569828033447,-1.1983455419540405,1.839432716369629,-0.8481273651123047,3.83310604095459,-0.7827346324920654,-0.4327007234096527,5.425912380218506,2.503716230392456,3.6801435947418213,0.9022394418716431,-3.0267248153686523,-2.362955093383789,1.1016165018081665,-2.678292989730835,-3.0246260166168213,0.4921916127204895,1.3937252759933472,0.750514030456543,2.0904343128204346,0.6564901471138,-1.8188096284866333,1.8592290878295898,-0.5591407418251038,2.342010974884033,-0.7898863554000854,1.9972189664840698,0.15597482025623322,-3.673407793045044,1.5163376331329346,-2.170942783355713,-1.6781511306762695,-0.799666702747345,0.40426352620124817,0.011920596472918987,-0.7167148590087891,2.49316668510437,-0.326357364654541,-2.508267641067505,2.2009787559509277,1.819900393486023,0.16163720190525055,1.667657494544983,-1.0411471128463745,-3.235983371734619,-0.5338951945304871,-0.022864075377583504,-1.013918161392212,1.2590723037719727,-0.38272228837013245,0.44110339879989624,-3.479133129119873,-1.1180109977722168,0.3736032545566559,-0.29969003796577454,2.4265663623809814,3.693225622177124,2.1250009536743164,-3.4528913497924805,-2.628434658050537,-0.10423655807971954,-0.6704007983207703,-2.474412202835083,-2.020611047744751,-1.1538512706756592,-3.3392391204833984,2.871412754058838,-0.9096135497093201,0.5836347937583923,-5.512969017028809,-3.0777885913848877,2.962184190750122,-0.01473849918693304,-0.48022955656051636,0.7376812100410461,-0.7082656621932983,1.3966398239135742,1.9795037508010864,1.403694748878479,-2.2828476428985596,1.4455506801605225,-0.36263638734817505,3.347771406173706,-1.4886603355407715,-2.4578824043273926,-0.3255654275417328,1.3671373128890991,0.9577966928482056,-2.763622760772705,-0.9680233001708984,0.2668064534664154,-0.6612281799316406,2.005732297897339,-1.2466202974319458,-0.8426409363746643,2.9667341709136963,-1.4981998205184937,2.0902726650238037,3.7890069484710693,1.1260024309158325,0.35443949699401855,-1.2539966106414795,0.9247922301292419,-2.8298680782318115,3.5137672424316406,-0.23230217397212982,0.2764868438243866,3.388838052749634,-1.8812909126281738,6.514641284942627,-0.4315950870513916,-0.818000078201294,2.746868371963501,-0.054949257522821426,1.1891388893127441,1.0311309099197388,1.26946222782135,0.4953915774822235,1.7920178174972534,3.1965160369873047,1.3991528749465942,0.6246290802955627,-1.4234801530838013,-1.5339730978012085,3.4464378356933594,3.2610108852386475,1.633804202079773,0.11661427468061447,-4.362354278564453,-2.270542860031128,-2.544865608215332,3.2148690223693848,2.419172525405884,4.424890041351318,3.350191593170166,-0.8720868229866028,1.4742140769958496,-1.9684218168258667,-1.2705694437026978,-1.4655563831329346,1.9045674800872803,-5.453296184539795,-5.070971965789795,0.6459314227104187,1.5960801839828491,-0.3210790157318115,6.1801934242248535,-5.509529113769531,-5.362735271453857,0.5567457675933838,4.832255840301514,-2.4750277996063232,-1.2681996822357178,-7.002590656280518,1.2221804857254028,3.439072370529175,0.2449265569448471,2.116032838821411,-0.5927772521972656,4.903304576873779,-4.777047157287598,5.394147872924805,-3.7846245765686035,-5.789651870727539,3.0021655559539795,1.6176295280456543,-2.10666823387146,-1.6214637756347656,-3.5996410846710205,-9.514775276184082,-3.5543453693389893,4.196439266204834,-1.6115403175354004,1.328403115272522,6.500244617462158,2.3620450496673584,-1.339708924293518,-1.9744558334350586,1.8621119260787964,5.31547737121582,0.45818254351615906,0.43724608421325684,6.584827899932861,-7.924430847167969,-3.1231889724731445,-5.452679634094238,-1.245870590209961,-1.124586582183838,-1.6774262189865112,0.04612759128212929,2.725062608718872,-4.872750759124756,1.5901447534561157,-4.358222007751465,-3.945976734161377,2.888214111328125,-1.5099252462387085,-0.8592079281806946,-3.7640302181243896,2.0714616775512695,-4.442095756530762,-0.8427587151527405,2.746387243270874,-2.237077236175537,-3.4534366130828857,7.043268203735352,-0.8944879770278931,-2.5188794136047363,1.2321913242340088,3.3902273178100586,-3.0804574489593506,0.3246767520904541,-0.6722399592399597,0.9187432527542114,2.4059576988220215,0.11319176852703094,2.2694029808044434,1.3524490594863892,-0.5599204301834106,-1.835574984550476,-0.03106253407895565,-2.7636520862579346,-2.675891160964966,-8.077325820922852,0.4452148377895355,-3.5888586044311523,-2.795621633529663,4.455499172210693,-1.1414860486984253,2.819988250732422,3.497584819793701,-1.3251419067382812,6.282469749450684,-5.098872661590576,0.8477602005004883,0.23693472146987915,-2.8728601932525635,4.3799333572387695,1.420995831489563,-1.2042558193206787,-1.035489797592163,0.3200867176055908,-2.020078659057617,-1.5055855512619019,-7.860111713409424,5.217554092407227,4.793559551239014,4.4379777908325195,-4.285741806030273,-2.715643882751465,3.992716073989868,1.0505825281143188,7.102710247039795,-3.4334769248962402,0.9122233986854553,6.741881847381592,-2.983863115310669,7.514243125915527,4.635324001312256,-1.356862187385559,-1.7419798374176025,-6.308358192443848,5.0291428565979,-6.698854446411133,-2.667776107788086,-3.9514927864074707,-1.3330045938491821,2.5874786376953125,-8.52764892578125,-5.71087646484375,0.04061506688594818,0.800589919090271,2.620316743850708,-10.128470420837402,0.39709874987602234,5.604316234588623,-9.019758224487305,1.3281596899032593,-6.207875728607178,5.721888542175293,2.0765364170074463,-5.136178016662598,-2.9733493328094482,-0.15867429971694946,-1.6522380113601685,5.722410678863525,3.444653034210205,-0.9376187324523926,0.8973779082298279,-1.708048939704895,3.1426687240600586,2.7776293754577637,-0.7964068651199341,0.7846349477767944,2.9484875202178955,-1.8926416635513306,0.32167091965675354,-2.193218946456909,-4.160528659820557,6.625544548034668,-0.2970457375049591,-0.25354456901550293,2.2256946563720703,0.8953405618667603,-2.0363070964813232,0.8758552074432373,-2.688145399093628,-0.5568941831588745,-1.436946988105774,-1.4166386127471924,-0.9929884672164917,-0.5517616868019104,-0.4064009487628937,-2.492919683456421,-3.8177883625030518,2.499380111694336,-1.5062861442565918,6.628992557525635,2.30729341506958,0.06346672773361206,-0.4975094795227051,0.10213059931993484,1.382245421409607,0.3160994350910187,-2.181508779525757,-3.5499372482299805,-1.2655824422836304,-1.7333948612213135,-2.6964428424835205,-1.9126744270324707,2.186368942260742,-1.2412625551223755,2.1226017475128174,1.9894006252288818,2.515073299407959,-1.5672855377197266,-2.6187191009521484,-0.6048228740692139,-2.205444812774658,2.0458240509033203,-5.249837875366211,5.896360397338867,-1.4640272855758667,-0.7943857908248901,-0.3281148076057434,-3.9212138652801514,-1.728804111480713,0.8010488152503967,2.2060887813568115,-1.4011272192001343,0.7288721203804016,3.433901071548462,-0.3164622187614441,3.913545608520508,4.04420804977417,2.8677334785461426,4.1690778732299805,1.2925591468811035,-1.2804080247879028,0.6450763940811157,-0.7729213833808899,-5.10080623626709,1.7159066200256348,2.3711507320404053,-1.8798989057540894,0.620661199092865,-0.42971864342689514,1.3020154237747192,3.4902563095092773,-0.379342257976532,2.918161630630493,-2.1988608837127686,-0.6195724606513977,-3.419342517852783,4.287328243255615,-0.21901008486747742,-5.59262752532959,-3.8994646072387695,2.132493495941162,3.1834464073181152,1.2766034603118896,1.2055916786193848,4.808664321899414,-1.6023447513580322,5.067188739776611,-0.7755729556083679,11.996092796325684,4.541958808898926,-3.102142810821533,7.620270729064941,-2.385303258895874,4.29499626159668,-3.997537136077881,6.413999557495117,-0.9615910649299622,1.04234778881073,0.5290715098381042,-1.2891573905944824,3.0314342975616455,-0.8488191366195679,-5.480632781982422,0.6556487679481506,1.3742426633834839,-3.8103742599487305,-3.036304473876953,-1.8743648529052734,1.7323013544082642,-1.5971977710723877,3.372159242630005,2.623509645462036,2.6188724040985107,-4.568047523498535,-1.9347527027130127,-1.364532470703125,-8.813151359558105,-2.826737880706787,-0.10351992398500443,0.5079243183135986,-1.6113102436065674,1.5560448169708252,-6.686000347137451,2.341900587081909,-4.878570556640625,-2.919802665710449,-4.138912677764893,-1.948533535003662,-0.545374870300293,-7.133437156677246,-1.409961223602295,3.058263063430786,-3.0206809043884277,0.9744312763214111,-1.7848857641220093,2.4762139320373535,-0.5978618264198303,-2.0114011764526367,-0.8839927911758423,-1.646291971206665,3.7946724891662598,-2.0574183464050293,2.8451931476593018,-2.0511631965637207,-0.3674909472465515,0.42748376727104187,0.7121279835700989,-1.50650155544281,0.7911430597305298,0.8192177414894104,-2.01409912109375,0.0919504463672638,-1.649701714515686,-0.1534445881843567,-0.3469253182411194,-0.2795473039150238,-4.688494682312012,-4.081421852111816,-4.155069351196289,-1.0852611064910889,4.306787490844727,0.6387006044387817,-0.9813297986984253,-0.9248999357223511,1.140267252922058,3.5228447914123535,3.7056148052215576,2.5709316730499268,-3.3444838523864746,-2.096027135848999,-5.189477920532227,-3.2738568782806396,0.3660033941268921,0.8968316912651062,-1.252368688583374,1.6750051975250244,-0.7278510332107544,0.2379864901304245,2.3802735805511475,2.5900232791900635,2.5631520748138428,0.5338437557220459,-1.9649664163589478,0.7731552124023438,0.3881760835647583,0.3868725895881653,-0.8104673027992249,-1.850193738937378,-6.975418567657471,-4.256366729736328,0.905986487865448,-0.9295498728752136,1.6315211057662964,1.0916435718536377,2.6502091884613037,6.5624871253967285,-4.790956020355225,1.1284440755844116,-4.812170028686523,-0.24688482284545898,-9.972575187683105,-2.7646782398223877,0.3605397045612335,1.6200639009475708,2.4798245429992676,-0.12040941417217255,0.12436345219612122,-0.2460590898990631,-1.463814377784729,-3.2266483306884766,0.0005371771985664964,3.7445228099823,-2.350799322128296,-3.122978925704956,-3.723233938217163,-6.01960563659668,3.701418399810791,8.272745132446289,6.966802597045898,-0.642499566078186,-0.05490900203585625,-1.5964503288269043,-3.7842354774475098,1.946370005607605,-0.5722408294677734,-4.27052116394043,0.3546052873134613,-0.6095680594444275,-0.23836413025856018,-1.4362908601760864,-1.6621557474136353,1.9043840169906616,0.6521341800689697,0.24965909123420715,-1.9459749460220337,-1.1520551443099976,2.7468178272247314,-1.621921181678772,0.3297753632068634,-4.265956401824951,-1.421491026878357,4.113624095916748,2.1726863384246826,1.1007425785064697,1.8954375982284546,1.8550254106521606,-4.430327892303467,-1.8277243375778198,-1.5949259996414185,2.880560874938965,0.5887179374694824,-1.5546153783798218,-2.6325414180755615,-0.8116070628166199,4.662051200866699,-10.356983184814453,-0.05255827680230141,2.7257637977600098,0.28412866592407227,2.6731529235839844,3.0185585021972656,-0.7391284108161926,1.8786150217056274,0.9424530863761902,3.928063154220581,0.5973608493804932,1.7612097263336182,-1.4858415126800537,-2.7535457611083984,-0.9361143708229065,-0.19284293055534363,2.580446481704712,5.96481466293335,0.7687575817108154,4.208090305328369,1.1263574361801147,9.409449577331543,-9.45383358001709,14.330885887145996,4.8755784034729,-1.6185238361358643,5.195676803588867,-3.8703041076660156,17.97481346130371,0.22862443327903748,-2.1875250339508057,-2.0597827434539795,-10.772480010986328,-10.631086349487305,-7.804115295410156,8.717281341552734,-4.519129276275635,-13.871553421020508,7.178942680358887,-9.413256645202637,2.2966818809509277,0.2728098928928375,2.7202155590057373,2.9274137020111084,2.0778086185455322,12.752701759338379,-1.3688151836395264,4.035656929016113,0.9298246502876282,3.657299041748047,-6.755208969116211,-3.691559314727783,5.6148223876953125,-4.82979154586792,5.429736614227295,-10.516521453857422,-2.611855983734131,4.746268272399902,-1.103698968887329,9.34166145324707,-0.27079784870147705,1.8406133651733398,-6.559123992919922,-7.484208583831787,-0.37829941511154175,-6.753522872924805,-2.6276421546936035,-4.097538471221924,-0.14350003004074097,2.8005120754241943,1.6744886636734009,-3.9696531295776367,-2.679187536239624,-4.03593635559082,9.885041236877441,1.1772505044937134,1.1092678308486938,6.289566993713379,-3.3063957691192627,-3.410670280456543,-0.8614798188209534,11.007866859436035,8.611224174499512,3.41152024269104,1.5485295057296753,6.092895984649658,4.664670944213867,-3.5917775630950928,12.460719108581543,-3.86173677444458,-2.7882072925567627,5.0086445808410645,5.916158199310303,-6.47502326965332,-5.4484968185424805,-10.895939826965332,-4.135348320007324,-7.4755659103393555,5.74232816696167,0.5178321003913879,-0.35935908555984497,7.165918827056885,-4.299644470214844,-2.268296480178833,1.5203219652175903,-1.987789511680603,0.08022982627153397,0.46296924352645874,-4.297474384307861,1.355526089668274,-2.2805628776550293,6.720088005065918,0.37304332852363586,1.2755600214004517,2.5728790760040283,2.115065097808838,-2.954291582107544,6.013330936431885,2.939234972000122,-18.293563842773438,15.047741889953613,0.4277276396751404,5.66198205947876,-1.185502052307129,-10.625635147094727,8.113414764404297,-15.31474781036377,-5.391791820526123,13.337817192077637,0.705101490020752,5.355679988861084,4.378340721130371,20.224708557128906,-7.537226676940918,-12.062992095947266,2.3988723754882812,-0.09553586691617966,12.726845741271973,1.33444344997406,15.432330131530762,-11.035420417785645,-8.171395301818848,7.335125923156738,-2.4295406341552734,6.071518898010254,-13.728680610656738,-6.6837968826293945,27.61652374267578,9.766219139099121,13.109550476074219,-13.604838371276855,-7.344607353210449,1.4292410612106323,17.66045379638672,8.455188751220703,22.52997589111328,-2.612217664718628,-15.877870559692383,-2.002912759780884,-0.2951625883579254,14.843103408813477,8.804837226867676,-7.968283176422119,-2.3364222049713135,-10.566295623779297,2.127347707748413,2.4099972248077393,-7.550553321838379,-5.296595096588135,1.8473163843154907,-3.3417716026306152,-9.68604850769043,1.9167431592941284,-3.939434289932251,-8.032387733459473,-4.506453514099121,0.49616602063179016,4.622188568115234,4.713697910308838,0.82286536693573,6.210749626159668,-2.3692500591278076,10.595813751220703,-3.1833484172821045,-1.2877771854400635,3.44608211517334,-0.3803142309188843,7.850235462188721,0.06089847907423973,-5.363253593444824,-8.933832168579102,-4.1366400718688965,0.6681272387504578,-9.303544998168945,-1.717941164970398,-0.9002317786216736,-0.5718972086906433,5.259191513061523,11.731806755065918,-2.4895424842834473,5.340922832489014,5.993401527404785,2.915922164916992,-0.5778051614761353,-3.9023349285125732,-0.3308619558811188,2.6623759269714355,-0.21604380011558533,3.1653201580047607,1.4515981674194336,-5.569266319274902,3.8942511081695557,0.1627388447523117,6.61015510559082,-4.9453606605529785,10.539925575256348,-3.721782684326172,11.09784984588623,-4.342105865478516,0.3534950017929077,8.612067222595215,-3.131887674331665,-4.30185079574585,-0.10807618498802185,2.9742038249969482,-5.868863105773926,0.13890458643436432,-2.8244571685791016,5.05721378326416,0.38923925161361694,-2.5967538356781006,4.036535263061523,-1.5421603918075562,-4.772920608520508,-8.969465255737305,2.1255741119384766,1.3354772329330444,5.116204738616943,-1.2304123640060425,10.343249320983887,13.94373607635498,-6.5474677085876465,-3.770341634750366,-5.41879940032959,-8.441950798034668,0.269479900598526,-2.2325279712677,2.0589654445648193,4.023963451385498,-3.079834461212158,-4.329372882843018,2.483361005783081,3.744255781173706,3.9764223098754883,-2.7627646923065186,-5.564366340637207,-0.8347679972648621,-4.443446159362793,-2.300083875656128,2.5126166343688965,3.7895514965057373,5.592535018920898,-11.259641647338867,12.64893913269043,-14.168207168579102,16.34340476989746,-9.190301895141602,-8.492488861083984,7.389484882354736,-2.568500518798828,10.546674728393555,-0.4193097651004791,5.628122329711914,-9.01771354675293,-0.9974240660667419,-10.362774848937988,-0.8293660283088684,-5.749042510986328,6.998836517333984,-9.795673370361328,18.164154052734375,-0.7783023118972778,1.2787367105484009,1.4096715450286865,11.80412769317627,27.170690536499023,16.782302856445312,1.0409730672836304,-2.990468978881836,-2.172731876373291,-11.537055969238281,0.9051631093025208,-1.1350959539413452,0.5728087425231934,-11.33674430847168,-2.889732837677002,-8.462016105651855,-15.89387035369873,7.2197113037109375,-7.853966236114502,15.187551498413086,9.770890235900879,-3.0924947261810303,6.0105366706848145,5.808908462524414,7.396989822387695,4.9344000816345215,13.274669647216797,5.635461807250977,4.158907413482666,2.5760691165924072,3.904815196990967,-7.547131061553955,-2.7955408096313477,0.6912491917610168,-7.54021692276001,3.0646140575408936,0.8594133257865906,-3.905217170715332,-6.5475263595581055,0.43573296070098877,1.8900384902954102,3.980617046356201,-2.4326868057250977,5.0994954109191895,1.8416500091552734,-2.918832778930664,5.359148979187012,8.001903533935547,2.297555446624756,0.5256602168083191,5.175583362579346,5.070446968078613,0.11503107100725174,-1.71208918094635,-2.8898353576660156,-6.642523288726807,-0.15404224395751953,2.9275293350219727,-2.5773913860321045,-3.663468837738037,6.397191524505615,-3.6750261783599854,-1.441717267036438,-0.2817990481853485,-4.210136890411377,3.6760082244873047,2.0900611877441406,1.3522899150848389,0.7315794825553894,0.25375381112098694,-1.370973825454712,-4.253834247589111,4.435982704162598,9.846396446228027,-7.313842296600342,9.906607627868652,1.71807062625885,3.1839699745178223,-2.4366321563720703,-4.10946798324585,1.4275528192520142,3.3598310947418213,0.717706561088562,3.412355422973633,0.9919400215148926,-1.1521785259246826,-0.02811850793659687,1.0168930292129517,-3.430370569229126,-1.1092642545700073,4.026564121246338,1.1128251552581787,-2.177168130874634,1.7258915901184082,-0.11839999258518219,2.2083892822265625,-3.40033221244812,-3.096137285232544,3.5040149688720703,1.895739197731018,-4.203209400177002,1.831704020500183,-2.436326742172241,-5.739922046661377,2.0894620418548584,-1.1347498893737793,-3.7342541217803955,1.5884798765182495,4.870588779449463,-0.47900575399398804,6.423222064971924,-1.4420772790908813,-0.942352831363678,-2.881649971008301,-3.2884116172790527,1.5647714138031006,10.065211296081543,-3.8626859188079834,-3.1457724571228027,2.7248380184173584,-1.4813601970672607,2.548110246658325,3.2883412837982178,0.8263007402420044,1.6879326105117798,10.18699836730957,-6.185689926147461,-5.467373847961426,0.13539160788059235,8.039759635925293,4.359075546264648,-3.2763724327087402,-4.013360500335693,2.922502279281616,2.0073184967041016,3.0638163089752197,-0.19295021891593933,6.149981498718262,-10.568268775939941,2.863206148147583,2.2985453605651855,-7.544258117675781,2.954732656478882,-2.07438588142395,1.3025398254394531,-2.7876620292663574,-2.3916802406311035,-3.4814109802246094,-8.782166481018066,-0.2667970657348633,9.416695594787598,1.8912322521209717,-4.7333455085754395,3.9902868270874023,1.207411289215088,4.993440628051758,-0.1185108944773674,-4.43277645111084,2.186021566390991,7.678502082824707,1.9594354629516602,-3.5274314880371094,-0.3853086233139038,0.3916074335575104,-2.2295479774475098,1.0156221389770508,8.852869033813477,4.425423622131348,-3.775376081466675,-0.5257986187934875,6.251917362213135,4.03230094909668,-5.2073140144348145,-6.342911720275879,-7.689635753631592,-1.178975224494934,14.940587043762207,1.6429619789123535,7.553587436676025,6.444505214691162,-0.9892778396606445,11.719305992126465,9.199233055114746,-1.8406105041503906,0.5408517122268677,-4.531312942504883,-2.19629168510437,0.956806480884552,-5.5097880363464355,11.450610160827637,-1.5656169652938843,-1.6158595085144043,-1.7008540630340576,-2.0182857513427734,4.022728443145752,-3.155073881149292,5.7790679931640625,-1.27743661403656,7.461787700653076,-2.3752875328063965,10.322004318237305,-2.9049997329711914,-3.8800437450408936,13.339365005493164,-10.379735946655273,8.32742977142334,2.879655599594116,6.738683223724365,5.134220123291016,-0.4383572041988373,-3.126228094100952,-3.401604413986206,-3.5469970703125,9.92159366607666,-12.61689567565918,-4.466218948364258,-3.174928903579712,-6.214282512664795,7.55838680267334,5.031679630279541,2.0329325199127197,-3.114844560623169,9.879355430603027,-2.594716787338257,-9.270997047424316,3.0575084686279297,-3.447510004043579,5.689207077026367,1.2702221870422363,-3.725027561187744,0.44081467390060425,-10.250815391540527,-0.5868270993232727,-5.10120153427124,-1.5273361206054688,-0.3941621780395508,-5.304126262664795,-4.210470676422119,2.7154476642608643,6.359446048736572,3.899052143096924,1.936312198638916,-0.25763174891471863,2.4852256774902344,2.926988363265991,0.23691800236701965,-0.14156711101531982,4.583775997161865,-2.027498245239258,2.348726272583008,3.260089874267578,-7.487839698791504,4.9984917640686035,-5.146510601043701,0.12045006453990936,-4.64491081237793,0.005241281818598509,-5.682491779327393,1.7517993450164795,-8.423445701599121,3.3545753955841064,0.7657652497291565,-2.9577524662017822,-4.866381645202637,0.5601497888565063,3.3660390377044678,2.9331376552581787,1.7033157348632812,-5.002227306365967,3.0357894897460938,-5.057064056396484,2.3456554412841797,-1.0748618841171265,-2.280435562133789,1.0631071329116821,-2.3565316200256348,-0.4379212558269501,5.900039196014404,2.768362045288086,5.13537073135376,6.073692798614502,-1.7078179121017456,3.8318886756896973,-4.276077747344971,-7.125616073608398,0.02659926749765873,3.1887192726135254,-2.422614336013794,-4.767893314361572,-0.7992194294929504,0.8729024529457092,-8.928729057312012,1.7448084354400635,-8.795202255249023,4.779443264007568,2.1704211235046387,4.125391960144043,4.9324259757995605,-4.787316799163818,-9.63748836517334,-6.18666410446167,-0.3414037227630615,3.5199778079986572,0.5644465088844299,4.938444137573242,3.2463018894195557,0.660847544670105,-4.236926078796387,-7.22566032409668,6.942259788513184,2.727050542831421,-7.314422607421875,-5.109996318817139,-6.52032995223999,-6.020445346832275,4.255817413330078,4.5313944816589355,-5.490456581115723,10.15402889251709,-3.454479932785034,-6.8410234451293945,-1.808537244796753,5.787587642669678,4.504251480102539,-3.7976999282836914,0.8143730759620667,-1.6838699579238892,1.64105224609375,-4.173684120178223,-3.717963695526123,0.2180243730545044,-1.6705384254455566,-6.3254523277282715,-0.5506066679954529,-4.084892749786377,-4.055722236633301,1.7859472036361694,-3.769766092300415,3.4570536613464355,-2.517441511154175,5.598180770874023,7.697031497955322,2.5107476711273193,-2.8367130756378174,2.532010316848755,-9.249369621276855,1.159543514251709,-5.1126203536987305,3.306091070175171,-4.488098621368408,0.25804850459098816,-4.498651504516602,-5.095408916473389,-2.5617270469665527,-2.704582691192627,1.928122878074646,3.101012945175171,-0.4625524580478668,-4.155294895172119,8.899720191955566,4.0353498458862305,-0.3365575075149536,-8.528450965881348,1.1286895275115967,2.79770827293396,-0.6226108074188232,3.967888355255127,0.11746703833341599,-6.136142730712891,-2.659616708755493,2.7683231830596924,0.9690617918968201,4.693563938140869,-1.3943065404891968,-3.213698625564575,-0.7078108787536621,-0.1779039055109024,5.527125835418701,6.530583381652832,0.31838250160217285,-2.6166086196899414,0.6061462163925171,-1.658329725265503,-1.2212238311767578,1.589332938194275,2.6165006160736084,-5.026578426361084,-0.9592998027801514,3.6798760890960693,2.823338747024536,-3.2871055603027344,2.8766283988952637,-0.384939581155777,-2.5145723819732666,5.108442306518555,-2.2336249351501465,-0.09425143152475357,-0.9739664793014526,-6.9032392501831055,-0.5945530533790588,-0.2354908138513565,4.290987491607666,-0.2124207615852356,7.260035514831543,-5.556457996368408,-2.135080099105835,3.2583563327789307,-0.5837642550468445,-0.33118757605552673,4.664045810699463,-0.29624587297439575,0.9153342247009277,1.1602365970611572,0.8623166084289551,5.032186508178711,3.8106141090393066,6.180732250213623,5.71164083480835,-9.323261260986328,2.888397455215454,0.8551620244979858,-3.214820384979248,-2.712726593017578,1.2884520292282104,-1.1747677326202393,2.9380428791046143,3.7645509243011475,4.010716915130615,-3.795813798904419,8.479146003723145,-3.448776960372925,3.5586297512054443,-2.932030200958252,-1.9277966022491455,2.101119041442871,0.8125942945480347,-4.804357051849365,5.618888854980469,-8.290009498596191,6.820155143737793,-7.383426189422607,7.12578010559082,13.88011360168457,0.9526857733726501,-5.338627815246582,3.4486327171325684,2.499971389770508,0.37531185150146484,4.021613121032715,-5.034926891326904,1.5294265747070312,-2.7945592403411865,6.603194713592529,8.574832916259766,-1.5890344381332397,-4.623878002166748,-9.192784309387207,-3.563507556915283,-2.0579700469970703,2.983570098876953,1.0204952955245972,-1.3539135456085205,-7.555821895599365,3.464263916015625,7.124066352844238,3.7270803451538086,-3.5076968669891357,3.0634641647338867,-8.0247220993042,9.298255920410156,-3.9742074012756348,-3.170815944671631,7.732511520385742,0.22778011858463287,4.7033796310424805,-7.0378336906433105,6.3283820152282715,2.5025198459625244,-5.669739246368408,6.369449138641357,-9.693913459777832,-7.960336208343506,4.7760491371154785,-8.854166984558105,-8.524575233459473,-2.4016613960266113,-3.2516462802886963,-9.295937538146973,-2.2796666622161865,6.392831325531006,-5.870901584625244,7.210952281951904,3.5613515377044678,2.7468676567077637,6.914325714111328,5.7844672203063965,-4.197806358337402,1.254492163658142,-3.8996317386627197,-7.780595779418945,-1.5267200469970703,0.7643504738807678,-4.654407024383545,1.432673454284668,-0.6108091473579407,1.4260742664337158,5.1609392166137695,8.850943565368652,-1.4706612825393677,6.509957313537598,0.22052119672298431,11.221940040588379,2.360384225845337,-3.1516647338867188,-29.20808219909668,19.341222763061523,16.66558074951172,-13.979166030883789,-8.246708869934082,-11.28722858428955,-30.67671775817871,-10.896947860717773,-6.302497863769531,-2.197387933731079,-2.48816180229187,28.53020668029785,2.3074471950531006,3.031364917755127,11.283221244812012,-8.478734970092773,-14.659963607788086,1.5076709985733032,2.227837324142456,-0.658669650554657,2.6605918407440186,12.598498344421387,14.672713279724121,-4.4165191650390625,6.58046817779541,1.5780850648880005,-0.058890201151371,25.78477668762207,4.323919296264648,12.697075843811035,10.843936920166016,-3.3754608631134033,2.12162184715271,-1.1904515027999878,9.090594291687012,2.90087890625,-21.19574737548828,6.943165302276611,-5.7375688552856445,-11.874269485473633,-0.923619270324707,12.896060943603516,-2.3169167041778564,-0.5916264653205872,-6.926836013793945,2.6006927490234375,-3.105959892272949,-2.208890676498413,-8.705208778381348,10.639214515686035,-3.4749560356140137,3.1823785305023193,0.48566460609436035,2.7297518253326416,-10.634699821472168,0.8812820315361023,-0.33205127716064453,-6.5041046142578125,-7.292424201965332,1.6088660955429077,-12.284955024719238,2.8643040657043457,13.07975959777832,1.9642596244812012,-3.3295509815216064,-5.3206000328063965,-1.1668801307678223,-4.888235569000244,-1.9442613124847412,1.3042700290679932,7.029387950897217,2.7999444007873535,-7.4496684074401855,3.8798623085021973,-7.502894401550293,5.393189430236816,5.965755939483643,-1.9375802278518677,0.9600010514259338,-6.627894878387451,-0.516308069229126,0.5347025990486145,1.6738941669464111,-1.527043104171753,-2.103300094604492,-7.3722991943359375,-2.536132574081421,4.794522762298584,3.526567220687866,1.4876559972763062,10.555329322814941,-0.8789899349212646,-3.987947702407837,-6.7702813148498535,13.899255752563477,-8.213207244873047,8.029279708862305,9.311546325683594,-10.316487312316895,3.1435546875,1.60283625125885,0.27765604853630066,8.264201164245605,1.7825614213943481,1.8954764604568481,2.089442014694214,-3.2602014541625977,1.5357693433761597,-10.1377534866333,7.7121782302856445,-22.069169998168945,-5.286882400512695,12.697425842285156,-12.00926399230957,-6.079549789428711,-8.456905364990234,-7.078320026397705,-7.159534931182861,-9.670424461364746,1.846764087677002,1.3629364967346191,2.740586519241333,-6.234837055206299,7.519149303436279,0.545616865158081,11.463761329650879,-6.100976943969727,12.044670104980469,-0.2168153077363968,-14.131983757019043,-2.063655376434326,3.2179229259490967,13.688372611999512,-11.012711524963379,1.9442174434661865,-7.983636379241943,-3.6445422172546387,8.680730819702148,-2.1661853790283203,-8.129385948181152,4.025582313537598,-1.9425044059753418,-4.6344895362854,15.545702934265137,2.6992082595825195,4.253198146820068,6.737175464630127,6.130227088928223,-8.841913223266602,-7.923069953918457,-3.24863862991333,13.02733325958252,-2.6555089950561523,-4.850559234619141,2.1162474155426025,0.22634321451187134,-2.1072239875793457,-2.347311496734619,6.610279083251953,-2.569122552871704,-11.793978691101074,-0.37672704458236694,1.282672643661499,-4.374658584594727,8.038496971130371,-7.635167121887207,5.174243927001953,3.7876720428466797,3.3726649284362793,-3.8234775066375732,0.9628406167030334,-4.1831488609313965,2.535034418106079,-1.7888435125350952,-0.12634143233299255,4.724754333496094,-4.304665565490723,9.331892013549805,-10.489784240722656,-5.922893524169922,-9.704289436340332,2.5768003463745117,2.1347014904022217,0.8232682943344116,4.47689151763916,2.98317813873291,1.7499855756759644,6.300893306732178,0.22846825420856476,-3.5887868404388428,-1.363335371017456,-6.177951812744141,-0.2700921297073364,-2.3790581226348877,18.680055618286133,-5.692990303039551,0.6642569899559021,4.530149459838867,-3.2637453079223633,7.079759120941162,5.467928886413574,7.397571086883545,4.858216285705566,2.7278945446014404,6.2292070388793945,-3.0341923236846924,5.37189245223999,3.805049419403076,-5.311324596405029,-10.201859474182129,-0.12395566701889038,1.5191627740859985,-10.683686256408691,2.643106698989868,-0.3169541358947754,17.38365364074707,8.341140747070312,-3.892390489578247,-0.5269346833229065,-8.455904960632324,1.6500377655029297,1.808133602142334,-5.085146903991699,-0.9376816749572754,-9.969233512878418,-6.675803184509277,-10.511703491210938,1.100109338760376,9.586943626403809,-0.1819019913673401,-3.829716920852661,3.9827351570129395,8.073715209960938,4.281139850616455,18.409713745117188,6.688436985015869,4.193708896636963,-10.143706321716309,14.645944595336914,14.30710506439209,10.80760383605957,11.602495193481445,-8.27867317199707,21.33808708190918,1.8977291584014893,21.631118774414062,3.124980926513672,2.567500352859497,-3.578890323638916,-12.222410202026367,4.96254301071167,-1.5261342525482178,-9.9212064743042,-5.517172336578369,-16.750425338745117,23.2568302154541,-7.311420440673828,10.825691223144531,8.622086524963379,-2.957876443862915,8.469554901123047,5.83574104309082,-1.2205077409744263,-0.04486837983131409,5.261227130889893,10.569775581359863,-25.78514862060547,9.829754829406738,-9.495753288269043,4.62225341796875,-1.0124197006225586,-7.674753189086914,0.49463510513305664,11.163229942321777,-19.720985412597656,18.41128158569336,11.05085563659668,-17.77858543395996,0.584411084651947,-16.090538024902344,-7.982316970825195,5.479938507080078,2.409346103668213,-8.333169937133789,-6.084465026855469,20.89909553527832,-7.245432376861572,5.964479446411133,-3.1709208488464355,9.615077018737793,20.400556564331055,-1.7291713953018188,-19.559497833251953,1.6801527738571167,1.2070038318634033,18.2609920501709,-4.77090311050415,13.758140563964844,-1.7736014127731323,-6.546424388885498,-3.7856593132019043,1.9051514863967896,-4.0168890953063965,-12.094073295593262,-11.352473258972168,8.993704795837402,3.033815860748291,5.648956775665283,9.294405937194824,-2.751633405685425,0.8006901741027832,26.06223487854004,33.05769729614258,18.9309024810791,-6.172155857086182,9.827528953552246,2.984947919845581,-2.557957410812378,20.212934494018555,21.24110984802246,1.2923709154129028,1.2427278757095337,-3.5770773887634277,-15.609724044799805,-4.89179801940918,14.110941886901855,9.765597343444824,-0.47046664357185364,21.745567321777344,-10.451560974121094,-14.022974014282227,-8.016168594360352,-21.017044067382812,5.103499889373779,0.4941234588623047,7.094349384307861,-8.853153228759766,-4.840837001800537,15.223917007446289,-1.2199280261993408,1.1255232095718384,2.2113544940948486,8.873804092407227,0.8369648456573486,-2.0417585372924805,-0.9797788858413696,0.601112961769104,10.914612770080566,-0.12065088003873825,9.729142189025879,11.271759033203125,5.196083068847656,6.1519775390625,-3.691521167755127,-1.590654730796814,-8.594944953918457,-9.116354942321777,1.2531758546829224,-8.231367111206055,-2.661907434463501,-7.119282245635986,14.56030559539795,5.0988593101501465,15.304606437683105,2.9054107666015625,0.5551810264587402,5.530346393585205,0.874624490737915,5.661886692047119,-9.799575805664062,-1.0748847723007202,14.820496559143066,-0.8595470190048218,-6.564839839935303,5.408045291900635,-13.724446296691895,3.713240623474121,-4.079568386077881,7.079710483551025,-1.5692522525787354,14.206106185913086,8.353352546691895,-4.5449538230896,-11.08935832977295,-10.749696731567383,14.14218521118164,-11.147069931030273,-12.094757080078125,-4.762077331542969,-34.23992919921875,-1.3731204271316528,-4.54818058013916,-14.268345832824707,2.4051194190979004,10.172048568725586,-6.029362678527832,-0.8122959733009338,5.350557804107666,0.16073906421661377,9.852712631225586,-12.879927635192871,53.17829513549805,-4.69625186920166,3.6633434295654297,6.693713188171387,-14.417875289916992,17.517589569091797,-25.480661392211914,8.476404190063477,-13.988004684448242,5.440406322479248,4.402947902679443,5.979033946990967,-47.024044036865234,-22.792057037353516,8.93017864227295,-15.526058197021484,19.619821548461914,19.945411682128906,3.6055829524993896,-38.14710998535156,0.5499743223190308,1.5408941507339478,14.453339576721191,-5.999584197998047,-19.918508529663086,-11.900403022766113,-29.89539337158203,-9.02067756652832,7.2544145584106445,-5.317215919494629,-9.524291038513184,-4.581865310668945,14.997564315795898,-4.095096111297607,1.5535672903060913,2.5494775772094727,-27.127225875854492,3.542534589767456,10.779350280761719,12.392460823059082,9.195659637451172,18.668752670288086,53.19914245605469,-14.174474716186523,-17.202730178833008,-6.266877174377441,-4.3447065353393555,-12.735312461853027,0.6199169754981995,36.44497299194336,-23.203142166137695,-20.643310546875,-16.551210403442383,23.055042266845703,-8.263805389404297,-8.495728492736816,10.123442649841309,-9.268183708190918,45.01960372924805,6.957686901092529,6.189573287963867,-26.05521011352539,11.371870040893555,-10.454703330993652,20.07990264892578,4.755815505981445,-7.96051549911499,-23.455440521240234,-13.367087364196777,-11.810356140136719,7.8016462326049805,27.4616756439209,17.105195999145508,32.848594665527344,-1.7100672721862793,16.597423553466797,-19.647586822509766,-24.659053802490234,-2.776162624359131,-14.67726993560791,24.022233963012695,-19.918949127197266,-33.73582077026367,-15.645267486572266,-31.019195556640625,-23.53266716003418,1.7290877103805542,-25.863500595092773,-7.115639686584473,-13.45987606048584,-11.235642433166504,20.796016693115234,-8.121987342834473,-3.545712947845459,-11.71677303314209,34.01769256591797,-6.873450756072998,-4.625452518463135,10.983682632446289,-7.09072732925415,16.1608943939209,-4.041354656219482,-41.131004333496094,-6.023689270019531,-18.639402389526367,5.239074230194092,-14.050914764404297,3.777418613433838,14.93917179107666,31.299095153808594,-14.98817253112793,39.443763732910156,-10.013988494873047,13.433155059814453,-15.214295387268066,-44.44660186767578,-7.465588092803955,-29.167966842651367,8.077680587768555,-8.477333068847656,14.365036964416504,5.457820415496826,-6.98179817199707,7.563479423522949,-9.266427040100098,10.328250885009766,2.016066789627075,-8.833963394165039,-4.857396125793457,-14.365616798400879,8.111945152282715,-12.277731895446777,5.688250541687012,12.495211601257324,-6.059607982635498,-6.490396022796631,8.472334861755371,6.787071704864502,9.55783462524414,6.625073432922363,14.845527648925781,-7.812617778778076,-29.482860565185547,9.401451110839844,-3.7650721073150635,10.91328239440918,-8.523653030395508,-13.68150520324707,7.288976669311523,-6.414090156555176,-1.980396032333374,0.7643054723739624,4.587276935577393,1.1522284746170044,3.8376176357269287,-9.665048599243164,2.094974994659424,-2.9683749675750732,3.7132954597473145,3.100193738937378,-6.581353664398193,5.762450218200684,-2.388272285461426,-5.475196838378906,-2.7776594161987305,-0.5420033931732178,-4.691554546356201,-8.950613021850586,13.304990768432617,4.283732891082764,-10.075337409973145,1.907839298248291,-2.228541135787964,3.7965941429138184,-4.35455846786499,15.906262397766113,2.0153634548187256,-8.687477111816406,12.589381217956543,-8.145391464233398,-2.1386377811431885,-2.6312942504882812,-8.950836181640625,-4.148968696594238,0.7001333832740784,7.604255199432373,-8.226689338684082,-3.5197811126708984,-5.1692681312561035,2.5646955966949463,-5.805769443511963,-12.766899108886719,-8.37352180480957,-7.893869400024414,-1.008857250213623,8.800851821899414,0.0390804223716259,4.68535852432251,-2.0286824703216553,0.44145339727401733,1.9546452760696411,5.274204254150391,-3.4711029529571533,2.9966862201690674,3.579469919204712,-0.6257653832435608,-2.5419602394104004,-8.223793029785156,-5.179160118103027,-19.704160690307617,-11.662505149841309,-3.6477110385894775,11.110243797302246,11.741730690002441,4.615381717681885,8.290533065795898,10.230456352233887,-8.878764152526855,5.469324111938477,-14.792485237121582,-8.501052856445312,5.02009391784668,-7.087514877319336,-3.174729585647583,-7.1632280349731445,-8.821874618530273,-7.363276958465576,0.8216295838356018,7.972350120544434,-1.5255941152572632,0.39590924978256226,0.37977662682533264,1.231048822402954,1.518558144569397,1.7503365278244019,-6.379143238067627,-3.9658477306365967,-1.5269968509674072,-2.539729118347168,13.337581634521484,-3.533116102218628,-6.986081123352051,2.3090410232543945,-1.509690761566162,-3.9934818744659424,-4.825504302978516,0.29042693972587585,1.0863929986953735,1.4685872793197632,-1.8445513248443604,5.51630163192749,1.5906392335891724,16.10723304748535,9.874459266662598,-1.7754970788955688,22.65302276611328,-7.398889541625977,-2.2096951007843018,9.61466121673584,2.788810968399048,1.7066594362258911,-0.37297770380973816,0.1426469385623932,-4.633048057556152,13.307462692260742,22.648340225219727,-1.672310471534729,14.495387077331543,-0.9105245471000671,-6.191025257110596,-0.2384984791278839,-37.39338684082031,21.26240348815918,-5.049004554748535,26.552322387695312,-14.546764373779297,-26.186660766601562,0.8029641509056091,0.5309219360351562,3.7450850009918213,-11.00723934173584,-27.89878273010254,17.7146053314209,-5.095717906951904,16.35650062561035,11.292254447937012,8.483470916748047,-5.575868129730225,6.3684983253479,-2.8460440635681152,-19.282730102539062,-16.60206413269043,-1.493659257888794,16.934642791748047,-4.243303298950195,-31.755041122436523,2.093080520629883,-5.906169891357422,-9.0503568649292,15.803916931152344,-22.734888076782227,15.288827896118164,14.198132514953613,-28.169721603393555,10.137941360473633,7.805059432983398,-7.659853458404541,-34.27488327026367,-11.193199157714844,-18.72661018371582,0.15319645404815674,-26.112947463989258,-0.6424566507339478,-9.04423713684082,17.683053970336914,1.1644865274429321,-8.426944732666016,21.14270782470703,4.197329044342041,32.09427261352539,-7.766359806060791,-20.986129760742188,9.267284393310547,8.218062400817871,16.032543182373047,19.17523956298828,-34.05979537963867,2.318180561065674,-18.490766525268555,15.281729698181152,-17.833728790283203,6.493351459503174,-17.551044464111328,1.9633129835128784,1.2277398109436035,-23.246767044067383,-39.25273513793945,2.4106216430664062,1.5274579524993896,-18.518447875976562,-1.5694011449813843,-7.954543113708496,8.176004409790039,34.96609878540039,14.277203559875488,19.699129104614258,5.017167091369629,33.75897979736328,33.76285934448242,-3.7162561416625977,-20.889890670776367,-11.126397132873535,-20.27161407470703,-16.69590950012207,28.166027069091797,-1.104250431060791,23.33002281188965,-8.075514793395996,-0.5900404453277588,-4.931335926055908,-11.514636993408203,1.0525307655334473,0.1618272364139557,0.9540244340896606,1.5043702125549316,1.6795135736465454,0.558708667755127,0.7623294591903687,2.0372369289398193,-2.4261856079101562,2.99257755279541,-0.19793768227100372,1.0475893020629883,-0.176531121134758,0.6429299116134644,1.5831652879714966,2.025075912475586,-1.9505705833435059,1.6472910642623901,-0.6545572280883789,1.3932338953018188,-2.625399351119995,-2.821106433868408,-1.496923804283142,-0.9400056004524231,2.4030425548553467,0.12612926959991455,-1.0764888525009155,1.9517719745635986,-3.423320770263672,0.8901581168174744,0.8530325293540955,-2.1918299198150635,-1.9734938144683838,-0.4357795715332031,-0.11023948341608047,-0.02448502741754055,-0.9057940244674683,-0.06726046651601791,-1.6815131902694702,4.339598655700684,-0.5819577574729919,1.2901012897491455,0.7228047847747803,-3.593963623046875,-6.422730922698975,-1.9450438022613525,-0.8234949707984924,0.566187858581543,-0.21288032829761505,1.4584224224090576,2.2940337657928467,-1.7212778329849243,-1.1763020753860474,0.09901168197393417,0.4725843071937561,0.25516462326049805,2.6762514114379883,-2.68302583694458,-0.8407948017120361,-0.5717089176177979,-1.0089517831802368,-0.9304248690605164,1.1121681928634644,-1.0303207635879517,0.323371946811676,-0.3205592930316925,-2.0132341384887695,0.18321235477924347,-0.10195086151361465,-0.886896550655365,-0.639796257019043,4.1330952644348145,-3.662954092025757,0.7595764398574829,-0.0992734357714653,-2.9922773838043213,0.18950876593589783,0.031997229903936386,-2.881591796875,-0.5765630602836609,3.343796730041504,0.07458294183015823,-1.4024052619934082,-0.9975873231887817,-0.7315181493759155,-3.998978853225708,1.5329228639602661,-1.4776463508605957,2.6641197204589844,-1.530903697013855,0.35962164402008057,0.8442429304122925,0.7260438799858093,2.04512882232666,1.9127142429351807,0.012878404930233955,-1.6484286158302552e-11,7.448704847368148e-12,2.1929236204698555e-11,-2.911641067138149e-11,-7.714320501839289e-12,-8.810958039562333e-12,-2.4868161349611562e-11,-1.5141264977924784e-11,-1.1745767553028585e-11,1.9920303254150618e-11,3.8896299375812404e-12,-7.606788463010439e-12,2.876756298453298e-11,-2.1022884821864096e-11,-3.0590058264223785e-11,-1.4257981731033431e-12,1.0017661179750892e-11,1.6287951890014973e-11,-3.017517832826222e-11,5.319894264693703e-12,-1.2210012514946023e-11,8.820683766730397e-12,-8.874474939635224e-12,-1.3165268354653481e-11,-1.4101164680369038e-11,1.610955292774552e-11,2.6410360010054035e-11,-1.6020067217237255e-11,1.0160356713959096e-12,3.3047439784716914e-11,-1.0442795066178956e-11,-2.751432762182482e-11,-1.5382743689951184e-11,-7.943909419161344e-12,1.3821690320048319e-11,2.0592283087039753e-11,1.304567651821964e-11,2.838312224140438e-11,3.1395348126794786e-11,-1.7259482038012308e-11,2.21935733679679e-11,1.0208263921673844e-11,2.6549144827026083e-11,2.1156387405851795e-11,-2.3808417043413854e-11,2.3808028465355235e-11,2.366014502375169e-11,-2.5784105753268172e-11]},"hiddenLayers":[{"inputMatrix":{"rows":20,"columns":48,"weights":[-0.6824372410774231,1.224190354347229,-0.46697771549224854,1.873271107673645,-0.022342892363667488,2.2310214042663574,1.453787088394165,-1.0763839483261108,1.7870957851409912,-1.97463059425354,-0.005068492144346237,0.23393642902374268,1.7202303409576416,0.8904101848602295,-1.4468741416931152,-0.15366439521312714,0.8394315838813782,0.05410899221897125,-0.2894861102104187,-0.6410865783691406,0.9379366040229797,3.268632411956787,-0.2916280925273895,1.7678130865097046,-1.1738643646240234,-1.6350349187850952,-1.4950518608093262,2.789154052734375,0.34421083331108093,0.7731141448020935,2.4220073223114014,-0.1566128432750702,0.906916081905365,0.8212755918502808,-1.1754248142242432,0.5863559246063232,-2.055345296859741,0.44054731726646423,-0.5162789225578308,0.28740760684013367,-0.22066374123096466,1.087306261062622,0.3399738669395447,0.6800607442855835,1.1018556356430054,-1.4477664232254028,1.5147771835327148,-2.1706619262695312,1.1697275638580322,0.024343404918909073,-0.19814574718475342,-1.418258786201477,-0.8621140718460083,0.41438496112823486,2.3224010467529297,-0.49099498987197876,-1.1230493783950806,-2.022827386856079,-0.7710765600204468,-0.8353734612464905,0.9428150653839111,-0.8142920136451721,-1.431222915649414,1.8153964281082153,-0.6321417689323425,-1.7209062576293945,3.082534074783325,0.5495025515556335,-0.6912341117858887,1.7498412132263184,1.7589610815048218,0.19030025601387024,1.496123194694519,0.2819581925868988,1.1592347621917725,0.721281111240387,0.2793988287448883,-1.583935022354126,1.5380722284317017,1.275047779083252,1.0696115493774414,-0.8420697450637817,-1.9782588481903076,-0.49426308274269104,-0.7232344150543213,-1.15165114402771,3.436163902282715,-1.2672199010849,1.315045952796936,-3.217724323272705,0.6563697457313538,2.6286182403564453,0.7603965401649475,0.6075838804244995,-0.7653301358222961,-0.5698060393333435,0.3824641704559326,1.89228355884552,-3.046053409576416,0.4842573404312134,-0.9040411114692688,0.6454102993011475,-0.069576695561409,-0.7594728469848633,-0.28575220704078674,-1.5716826915740967,-0.06733911484479904,2.8488433361053467,2.94063401222229,0.4711190164089203,-1.100352168083191,0.3542543649673462,0.3213364779949188,-0.9114271998405457,2.8479411602020264,0.09788651019334793,1.6160868406295776,2.9760332107543945,0.5648345351219177,0.47968173027038574,1.4148808717727661,0.5599302053451538,-0.1470666527748108,1.8145633935928345,1.2414886951446533,-0.8391454815864563,1.3728184700012207,1.0975313186645508,-0.17239752411842346,2.013685703277588,-1.193789005279541,0.6784266829490662,-1.3925080299377441,0.14337162673473358,0.3658677041530609,1.8680304288864136,-1.709046721458435,0.644173800945282,1.6841609477996826,0.4290708899497986,1.3168023824691772,0.6765644550323486,-0.6599519848823547,-1.0042729377746582,-1.9599553346633911,-0.7130205631256104,-1.8461116552352905,0.7498692274093628,0.3671688735485077,-0.3971577286720276,0.2443530112504959,-1.8279690742492676,1.014020562171936,1.379967451095581,0.5214298963546753,-1.3297407627105713,1.961684226989746,-2.442800521850586,0.8541255593299866,-1.4102500677108765,1.582323670387268,0.6301974654197693,-1.745469570159912,0.8212770819664001,-0.8148220181465149,0.5752738118171692,1.149556279182434,0.8524007797241211,0.47911232709884644,-1.4168529510498047,0.41414475440979004,-2.062978982925415,0.44877350330352783,0.3163900077342987,-1.6689332723617554,1.6761343479156494,-0.8964031338691711,2.7379672527313232,0.20995455980300903,0.5089669227600098,2.0050787925720215,-0.4895843267440796,1.7394068241119385,-1.467637538909912,-1.098235845565796,0.6624452471733093,0.8556820154190063,1.5339633226394653,1.3115532398223877,-0.0644250363111496,0.12290084362030029,-0.8601239323616028,1.009045124053955,0.3576529622077942,1.025697112083435,1.94426429271698,0.6459051966667175,-0.7569385766983032,2.0604023933410645,0.4999479055404663,0.6696237921714783,1.0143893957138062,2.5375382900238037,0.6039221882820129,-1.1585609912872314,-1.0573111772537231,3.2155611515045166,-0.8499826788902283,-0.0013970938744023442,1.6076257228851318,-1.622002363204956,-3.082932233810425,1.6705658435821533,1.0764552354812622,-1.7686848640441895,-2.2562437057495117,0.5578006505966187,0.6144376397132874,-0.3600901663303375,0.9345273375511169,1.0282766819000244,0.4078206717967987,-0.7582957744598389,-0.23182383179664612,-2.234600067138672,0.9754157066345215,0.7134249210357666,0.5716697573661804,0.9004571437835693,-1.8099734783172607,-1.5359578132629395,-0.6032522916793823,-1.5140703916549683,2.292278289794922,0.115242138504982,0.5617005228996277,-1.8453128337860107,-0.14276987314224243,0.22546081244945526,-1.4754489660263062,-1.016474723815918,-0.43167588114738464,0.19499662518501282,-0.1364525556564331,-0.7012200355529785,0.4669329524040222,-0.1166338324546814,-0.8544283509254456,0.03995006904006004,3.2153916358947754,0.9372572898864746,0.5814741849899292,-0.304479718208313,-1.5368622541427612,-0.1283472776412964,-1.8808010816574097,-0.4737163186073303,-0.04557829350233078,0.00021806657605338842,1.920811653137207,0.27890580892562866,0.5427594184875488,-1.2827513217926025,-2.5529165267944336,1.7149490118026733,0.5197623372077942,-1.0648245811462402,1.5160856246948242,0.714982271194458,0.6425139307975769,-0.05033166706562042,-1.8274314403533936,0.1709047555923462,-3.036738634109497,-0.5220897197723389,-2.3619065284729004,-0.2455630898475647,0.39963123202323914,-3.221600294113159,1.4174221754074097,-1.8604570627212524,1.1903067827224731,1.3097842931747437,0.9550654888153076,0.6837292909622192,0.5035486817359924,0.2988492250442505,-0.011070718988776207,-1.0606355667114258,1.285554051399231,-2.44134259223938,0.7824512720108032,1.2988553047180176,0.2305167317390442,0.7602695822715759,-0.0937141552567482,0.9380643367767334,-1.0111665725708008,1.604315996170044,0.6119499802589417,-0.15141156315803528,-0.16632281243801117,1.2027091979980469,-0.6203849911689758,1.849807858467102,0.37821248173713684,-0.833610475063324,-0.12851695716381073,-1.8928157091140747,-0.6513294577598572,0.826114296913147,0.4612913727760315,-3.4346041679382324,0.6993587613105774,-1.740136981010437,-1.4209377765655518,0.4236668050289154,1.7140209674835205,0.04580484330654144,1.6208007335662842,0.29744166135787964,1.9069181680679321,1.604718804359436,1.937055230140686,0.6003290414810181,-0.9914295077323914,0.24405895173549652,-2.353057861328125,0.21458257734775543,0.6272143125534058,0.40626344084739685,0.21995852887630463,1.6428309679031372,-0.10582849383354187,1.7001683712005615,0.5180431008338928,-0.2580162584781647,-0.3405322730541229,2.4142189025878906,-2.0549259185791016,-1.4387215375900269,-0.3968677222728729,0.07359226047992706,-0.13651913404464722,-0.9026044011116028,-0.017892971634864807,-1.1265960931777954,-2.517078161239624,0.6316309571266174,0.055059537291526794,0.47570300102233887,-1.3548035621643066,0.6886426210403442,1.68053138256073,-2.6872735023498535,2.2979893684387207,-2.5351133346557617,-2.4511218070983887,0.6915720105171204,1.3500367403030396,0.49365195631980896,0.9684534072875977,-1.8018651008605957,-1.7437337636947632,1.764123558998108,-1.1956309080123901,-1.7851009368896484,-2.997164011001587,0.8365269899368286,0.7773966789245605,0.36268460750579834,-1.3082090616226196,-1.4000062942504883,1.0576410293579102,-1.861281394958496,2.5829386711120605,4.206567764282227,0.49332118034362793,-0.43198710680007935,-1.3342230319976807,-1.181219220161438,-0.12486649304628372,-0.661182165145874,1.1421631574630737,0.7842370867729187,-0.6047274470329285,2.415973663330078,-0.04338328540325165,-1.187479853630066,-1.350178599357605,0.4458032548427582,0.38596734404563904,0.5810284614562988,-1.6953926086425781,0.8749682307243347,-1.6237106323242188,-1.4856785535812378,-3.537484645843506,-3.771451473236084,0.13676871359348297,-0.8780927658081055,-3.5779523849487305,0.25795766711235046,-0.6310619115829468,0.5212312340736389,2.4880244731903076,-1.3261375427246094,0.27726414799690247,0.6055592894554138,2.096379041671753,2.960768699645996,0.6709223985671997,0.7271333336830139,-2.3050687313079834,1.7373541593551636,-0.6381840705871582,-1.2387546300888062,-0.6050471663475037,-2.9627881050109863,-2.941148042678833,1.4289054870605469,-0.09920033812522888,0.9788635969161987,0.6729540824890137,0.26003769040107727,0.8048275709152222,1.477790355682373,1.0061842203140259,2.797445774078369,-0.5627155900001526,-0.5031322240829468,-1.7098116874694824,1.498665690422058,1.586897373199463,0.36251214146614075,-1.161952018737793,0.8272942900657654,-0.8351393342018127,1.6187646389007568,-0.16438648104667664,-0.2687198519706726,1.263062596321106,1.319343090057373,0.9840197563171387,-0.6527639627456665,-0.21145601570606232,0.6318231821060181,-0.8146293759346008,0.9381037950515747,0.2070431113243103,1.0528417825698853,-1.048311471939087,-1.4398237466812134,1.2254794836044312,-1.1203829050064087,-2.6697559356689453,-0.6624835133552551,-0.1802108734846115,-0.6772668361663818,-0.9425939321517944,-0.8530688285827637,0.6185293793678284,0.9548014402389526,0.3721732795238495,-0.7770895957946777,0.323022723197937,0.9525310397148132,1.7964147329330444,-0.8821236491203308,-1.2371474504470825,-2.536414861679077,-1.7630174160003662,-0.9668413400650024,1.8000690937042236,-0.1091892197728157,-0.6446372270584106,0.27672314643859863,0.3600870370864868,0.23146916925907135,0.6658481359481812,-0.17448371648788452,-0.183150514960289,4.3853020668029785,-0.6682652831077576,0.9870412349700928,0.08926213532686234,-1.9008642435073853,0.9204381108283997,-1.1624835729599,0.6973837614059448,1.2142082452774048,0.7154302000999451,-0.6722216010093689,-1.3962504863739014,-0.5481574535369873,1.5723552703857422,-0.0936051681637764,1.0971890687942505,-2.9801418781280518,0.1476803570985794,-1.6888829469680786,-1.9487175941467285,0.3857622742652893,1.0493830442428589,0.5916548371315002,0.12784884870052338,-0.28597307205200195,-0.8146571516990662,-1.1512428522109985,-1.082688570022583,-0.805301308631897,0.3429463505744934,0.320364773273468,1.5097099542617798,0.27504366636276245,-1.7858437299728394,0.519601047039032,0.2668288052082062,-1.4133373498916626,-0.15268449485301971,2.578110456466675,-0.5085837841033936,-1.2530754804611206,-3.4471449851989746,-1.1312899589538574,-3.1047656536102295,-0.2954835593700409,-0.2944071590900421,-0.04754938930273056,-1.6207482814788818,-1.357181191444397,1.466586709022522,2.7227916717529297,0.9376365542411804,-0.7995862364768982,-0.6209957599639893,-1.053238868713379,0.8484316468238831,1.0435760021209717,0.34622493386268616,-0.7567965388298035,-0.7200053334236145,-1.5743969678878784,0.0272612813860178,-0.08318477123975754,-0.8772963881492615,0.41749387979507446,-0.6847991347312927,-0.5691667795181274,0.1958046555519104,0.7678806781768799,-1.9612529277801514,-0.16814863681793213,-0.46104130148887634,1.1133795976638794,0.44377171993255615,-1.5107742547988892,-0.9220757484436035,0.3017875850200653,3.218073844909668,-1.0786802768707275,-0.03630990907549858,-1.8070428371429443,0.7256182432174683,1.415582299232483,0.039129551500082016,2.5068981647491455,-1.1313238143920898,-1.7556536197662354,0.8854246735572815,-0.8634517788887024,0.7513138651847839,-0.023769915103912354,-1.1589622497558594,0.3144477605819702,-1.0768378973007202,-0.3279549777507782,0.05493123456835747,0.9156796336174011,-1.1626702547073364,1.7667981386184692,2.5970942974090576,1.7207834720611572,-0.5505341291427612,-1.048043966293335,1.862239956855774,-1.7423614263534546,1.4401746988296509,2.22640323638916,-0.580606997013092,-0.9559643268585205,0.08693995326757431,1.8255614042282104,0.26887190341949463,1.3018643856048584,0.19768676161766052,-1.6902492046356201,0.16521699726581573,-1.4656628370285034,-3.2494261264801025,-0.3444070816040039,0.4863213002681732,-0.29291415214538574,1.2286875247955322,-1.454390048980713,2.9631495475769043,1.4389370679855347,-0.04709482565522194,-1.5666905641555786,-0.9547622799873352,1.4252729415893555,0.22187566757202148,-0.06221380829811096,-0.020809758454561234,-2.8826780319213867,-1.226201057434082,-1.3398629426956177,0.7175469398498535,-1.280827522277832,-2.529876708984375,-0.16737249493598938,-0.815994381904602,0.8640531301498413,-0.8284357786178589,-1.0586141347885132,1.2140837907791138,-0.8523195385932922,1.4748941659927368,-0.10056076943874359,1.580229640007019,-3.057859420776367,-2.212742567062378,-0.4276665449142456,-0.8861529231071472,-0.8224794864654541,1.835816740989685,-0.23151525855064392,0.7574993371963501,-1.201233983039856,1.2531356811523438,-0.09527666121721268,1.1450552940368652,2.084049701690674,0.2366546094417572,0.19153591990470886,-1.2736736536026,2.102400302886963,1.3574514389038086,-1.6605802774429321,1.4476892948150635,-0.7293581962585449,1.3190664052963257,-1.5468393564224243,1.0979746580123901,1.5792409181594849,1.2784518003463745,2.4366891384124756,1.4565215110778809,-2.273460865020752,-0.23911605775356293,2.3050389289855957,1.060171127319336,2.025404214859009,-1.1147863864898682,0.7980033159255981,-1.1868942975997925,-1.5483673810958862,-0.18023961782455444,0.13912491500377655,1.031898021697998,-0.5984933376312256,-0.13529065251350403,-0.44258585572242737,-0.7517565488815308,-0.7968425750732422,2.410101890563965,-1.9637256860733032,0.9284626245498657,-0.7776580452919006,0.11640752106904984,2.3943400382995605,-2.6337673664093018,-0.14248840510845184,-2.343595027923584,0.15527798235416412,-0.6935206055641174,-0.8111134767532349,-1.8469208478927612,0.2511182427406311,0.5530908107757568,2.2936346530914307,-0.05487051606178284,1.2876505851745605,1.9828829765319824,-3.156137466430664,0.2993685007095337,-0.9583451747894287,-1.6522624492645264,-0.11054302752017975,0.5418336391448975,0.44250842928886414,-0.051089294254779816,-0.10374601930379868,0.3284132182598114,-1.0511415004730225,0.02924862504005432,-1.5045047998428345,2.118349075317383,-1.2369142770767212,-0.18362058699131012,1.2175655364990234,-0.7474954128265381,-0.2958807945251465,-1.1836882829666138,-0.8094788193702698,0.4899449348449707,-0.3239400088787079,2.737638235092163,1.9948811531066895,0.35572549700737,-0.05516710504889488,1.9335204362869263,1.6340879201889038,0.5150282979011536,-1.288120985031128,0.750715970993042,0.2475755214691162,-0.6650189757347107,1.3957282304763794,-0.1986202895641327,-0.5347840189933777,-0.7393009066581726,0.7582363486289978,2.066640853881836,-0.20194295048713684,0.39970073103904724,0.2359626293182373,0.1676032692193985,0.3395960032939911,0.5359988212585449,-1.3202579021453857,1.4413557052612305,-0.9745295643806458,2.381108283996582,-1.0246427059173584,-0.1761312335729599,0.4895200729370117,-1.6064906120300293,-2.2491137981414795,0.8030738830566406,2.639348268508911,0.34956681728363037,3.000946044921875,0.24991972744464874,-3.7767555713653564,-0.3930412232875824,0.30858278274536133,1.272598147392273,0.44196873903274536,0.7722495794296265,-0.508173942565918,-0.29913973808288574,1.0348209142684937,0.1506388783454895,0.9041485786437988,-0.20900899171829224,-0.4202732443809509,-2.337517261505127,1.205629587173462,-1.7705880403518677,0.48358526825904846,0.5955866575241089,0.44224414229393005,0.14319370687007904,-0.076325424015522,-0.4632223844528198,0.4158254563808441,3.1546437740325928,-1.154219150543213,-0.789176881313324,0.8671919703483582,0.6946945190429688,1.442630410194397,0.2624111771583557,-1.6662445068359375,-1.557603359222412,1.1807984113693237,1.9224579334259033,0.4586210548877716,1.606547236442566,-0.39189866185188293,-2.440263032913208,1.9748469591140747,0.08286712318658829,0.07921608537435532,0.20942576229572296,0.48286014795303345,0.037075165659189224,1.9099522829055786,-1.6859480142593384,-0.8641403317451477,0.21542659401893616,-2.3614723682403564,-2.3070271015167236,-0.8652900457382202,2.499756097793579,0.4612050950527191,1.5749670267105103,-3.2313907146453857,0.1375383883714676,0.781976044178009,-0.5943974852561951,0.4779796004295349,-0.8379397988319397,-3.6181869506835938,-1.1902759075164795,-1.7867127656936646,-0.8595982193946838,-2.100538969039917,-0.41897648572921753,-1.443149209022522,0.5351200699806213,-2.405463695526123,0.17302799224853516,2.283965826034546,-0.15217289328575134,-0.007129241246730089,-2.631502866744995,-1.1413406133651733,1.126231074333191,0.1628158837556839,-1.1649060249328613,-0.6243628859519958,1.8987432718276978,1.4384047985076904,1.2752333879470825,-0.6501084566116333,0.9687907695770264,-0.10550625622272491,0.9987394213676453,-1.850136160850525,-1.2618578672409058,-0.9038373231887817,-1.2068872451782227,1.5290391445159912,0.8429295420646667,-0.6415584683418274,-0.5563260912895203,0.9761578440666199,-0.6024808883666992,1.8396133184432983,-0.17757311463356018,-0.3097415268421173,-0.7810189127922058,-0.17746976017951965,-0.11513909697532654,1.6802016496658325,-0.6583613753318787,-0.9977737069129944,1.210601806640625,0.9668871760368347,1.909292459487915,1.8841465711593628,0.124016672372818,-0.42708948254585266,2.9919497966766357,0.7018986940383911,-0.739145815372467,0.1631157398223877,-0.01501080859452486,0.9148807525634766,0.8575734496116638,0.7145643830299377,-0.2926004230976105,1.8678110837936401,1.013405203819275,-1.97072172164917,-1.0484980344772339,1.2754052877426147,-0.8776253461837769,-0.7344288229942322,-1.5451642274856567,0.601825475692749,0.37281572818756104,0.5173041820526123,0.1987728774547577,0.45695629715919495,0.017388595268130302,0.8622950315475464,3.1663832664489746,-0.17910152673721313,-0.3997279107570648,-2.1188461780548096,-0.585826575756073,0.1284964233636856,-1.0633832216262817,0.10766156762838364,-0.7715322971343994,0.2687697410583496,0.3274020254611969,-0.34857288002967834,-2.555959939956665,-0.13645772635936737,1.1449217796325684,1.3099539279937744,2.488377571105957,2.3070549964904785,-0.5047431588172913,-1.9994455575942993,0.06768534332513809,-0.2756795585155487,-0.4458081126213074,0.5222987532615662,-1.4521501064300537,0.46623528003692627,-0.7589119076728821,0.2106875628232956,-2.177666664123535,0.7975914478302002,0.9235643744468689,-0.9134701490402222,0.5678126811981201,-2.1491189002990723,1.1278483867645264,1.0380885601043701,-0.24565519392490387,0.5003958344459534,-1.8721860647201538,-0.983238697052002,-0.20975574851036072,-0.7761728763580322,1.7684657573699951,-0.07257934659719467,-0.007968387566506863,-0.06862415373325348,-0.8345044851303101,2.043726682662964,-0.7964316606521606,-1.3474180698394775,2.7761471271514893,-1.953709363937378,0.09099561721086502,-0.24191464483737946,-0.6588057279586792,-1.7898764610290527,-2.042834520339966,1.882029414176941,-0.6558243632316589,0.011603294871747494,0.7700685858726501,1.6051709651947021,0.41866302490234375,-0.46317216753959656,0.7719388604164124,-0.5871790647506714,-0.15290115773677826,-0.7602852582931519,-0.08001025021076202,-3.8434996604919434,2.0760586261749268]},"inputHidden":{"rows":20,"columns":20,"weights":[1.0329233407974243,1.2006179094314575,2.1088085174560547,-1.1543020009994507,-2.547379970550537,-1.3473584651947021,-0.0463869608938694,-1.4113445281982422,-2.872653007507324,0.12868736684322357,-1.2128123044967651,-0.8959779739379883,-0.3893108665943146,0.7038952708244324,0.8991358280181885,1.3618088960647583,-0.7109658718109131,-0.1075328066945076,-0.057245492935180664,-2.9560840129852295,-1.9572798013687134,1.5699423551559448,-2.902989625930786,2.495387315750122,-1.0256589651107788,1.6204795837402344,6.942209243774414,-3.5618278980255127,-0.9967873692512512,-1.5028305053710938,-4.107802867889404,-2.8595590591430664,2.5437164306640625,-3.0225961208343506,0.6383428573608398,-0.6796726584434509,-3.133436918258667,5.889110088348389,9.273181915283203,0.08781415969133377,-1.7941523790359497,-2.4030535221099854,0.7415526509284973,-1.1852003335952759,-5.766932487487793,1.6007981300354004,2.3706772327423096,-1.0981991291046143,-3.326345920562744,4.087436676025391,-4.156615734100342,7.679359436035156,1.4526914358139038,1.9416435956954956,5.336843967437744,-0.23077696561813354,-1.136386752128601,-2.645108222961426,2.232177257537842,-2.871854543685913,-0.6986363530158997,-0.10297849774360657,1.9363092184066772,0.10180642455816269,-0.08494598418474197,0.9171536564826965,-3.1530635356903076,2.0356056690216064,-0.7912935018539429,0.4874352514743805,-1.6887898445129395,0.6382716298103333,2.3797638416290283,-1.3870829343795776,2.265077829360962,-0.45265883207321167,-2.4161672592163086,-0.5063520669937134,1.1319429874420166,1.6762055158615112,0.09135393798351288,-0.9178592562675476,0.8730781674385071,-1.563657522201538,0.5178753137588501,1.6198703050613403,-0.21533919870853424,-0.24858251214027405,1.2885651588439941,-2.0102226734161377,2.071439027786255,-0.09655557572841644,-1.030895709991455,-1.6425304412841797,-0.6369830369949341,1.0566997528076172,0.8265091776847839,0.9845255613327026,0.09030427038669586,-0.43004900217056274,0.07468625903129578,-2.2400739192962646,1.6071125268936157,-1.538159966468811,0.39129313826560974,-0.6834975481033325,0.226702481508255,-1.5762224197387695,1.7962939739227295,-1.6311376094818115,-1.3708280324935913,-2.7081313133239746,-2.378242015838623,0.23333659768104553,-1.3108477592468262,0.1321006864309311,-0.3907555639743805,-0.3328884541988373,-2.9561872482299805,-2.3869612216949463,-0.48823651671409607,-1.249411940574646,-1.5253854990005493,-1.572727084159851,-3.0132594108581543,-0.5075880885124207,-1.006953239440918,0.4948520064353943,-1.185791254043579,1.0772453546524048,-0.7664000391960144,0.11341245472431183,-0.37693265080451965,0.9466879367828369,0.09156119078397751,0.9879423975944519,0.6852996945381165,-0.6189821362495422,0.7078357338905334,0.6505138874053955,-1.1004306077957153,1.3709042072296143,3.6599740982055664,2.298034906387329,-0.7992740869522095,-0.17813007533550262,-1.0034739971160889,0.7759332060813904,-0.9785438776016235,-1.485214114189148,1.0414494276046753,0.08746068179607391,2.7240548133850098,2.8369967937469482,-1.6457501649856567,0.809583842754364,2.862602710723877,-0.6745747923851013,-1.1318072080612183,1.0846740007400513,-1.2510626316070557,-1.2986514568328857,0.9161400198936462,0.390737920999527,1.7860867977142334,1.862639307975769,-2.35072660446167,0.0395522303879261,-0.7082065343856812,-0.1871025264263153,3.941777229309082,0.11338240653276443,-3.052288055419922,-1.0563713312149048,-1.0817757844924927,-1.698928952217102,2.585655927658081,1.5002678632736206,0.33731332421302795,-1.2430434226989746,-0.5663648247718811,-0.5384066700935364,0.3608603775501251,0.11294975876808167,-1.4404139518737793,-1.1485836505889893,-1.3447265625,-0.938880980014801,-0.9406911134719849,0.29569578170776367,-0.37457820773124695,0.8578461408615112,0.7124055624008179,-0.25609949231147766,-0.9048259258270264,1.4219975471496582,-0.5979770421981812,0.6555798649787903,-0.8634338974952698,-0.48631083965301514,0.19522997736930847,2.5602986812591553,0.9768506288528442,-1.5643391609191895,2.862020492553711,2.2268989086151123,3.8958144187927246,0.7156842350959778,3.362589120864868,0.378836065530777,2.459427833557129,2.95493745803833,0.4927343726158142,0.391701877117157,-1.0140718221664429,0.13921232521533966,2.048983573913574,0.19325456023216248,-1.2731817960739136,-1.5009313821792603,-1.42655611038208,-3.339324712753296,1.2021379470825195,-0.759971559047699,-1.285354733467102,0.18040835857391357,0.939071536064148,-1.8171823024749756,2.5820720195770264,-2.3632311820983887,1.0926789045333862,-1.4719892740249634,-2.2480781078338623,2.149064779281616,-1.7745680809020996,-0.7109126448631287,2.119633436203003,1.666779637336731,-1.4046152830123901,2.4720733165740967,-0.9472103714942932,0.8427519202232361,-0.6944150328636169,1.2255898714065552,0.35652753710746765,1.8226147890090942,0.8079944252967834,1.5929619073867798,0.9054174423217773,0.6415189504623413,0.9691805243492126,-0.7761643528938293,2.7937698364257812,-0.41058096289634705,0.05940581113100052,-1.306159257888794,1.6373145580291748,0.9972236156463623,-1.7704929113388062,-0.09270717203617096,-1.3417311906814575,0.42845919728279114,-1.2199900150299072,-0.5889765620231628,-0.6946451663970947,-1.6695387363433838,2.085740804672241,-1.7259410619735718,1.1180009841918945,0.11537348479032516,-2.050888776779175,-0.8089474439620972,0.13811266422271729,2.586454391479492,0.9512971043586731,0.8844952583312988,-3.3514344692230225,0.8750542998313904,3.1564507484436035,1.7123327255249023,-3.0387048721313477,0.6073914766311646,-0.7393603324890137,0.2807610332965851,2.541236639022827,-0.24840328097343445,-1.8025131225585938,0.26207414269447327,-1.6299318075180054,0.7284955978393555,1.3351317644119263,-1.6676563024520874,-1.091632604598999,1.0577750205993652,-0.9184842109680176,-0.21124105155467987,-1.597389578819275,-0.25145429372787476,0.5468679666519165,-2.4874041080474854,-0.24819783866405487,-3.1389689445495605,2.2312920093536377,-1.970985770225525,0.11320558935403824,-0.4163340926170349,0.8822559118270874,1.1343369483947754,-0.10405812412500381,0.38127216696739197,0.03939061611890793,1.675045371055603,2.8789398670196533,1.195061445236206,0.6159208416938782,-4.4137420654296875,-1.2974599599838257,1.6827902793884277,0.935885488986969,0.5245746970176697,1.0534906387329102,1.993800163269043,3.1051442623138428,2.1890861988067627,-0.889081597328186,-1.9072953462600708,0.30678626894950867,-2.547799587249756,-0.9393631219863892,1.3914874792099,-0.2635563313961029,4.922360897064209,0.1194944977760315,-0.41639554500579834,-0.5387495160102844,1.725472092628479,0.07785186916589737,-0.5471231937408447,-1.0512515306472778,0.929638683795929,1.1697369813919067,0.2926619350910187,-0.24223336577415466,0.7448738217353821,0.5479757785797119,0.6658615469932556,0.8803236484527588,-0.42556583881378174,-1.4001741409301758,0.031233754009008408,-0.625876784324646,1.8769487142562866,0.2692176103591919,0.19697071611881256,1.6376001834869385,2.812476634979248,-0.04186684638261795,-0.7549198865890503,-0.3583371937274933,0.7372850179672241,0.12177231907844543,0.20973004400730133,-0.37811991572380066,-2.1421959400177,0.4912576377391815,-1.0828176736831665,-0.658781886100769,1.2713088989257812,0.6144365668296814,-0.2289571911096573,2.4620919227600098,-2.144131898880005,-0.5740178823471069,-1.6871637105941772,-0.5784958004951477,0.0638638287782669,0.2540217339992523,0.5928670167922974,0.961093544960022,0.36606189608573914,-0.1689787060022354,0.23566198348999023,-0.7224923372268677,-3.6156840324401855,-1.9406647682189941,-0.5716925859451294,-0.47021180391311646,2.574838876724243,-0.39785435795783997,-0.37985771894454956,-0.9222657084465027,-0.32289940118789673,0.8209381699562073,0.4977424144744873,-0.9572128057479858,3.7503645420074463,-1.5045523643493652,-3.9589598178863525,1.405699372291565,-0.33496859669685364]},"inputBias":{"rows":20,"columns":1,"weights":[-0.4033352732658386,0.13349448144435883,-0.8569055795669556,-0.04161616414785385,0.16366872191429138,0.08231077343225479,0.015216716565191746,0.1975640207529068,-0.12905265390872955,0.11096775531768799,0.17866814136505127,0.0780290886759758,-0.2626863121986389,-0.4336257576942444,-0.6805200576782227,-0.3386111259460449,0.23759272694587708,0.05445209890604019,0.06389648467302322,0.018949877470731735]},"forgetMatrix":{"rows":20,"columns":48,"weights":[0.7512865662574768,0.8279362916946411,0.1646064668893814,0.1762540191411972,-0.9242773652076721,-2.593806028366089,-2.7470450401306152,1.1392369270324707,-0.6183091998100281,-1.5956132411956787,0.5322747826576233,-0.381477028131485,-1.3054921627044678,1.0075145959854126,3.2996764183044434,0.03204338997602463,-0.7983340620994568,1.3439120054244995,-1.9387829303741455,-0.8996552228927612,-0.14288514852523804,-0.3361184000968933,-0.2231423258781433,0.5980008840560913,-1.6688556671142578,0.5462198853492737,-1.1589583158493042,-1.3516836166381836,0.3461025357246399,0.7575775980949402,-0.3813911974430084,0.49531546235084534,-1.0595794916152954,1.7484030723571777,-0.6101740598678589,0.2051936239004135,2.9147486686706543,2.34928560256958,0.8241031169891357,-1.875900387763977,0.3456169366836548,-1.6144578456878662,-1.2627793550491333,-0.3580930233001709,0.9071080088615417,1.8573516607284546,1.2810490131378174,-0.12963518500328064,-0.4879692494869232,-0.24515728652477264,-2.068761110305786,-0.7233828902244568,2.724475860595703,-0.3106420040130615,2.070496082305908,0.7258301973342896,-1.600799560546875,1.2299251556396484,0.9475208520889282,1.1745370626449585,-0.4285375773906708,0.6259636282920837,-0.49556154012680054,0.11928309500217438,0.06170200929045677,0.5214095711708069,1.3629505634307861,-1.112906575202942,-0.37167370319366455,-3.0876471996307373,-0.6614717841148376,-1.878912329673767,0.5771138072013855,2.145564556121826,1.6454346179962158,-0.8819170594215393,1.1539989709854126,-1.131357192993164,0.37756267189979553,1.6628683805465698,1.114525556564331,-0.5340441465377808,0.8950324654579163,0.7747529149055481,-1.2524008750915527,-0.2695588171482086,-1.256506323814392,1.4045330286026,-0.9481831789016724,0.9813538193702698,-0.6905973553657532,1.5014591217041016,-0.30406808853149414,-3.3458120822906494,-0.21190696954727173,0.1436588615179062,1.152664065361023,0.34557896852493286,1.1554696559906006,-0.02157650515437126,0.6330416202545166,0.3435720205307007,-1.843611478805542,1.48812735080719,0.24524655938148499,1.5122369527816772,0.054136235266923904,0.3979720175266266,-1.4490190744400024,0.023876246064901352,0.1578088104724884,-1.1000101566314697,-0.2637236416339874,1.2496285438537598,-1.4321529865264893,0.9884809851646423,2.018885612487793,0.3156711459159851,0.3613385558128357,0.1745695173740387,0.375212699174881,-0.29460638761520386,-1.351628303527832,2.397669553756714,0.8095942139625549,0.34207263588905334,-0.4150209426879883,0.16846159100532532,0.45496484637260437,0.4762769341468811,0.5121625661849976,-1.1722464561462402,1.8454636335372925,-0.42041197419166565,-2.9458627700805664,-0.9864498376846313,-1.6382369995117188,1.7014130353927612,-0.9558850526809692,-1.9746290445327759,-1.556259274482727,-0.9404345750808716,1.5525702238082886,-1.1379486322402954,0.13272970914840698,1.0521031618118286,1.4489166736602783,-0.385116845369339,-1.225605845451355,-1.897071123123169,1.1615933179855347,0.36003392934799194,0.8518942594528198,1.132851481437683,0.9390732645988464,2.596668004989624,-1.7596715688705444,-0.5403714179992676,1.780840277671814,-1.1445598602294922,-1.500626564025879,-1.036134958267212,-0.30848005414009094,-0.654485285282135,0.7525360584259033,-0.2914446294307709,-2.0766396522521973,-0.6454542875289917,0.2731011211872101,-0.04699713736772537,-0.30790331959724426,0.447966992855072,2.1015758514404297,-1.9045659303665161,-1.2294507026672363,-3.8064656257629395,-0.9477898478507996,-0.4242817461490631,-1.1606367826461792,0.304787278175354,-3.2418293952941895,-1.6118226051330566,-1.2997452020645142,0.9606842398643494,-0.610781192779541,0.3245161771774292,0.8804623484611511,-0.7781645655632019,-0.8381431698799133,0.16848504543304443,0.005456621292978525,1.7645838260650635,-0.5777159929275513,0.17891356348991394,1.4035934209823608,0.5846589207649231,-0.9177696704864502,1.729461908340454,-0.5669577121734619,0.19995149970054626,0.5637699961662292,-0.7437922954559326,-1.8856782913208008,0.17385517060756683,-0.18555890023708344,0.370867520570755,1.5430874824523926,-0.6133844256401062,0.24924564361572266,0.441163033246994,0.9188280701637268,0.9841915965080261,-0.04853818938136101,-0.21882690489292145,-0.9854971170425415,1.0110043287277222,1.1408785581588745,-1.0400724411010742,-1.2715908288955688,0.43973490595817566,-0.5002732276916504,0.8727359175682068,-0.18471765518188477,-2.555255174636841,-1.0892744064331055,0.09607575088739395,-0.9065461754798889,-0.018986377865076065,-1.3410046100616455,-0.5842262506484985,-0.5184892416000366,0.3452471196651459,-0.2438458651304245,-0.17769475281238556,0.22610335052013397,-1.3553041219711304,-0.7756041288375854,0.23814111948013306,-1.3764030933380127,1.5919218063354492,0.4213119149208069,-1.438662052154541,0.7750523090362549,1.9149326086044312,-1.1769176721572876,0.9925373196601868,-0.5686182379722595,0.5005189776420593,-0.6845534443855286,-2.119964599609375,-2.702641725540161,-1.1416226625442505,0.3859851658344269,0.14806553721427917,0.8217769265174866,0.8508151769638062,-0.8960479497909546,1.3982702493667603,-0.19076290726661682,-0.22903628647327423,-0.44279125332832336,0.2902454435825348,-0.7107594609260559,-0.4234013557434082,1.2925611734390259,-2.965463399887085,-0.1636727899312973,3.0970752239227295,-0.6593528389930725,1.0101404190063477,1.3399897813796997,-1.426403522491455,-0.3810204565525055,-0.5345315337181091,-1.5272659063339233,-1.1053274869918823,1.0256365537643433,0.40466049313545227,0.14727091789245605,0.01641364023089409,-1.0008653402328491,0.8117492198944092,0.007371245417743921,-0.9196764826774597,-2.0071873664855957,-3.046445369720459,-0.8282433152198792,0.8307889699935913,-0.4175068140029907,-0.738962709903717,0.7413262128829956,1.007212519645691,-2.0124154090881348,1.9872627258300781,2.8302958011627197,-1.7019329071044922,-1.022238850593567,0.661080539226532,0.3389613926410675,0.29342561960220337,-0.3296774625778198,0.15125589072704315,-0.5245377421379089,-0.22978688776493073,0.30933597683906555,-0.7273072004318237,0.20426616072654724,-1.5448684692382812,-1.7052979469299316,0.9562546610832214,-0.032003823667764664,2.093535900115967,-0.13735225796699524,1.618389368057251,1.5448312759399414,-1.4389245510101318,0.17037473618984222,-2.5781919956207275,2.365959405899048,-0.015388436615467072,1.1029412746429443,-0.8152976036071777,-0.14666740596294403,1.076588749885559,-0.3155280351638794,1.2629040479660034,0.4935466945171356,1.8564516305923462,2.238442897796631,-1.107835292816162,2.6212310791015625,3.707784652709961,2.250316858291626,1.678504467010498,-0.16612395644187927,-3.045104503631592,-0.5698704719543457,0.9824932813644409,-1.5027765035629272,0.33886995911598206,-0.48261311650276184,-0.28443872928619385,-0.5795681476593018,-1.6220293045043945,1.2614316940307617,0.4753864109516144,-0.2039085477590561,-1.2663646936416626,1.7425363063812256,0.3733774423599243,1.5710363388061523,-0.39497533440589905,1.7632395029067993,1.750494360923767,0.6529030203819275,-0.2076696902513504,-0.29312440752983093,0.6609075665473938,0.570405900478363,-0.3627709746360779,-1.3570380210876465,-0.2608241140842438,-1.62294602394104,0.5031417012214661,-0.41430726647377014,1.9042251110076904,2.0625035762786865,-0.11320687085390091,-0.4357008934020996,0.26240062713623047,0.6942614316940308,1.6981867551803589,0.36188632249832153,1.4683254957199097,-0.9198970794677734,-1.9418216943740845,-0.9225422143936157,1.3915207386016846,1.2356789112091064,0.8293052911758423,-0.3212558329105377,0.29250773787498474,0.9570305347442627,1.2864607572555542,-1.858902931213379,-0.9525796175003052,-1.9751840829849243,-0.0024717648047953844,-0.21268640458583832,-1.5983216762542725,-0.5386226773262024,-1.5735417604446411,1.3319226503372192,1.530173420906067,1.17952561378479,-2.1282124519348145,1.4210734367370605,0.1476282775402069,1.0701327323913574,-2.4280271530151367,-0.11178992688655853,-1.5512689352035522,-0.14620085060596466,0.8647530674934387,0.9658398628234863,0.10244978219270706,0.5657219886779785,-2.1584832668304443,-0.6487756967544556,-0.24442675709724426,-0.6837033629417419,-0.44857364892959595,0.18547075986862183,2.2182910442352295,-0.6893912553787231,-0.6906905174255371,-1.1999903917312622,0.23237361013889313,0.7338647842407227,0.8157437443733215,1.7207989692687988,-0.3552859127521515,2.2564103603363037,-3.0694069862365723,-0.6903231739997864,2.4839625358581543,1.0812615156173706,-1.2580976486206055,-0.09039506316184998,-0.16348208487033844,0.24981649219989777,0.5793614387512207,-0.11592812091112137,1.053492784500122,0.2808266282081604,0.4544137418270111,0.5897548794746399,0.3286192715167999,0.45283952355384827,0.7123069167137146,0.2049715220928192,-0.010585109703242779,-0.1346857249736786,0.31992122530937195,-0.2913580536842346,0.9063935875892639,0.5882205367088318,0.46379202604293823,0.3015841841697693,1.0673948526382446,0.9306979775428772,-0.6090868711471558,0.3183676600456238,0.6851113438606262,-1.7224249839782715,-0.12069804966449738,-0.27925679087638855,0.31770607829093933,0.22737115621566772,-0.09525518864393234,-0.3872506320476532,0.03958195075392723,0.05748257040977478,0.16758272051811218,0.5813256502151489,0.8268706202507019,-0.5049868226051331,-0.10803516954183578,-0.34944474697113037,1.1602654457092285,-1.3785053491592407,1.6322001218795776,-0.3736225962638855,-0.7012102007865906,-0.1514030545949936,0.6472859978675842,-0.6717913150787354,-0.5826364159584045,0.39109691977500916,-1.3694409132003784,-1.0937985181808472,-1.2037492990493774,-0.14652511477470398,1.4175302982330322,-1.4138902425765991,0.34155499935150146,-2.701347827911377,0.7304924726486206,2.0341484546661377,-0.4547066390514374,1.4616948366165161,-1.3562519550323486,-1.105170726776123,-0.08142637461423874,1.6841986179351807,-2.3338847160339355,0.36003774404525757,1.1098400354385376,-0.4187040627002716,-0.866496741771698,1.2716821432113647,0.3232734203338623,-0.7019509673118591,-0.6983924508094788,-1.8387025594711304,-1.3088616132736206,-2.0895755290985107,-0.6400695443153381,-0.8245415687561035,1.2295680046081543,-1.101204514503479,-0.2407078593969345,1.140936255455017,0.06528036296367645,-0.46245479583740234,-0.4326580762863159,2.293429374694824,0.16183613240718842,-0.951884925365448,-2.212207794189453,-0.5348121523857117,-0.08299275487661362,-2.026371479034424,-1.5312081575393677,-1.3531185388565063,0.9602240324020386,1.729422926902771,-0.6614673137664795,1.0625826120376587,-1.4219300746917725,1.9150094985961914,-0.6452333927154541,-0.19022919237613678,0.2841853201389313,-1.0424691438674927,0.5442346334457397,-1.006800889968872,1.501981258392334,-0.7782967686653137,-0.8845009803771973,-0.004769985564053059,0.6739106774330139,0.4308144450187683,0.3329084813594818,0.39814889430999756,0.13156142830848694,-1.4057141542434692,0.7058656811714172,-1.2836523056030273,-1.038726806640625,0.07696188241243362,-0.36052316427230835,0.21520055830478668,-1.5519208908081055,0.6397108435630798,-1.479245901107788,-1.5605223178863525,-0.755958080291748,-0.048935435712337494,-0.258782297372818,0.21990101039409637,0.9935963153839111,1.2946655750274658,-1.2141069173812866,0.9969889521598816,1.0356855392456055,-0.4606710374355316,1.5943087339401245,-0.30446797609329224,-1.4438016414642334,-1.2638497352600098,1.0837056636810303,0.5438406467437744,-0.25241875648498535,-0.7393792867660522,0.00816713459789753,-2.7310051918029785,-0.16060401499271393,0.9001307487487793,0.9543705582618713,2.1695446968078613,-0.021146992221474648,-1.4767661094665527,-1.12188720703125,-1.4380046129226685,0.6974818110466003,1.7352625131607056,0.8345629572868347,0.8136899471282959,-1.215787649154663,-1.0292119979858398,-0.30238327383995056,1.23521089553833,-1.0727057456970215,1.635740876197815,0.6712647676467896,-0.6514613032341003,0.11014850437641144,-0.05068827047944069,0.6696599125862122,0.155287504196167,-0.8566914796829224,0.2391422688961029,1.2435699701309204,0.4255314767360687,0.4089498221874237,0.10393629223108292,0.1867978572845459,-2.433781623840332,2.00740909576416,0.5623941421508789,1.1522221565246582,-0.5855595469474792,-1.2194315195083618,-0.013302118517458439,1.2488423585891724,2.7358832359313965,0.3339096009731293,-1.7019636631011963,-0.9090150594711304,-0.7710066437721252,-0.91236811876297,-0.13512733578681946,-2.02871036529541,-0.04047957807779312,0.7422147393226624,-1.528685212135315,-0.4500889182090759,-0.5945929288864136,-0.10091779381036758,0.8974980711936951,0.4019962549209595,1.5034880638122559,-0.4428257942199707,-1.1384787559509277,-0.45657166838645935,0.4186542332172394,1.0818805694580078,0.4895147383213043,-0.09959850460290909,2.3761324882507324,0.3258529305458069,1.2979826927185059,-0.5360673666000366,1.2648857831954956,0.7777960896492004,0.9402204751968384,0.3969908058643341,-0.8687139749526978,-0.2988850176334381,-0.2528891861438751,-0.6659864187240601,-0.4920855760574341,-0.15342402458190918,0.1799488216638565,0.8359219431877136,2.720799684524536,0.7118642926216125,-0.20962047576904297,-0.26791998744010925,-0.22489811480045319,0.8638656139373779,-1.5249888896942139,0.3862560987472534,-0.13040390610694885,-0.31333932280540466,-0.06125428527593613,0.18955764174461365,0.34074917435646057,1.135374903678894,1.0233708620071411,-1.8025217056274414,0.9188543558120728,0.6138690114021301,1.0863877534866333,1.2326732873916626,0.2320801466703415,2.241173028945923,-1.2832651138305664,1.4841523170471191,0.22698897123336792,1.3390833139419556,-1.5645873546600342,-0.6541603803634644,0.2356637418270111,0.6429338455200195,0.8251322507858276,-1.4104013442993164,0.6661575436592102,1.1988848447799683,-0.5348092913627625,1.6812366247177124,-0.5380073189735413,0.8177314400672913,-2.4830374717712402,0.6212571263313293,0.4631715416908264,-0.8316251039505005,-0.32944297790527344,0.17841804027557373,0.7619068026542664,0.7215977311134338,2.910648822784424,0.5191120505332947,-2.060183048248291,0.9607750773429871,-0.2070772349834442,-1.1437559127807617,-0.3656105399131775,1.3339014053344727,-2.8942253589630127,0.05981063470244408,-1.2923974990844727,1.2518588304519653,0.5078395009040833,-0.44637683033943176,0.6247513294219971,0.36303943395614624,-0.7304074764251709,-0.24162612855434418,0.6903827786445618,0.42188796401023865,-0.29974642395973206,0.8217456936836243,1.5668904781341553,-0.47943127155303955,-0.3843598961830139,-0.8302688598632812,0.4865284562110901,-0.12209612876176834,-1.2542015314102173,0.7328643202781677,0.9743598103523254,-0.5381707549095154,1.1707332134246826,1.7207300662994385,-1.421188473701477,-0.5694442391395569,-0.2913728654384613,1.7467011213302612,-1.5602644681930542,0.48126083612442017,-0.309085875749588,1.0486797094345093,1.464698314666748,1.2853597402572632,0.5721374154090881,-0.07460711151361465,0.8089020848274231,-1.7856851816177368,-0.33158445358276367,-0.26833662390708923,-0.898953914642334,-1.0434590578079224,-1.0879682302474976,-1.007921576499939,-2.1002516746520996,0.5520873069763184,1.357287049293518,2.628566026687622,-1.0330398082733154,-0.2747401297092438,1.33256995677948,2.087465763092041,-0.7470864653587341,-2.7265279293060303,-2.6517157554626465,-1.5894756317138672,-0.8552405834197998,0.06559062004089355,-0.6888430118560791,1.289618730545044,-0.735919177532196,-1.865892767906189,2.1067419052124023,-1.2435413599014282,-1.5675604343414307,0.19988882541656494,2.493603229522705,1.721832275390625,0.5550059676170349,0.5917454361915588,-0.37258973717689514,1.5627063512802124,-2.247981309890747,0.10986234992742538,1.023021936416626,-1.3706549406051636,-0.5778487324714661,-0.7887085676193237,-0.5182941555976868,-0.5609699487686157,1.0393658876419067,1.0271888971328735,1.222141146659851,-0.15072223544120789,-0.8934053182601929,0.3653993010520935,1.3555936813354492,-0.8857192993164062,-0.20887722074985504,-2.776590347290039,-0.20906691253185272,-0.6282529234886169,-0.12250138074159622,0.3167937994003296,0.3478297293186188,0.14408452808856964,-0.48328930139541626,0.7624574303627014,2.2661170959472656,-0.25437915325164795,0.5204198956489563,-0.7098661065101624,0.0736851617693901,0.18622717261314392,-0.7505289912223816,-0.9823117852210999,-0.571281373500824,1.8896697759628296,0.10258554667234421,2.168586492538452,0.701542317867279,-0.7792989015579224,0.7230014801025391,0.1453525274991989,-1.9490021467208862,-0.4698316752910614,1.5475012063980103,-0.19602955877780914,1.1158289909362793,0.46201032400131226,0.02024168148636818,0.6096833944320679,-0.36590704321861267,0.8231520056724548,-0.5333980321884155,-0.28296640515327454,-0.4072251319885254,-1.3738224506378174,-1.841321349143982,-1.0433688163757324,-2.085508346557617,-0.01757361739873886,-0.860913097858429,0.5430867671966553,-0.6147294640541077,-0.07525163143873215,1.2693462371826172,0.8416025042533875,0.3946959674358368,-0.08599801361560822,0.5585590600967407,0.34826385974884033,-1.5939239263534546,-1.9715253114700317,-0.5842311978340149,-0.4063117206096649,-0.19214355945587158,1.1833629608154297,0.012608995661139488,-1.4058592319488525,-0.65836101770401,-0.5425384640693665,-2.7953624725341797,-2.0610733032226562,1.5018216371536255,0.05966256558895111,-2.642451524734497,0.08074653148651123,0.26060816645622253,0.01151630375534296,1.2316046953201294,0.15754741430282593,0.5879085063934326,-1.9300432205200195,-0.20686790347099304,-0.6233484148979187,0.640570342540741,-3.67474627494812,0.0633755549788475,0.7245285511016846,-0.020089056342840195,0.13820530474185944,0.9512327909469604,2.483207941055298,-0.9600356817245483,2.116809844970703,0.0423283688724041,0.10062292218208313,2.144761800765991,-0.3478553593158722,1.0508228540420532,-0.14433108270168304,-1.489515781402588,-1.0766830444335938,-0.600074291229248,2.5683302879333496,-0.3487251400947571,-0.33104756474494934,-1.1500188112258911,-1.381745457649231,-0.5257167220115662,-0.6048365831375122,0.22797776758670807,1.2988548278808594,-0.7870879173278809,-0.9007253050804138,0.7084066271781921,1.3228974342346191,-0.15783053636550903,0.6123311519622803,-2.054358959197998,1.1872864961624146,-0.4355173110961914,1.456844449043274,-0.17533975839614868,-0.2207401841878891,0.9985530376434326,-0.44965505599975586,1.101325273513794,0.5768630504608154,1.076432704925537,-0.16019479930400848,0.3829483091831207,-0.7245689630508423,1.091820478439331,-1.9124469757080078,0.7474951148033142,-1.1643403768539429,0.661563515663147,-1.083823323249817,-1.1378991603851318,0.23361040651798248,0.5045791864395142,0.5863191485404968,-2.3789796829223633,-0.4474259614944458,-0.8970590829849243,-0.47510895133018494,1.0443940162658691,1.3610173463821411,0.6934228539466858,0.43225008249282837,-0.09448696672916412,-1.1834437847137451,1.6961579322814941,1.298221230506897,-0.39692652225494385,-0.21194426715373993,0.389058917760849,-0.449283629655838,0.03848427161574364,0.29662439227104187,0.9259932041168213,0.8747027516365051,-0.17618781328201294,1.1346222162246704,-0.6896814107894897,-1.5518178939819336]},"forgetHidden":{"rows":20,"columns":20,"weights":[-1.489726185798645,-1.5330588817596436,2.2573816776275635,-0.8298609256744385,-0.8086339831352234,0.35920825600624084,-1.594102382659912,-0.06795253604650497,-0.8731155395507812,0.013208583928644657,-1.0730340480804443,-0.1930084377527237,-0.9952249526977539,-2.2338576316833496,-0.5927186012268066,-1.3351916074752808,2.4208550453186035,-0.727726936340332,-0.9666556119918823,0.002526873955503106,-0.43501296639442444,1.914146065711975,0.6556168794631958,-0.5978338718414307,-3.2028567790985107,-0.9015001654624939,0.6969293355941772,0.2536730468273163,0.21856100857257843,0.061377521604299545,0.5924097299575806,0.15233121812343597,0.7437973618507385,-0.2364683598279953,0.3361515700817108,-1.0352016687393188,-0.5919349193572998,-0.002876412821933627,-0.8594235777854919,-1.1597511768341064,-0.10023699700832367,-0.4425264596939087,0.21897011995315552,0.3710111677646637,-0.02468252182006836,0.43285059928894043,0.9353985786437988,-0.3589225709438324,1.242215871810913,-0.08274538069963455,-0.7995686531066895,0.9438039064407349,0.5246359705924988,0.3766780495643616,-0.6925200819969177,0.6607733368873596,0.027966666966676712,0.9707186818122864,-0.8781783580780029,1.1268749237060547,0.026067698374390602,-0.25109943747520447,-0.38773488998413086,-0.4632978141307831,1.319917917251587,-2.200864315032959,0.348911315202713,0.3545664846897125,1.2686225175857544,-0.0969165712594986,1.6870841979980469,-0.4497212767601013,0.574104368686676,0.27933087944984436,0.1929464191198349,-1.1952929496765137,0.4311758875846863,-0.04635344818234444,0.12722772359848022,0.10253126919269562,1.5521513223648071,-0.6174389123916626,-0.13448458909988403,0.768110454082489,-2.0669398307800293,-0.38972803950309753,-0.8202211260795593,0.7663059830665588,-1.45183527469635,-0.13206613063812256,0.46156808733940125,0.21954849362373352,-0.36251410841941833,0.43349966406822205,-0.11781187355518341,1.4096351861953735,-0.23659807443618774,0.3894883096218109,0.2857396900653839,0.4426356256008148,-0.8492766618728638,0.20062342286109924,0.3988223671913147,-0.456904798746109,0.5817657113075256,-0.3752129077911377,0.2391270101070404,-0.2609439790248871,0.736701250076294,-0.2612319886684418,1.2413333654403687,-1.3051410913467407,-0.6318367123603821,0.027875937521457672,0.8556315898895264,-0.2521718442440033,1.2079393863677979,-0.5281927585601807,-0.6727330088615417,0.1571718156337738,0.7576277256011963,-0.13151028752326965,-0.7547537088394165,-0.7429935932159424,0.5939270257949829,-0.5590359568595886,1.580203652381897,0.3142293095588684,0.09601388871669769,-0.33824193477630615,-0.944918155670166,-0.208208829164505,-1.431814432144165,-0.1885121613740921,-0.06262495368719101,0.3590894341468811,0.03279956430196762,0.6316562294960022,-1.0060237646102905,0.03595723956823349,-0.30920207500457764,-1.2955745458602905,1.2432695627212524,-1.1832096576690674,-0.9237158298492432,-0.1575733870267868,-0.10960748046636581,0.38005194067955017,-1.2833417654037476,