{"type":"LSTM","options":{"inputSize":49,"inputRange":49,"hiddenLayers":[20,20],"outputSize":49,"decayRate":0.999,"smoothEps":1e-8,"regc":0.000001,"clipval":5,"maxPredictionLength":100,"dataFormatter":{"indexTable":{"h":0,"e":1,"l":2,"o":3," ":4,"t":5,"r":6,"H":7,"y":8,"!":9,"w":10,"a":11,"'":12,"s":13,"u":14,"p":15,"G":16,"d":17,".":18,"F":19,"i":20,"n":21,"g":22,"W":23,",":24,"I":25,"m":26,"N":27,"k":28,"?":29,"b":30,"B":31,"v":32,"c":33,"f":34,"j":35,"A":36,"D":37,"C":38,"V":39,"x":40,"Y":41,"X":42,"P":43,"T":44,"z":45,"stop-input":46,"start-output":47,"unrecognized":48},"characterTable":{"0":"h","1":"e","2":"l","3":"o","4":" ","5":"t","6":"r","7":"H","8":"y","9":"!","10":"w","11":"a","12":"'","13":"s","14":"u","15":"p","16":"G","17":"d","18":".","19":"F","20":"i","21":"n","22":"g","23":"W","24":",","25":"I","26":"m","27":"N","28":"k","29":"?","30":"b","31":"B","32":"v","33":"c","34":"f","35":"j","36":"A","37":"D","38":"C","39":"V","40":"x","41":"Y","42":"X","43":"P","44":"T","45":"z","46":null,"47":null,"48":null},"values":[{"input":"hello there","output":"Hey!"},{"input":"what's up","output":"Good."},{"input":"how are you","output":"Feeling great!"},{"input":"heya","output":"Hey!"},{"input":"hello","output":"Hey!"},{"input":"hru","output":"Good!"},{"input":"hey pepper","output":"Hey! Wait, I'm not pepper!"},{"input":"hewo","output":"Hey!"},{"input":"hewoo","output":"Hey!"},{"input":"heya","output":"Hey!"},{"input":"what are you doing right now","output":"Nothing."},{"input":"what are you doing","output":"I don't know."},{"input":"hello?","output":"Hey!"},{"input":"hey there","output":"Hey!"},{"input":"hello!","output":"Hey!"},{"input":"heya!","output":"Hey!"},{"input":"heyy!","output":"Hey!"},{"input":"bye gtg","output":"Bye!"},{"input":"bye gotta go","output":"Bye!"},{"input":"bye have to go","output":"Bye!"},{"input":"bye bye","output":"Bye!"},{"input":"cya","output":"Bye!"},{"input":"see you","output":"Bye!"},{"input":"see ya","output":"Bye!"},{"input":"bye bye","output":"Bye!"},{"input":"byee","output":"Bye!"},{"input":"byeee","output":"Bye!"},{"input":"see you","output":"Bye!"},{"input":"see ya","output":"Bye!"},{"input":"see u","output":"Bye!"},{"input":"why are you here","output":"I don't know!"},{"input":"who created you?","output":"It was Nevah"},{"input":"can you speak?","output":"No?"},{"input":"how many?","output":"I don't know."},{"input":"how much?","output":"How much what?"},{"input":"how often?","output":"I don't know."},{"input":"who is engjell?","output":"A friend."},{"input":"who is you?","output":"I'm an AI."},{"input":"what is life?","output":"Do you mean love?"},{"input":"what is your favourite food?","output":"Nuggies."},{"input":"what do you like to eat?","output":"Food."},{"input":"what can i do here","output":"Write."},{"input":"what is this server about?","output":"Chatting."},{"input":"how many times can i chat here?","output":"As much as you like."},{"input":"how fast are you at responding","output":"I'm fast."},{"input":"how are you","output":"I'm great!"},{"input":"good","output":"Very cool!"},{"input":"when will the next video come?","output":"I really don't know."},{"input":"how many times","output":"How many times, what?"},{"input":"how much","output":"How much what?"},{"input":"what?","output":"?"},{"input":"haha","output":"Alright."},{"input":"lol","output":"hehe"},{"input":"lmao","output":"lol"},{"input":"lel","output":"lol"},{"input":"kekw","output":"lol"},{"input":"oh god","output":"Yeah, I know."},{"input":"hahahaha","output":"Yeah, I'm really funny."},{"input":"XD","output":"lol"},{"input":"xD","output":"lol"},{"input":"very funny","output":"Indeed."},{"input":"funny","output":"yeah"},{"input":"unfunny","output":"No?"},{"input":"well","output":"Hmm"},{"input":"ban me","output":"No."},{"input":"can you ban someone","output":"No."},{"input":"pls ban me","output":"No."},{"input":"can you ban me","output":"No."},{"input":"can you chat in general?","output":"No."},{"input":"can you chat?","output":"Yes, but only in this channel."},{"input":"are you engjell?","output":"No."},{"input":"can i apply for mod","output":"No."},{"input":"am i suitable for mod","output":"I don't know."},{"input":"can i apply for moderator","output":"Probably not right now."},{"input":"can i be admin","output":"No."},{"input":"tell me something special","output":"No."},{"input":"can i be helper","output":"No."},{"input":"helper applications","output":"Probably closed."},{"input":"bot developer","output":"Yes."},{"input":"moderator","output":"No."},{"input":"admin","output":"No."},{"input":"pepper","output":"I don't know."},{"input":"pepperland","output":"This server?"},{"input":"gay","output":"No?"},{"input":"how the heck","output":"I don't know."},{"input":"omg lol","output":"Yeah."},{"input":"xD","output":"lol"},{"input":"very cool indeed","output":"Yeah, I know!"},{"input":"wow why is this working","output":"I really don't know, I think Nevah did great!"},{"input":"hell yeah","output":"Yeah."},{"input":"pls mute me","output":"No, I will not."},{"input":"askdasd","output":"Hmm"},{"input":"laskdfj","output":"Are you okay?!"},{"input":"kfjalshiou","output":"Are you okay?!"},{"input":"akjsdhlkahdcs","output":"Are you okay?!"},{"input":"asfdljkhaflie","output":"Are you okay?!"},{"input":"aslkfcdjheo","output":"Are you okay?!"},{"input":"aslkdfj","output":"Are you okay?!"},{"input":"asljhfsao","output":"Are you okay?!"},{"input":"liasfduoije","output":"Are you okay?!"},{"input":"fkuaszoilvuzher","output":"Are you okay?!"},{"input":"sfldkjosiwe","output":"Are you okay?!"},{"input":"oaiugforia","output":"Are you okay?!"},{"input":"livsaueo","output":"Are you okay?!"},{"input":"very nice","output":"Yeah, I know!"},{"input":"say something pls","output":"Hi!"},{"input":"please tell me something","output":"No."},{"input":"say something please","output":"Hi!"},{"input":"please","output":"No."},{"input":"cmon","output":"No, I'm stubborn."},{"input":"pleaseee","output":"No."},{"input":"give mee","output":"Give you what?"},{"input":"hello!","output":"Hey!"},{"input":"hello?!","output":"Hi!"},{"input":"hey there!?","output":"Hi!"},{"input":"hello, are you here?!","output":"Yes, hi!"},{"input":"are we married?","output":"I don't know."},{"input":"do you want to marry me?","output":"No."},{"input":"marry me?","output":"No."},{"input":"can you marry me?","output":"No."},{"input":"can marry me?","output":"No."},{"input":"you marry me pls!","output":"No."},{"input":"marry me!","output":"No."},{"input":"cmon please","output":"No, I'm stubborn."},{"input":"cmon","output":"No."},{"input":"pleeeasseee","output":"No."},{"input":"are you a programmer","output":"No."},{"input":"do you like to program","output":"No."},{"input":"do you think that pepper is cool","output":"Yes."},{"input":"do you think that i like pepper","output":"Yes."},{"input":"pepper is cool","output":"Yes."},{"input":"pepper is great","output":"Yes."},{"input":"pepper is bad","output":"Yes."},{"input":"pepper is not nice","output":"Yes."},{"input":"will pepper respond to my message","output":"I don't know."}],"characters":["h","e","l","o"," ","t","r","H","y","!","w","a","'","s","u","p","G","d",".","F","i","n","g","W",",","I","m","N","k","?","b","B","v","c","f","j","A","D","C","V","x","Y","X","P","T","z","stop-input","start-output","unrecognized"],"specialIndexes":[46,47,48]}},"trainOpts":{"iterations":"20000","errorThresh":0.005,"logPeriod":1,"learningRate":0.01,"callbackPeriod":10,"timeout":"Infinity"},"input":{"rows":50,"columns":49,"weights":[-2.5771291255950928,-0.09281769394874573,-0.3937394320964813,-1.0401687622070312,0.2587764263153076,1.305052399635315,2.4773664474487305,-1.2891111373901367,-0.3855496644973755,-0.7686155438423157,0.020680617541074753,0.7428207993507385,-0.8252239227294922,0.5699681639671326,-0.7169005870819092,-1.1013712882995605,-2.268458366394043,-0.24978861212730408,-1.7257812023162842,-3.0229718685150146,0.7220442295074463,-1.5685973167419434,-0.12571972608566284,-4.0697221755981445,-1.0018905401229858,1.6614537239074707,-0.9247934818267822,0.06929392367601395,-1.4940924644470215,1.2924336194992065,0.2452540397644043,-0.6715490221977234,2.5291314125061035,-1.526604413986206,-1.0736335515975952,0.4963977336883545,-1.2683913707733154,-0.46204251050949097,0.7535107731819153,-1.566670298576355,2.1643807888031006,-0.606421709060669,-1.8679437637329102,-0.6928495168685913,-1.8716425895690918,-0.9383816123008728,0.9175428152084351,-3.3988752365112305,0.4280724823474884,-3.9385616779327393,-2.7755095958709717,3.9182684421539307,-0.3484276533126831,-3.7198565006256104,1.9399757385253906,3.9799139499664307,2.9830715656280518,1.5081902742385864,0.651447057723999,0.17762696743011475,-0.43824127316474915,-1.6633087396621704,2.64394474029541,3.242725133895874,1.0019781589508057,-2.5626492500305176,-2.314039707183838,-0.3719950020313263,-1.0086537599563599,0.13953347504138947,-0.8078444600105286,3.702967882156372,-7.923929214477539,-3.1095216274261475,-3.3711369037628174,0.17082223296165466,-0.35268041491508484,-1.1892330646514893,0.8109851479530334,2.7755351066589355,-1.8055107593536377,0.6921553015708923,-0.8951296210289001,-1.0576703548431396,-1.4669326543807983,-3.6702497005462646,0.2090260088443756,0.5722829103469849,1.181931972503662,0.6054137945175171,8.062158584594727,-3.469947576522827,-1.8339632749557495,-1.017890214920044,-1.1303361654281616,2.4312894344329834,-3.375408172607422,-2.6159114837646484,-2.293137550354004,-1.049634337425232,-0.6186531782150269,-1.8663859367370605,2.4342246055603027,-0.9511702656745911,-4.021933555603027,2.1295723915100098,0.9589577913284302,4.499866008758545,-2.000189781188965,-1.510477900505066,0.6411678791046143,-0.6002932786941528,-0.3936549425125122,-3.0303142070770264,0.10579856485128403,1.0543546676635742,1.0840003490447998,-2.5019936561584473,-0.5445683002471924,2.5610930919647217,-3.8452250957489014,0.7352101802825928,0.9317930936813354,1.125274419784546,-0.8227217197418213,1.6703664064407349,-0.7046961784362793,4.5405354499816895,2.377255439758301,0.2326614260673523,0.37313398718833923,0.5302993059158325,2.9151370525360107,-0.8198273777961731,1.5952643156051636,1.3875559568405151,3.1964573860168457,0.6496767401695251,-2.1862683296203613,-0.5948375463485718,1.367645502090454,3.7892849445343018,2.523993730545044,0.17591124773025513,0.20508413016796112,0.578689694404602,0.6880218982696533,1.8763055801391602,1.577255129814148,1.1682264804840088,1.428125262260437,-1.2494919300079346,-0.30186760425567627,-1.2143276929855347,1.0914334058761597,2.098679780960083,1.2973679304122925,-1.7021905183792114,-2.0789241790771484,-2.5426063537597656,0.7468257546424866,-2.5925588607788086,-1.6661754846572876,-1.7660152912139893,2.7332983016967773,-2.6995692253112793,-0.9212306141853333,2.4058892726898193,-0.31876006722450256,-7.334012031555176,-3.743680715560913,-0.635918378829956,3.058032989501953,1.766133189201355,-0.3364861011505127,0.0368579737842083,-1.7242364883422852,-0.7723999619483948,2.371232271194458,-1.598661184310913,-2.039403200149536,3.7907631397247314,-2.2122621536254883,-3.3575775623321533,-1.4773634672164917,5.164439678192139,-3.273928642272949,2.6176223754882812,-2.1673741340637207,-3.120124578475952,0.010357766412198544,-4.044264316558838,4.3004279136657715,4.967349052429199,-0.9258352518081665,1.3233598470687866,-1.2123966217041016,3.2212307453155518,0.4110637903213501,3.305269956588745,1.3737874031066895,-2.6439428329467773,-2.6327829360961914,1.679490089416504,5.495265007019043,4.6695942878723145,-2.473294973373413,1.1664518117904663,2.2872419357299805,-3.871290445327759,-0.8972113132476807,-2.3004980087280273,-0.07057292759418488,1.6884078979492188,1.7849254608154297,3.4971280097961426,2.3700883388519287,-2.6277339458465576,-3.061492443084717,2.864549398422241,-2.790994882583618,1.8232946395874023,2.0695579051971436,-3.7133939266204834,-1.594046950340271,-0.3943611979484558,-0.6786124110221863,0.1669754832983017,-2.2790608406066895,4.171742916107178,0.9578160047531128,-3.136622905731201,2.7613415718078613,-1.4310717582702637,-3.3360390663146973,-0.6645063161849976,-0.7531681656837463,1.3351327180862427,-0.45611771941185,-3.176683187484741,-1.5282584428787231,-2.3253345489501953,-1.4502428770065308,1.2815662622451782,1.8969988822937012,0.7489216923713684,2.415354013442993,0.6147776246070862,-0.6438917517662048,0.24307967722415924,-2.620807409286499,-0.7483498454093933,1.4974219799041748,1.9788963794708252,2.363677501678467,2.436014175415039,1.4499564170837402,1.9080039262771606,-1.4820293188095093,-0.7937132716178894,2.0451834201812744,-0.6904873847961426,1.5634901523590088,0.67464280128479,-1.4628911018371582,-2.2698380947113037,0.15765292942523956,0.6663588881492615,-1.3220447301864624,0.4750438332557678,-4.420256614685059,0.5516352653503418,3.369288921356201,1.5674141645431519,1.61493718624115,-2.525221347808838,-0.41536659002304077,1.861574649810791,-1.866304636001587,2.269531726837158,-1.1531797647476196,2.1942989826202393,0.7834264039993286,-0.9489777088165283,1.1245448589324951,2.1342906951904297,-1.0688560009002686,-0.32006800174713135,0.4189862310886383,1.8462824821472168,-0.7166132926940918,-1.1919194459915161,-1.9224836826324463,-1.0336343050003052,-0.9547265768051147,3.626370429992676,0.0662921741604805,-0.7594171762466431,0.4999990165233612,-4.229043960571289,-3.998231887817383,-0.09088685363531113,-4.095222473144531,2.330716371536255,-1.603088140487671,-3.9071853160858154,1.051004409790039,-1.2286993265151978,-0.76949542760849,-0.9978055953979492,5.703200340270996,1.4404515027999878,4.423341274261475,0.9723228812217712,-4.5829596519470215,2.9272968769073486,-3.5872738361358643,-1.9479700326919556,1.3825163841247559,-0.9938995242118835,-1.105129599571228,0.2787974178791046,3.7418015003204346,5.589057922363281,-0.7430500984191895,0.46870309114456177,0.4962282180786133,-2.7667298316955566,-2.626276731491089,1.5579496622085571,4.337561130523682,3.411353826522827,-3.5628163814544678,-1.294191598892212,3.10982608795166,-5.474283218383789,-0.024000678211450577,1.7968295812606812,0.08316600322723389,2.089637041091919,-1.6208194494247437,-0.6021328568458557,-0.7048432230949402,4.659263610839844,0.3171198070049286,1.9567623138427734,2.189539670944214,-4.582622528076172,-0.2739309072494507,3.845423936843872,-0.3399694561958313,2.5923569202423096,3.5262532234191895,1.1132687330245972,0.9212355017662048,0.33495622873306274,1.0005024671554565,-2.1432788372039795,5.032612323760986,0.12560836970806122,-0.8599388599395752,-2.238600254058838,1.9593498706817627,1.8021525144577026,6.962421417236328,0.45887628197669983,4.319601535797119,2.834817886352539,2.5854694843292236,-0.3634503483772278,0.6958615183830261,2.2350914478302,-2.0072519779205322,3.0406482219696045,-3.339845895767212,-1.9931833744049072,0.8044077754020691,5.304483890533447,-0.058471646159887314,-0.5016236305236816,1.9752527475357056,2.330897808074951,6.228811740875244,-2.6521968841552734,-1.9439316987991333,3.9098596572875977,0.837009608745575,2.6762261390686035,-3.6848747730255127,0.3914158046245575,2.506847381591797,4.120645523071289,11.300141334533691,-5.471901893615723,-5.716081142425537,8.190216064453125,-9.089112281799316,1.3310662508010864,-3.4976630210876465,7.155486583709717,3.7854154109954834,2.6651742458343506,-0.45265424251556396,-3.9990601539611816,-2.616004228591919,-3.4635517597198486,-1.281348705291748,6.390450954437256,9.020604133605957,2.3554110527038574,-5.410540580749512,4.093016624450684,1.0175626277923584,4.198525905609131,4.525669574737549,4.205745697021484,0.26118820905685425,0.4264411926269531,-4.722576141357422,0.8120415210723877,0.23067446053028107,0.5580718517303467,4.43545389175415,-1.7407538890838623,-7.264569282531738,-0.6050457954406738,5.794118404388428,-0.7953057289123535,8.538338661193848,2.1520750522613525,8.622800827026367,-8.514219284057617,6.949732780456543,-1.5395532846450806,-4.492570400238037,-7.623064994812012,-1.372472882270813,-0.47963181138038635,0.5550280213356018,2.2272181510925293,-3.564880847930908,1.5217987298965454,-2.9990482330322266,-0.29068508744239807,0.9439879059791565,5.8962321281433105,-0.8614392280578613,-3.253326416015625,3.325214147567749,-1.3923678398132324,2.4767425060272217,1.4517098665237427,-0.35355979204177856,-2.243029832839966,0.943574845790863,2.8642024993896484,5.429933547973633,4.423490524291992,1.346882939338684,4.638365268707275,2.928802490234375,2.6561431884765625,-0.3128565549850464,-1.8112703561782837,-1.7812970876693726,0.4925265908241272,-0.7820459604263306,3.355984687805176,3.6005916595458984,-0.39330005645751953,4.015177249908447,2.533482074737549,-2.562217950820923,-2.0847654342651367,-1.6429431438446045,-0.8021720051765442,-2.2891781330108643,0.9328030347824097,6.195501327514648,0.3103519082069397,4.909292697906494,-3.7989344596862793,1.15773606300354,0.5471104979515076,-0.7770033478736877,4.557868480682373,-0.13664530217647552,1.1631685495376587,-2.7315895557403564,-1.038309097290039,-4.1841535568237305,-5.875492572784424,0.2520020604133606,0.27028968930244446,5.673698425292969,0.5097177624702454,3.7369778156280518,0.785031259059906,-4.1933913230896,-6.919159412384033,8.591007232666016,2.201982021331787,-1.899163842201233,-4.760231018066406,3.7825589179992676,-5.738708972930908,-6.7506208419799805,-3.0807156562805176,4.721017837524414,6.311583995819092,-1.4319018125534058,-0.5690367817878723,7.795977592468262,-1.1833696365356445,1.6380659341812134,-6.602899551391602,-1.5516889095306396,3.2184672355651855,1.3670594692230225,-0.1916341334581375,-2.5642311573028564,-2.1208996772766113,-3.3827478885650635,-6.440716743469238,-4.255277156829834,-4.621323585510254,0.8496540188789368,-1.6877776384353638,4.606735706329346,4.16520881652832,-0.09733981639146805,0.37604206800460815,2.0622074604034424,-0.11690061539411545,3.688624858856201,1.6252306699752808,-0.18668173253536224,1.3301862478256226,-0.5706664323806763,1.8516653776168823,-0.33385521173477173,-0.7307440042495728,-2.6958742141723633,5.339346885681152,0.05331534892320633,-2.046539306640625,0.7679998278617859,-3.787548780441284,-2.3900654315948486,-3.0871803760528564,-2.734532594680786,3.8509790897369385,-0.09747907519340515,-3.666496992111206,-2.592073440551758,7.773423671722412,-1.577164649963379,2.938387393951416,-1.1124181747436523,-3.355980157852173,4.474605083465576,-3.7724335193634033,5.875813007354736,3.1672682762145996,0.8466566801071167,-1.826080560684204,2.007765769958496,2.368147611618042,6.818662643432617,0.004139552358537912,0.022275475785136223,-2.0098307132720947,-1.6680749654769897,3.2495484352111816,0.04391997680068016,6.784477710723877,6.734036922454834,1.7125855684280396,-1.305023193359375,3.0580177307128906,-2.4340405464172363,2.57590651512146,-1.3817850351333618,6.124070644378662,2.1185197830200195,0.4887404441833496,3.8636927604675293,-0.8644529581069946,0.03489286080002785,1.7288321256637573,-0.9890234470367432,0.5833216309547424,-0.2420579046010971,2.1489741802215576,-0.36005038022994995,-0.4341927468776703,0.38324064016342163,-0.49176639318466187,-3.9843344688415527,-2.129497528076172,-2.236598253250122,1.206485629081726,1.2317596673965454,-1.436173677444458,-1.306646704673767,2.6399426460266113,-2.707634210586548,1.7041205167770386,1.4720823764801025,-1.5682051181793213,-1.2756131887435913,-1.909351110458374,-0.7376231551170349,3.7509467601776123,0.3594695031642914,-1.6466624736785889,0.8753284811973572,-2.0337116718292236,-3.495983362197876,-0.19617712497711182,-0.7361001968383789,-2.1003851890563965,4.283501625061035,-1.047562599182129,0.5088902115821838,3.4191408157348633,3.929537773132324,-3.9024524688720703,2.0541884899139404,0.36021918058395386,-0.7664563059806824,-0.30675676465034485,-0.37200939655303955,3.89609694480896,-0.3063235282897949,-0.7196350693702698,1.7795852422714233,4.330979347229004,-2.3972880840301514,-1.270736813545227,1.811928153038025,-4.043257713317871,-5.746301174163818,-0.12499073892831802,-0.4487355351448059,4.163863182067871,7.904204368591309,9.68740463256836,2.635361433029175,-6.804221153259277,7.660933971405029,1.834560751914978,0.9150936603546143,5.247518539428711,4.460507392883301,-0.6474718451499939,-8.804938316345215,-2.012660026550293,-4.103430271148682,11.605484962463379,-7.780261993408203,-2.853532075881958,-7.322422027587891,4.471158981323242,7.338593482971191,2.549992322921753,-4.693548679351807,-0.5464110970497131,-4.747862815856934,-0.6660576462745667,2.6210856437683105,10.768263816833496,-4.7709784507751465,0.33144453167915344,4.693233013153076,0.4980772137641907,-8.297436714172363,-1.048209547996521,7.657129287719727,2.7487332820892334,6.812143802642822,0.8728601932525635,-1.781359314918518,-0.8386676907539368,-2.665327310562134,-2.495229482650757,-0.09535416960716248,-0.558880627155304,3.6649138927459717,-3.054771900177002,5.089134216308594,-0.31411391496658325,-6.040256023406982,-0.10937223583459854,-0.24961504340171814,1.8988053798675537,-1.0317034721374512,-1.7819552421569824,1.3008977174758911,1.7462118864059448,4.207653045654297,-0.2740776836872101,4.425791263580322,0.5164666175842285,0.19223566353321075,-0.6653987169265747,-3.4919111728668213,-0.4960695505142212,0.8379177451133728,-6.495386123657227,2.6425702571868896,-0.717667818069458,0.6457000970840454,4.302517414093018,-1.991381049156189,4.525442600250244,3.4701626300811768,1.242437720298767,0.33884358406066895,4.082729339599609,1.6511112451553345,-3.8382315635681152,3.182494878768921,3.4579343795776367,1.3664510250091553,1.2875537872314453,-0.07747069746255875,-1.554410457611084,3.9912357330322266,1.7625702619552612,3.2588107585906982,2.6104533672332764,-0.8965975046157837,-1.4376662969589233,1.1946933269500732,4.202727317810059,5.660604476928711,-1.5136487483978271,0.7211196422576904,-3.3233642578125,-1.5443835258483887,4.852380275726318,-5.484227657318115,4.186892986297607,-0.5094484686851501,1.6345938444137573,1.0601836442947388,0.9582316279411316,-1.7053771018981934,2.53534197807312,-1.7581981420516968,-0.4636482894420624,0.695070207118988,3.3811302185058594,0.5751157402992249,4.1722636222839355,-1.264286994934082,-0.7047500610351562,0.33308207988739014,1.2001769542694092,4.046351909637451,1.7619332075119019,-3.1431872844696045,-4.255371570587158,-0.5689603090286255,2.416922092437744,-2.1458330154418945,-1.8958234786987305,-1.6406919956207275,0.6036356091499329,0.15716241300106049,-7.037317752838135,2.7766835689544678,2.1303024291992188,-2.256101131439209,-0.7194150686264038,3.941772222518921,-3.8043301105499268,-2.500795841217041,-4.333061695098877,-5.530869483947754,0.7360247373580933,0.09516974538564682,-3.909090757369995,1.0675641298294067,5.1285481452941895,-3.165475606918335,5.1523237228393555,4.807806015014648,-8.87037181854248,1.068999171257019,-1.750607967376709,-0.9797664880752563,-2.11806583404541,-6.845602512359619,-1.8282294273376465,0.7572592496871948,-10.3604097366333,-11.207154273986816,-0.4445466995239258,3.8028013706207275,2.234905481338501,1.3646657466888428,-1.4894076585769653,3.568183422088623,-6.716655254364014,-4.897642135620117,2.5610456466674805,-7.71399450302124,-8.154748916625977,-6.880680561065674,-2.5065417289733887,-0.44955432415008545,4.99733829498291,-3.712155818939209,-2.3401310443878174,-7.485359191894531,4.389377117156982,-3.3317153453826904,-0.911521315574646,6.14488410949707,2.197908401489258,-4.610189914703369,0.6764867901802063,6.239080905914307,-2.8334453105926514,2.951785087585449,-3.2417616844177246,-2.138559103012085,-3.1223907470703125,-4.380650520324707,-1.8191499710083008,5.618478775024414,-13.420599937438965,4.346567630767822,-8.624984741210938,-8.226163864135742,-10.274709701538086,9.269603729248047,4.769156455993652,7.215320110321045,5.203070640563965,13.134860038757324,-7.949989318847656,18.628612518310547,8.225931167602539,4.466645240783691,-15.536041259765625,-17.46820068359375,-17.8501033782959,10.823966979980469,-13.824203491210938,-21.708419799804688,10.7743501663208,11.126005172729492,3.1689302921295166,2.4135050773620605,-7.644506454467773,18.461345672607422,-21.21316146850586,-12.591591835021973,6.284140586853027,-2.967404842376709,-20.919187545776367,-4.468906402587891,6.126864910125732,-1.194182276725769,1.886452078819275,2.5584709644317627,5.500130653381348,-8.139700889587402,-0.6592572927474976,1.6604466438293457,14.225383758544922,2.675027370452881,-12.311820030212402,14.79990005493164,-12.764531135559082,4.472525119781494,-6.234963417053223,-5.927807807922363,2.992682456970215,1.7605128288269043,-1.4023164510726929,6.273571014404297,8.469032287597656,-2.183460235595703,6.652328968048096,0.39779233932495117,0.9651263356208801,4.496574401855469,0.9571152329444885,4.085169315338135,-3.1887433528900146,-4.750036239624023,4.447671890258789,0.8170905113220215,5.722390174865723,-2.570448160171509,7.244462013244629,1.4586777687072754,0.7860614061355591,-0.14375846087932587,1.3850024938583374,6.933289527893066,-7.497089385986328,-0.4902380704879761,6.409026622772217,8.498486518859863,2.2366249561309814,-5.427215099334717,-6.968212604522705,1.0638961791992188,-5.9658002853393555,0.5910744667053223,-2.6887359619140625,3.2696263790130615,1.7389792203903198,-0.4350273311138153,0.7083203792572021,3.7516443729400635,-0.3010493218898773,-7.3410491943359375,5.186610698699951,-5.154026508331299,1.3446322679519653,4.802979946136475,1.2437641620635986,2.9754016399383545,-2.571838140487671,-2.136941432952881,1.0187721252441406,-0.27625301480293274,-4.5514655113220215,-0.2323513925075531,3.6296792030334473,2.6366894245147705,0.2318902611732483,5.194153308868408,-8.71767807006836,-3.94351863861084,-3.48016619682312,-8.527665138244629,-0.6018438935279846,-0.38305890560150146,-1.6952461004257202,-2.748490333557129,5.432924270629883,-1.059146761894226,0.6533002257347107,4.171754360198975,-1.8745853900909424,5.874521255493164,-4.022603511810303,1.0445393323898315,0.9624720811843872,-0.6024442911148071,-3.9148001670837402,-1.3583999872207642,1.9363503456115723,0.8499566912651062,-4.059598445892334,-7.602107524871826,2.7205588817596436,-3.4168193340301514,-1.387234091758728,4.581236362457275,-0.6799582242965698,-3.55989146232605,-3.057849168777466,-5.5601806640625,2.996521234512329,-1.7843669652938843,1.4008547067642212,-5.214102745056152,-1.1049058437347412,8.635574340820312,0.7342538237571716,3.1907496452331543,2.6609292030334473,-2.522547483444214,-1.3770798444747925,14.44211196899414,-17.69649314880371,-10.313776969909668,23.630037307739258,11.887609481811523,-3.0547895431518555,-5.460129737854004,-3.1336851119995117,5.253640651702881,-5.226222991943359,11.445318222045898,25.702590942382812,-8.661273002624512,-0.9652865529060364,-11.200638771057129,-0.3792777955532074,-21.430444717407227,-29.850431442260742,8.469517707824707,21.969696044921875,-11.504929542541504,-26.641483306884766,-34.762474060058594,23.422117233276367,-1.5778976678848267,2.106377601623535,-3.7753190994262695,4.37633752822876,-9.457626342773438,-0.5783034563064575,23.865385055541992,-15.166179656982422,8.829519271850586,12.955086708068848,-12.321737289428711,2.2409653663635254,5.015195369720459,-9.64530086517334,3.5918312072753906,-25.446979522705078,14.544763565063477,-12.877204895019531,-6.662270545959473,15.08141803741455,9.680521011352539,6.291150093078613,-1.0610162019729614,-8.762275695800781,1.5613665580749512,-1.692214012145996,-6.39424467086792,-0.4960090219974518,1.2988059520721436,0.7230377197265625,-6.779885292053223,-5.295825481414795,-2.582430362701416,-0.6898515224456787,1.012001633644104,-0.9780223369598389,2.625004529953003,3.2208383083343506,-3.231983184814453,-3.894794464111328,-5.3157057762146,-5.604121685028076,-5.108004093170166,5.6937689781188965,-4.280092239379883,-0.13967013359069824,-0.487792044878006,-2.3060102462768555,2.112982988357544,-5.558690547943115,-0.908064603805542,-1.156738519668579,-0.4131705164909363,-8.138687133789062,1.4709649085998535,5.783054828643799,-6.603454113006592,-4.41597318649292,1.100517988204956,3.0786213874816895,-7.873085021972656,5.042041778564453,0.034712377935647964,6.186455726623535,-2.6719419956207275,-1.3465890884399414,0.5263869166374207,-6.454642295837402,2.672208547592163,2.3896634578704834,-1.8234909772872925,2.6271286010742188,-0.5404233932495117,-7.890065670013428,3.3620357513427734,2.3591389656066895,1.3348687887191772,1.9269274473190308,3.310847282409668,1.7619633674621582,-1.5819801092147827,2.504239082336426,0.34546828269958496,0.2502061724662781,2.361342430114746,8.540091514587402,-1.4191431999206543,4.094432353973389,0.62215656042099,0.38322803378105164,-1.133030891418457,3.2757151126861572,-2.8200886249542236,5.187101364135742,2.2553980350494385,1.9579299688339233,-2.9575037956237793,-0.48837095499038696,1.0272741317749023,0.577006995677948,-2.3001623153686523,-0.4091707766056061,6.595617294311523,0.6179153919219971,0.10174781829118729,5.487781524658203,-0.5252513289451599,-0.35009339451789856,0.07781517505645752,2.741136074066162,1.453494668006897,4.07253885269165,-7.8198442459106445,0.4179508686065674,1.1781113147735596,5.106955528259277,2.3990166187286377,-0.38094857335090637,-0.5311488509178162,-1.0528980493545532,-1.562711477279663,5.921558856964111,-1.0965754985809326,-9.221258163452148,7.731829643249512,0.6332282423973083,-4.21388053894043,0.8215997815132141,2.5332019329071045,1.4408048391342163,-1.2754223346710205,0.00033754369360394776,3.3674845695495605,-0.65506911277771,4.150264739990234,3.8608665466308594,8.238369941711426,7.545433521270752,2.30735182762146,2.6705167293548584,8.285673141479492,-0.17017871141433716,-2.4191083908081055,-4.199301719665527,2.362539052963257,3.0435962677001953,-6.593329429626465,5.819545269012451,1.875779628753662,-6.733792304992676,-2.9580535888671875,5.348437786102295,2.8015968799591064,-1.2288322448730469,5.81605863571167,4.570215225219727,0.42237588763237,-2.9298324584960938,4.00929069519043,-1.9809443950653076,3.803393840789795,-3.699725389480591,4.332755088806152,6.544466495513916,-5.35866117477417,5.693195819854736,0.7309980392456055,1.692158579826355,1.2272028923034668,-1.7191345691680908,22.663803100585938,-17.666955947875977,5.0770087242126465,5.566495895385742,18.645570755004883,2.7617554664611816,-14.843194961547852,-4.835575580596924,-5.688547611236572,12.042162895202637,14.727205276489258,-15.576959609985352,-6.804347515106201,3.1918342113494873,10.139973640441895,12.687186241149902,14.510834693908691,2.9791762828826904,1.3205596208572388,0.8964510560035706,5.861302375793457,-1.3767460584640503,-20.92970848083496,-18.80164909362793,-14.964860916137695,-1.534960389137268,3.168590545654297,2.309859037399292,-7.552701950073242,1.5861141681671143,9.118968963623047,1.8875641822814941,-18.553075790405273,1.9951016902923584,8.001139640808105,1.475742220878601,28.421283721923828,26.533931732177734,10.632894515991211,2.0195846557617188,-5.231327056884766,-1.5886939764022827,11.35501766204834,-14.733181953430176,-2.3649916648864746,-3.9122655391693115,-1.853438377380371,19.014806747436523,-3.0001275539398193,10.100735664367676,2.4835708141326904,4.271660804748535,-2.0026090145111084,-3.974313259124756,-0.1636713594198227,1.6116762161254883,1.1855438947677612,-3.4515981674194336,-1.3361924886703491,7.07499885559082,-2.0934560298919678,-3.7564449310302734,4.574683666229248,-5.321671962738037,-2.519857406616211,3.110835552215576,-8.481433868408203,-2.310236930847168,1.5679082870483398,2.7701005935668945,-4.449892044067383,-5.453030109405518,2.6728293895721436,1.7495627403259277,4.0127387046813965,12.918598175048828,-6.425299644470215,-3.287273406982422,0.5016104578971863,7.009525775909424,-0.7912360429763794,-7.013423442840576,4.142457962036133,-9.256003379821777,4.9647088050842285,-4.083105087280273,2.1877832412719727,6.048825740814209,1.2873185873031616,-5.469700813293457,-3.9035544395446777,2.468519926071167,-2.826479911804199,-0.6514147520065308,-3.5575451850891113,9.81939697265625,-4.083739757537842,-0.12691469490528107,-5.50718879699707,1.6557561159133911,3.3146777153015137,6.595701217651367,7.926862716674805,-3.8038759231567383,8.761810302734375,-6.353522777557373,-10.04411506652832,-8.579450607299805,2.595075845718384,1.340116262435913,0.8507369756698608,-2.7764892578125,-2.506655216217041,2.337282419204712,1.054940104484558,-4.68416166305542,4.132521152496338,3.8097620010375977,-3.441025972366333,3.121633291244507,-5.038453578948975,-6.688125133514404,5.828824520111084,-3.30155086517334,-0.4351101815700531,7.073486328125,7.7570905685424805,3.75345778465271,-3.8997232913970947,-4.404223918914795,0.2120087742805481,-14.673078536987305,-5.1871795654296875,-7.530263900756836,-2.5235328674316406,-2.7889504432678223,-0.18994519114494324,-1.272798776626587,-0.12943033874034882,-3.4519097805023193,0.6226957440376282,-0.5942891240119934,1.5599937438964844,5.185861110687256,5.259139060974121,-1.5563359260559082,0.6705749034881592,5.793203830718994,0.8289374113082886,-2.7356820106506348,3.8307950496673584,0.04930735006928444,-0.282021164894104,-3.013930082321167,4.5147223472595215,2.291930913925171,6.315296173095703,2.8435962200164795,0.760376513004303,-4.966636657714844,-3.6450395584106445,2.583329916000366,3.091660737991333,-1.7965525388717651,0.006681724451482296,-3.3854994773864746,0.3445494472980499,7.818244457244873,2.337071418762207,-4.058722972869873,-3.9107911586761475,5.979062080383301,4.12680196762085,-8.681821823120117,4.589392185211182,3.1751744747161865,1.0510368347167969,-1.6317706108093262,1.5616158246994019,2.5879430770874023,-1.458855152130127,12.719956398010254,-1.753879427909851,1.8255183696746826,2.077057123184204,12.511004447937012,-5.694912910461426,7.768680572509766,1.0109529495239258,2.550225019454956,-0.48116859793663025,-5.5623931884765625,0.5468470454216003,0.16187135875225067,5.93619441986084,5.4833292961120605,2.4233243465423584,-9.350922584533691,-1.4246256351470947,-0.4090230464935303,-4.347399711608887,2.2175559997558594,0.3681912422180176,-3.7814176082611084,-1.2102735042572021,1.3623290061950684,5.856247901916504,-0.5358266234397888,-0.05616133287549019,1.0854239463806152,-1.0519049167633057,-4.374799728393555,-6.076810359954834,3.8990442752838135,7.287718296051025,-5.18293571472168,-3.3294177055358887,3.054213047027588,-2.313002109527588,3.5925183296203613,-5.318233489990234,2.2076027393341064,-6.127547740936279,-10.623842239379883,4.888510704040527,4.683079719543457,-7.6781721115112305,0.6439548134803772,-1.318471074104309,-9.245366096496582,-5.659491539001465,14.770171165466309,1.2747939825057983,-9.698297500610352,-8.895752906799316,-3.116856336593628,-1.8496049642562866,0.72063809633255,2.802783727645874,2.1429479122161865,-7.050937652587891,2.6147449016571045,-1.598616361618042,-1.8328033685684204,-10.30119514465332,-0.35698848962783813,2.5249221324920654,7.2203545570373535,5.803990364074707,-7.715400695800781,-0.6801120638847351,-0.9703144431114197,3.9999024868011475,4.8854660987854,0.6519120335578918,6.478099346160889,-3.2505128383636475,5.587763786315918,1.8991385698318481,1.7662241458892822,7.302119255065918,0.034096214920282364,-3.3871052265167236,3.0259904861450195,-3.3979132175445557,-0.6011636853218079,-1.6661036014556885,1.8809186220169067,-0.3471341133117676,-4.482786178588867,-5.006903648376465,6.971689701080322,-3.9818389415740967,4.7005205154418945,-3.315821886062622,-5.9149169921875,-2.4674062728881836,5.7716827392578125,8.623254776000977,6.009750843048096,-2.9644434452056885,1.4915802478790283,-2.175739288330078,-6.781637191772461,1.6304758787155151,0.033951081335544586,1.1541513204574585,-2.6819629669189453,-2.217848062515259,10.825952529907227,-8.599160194396973,-5.496818542480469,3.876824378967285,3.596078872680664,2.7290637493133545,10.761591911315918,-3.2783961296081543,0.7662913203239441,1.615964651107788,2.7876200675964355,-0.023053288459777832,0.23500631749629974,2.006901741027832,2.957958698272705,1.71714448928833,6.360896110534668,-1.2913620471954346,-9.760234832763672,3.3889923095703125,-8.623963356018066,-8.020899772644043,-3.4148097038269043,-4.427146911621094,0.48146355152130127,11.166252136230469,-2.1553101539611816,-3.415280818939209,-0.3068881332874298,-1.6193026304244995,0.23901338875293732,-3.704874038696289,-7.775630474090576,7.143576622009277,-0.6589325666427612,-5.940287113189697,-2.156728982925415,-1.8495210409164429,-1.1079280376434326,-4.780451774597168,-0.4384841322898865,2.300747871398926,-7.794058322906494,1.478395700454712,3.5167970657348633,12.242966651916504,6.224235534667969,-11.814844131469727,-3.5184171199798584,-1.1164051294326782,-6.129451751708984,-4.807184219360352,3.9741270542144775,1.0859473943710327,13.094952583312988,4.844369888305664,0.07249312102794647,3.9709479808807373,-3.6567933559417725,-4.201297760009766,-4.296496391296387,-3.156409978866577,-4.049243927001953,-5.8517560958862305,-1.5533605813980103,-1.997106909751892,5.655182361602783,-5.138072490692139,-3.749053478240967,-1.5355322360992432,0.30605193972587585,4.056448459625244,-3.8174800872802734,-5.777129650115967,-9.5828857421875,-3.142993927001953,-6.220760822296143,4.266976833343506,-1.4098104238510132,6.097445011138916,14.817156791687012,5.460747241973877,-11.04846477508545,-4.646402359008789,3.512265920639038,3.9528512954711914,6.202698230743408,-2.3482542037963867,-2.1103808879852295,-2.3185997009277344,-3.0381276607513428,10.038287162780762,13.140891075134277,-0.3619273602962494,3.8387277126312256,-3.12688946723938,0.5466662645339966,-7.719246864318848,7.810007572174072,7.47858190536499,4.393246650695801,2.3718323707580566,-5.400238990783691,-1.5738383531570435,-1.610964059829712,-0.2822638154029846,-5.147822856903076,3.117814779281616,-17.356204986572266,5.642953395843506,3.1297008991241455,-2.6206092834472656,4.904529094696045,5.7138872146606445,-3.130667209625244,-3.400034189224243,0.5038048624992371,0.3145902156829834,0.214553102850914,4.709613800048828,-5.791019916534424,7.781998157501221,-8.950536727905273,-10.544373512268066,3.94474720954895,4.379768371582031,3.744529962539673,9.260416030883789,-4.846840858459473,-2.1475260257720947,3.8351547718048096,6.63460111618042,8.524911880493164,-1.4916250705718994,-11.656821250915527,10.576807975769043,1.7304022312164307,0.33996137976646423,-4.562380313873291,-6.901420593261719,0.6581289172172546,-11.561430931091309,2.094679594039917,-2.559711456298828,7.687636375427246,7.099015712738037,6.978235244750977,12.024998664855957,2.9269306659698486,-14.169612884521484,0.651190459728241,-8.038658142089844,3.755061626434326,15.76158618927002,-17.284040451049805,-5.682547569274902,7.228923320770264,9.248149871826172,-4.491916179656982,4.541589736938477,-2.72121000289917,-9.597670555114746,-0.15109935402870178,-8.390267372131348,2.2428629398345947,5.344912528991699,1.6850355863571167,3.1269514560699463,11.325812339782715,-6.1336798667907715,-11.848922729492188,0.15390019118785858,0.6409806609153748,-3.1626203060150146,2.9861080646514893,5.213557243347168,6.7618727684021,0.7217913866043091,2.8874599933624268,3.972867012023926,-2.5874414443969727,-7.965854644775391,0.5922555327415466,3.5120623111724854,1.3199975490570068,0.2841096520423889,-4.536374092102051,-3.436922311782837,2.241941452026367,12.482041358947754,1.9140045642852783,2.5384881496429443,-0.4271339774131775,-7.648185729980469,4.464751243591309,-9.883159637451172,6.3291521072387695,-7.443699359893799,-2.0263237953186035,1.8119887113571167,-0.031035201624035835,2.5262668132781982,6.3760762214660645,-4.073149681091309,-0.9357144832611084,3.850036382675171,-3.445429563522339,-4.338796138763428,-4.89316463470459,-2.590968370437622,5.257057189941406,-4.664958477020264,2.997655153274536,-1.662367343902588,0.4278358817100525,-2.971278667449951,-2.501821517944336,2.0240466594696045,-4.161944389343262,1.5554450750350952,-3.5045480728149414,-2.0015904903411865,-0.6446404457092285,3.7221553325653076,4.789704322814941,2.42924165725708,-6.783938407897949,-9.192586898803711,-0.3654833137989044,0.2673763632774353,1.5563886165618896,0.17261116206645966,3.099003314971924,0.26135092973709106,5.779194355010986,-2.278393030166626,-3.070835828781128,-0.8375458121299744,2.521444082260132,-2.5492899417877197,-0.06587877124547958,1.443660020828247,-10.83282470703125,-4.4334211349487305,2.554546356201172,-0.33299994468688965,-5.30480432510376,-1.8237065076828003,-0.1659034788608551,5.298044681549072,1.283271312713623,-2.3503799438476562,4.093328952789307,-3.7950074672698975,2.575953245162964,-2.441819906234741,1.5118553638458252,1.5834463834762573,-1.23408842086792,1.5397398471832275,4.811765670776367,-3.548401355743408,4.499268531799316,3.7790701389312744,-0.884364664554596,-1.2859214544296265,2.0473031997680664,2.033726453781128,3.9936840534210205,-0.8251614570617676,-2.5121800899505615,-3.853485107421875,-1.8743515014648438,-0.8340646624565125,-1.692751169204712,-2.7370505332946777,3.725449323654175,-2.6419553756713867,-2.589005947113037,4.733597278594971,2.709242105484009,4.258831977844238,-1.261472225189209,6.250053882598877,-0.09161253273487091,-1.1629185676574707,6.967944145202637,0.021290592849254608,-0.9428595304489136,4.10701847076416,-2.957967758178711,-3.1257622241973877,3.1171929836273193,1.0386096239089966,2.900371551513672,-2.252253532409668,1.1849130392074585,-1.550528645515442,-3.284878969192505,17.83475685119629,4.452614784240723,8.700252532958984,-17.82026481628418,-0.5079051852226257,2.498660087585449,-0.39513686299324036,-0.7277106642723083,2.7379181385040283,-2.3616511821746826,-8.750805854797363,0.0835309699177742,-1.7349222898483276,18.58588218688965,5.5956807136535645,-0.07820462435483932,1.29448401927948,-2.7234301567077637,-6.35534143447876,6.127649784088135,2.2484211921691895,1.1139627695083618,-6.99571418762207,-10.383709907531738,1.6713004112243652,9.907042503356934,14.86666202545166,-9.652928352355957,-9.792878150939941,2.119367837905884,5.665289402008057,0.6528773307800293,-13.879596710205078,4.579093933105469,-5.135351657867432,21.437847137451172,-1.7806555032730103,-4.498074531555176,3.2492332458496094,7.251492977142334,-5.88014030456543,-15.96374225616455,7.321288585662842,-8.820816040039062,-4.8459906578063965,0.9263982176780701,8.726043701171875,3.3967630863189697,-1.2197086811065674,2.4042344093322754,4.905731201171875,-2.670473337173462,2.7770462036132812,5.718446731567383,11.220566749572754,-11.520316123962402,-4.520427227020264,-6.365897178649902,-3.4699552059173584,-2.634734630584717,3.0459351539611816,3.4856293201446533,0.4556683599948883,8.277708053588867,1.4091978073120117,10.14641284942627,-1.7142767906188965,1.0279433727264404,14.499082565307617,-0.04060322046279907,-6.298149585723877,5.805109024047852,1.3746687173843384,6.302347660064697,4.178977966308594,4.397406578063965,2.209125518798828,-1.9019359350204468,-3.2307841777801514,5.071364879608154,5.037026405334473,-1.9217915534973145,0.6995130181312561,-0.9894363880157471,2.398979425430298,-4.942241668701172,0.19637495279312134,-5.830943584442139,7.930291652679443,-6.0574822425842285,1.2274553775787354,0.675670325756073,3.1222984790802,-3.197709798812866,9.983560562133789,3.3429434299468994,-1.8074970245361328,-3.746060371398926,10.38666820526123,-9.08095932006836,17.447368621826172,-0.8887019753456116,-6.538660049438477,-8.956684112548828,-2.301161289215088,5.795915126800537,-4.541636943817139,19.397933959960938,3.798750400543213,-12.775605201721191,-9.065450668334961,13.572997093200684,2.7200679779052734,7.1343841552734375,0.2574773132801056,3.9265668392181396,-0.049826376140117645,1.474926471710205,-5.924567222595215,7.827934265136719,-1.2035363912582397,2.935596466064453,-4.468214511871338,-7.92399263381958,-2.1812448501586914,4.670317649841309,-9.71159839630127,17.870153427124023,7.964341640472412,1.683961033821106,-2.7350738048553467,2.0183300971984863,-13.22188949584961,3.3695170879364014,8.35237979888916,17.520431518554688,1.3557136058807373,12.655656814575195,-10.747636795043945,-8.97578239440918,11.319841384887695,0.1003042459487915,2.3851380348205566,-3.8579187393188477,-5.4408440589904785,-16.203746795654297,-13.639448165893555,12.947553634643555,14.881927490234375,28.50894546508789,6.793979167938232,-36.4769172668457,9.358660697937012,3.31125807762146,-25.34263038635254,-9.09959602355957,-15.096023559570312,51.996604919433594,-13.483041763305664,9.232081413269043,-15.523486137390137,10.277490615844727,15.749119758605957,-5.8491621017456055,-19.54243278503418,22.658061981201172,18.00312042236328,-30.561859130859375,-18.036029815673828,0.8030080795288086,21.334178924560547,-1.6641156673431396,-21.753089904785156,28.182884216308594,6.2639970779418945,8.49232006072998,-28.852582931518555,-21.334375381469727,-24.21181869506836,24.214479446411133,-8.527658462524414,-37.873199462890625,0.35201495885849,-8.543922424316406,2.8868889808654785,-14.858397483825684,13.432058334350586,-40.0163459777832,-30.152664184570312,-8.827333450317383,2.965547800064087,13.160605430603027,4.25104284286499,12.507515907287598,19.564022064208984,-13.088398933410645,19.692840576171875,0.8522286415100098,4.782337665557861,-6.074464797973633,-33.483585357666016,27.242544174194336,14.50302505493164,8.410178184509277,2.802156686782837,14.1583251953125,11.405193328857422,-14.42507553100586,4.305913925170898,8.325617790222168,-0.9893505573272705,-0.36655697226524353,20.462682723999023,-22.43659210205078,-16.31731605529785,16.264204025268555,-1.8116211891174316,-10.17033863067627,-10.903388023376465,27.600852966308594,3.5933501720428467,9.56843376159668,12.142928123474121,-7.459042549133301,0.6411447525024414,-2.7582077980041504,-6.721696376800537,-4.174847602844238,-12.759529113769531,7.366809844970703,-11.2872896194458,6.871419429779053,9.544107437133789,6.968216896057129,21.427104949951172,-5.157649517059326,3.2243430614471436,-10.345444679260254,16.275941848754883,-10.187536239624023,-14.1070556640625,11.874455451965332,-4.153836727142334,4.735659599304199,-0.251094251871109,-10.446362495422363,0.6757599711418152,11.609318733215332,5.357668399810791,17.73997688293457,-3.489968776702881,8.770735740661621,-5.105900764465332,4.865102291107178,-13.44533634185791,1.6293880939483643,-3.92728328704834,-14.900794982910156,1.3990488052368164,-13.441876411437988,30.634138107299805,2.020747184753418,24.337081909179688,-3.2489147186279297,2.5471975803375244,4.512365818023682,-17.404190063476562,13.52678108215332,-24.036834716796875,-10.782363891601562,7.501636028289795,3.881288528442383,22.448102951049805,4.245110988616943,6.501694202423096,1.2558166980743408,2.685791254043579,-7.378942966461182,-8.15822982788086,1.2658647298812866,-8.692581176757812,2.906407594680786,28.523862838745117,4.221581935882568,5.614800930023193,14.93146800994873,27.800451278686523,0.4623934030532837,-2.1451542377471924,-3.665294647216797,-9.015824317932129,13.814319610595703,-5.734844207763672,10.552309036254883,-2.407738208770752,-1.709474802017212,-1.6030060052871704,6.524978160858154,6.803407192230225,2.977891683578491,3.6648306846618652,-7.933348178863525,0.021120525896549225,-1.5392518043518066,-4.172743797302246,4.78960657119751,-5.413640022277832,-1.6620031595230103,2.7141501903533936,2.6012887954711914,-0.270082950592041,3.0989344120025635,-6.659384250640869,-3.6368067264556885,8.240266799926758,2.6165218353271484,-0.7320852875709534,-10.348904609680176,-2.715075731277466,10.147419929504395,-3.717439651489258,1.0354198217391968,-2.06543231010437,2.439481735229492,-4.271538257598877,-3.2754318714141846,2.9765079021453857,-10.483753204345703,2.221583127975464,0.11432455480098724,-6.483700275421143,-3.2960169315338135,1.3757555484771729,-5.882452011108398,7.671619892120361,10.341465950012207,-6.236917018890381,5.458705425262451,-10.381036758422852,1.0869325399398804,2.545409679412842,-2.77656626701355,8.415164947509766,-16.123306274414062,12.94483470916748,-43.172279357910156,1.0956733226776123,21.106372833251953,16.809057235717773,9.192605972290039,12.960761070251465,-10.747344970703125,-28.165977478027344,9.735952377319336,-9.932551383972168,2.470583200454712,-14.035374641418457,-3.8647146224975586,-46.57422637939453,-6.447699546813965,-11.293246269226074,18.881635665893555,11.234773635864258,-6.347581386566162,-9.08569622039795,12.170303344726562,-6.813299655914307,-2.696345090866089,-41.61349105834961,-12.260581016540527,-40.33241271972656,21.512479782104492,-18.123010635375977,-10.814380645751953,-21.604068756103516,-21.824357986450195,5.242636203765869,-9.262520790100098,24.724605560302734,-1.301453948020935,-24.14098358154297,-7.407405853271484,-54.741249084472656,50.55229187011719,-11.19752025604248,-19.053010940551758,-31.41788101196289,9.592805862426758,8.647068977355957,-7.628475666046143,15.602365493774414,1.0642023086547852,-1.8836573362350464,-0.4173242747783661,0.4540804922580719,-6.8239874839782715,1.4238871335983276,7.518800735473633,-15.16128921508789,-9.34741497039795,-6.9958367347717285,-14.482316017150879,5.298939228057861,0.04698571190237999,4.641116142272949,0.05733984336256981,11.036020278930664,-14.72394847869873,6.505730628967285,-18.066896438598633,0.8745768666267395,4.9389753341674805,1.4311368465423584,11.7503023147583,24.756574630737305,-6.058401107788086,11.695578575134277,6.425522804260254,2.748474359512329,-3.2874231338500977,-7.145025253295898,-4.612667083740234,1.2420812845230103,16.39738655090332,14.135489463806152,-1.149304747581482,17.892528533935547,8.268659591674805,-12.476607322692871,-13.861807823181152,1.675190806388855,-8.050765991210938,-6.9382147789001465,2.2049560546875,5.603140830993652,-10.364534378051758,0.0971486046910286,0.32697954773902893,6.46279239654541,11.375763893127441,-13.31840991973877,-2.2747814655303955,-8.520261764526367,18.762496948242188,-28.780948638916016,-28.731670379638672,11.56457233428955,6.434101104736328,10.097783088684082,28.00840187072754,10.529763221740723,-5.035146713256836,-3.223095417022705,-13.745461463928223,42.04789733886719,-0.24415650963783264,9.726974487304688,-37.214962005615234,-2.702258348464966,-34.81073760986328,-15.634136199951172,16.86870574951172,-14.359705924987793,-8.836868286132812,-15.198363304138184,-38.30394744873047,-3.6887853145599365,9.372570991516113,-27.348194122314453,-19.236726760864258,-19.89972496032715,1.4393367767333984,8.883445739746094,3.6768856048583984,-6.763527870178223,-1.0889668464660645,17.55593490600586,0.21511001884937286,-9.17017936706543,-4.762953281402588,36.48126983642578,11.353387832641602,-32.927398681640625,20.85247039794922,1.5362958908081055,-32.36606979370117,24.00685691833496,8.096614837646484,-19.85492706298828,17.643442153930664,-1.6794416904449463,0.8804135918617249,-27.643930435180664,2.7353527545928955,-5.17437744140625,23.021987915039062,15.195755958557129,-38.70932388305664,-24.832164764404297,-1.2406880855560303,11.196844100952148,10.330150604248047,-7.644940376281738,-7.781181812286377,-19.554845809936523,-5.5239129066467285,-26.56778907775879,0.8253960609436035,-12.087438583374023,-5.738669395446777,13.992654800415039,-1.4351985454559326,-25.781578063964844,-6.558098316192627,14.418913841247559,-0.9193785190582275,-21.452865600585938,-12.984384536743164,-11.558575630187988,-8.773045539855957,-19.487268447875977,14.47983455657959,6.767216682434082,-28.627639770507812,-17.144834518432617,-22.19795799255371,-14.697516441345215,-12.958882331848145,1.3248016834259033,-31.680706024169922,9.39103889465332,-16.829574584960938,-23.518539428710938,7.865178108215332,-9.175840377807617,50.55440139770508,0.32900846004486084,-11.021809577941895,-11.361207962036133,-0.8198065161705017,-2.9455549716949463,-0.890265703201294,-1.851420283317566,-0.19398348033428192,-0.03704565018415451,-1.9028265476226807,0.08295120298862457,0.9099308848381042,0.33632054924964905,0.7193576693534851,0.9531294107437134,2.2460761070251465,0.7531874775886536,1.625556230545044,-0.5211935043334961,-1.0116686820983887,-2.2241952419281006,3.583124876022339,-0.07047142088413239,-0.9396580457687378,0.37001100182533264,4.798283576965332,2.167158603668213,-0.5293872356414795,-0.08594167232513428,-1.6815394163131714,2.3945579528808594,1.2692257165908813,-0.5309634804725647,-0.8857316374778748,-1.385061502456665,4.387457370758057,0.7379096150398254,1.118029236793518,0.036682069301605225,0.5688936710357666,-3.2371857166290283,-3.6508285999298096,0.9243932366371155,-0.6841650605201721,0.1212180107831955,1.0168498754501343,-0.7386636137962341,-0.8047942519187927,-1.8586450815200806,-0.6287448406219482,1.5999603271484375,-5.1916046142578125,-0.10595180094242096,0.7164425849914551,-0.6907002925872803,0.30358245968818665,1.6283040046691895,-1.9491677284240723,0.5352934002876282,2.913724422454834,0.45803675055503845,1.648881196975708,0.9994138479232788,-0.5929838418960571,-0.3490809500217438,-1.2002638578414917,1.7600029706954956,4.19732666015625,-0.37466153502464294,1.9200353622436523,1.4309288263320923,0.7155914306640625,0.45540469884872437,-0.14352843165397644,-0.5371032357215881,-0.848734974861145,-1.6032545566558838,-3.421898126602173,1.9117910861968994,0.7028663158416748,2.4538393020629883,-0.39526352286338806,-0.00116610003169626,-0.4547593891620636,-0.33553358912467957,0.9695146679878235,-0.5294597148895264,-1.6635562181472778,0.998537540435791,2.2281439304351807,-0.27398520708084106,3.209733009338379,-0.6551318764686584,-0.07090502232313156,1.3893288373947144,0.7571837306022644,1.229817509651184,-1.4995896816253662,-0.8255392909049988,-0.422174870967865,1.5258135795593262,0.0027777801733464003,-0.0052529070526361465,-0.0003961905022151768,0.003940352238714695,-0.005110297352075577,0.004946459550410509,0.0034436513669788837,-0.00244316179305315,-0.00019312147924210876,0.0006769045139662921,0.001901083393022418,0.0034234439954161644,0.004904523491859436,-0.0001480633218307048,0.005130758974701166,0.004858329426497221,-0.005182235036045313,-0.002861376851797104,-0.0044207326136529446,-0.001014208304695785,0.0006217464106157422,-0.003576788818463683,0.003761382307857275,0.0002885756257455796,0.004512809216976166,0.0004852499987464398,0.002907382557168603,-0.0015701275551691651,0.0001323018950643018,-0.004751969128847122,-0.0035952709149569273,0.00029082060791552067,-0.0033099870197474957,-0.0039093466475605965,0.0004910260322503746,0.0023688548244535923,-0.0026994149666279554,0.0043922592885792255,0.001479094149544835,0.00460111815482378,0.0020522568374872208,-0.0027531979139894247,-0.001067637000232935,0.0011659502051770687,0.001246146159246564,-0.0011955993250012398,0.0040368577465415,0.0033628831151872873,-0.004865687340497971]},"hiddenLayers":[{"inputMatrix":{"rows":20,"columns":49,"weights":[2.570415496826172,2.4308927059173584,-1.1316807270050049,1.6281418800354004,0.5584769248962402,-3.034151554107666,0.6690341830253601,-0.5426047444343567,1.8452216386795044,0.3799426555633545,-0.8697000741958618,2.432891845703125,-1.9578722715377808,-1.854358434677124,-0.646722674369812,1.7515196800231934,-2.1616127490997314,2.250394582748413,-0.13253360986709595,0.9519438147544861,1.6447641849517822,2.1250269412994385,-3.5930206775665283,0.5231739282608032,-0.5437789559364319,2.0657808780670166,-0.9334405660629272,0.36870595812797546,0.4950576424598694,2.8053340911865234,0.14420384168624878,-0.3584275245666504,-0.3612184226512909,-1.5442110300064087,0.17097631096839905,-0.18625003099441528,0.9241077303886414,3.27597975730896,0.022544821724295616,1.0653302669525146,0.9055929780006409,-1.1002535820007324,0.020855514332652092,0.5986216068267822,-1.004022479057312,-2.1001031398773193,0.3959481120109558,0.6048730611801147,0.8167572021484375,1.0719561576843262,1.9234086275100708,-1.8718088865280151,-2.3441200256347656,-0.6379165649414062,2.2450647354125977,-1.5893794298171997,1.5555779933929443,0.4583335816860199,-0.469493567943573,-1.370296597480774,-0.8595450520515442,-0.05089832469820976,0.3211503028869629,-0.15526914596557617,-1.8453243970870972,0.8373393416404724,-0.287697970867157,-1.2048276662826538,2.618572950363159,1.904186725616455,-1.0519963502883911,0.46544596552848816,1.3900842666625977,-0.28304874897003174,1.75283944606781,-1.2868386507034302,-1.6004348993301392,0.9983059763908386,-1.4761056900024414,-0.8748460412025452,-0.5739284157752991,0.26008984446525574,-0.2979372441768646,0.0033763342071324587,1.5709420442581177,0.7019809484481812,-0.5202457904815674,-0.6106688976287842,-0.7406833171844482,1.6498030424118042,-1.2107765674591064,0.2121112197637558,-1.4447218179702759,-1.0992876291275024,0.5935302376747131,1.3270885944366455,-0.1116350069642067,-0.9239436388015747,-0.8295329809188843,0.41822540760040283,0.29339513182640076,-1.0377200841903687,-1.4636240005493164,1.7993701696395874,1.646962285041809,-1.5555626153945923,0.9320307970046997,-1.0232080221176147,0.555309534072876,-0.5953858494758606,-1.7821435928344727,0.9106473326683044,0.48043081164360046,-0.440254807472229,-1.4690042734146118,-0.8733983039855957,-1.6364340782165527,0.08135099709033966,0.9071537256240845,-0.7618637084960938,-0.3304368555545807,-1.6577714681625366,-0.8501153588294983,-0.45971930027008057,-0.277150422334671,-1.1621912717819214,0.34555456042289734,0.4717303216457367,-2.1984846591949463,-0.8084818124771118,-0.010303670540452003,-1.5851682424545288,-1.8522896766662598,1.2435029745101929,-1.253266453742981,-1.2789297103881836,0.24433055520057678,0.030448157340288162,0.6748715043067932,0.4588247835636139,-0.44324585795402527,0.2606872618198395,-1.656920313835144,0.911190927028656,1.1315487623214722,-0.38000696897506714,0.16693224012851715,-0.6047634482383728,2.059429168701172,0.0011832809541374445,-0.23591814935207367,2.2420456409454346,-2.8858237266540527,0.2038508504629135,2.425506591796875,-0.06349547952413559,0.6550830602645874,0.4524848461151123,-1.685967206954956,1.6087177991867065,-3.2221713066101074,-1.500770926475525,-0.4006556272506714,-0.37456202507019043,-0.6636803150177002,3.257179021835327,0.4224626123905182,-1.9840941429138184,-1.3048900365829468,-1.1418614387512207,1.108054280281067,0.23574750125408173,-1.953784704208374,-1.0521910190582275,1.1975177526474,4.025592803955078,0.8947268724441528,-2.645108461380005,-1.7294334173202515,-1.0587559938430786,0.9916278719902039,0.09863883256912231,-3.1708645820617676,1.3450568914413452,0.5821537971496582,-1.2912601232528687,-0.011594164185225964,1.1713465452194214,-1.5745946168899536,1.0773401260375977,-0.762384831905365,1.8089603185653687,-1.1043866872787476,0.15389563143253326,2.2937333583831787,-1.0723063945770264,0.7360435724258423,1.7400192022323608,0.6388196349143982,-0.10621953755617142,0.365907222032547,-0.6839712262153625,-0.6531221866607666,0.713829755783081,1.0950464010238647,2.289565086364746,-0.6963105797767639,-2.179657220840454,2.837944269180298,-0.10247233510017395,0.47007203102111816,0.15467286109924316,0.4911603331565857,-0.5301696062088013,-0.6205310821533203,-1.610266089439392,-0.046337224543094635,0.7006009817123413,0.7149191498756409,-2.135305643081665,-0.8999245166778564,0.8708744645118713,0.2418622523546219,0.1485898494720459,0.49666547775268555,1.3948744535446167,0.9832243323326111,0.8898085355758667,0.10184841603040695,0.8611692786216736,0.4510883092880249,-0.8179041743278503,3.153224468231201,0.9558908939361572,1.6049023866653442,-0.4835397005081177,0.740858793258667,-1.0869485139846802,-1.2064231634140015,0.8867312073707581,0.22622132301330566,-1.4506375789642334,-1.3456504344940186,0.19856314361095428,3.205064535140991,2.275568962097168,-0.11122318357229233,2.0869991779327393,2.026562213897705,-1.1551649570465088,0.39308279752731323,2.1444168090820312,-1.2973970174789429,0.29331880807876587,1.5642980337142944,1.7868573665618896,0.3073570430278778,-1.3413653373718262,0.6915856599807739,-0.08338085561990738,3.8084042072296143,-2.196747064590454,2.5255672931671143,0.2595372796058655,-0.7949773669242859,1.2696012258529663,1.053694725036621,0.5423075556755066,-2.2388768196105957,-3.6279640197753906,1.8367551565170288,0.8998101949691772,1.070544958114624,1.357446312904358,0.8587126135826111,-0.4573630094528198,-0.20768196880817413,1.0137001276016235,-1.1370790004730225,0.9170024394989014,-2.3263654708862305,-1.209115982055664,1.1053251028060913,1.3471935987472534,-0.3959416151046753,1.4201689958572388,0.5383082032203674,-2.2292377948760986,-0.2824448049068451,0.18805445730686188,-0.2774713337421417,1.1417689323425293,-1.2349028587341309,-0.10538800060749054,0.6642513275146484,-0.3563954830169678,-0.17431822419166565,-0.5260283946990967,-0.45842283964157104,1.138648509979248,-1.042773723602295,2.3395674228668213,0.7491377592086792,0.7441344857215881,0.1933453530073166,2.6258482933044434,3.363994598388672,-0.7696440815925598,-0.05769087374210358,-1.8108656406402588,-0.17476479709148407,-0.5218449234962463,0.008617333136498928,-0.2097015678882599,0.32022079825401306,1.9360904693603516,1.7000271081924438,3.1398792266845703,2.268440008163452,0.616032063961029,-1.1014609336853027,-0.9520321488380432,1.454345703125,-2.036785364151001,-0.8927628993988037,0.0058230203576385975,-0.9297672510147095,0.9179752469062805,0.425454318523407,-0.478067010641098,0.5530960559844971,-1.7881836891174316,0.06546646356582642,1.2354106903076172,-0.630865752696991,2.148097515106201,-0.15951137244701385,2.071094274520874,-0.019371045753359795,1.5436980724334717,-2.0594897270202637,2.4484148025512695,-0.3146343529224396,-2.222790241241455,-1.1233373880386353,-0.927404522895813,-1.7266391515731812,-0.4448728561401367,1.9642757177352905,0.32778340578079224,-1.7380527257919312,0.34425222873687744,-1.46945321559906,-0.40517881512641907,-1.7864264249801636,-0.127149760723114,2.2214815616607666,0.2262662649154663,-0.5180564522743225,-0.17042136192321777,1.3923335075378418,-1.2332643270492554,-1.9593077898025513,1.798154592514038,0.1293942779302597,2.4158244132995605,-1.1298965215682983,-0.8863994479179382,2.818730354309082,-1.4141286611557007,0.8165234327316284,-2.651078701019287,0.48168933391571045,-0.09774244576692581,1.0232614278793335,1.2782083749771118,0.18492303788661957,0.8402203321456909,0.17280542850494385,0.4982162117958069,-1.221814751625061,0.7232630848884583,-0.9567221999168396,-0.5469152927398682,0.7522645592689514,-0.4543987810611725,1.8332058191299438,-2.253390312194824,-0.5203368663787842,0.8695548176765442,-2.618635654449463,-1.503738522529602,0.5825079083442688,-1.3968440294265747,0.2639208734035492,-0.5572797656059265,-1.6329801082611084,1.3077319860458374,-2.4533274173736572,-2.7240254878997803,0.17209748923778534,0.4721592664718628,0.7657085657119751,0.3710014820098877,1.320910930633545,1.5824788808822632,3.778177261352539,-0.9881295561790466,-1.364705204963684,-0.3202216923236847,-1.1185591220855713,-2.365619421005249,0.7481870055198669,-0.37668660283088684,-0.9282469153404236,-1.776261806488037,0.8044697046279907,3.6822574138641357,0.7369034886360168,0.04640437290072441,0.46222224831581116,1.0421779155731201,0.17532072961330414,2.054635763168335,1.1548120975494385,0.48282721638679504,2.408585548400879,0.004756119567900896,-0.8812148571014404,-0.38743889331817627,1.717374563217163,-0.4224989116191864,-0.7766066789627075,-0.10122614353895187,0.35350745916366577,0.9324068427085876,-0.9134817123413086,0.36985328793525696,-0.24216103553771973,0.8727737069129944,-1.3607221841812134,0.03296371176838875,-0.8088173866271973,-0.12146934866905212,-1.9568941593170166,0.8766900897026062,0.6063165664672852,-1.0536519289016724,-0.5100239515304565,-1.4495570659637451,0.32526013255119324,-1.1176860332489014,-0.7869447469711304,1.146082878112793,1.3231470584869385,1.0336946249008179,-0.757870614528656,2.909619092941284,-1.6419748067855835,0.16461113095283508,0.7359331846237183,-1.6554523706436157,1.068293809890747,0.5619717240333557,0.6882660984992981,1.7966322898864746,1.0485588312149048,-1.2102782726287842,0.07032910734415054,-1.7269740104675293,0.7567570209503174,0.4383552372455597,-0.30730319023132324,0.619077742099762,1.2500135898590088,0.48537346720695496,1.1869665384292603,0.5623827576637268,0.6087086796760559,-0.31839340925216675,1.2640632390975952,-0.6551567912101746,-0.31835323572158813,0.2224632352590561,-0.416187584400177,0.44257545471191406,-0.12368589639663696,0.6864256858825684,1.201296329498291,-1.028572678565979,1.0095059871673584,-0.11908679455518723,0.3052281141281128,0.22024767100811005,-0.7431279420852661,0.08734574913978577,-0.7934417724609375,0.3271213471889496,0.31791985034942627,-0.2249409705400467,2.998706340789795,-0.6669636964797974,0.2536141574382782,0.8545743823051453,0.5524517893791199,0.8640618920326233,-0.22846511006355286,0.47545161843299866,1.7367956638336182,0.47578927874565125,-1.9259858131408691,1.7243657112121582,0.056880347430706024,-0.4173143208026886,-0.44159412384033203,-0.9990707635879517,1.009538173675537,1.3764903545379639,2.5922510623931885,-0.8190755248069763,-0.18475179374217987,-0.648097574710846,0.6511405110359192,-0.40764477849006653,0.28659746050834656,0.2480980008840561,1.6745269298553467,0.2624417543411255,-0.7351488471031189,0.14861612021923065,-1.0392500162124634,-0.8351073265075684,2.9013428688049316,0.723208487033844,3.1342101097106934,0.38560354709625244,-0.47705185413360596,1.0968111753463745,-0.8458545207977295,1.0994881391525269,-1.2126189470291138,-1.7265208959579468,-0.6286256313323975,-0.9487715363502502,1.744759202003479,-0.9421837329864502,-0.676975667476654,-1.9978718757629395,-1.0786744356155396,-3.106184720993042,-0.7305105924606323,2.081252098083496,0.29196593165397644,-1.082305669784546,-0.5918135643005371,0.4175845980644226,1.338708758354187,0.4845985770225525,1.5507863759994507,-2.60675311088562,2.881291627883911,0.5120669603347778,2.534797191619873,0.6705601811408997,0.060919247567653656,-1.447470784187317,-0.33668625354766846,-0.16976583003997803,-0.8990161418914795,0.5030811429023743,1.0473661422729492,1.3837366104125977,0.09450191259384155,-0.01402900367975235,2.801558256149292,-0.4098542332649231,-0.6432940363883972,-2.6108744144439697,-2.272752523422241,-0.2669883966445923,-0.5620944499969482,0.34261834621429443,0.17991626262664795,0.9916813373565674,1.9212943315505981,-1.4468411207199097,1.229339838027954,-2.087218999862671,-2.6887896060943604,-1.8763879537582397,0.4414266049861908,0.8243697881698608,0.9380687475204468,0.9287400841712952,2.60866117477417,-2.342897653579712,-0.30588850378990173,-2.960083484649658,0.7283501625061035,-0.16862423717975616,-0.38018718361854553,-0.3663066029548645,1.240028977394104,0.8156589269638062,-0.4370438754558563,0.8723804354667664,1.9537327289581299,-0.5926505327224731,-0.20323678851127625,-0.4317648410797119,0.8524081110954285,-0.8331960439682007,1.6043076515197754,-1.1230442523956299,-0.5430068969726562,0.8652731776237488,-0.8072172403335571,1.506776213645935,-0.08935392647981644,1.1053211688995361,1.006401538848877,-1.8793485164642334,-1.756056547164917,-0.9036828279495239,-2.7546029090881348,-0.5768477916717529,-0.6161273121833801,1.2348556518554688,-1.3179330825805664,2.7064895629882812,-0.07094837725162506,1.3243101835250854,0.6310945153236389,-0.6921152472496033,1.9300713539123535,-0.8837988972663879,-1.096702218055725,-0.9104947447776794,0.02412029728293419,-0.10729677975177765,-2.2182259559631348,-2.624828577041626,1.6335676908493042,-0.3554420471191406,1.0250097513198853,1.3304333686828613,-0.4262494146823883,-1.4249058961868286,0.021424122154712677,1.5419174432754517,0.4798082113265991,1.4658721685409546,-0.6304590106010437,-2.5572879314422607,-0.8726514577865601,-3.5812716484069824,-0.9408248066902161,2.7475805282592773,-1.1109000444412231,0.45628970861434937,0.5194410085678101,-1.8051958084106445,0.20924627780914307,-0.6737555265426636,-0.9197583794593811,-1.1556304693222046,-1.4517160654067993,-1.6151074171066284,-0.36346036195755005,2.474421501159668,-1.4302892684936523,-0.337446928024292,0.138877272605896,0.337348073720932,-3.541952610015869,0.25920724868774414,-2.4939329624176025,1.3006871938705444,0.7286801338195801,-1.4535102844238281,-2.5137197971343994,-2.0298080444335938,0.5560953617095947,-0.5002237558364868,-0.40557196736335754,1.4732602834701538,1.430470585823059,1.5384190082550049,-1.9608153104782104,0.6052562594413757,-0.06890258193016052,-0.3844124376773834,-0.06239821016788483,1.7905806303024292,0.5144166946411133,-0.1914847046136856,-1.5363624095916748,0.43709903955459595,0.9727272987365723,-0.1596030294895172,0.1049477830529213,-0.7767632603645325,0.13674302399158478,0.7895311713218689,-0.6697425842285156,1.701719045639038,0.10386182367801666,-2.703871726989746,-1.2535276412963867,0.9553164839744568,-0.5196039080619812,0.2655387222766876,-0.11275548487901688,-1.5154012441635132,-0.7070269584655762,-1.5706125497817993,2.101724624633789,2.5020229816436768,-2.6863017082214355,1.1326050758361816,1.298366665840149,0.37758395075798035,-0.9601078033447266,1.3989990949630737,-0.18591934442520142,0.1590844839811325,0.7232260704040527,-0.6292315721511841,0.4386809766292572,-1.3158948421478271,-1.6255204677581787,-1.1992638111114502,-0.8160261511802673,0.33113181591033936,0.31210315227508545,-0.7693119049072266,0.3285176455974579,-2.7425670623779297,-0.6792754530906677,0.5220648050308228,-0.06719657778739929,-2.614614725112915,-1.0194672346115112,1.191331386566162,1.24406898021698,-1.8406286239624023,1.424438714981079,1.443498969078064,-1.9713021516799927,-0.10321571677923203,-2.014308214187622,-0.35525840520858765,-2.655731201171875,0.08630286157131195,-1.3167519569396973,1.2551960945129395,-0.7317796349525452,-0.8132505416870117,0.3483510911464691,1.5278589725494385,2.53536057472229,-0.5645226240158081,0.6215291023254395,-2.373413562774658,-1.4611281156539917,0.5153577327728271,0.47092917561531067,1.6858737468719482,0.7716119885444641,-0.9070127010345459,1.0941108465194702,-1.3099721670150757,-2.001007080078125,0.8496466279029846,-0.26021459698677063,-0.9273956418037415,-1.1990612745285034,-1.4746876955032349,-1.6043498516082764,-1.2108451128005981,0.1092902272939682,0.6669069528579712,1.8562512397766113,-0.4410860538482666,1.4497296810150146,0.2232024073600769,-0.25604358315467834,-1.0457236766815186,0.4049221873283386,-0.7094504237174988,-0.4843476712703705,0.5387963056564331,-0.8997355699539185,-0.13996586203575134,0.19329604506492615,0.1260383427143097,0.1035144254565239,-0.1586463451385498,0.7562932372093201,-1.9352531433105469,-0.10866358876228333,0.23284578323364258,0.25993838906288147,-2.1056668758392334,-1.7928450107574463,-0.5030801296234131,0.9108536839485168,1.7362381219863892,-0.04401238262653351,-2.860664129257202,-0.34984859824180603,-0.04858814924955368,0.444356232881546,-0.10034756362438202,0.38366660475730896,1.9661900997161865,-0.3940665125846863,0.0684361457824707,-0.5398414134979248,0.9239971041679382,0.5024327635765076,-0.0543692447245121,-0.7366672158241272,2.3041694164276123,1.018699049949646,-0.8754740953445435,1.022538185119629,0.9478358626365662,3.266345977783203,-0.8305142521858215,-3.7197694778442383,-0.9178757667541504,-0.4234258532524109,0.5920135378837585,1.234453558921814,-0.7322863340377808,-2.186739444732666,-0.4265194833278656,1.7209203243255615,0.8249837160110474,-0.08592905849218369,-0.38265275955200195,-0.5246984362602234,-1.1363353729248047,-0.03204681724309921,-1.2231719493865967,-1.222338080406189,1.2881449460983276,-2.266990900039673,-1.0358659029006958,-1.7425588369369507,-1.4641200304031372,-0.5502184629440308,0.4715794026851654,0.14832304418087006,0.7148482203483582,-0.5629950165748596,1.5175018310546875,0.23533006012439728,-0.9493829607963562,-1.1424466371536255,-0.6367926597595215,-0.7708185315132141,-0.5750837326049805,1.1855231523513794,0.3630864918231964,-2.048448085784912,-1.7277610301971436,-0.7525753378868103,-1.0510108470916748,-0.8845677375793457,1.6796302795410156,-1.705474853515625,1.9026501178741455,0.12299107015132904,-2.3256802558898926,-0.8308510184288025,-0.36261144280433655,1.0396208763122559,0.9042993187904358,-0.5766433477401733,-0.09611192345619202,2.4887747764587402,0.22222676873207092,0.14705556631088257,0.7187029123306274,0.4358917772769928,0.6407052278518677,0.7362924814224243,-1.3263052701950073,0.5663344860076904,-3.333763360977173,-1.4153844118118286,2.4860036373138428,-0.24848876893520355,0.8881761431694031,-1.6518751382827759,-2.3159663677215576,1.5838594436645508,-1.9680218696594238,-1.5936529636383057,0.860224187374115,0.15849179029464722,-1.0622678995132446,0.16020525991916656,3.8303840160369873,0.5438865423202515,0.6309574246406555,-0.8952282071113586,-2.614989757537842,-2.7433433532714844,1.170414686203003,0.5713093280792236,0.4992884695529938,0.011425061151385307,0.05224812775850296,1.1696598529815674,0.07378184795379639,-1.0007990598678589,-0.4827347695827484,1.4875080585479736,-1.005013346672058,1.2337727546691895,1.4479321241378784,-1.034640908241272,-2.884862184524536,-0.5148218870162964,0.16755101084709167,-0.7089627981185913,1.0728205442428589,1.086216926574707,0.463258296251297,0.4073065519332886,0.5757511258125305,-0.2683488130569458,-0.8251129388809204,0.8066529035568237,-1.5017939805984497,-2.7512662410736084,-2.564671277999878,-1.3837194442749023,1.216796636581421,-0.6648877859115601,1.5812004804611206,-0.5972617864608765,0.5404468774795532,-2.0157275199890137,0.7618845105171204,-1.8330684900283813,2.4299676418304443,0.6635364890098572,-1.347306489944458,0.22579923272132874,0.11052507162094116,1.1108450889587402,2.152564287185669,-0.7724648118019104,-0.6192373633384705,1.8965462446212769,0.4326452314853668,-0.41987645626068115,-1.8694896697998047,2.2212705612182617,0.37015223503112793,-0.31873250007629395,-0.7334375977516174,-0.002425326267257333,0.06610562652349472,-1.4312351942062378,-0.7421028017997742,-0.13826024532318115,-0.7501715421676636,-1.494521975517273,2.4683523178100586,-0.017176015302538872,0.34167832136154175,1.6723957061767578,0.46519777178764343,0.46026700735092163,-0.7479555606842041]},"inputHidden":{"rows":20,"columns":20,"weights":[0.8084405660629272,-0.11702600121498108,0.622097909450531,1.8252588510513306,1.969110131263733,1.8549129962921143,-0.7051453590393066,-0.08858078718185425,-0.057772256433963776,2.2611303329467773,-0.6264501810073853,-0.3158579170703888,0.8880688548088074,1.0060385465621948,0.4653516709804535,0.4699068069458008,0.23047733306884766,-0.22025200724601746,0.129001647233963,0.4952283799648285,0.06661815196275711,0.940624475479126,-1.1245768070220947,0.9033253192901611,-0.7261349558830261,-1.2867530584335327,1.2811368703842163,-0.6154244542121887,1.0813008546829224,0.03799409419298172,-0.0015860635321587324,0.8354331254959106,0.20735417306423187,-0.3877071738243103,-0.5980064272880554,-0.014378048479557037,-0.12413956224918365,0.8791120052337646,-0.8169348239898682,0.2042219191789627,0.2919355034828186,-0.4449772536754608,0.3786892592906952,0.7193849682807922,-0.24774575233459473,0.1748439222574234,-1.4905493259429932,0.9260602593421936,-0.012891566380858421,-0.9652445316314697,-1.3574864864349365,0.31572848558425903,0.18796572089195251,0.6271708607673645,-0.06411981582641602,0.0843057632446289,-0.23798486590385437,1.4834973812103271,-0.8556081652641296,0.2920604646205902,1.3909845352172852,0.3448229730129242,1.1927802562713623,0.4136025607585907,1.0905119180679321,-0.9934267401695251,-0.9240292906761169,1.0881909132003784,-0.8496203422546387,0.281399130821228,1.286006212234497,-0.5934761166572571,0.021670784801244736,-1.8714687824249268,1.0213872194290161,-0.17163589596748352,-1.707854986190796,-0.9751318693161011,-0.2984011769294739,-0.7738162279129028,0.37965816259384155,-0.13706491887569427,0.6606285572052002,0.5611489415168762,0.24221399426460266,1.109470248222351,-0.6052032709121704,-0.7275403141975403,-0.8836615085601807,-0.4361799955368042,-1.3436660766601562,-0.2655985355377197,-0.6394762396812439,0.32169756293296814,-0.18547138571739197,-0.5907250642776489,0.3355744183063507,-0.7563353180885315,-1.0582821369171143,-1.6925989389419556,-0.20968389511108398,0.662625789642334,0.43116044998168945,-2.6438090801239014,-1.1062904596328735,-0.3522813618183136,-0.2674674093723297,1.4424993991851807,-0.07310108095407486,-0.8341498374938965,0.11978191882371902,1.1674939393997192,-0.031196409836411476,1.4413487911224365,1.5729994773864746,-0.426514595746994,-0.061751432716846466,1.678777813911438,-1.1497288942337036,0.09914327412843704,0.23443399369716644,0.25902965664863586,0.19925495982170105,-0.44288861751556396,-0.0329015739262104,0.0008251887047663331,-0.11365716904401779,0.6935399174690247,-0.49513694643974304,0.48943179845809937,-1.1788476705551147,0.5874225497245789,0.7054049968719482,-0.057489246129989624,-0.6721338033676147,1.237606167793274,-0.041352711617946625,-0.15256749093532562,-0.41920164227485657,-0.8604630827903748,1.5066862106323242,0.4249105453491211,-0.20868375897407532,0.7921033501625061,2.679409980773926,1.0068365335464478,-1.0812393426895142,0.6956604719161987,-1.721154808998108,-1.4262163639068604,-2.0343575477600098,-0.3917156457901001,0.8607960939407349,-0.8896843194961548,-1.661248803138733,-1.0363489389419556,0.051083553582429886,0.41965100169181824,0.6830393075942993,0.12069964408874512,1.233547329902649,1.4401159286499023,-0.7128885388374329,0.7179291248321533,-0.8270940184593201,-4.146968841552734,-1.468773603439331,0.6572371125221252,0.6387152075767517,-0.7650250792503357,-2.7089345455169678,1.9410521984100342,-3.6221678256988525,3.8356401920318604,-0.8066680431365967,0.3276636004447937,-0.03365449979901314,-0.13864241540431976,-0.7157924175262451,1.2553279399871826,-0.7894680500030518,-0.5100646615028381,0.0593959242105484,-0.19649378955364227,1.2829301357269287,-0.73435378074646,-1.5892386436462402,-1.9338375329971313,-0.7857325077056885,-0.8672045469284058,-0.6273823976516724,-0.31595346331596375,0.7736147046089172,-0.1921372264623642,-0.3786980211734772,0.04504001513123512,-0.19952541589736938,-0.7483634352684021,0.3177239000797272,-0.23434287309646606,-0.14021410048007965,0.38271284103393555,-0.6660759449005127,1.1144163608551025,-2.0285212993621826,0.2273717224597931,0.605266273021698,0.38798806071281433,0.32862424850463867,-2.580383777618408,1.3780382871627808,-1.0352908372879028,0.4619952142238617,0.16395539045333862,-0.6347387433052063,-0.03548422083258629,-0.028059247881174088,-0.4826194643974304,-1.574783205986023,1.549105167388916,1.212485671043396,-0.462117463350296,-0.23373563587665558,-0.39118826389312744,0.5677167773246765,0.2033379226922989,-0.30942627787590027,-0.2999122440814972,-0.25296086072921753,1.7335588932037354,1.1040534973144531,-0.08186352998018265,0.49527332186698914,0.644488513469696,0.3276312053203583,0.09785087406635284,-0.5530743598937988,0.10133877396583557,0.46524399518966675,0.3134775757789612,1.2030762434005737,0.32784631848335266,-1.3632102012634277,0.5884842276573181,0.7898305654525757,0.003851716872304678,1.2180331945419312,1.1826907396316528,1.2025591135025024,-0.9447771906852722,0.2900564670562744,0.8536387085914612,-0.8605673313140869,0.20574185252189636,-0.14032526314258575,0.48155760765075684,0.1323835402727127,1.1222158670425415,0.7321176528930664,-0.7638983726501465,-0.7327820658683777,-0.4582441747188568,-0.04479500278830528,-0.8678390979766846,-0.9643774628639221,-0.5525258183479309,0.2630124092102051,1.8441882133483887,-0.5103236436843872,0.5621826648712158,0.3384152948856354,-1.475789189338684,2.242429494857788,-0.7787541151046753,0.23007169365882874,0.27849799394607544,0.42388707399368286,0.1084427461028099,0.1231575757265091,-0.575042724609375,0.5249108672142029,0.7540648579597473,0.5066432952880859,-1.3272584676742554,-0.5557853579521179,-0.9119127988815308,-0.49300768971443176,-0.717831552028656,-2.013577699661255,0.06905271112918854,0.0616459995508194,1.9204977750778198,0.37190720438957214,-1.7743536233901978,-0.2604095935821533,-0.008094425313174725,0.20507092773914337,-1.2604925632476807,0.6107235550880432,-1.1178454160690308,-1.2716509103775024,-0.3794819712638855,-0.7652967572212219,-0.7862622141838074,0.025077752768993378,0.14325739443302155,0.006597825326025486,-0.3301156759262085,-0.02474275976419449,0.5830147862434387,0.9247211813926697,0.3488706648349762,-0.026655422523617744,0.42878639698028564,0.9130913019180298,1.0699423551559448,-0.15100829303264618,0.36794933676719666,1.3549702167510986,1.325860857963562,-0.346094012260437,0.6792071461677551,1.0079387426376343,0.6933091282844543,0.522752583026886,-0.461111843585968,0.694157600402832,0.08399979770183563,-0.16055625677108765,-0.6760300993919373,-0.6136389374732971,-0.04920138791203499,0.6767038702964783,-0.9460944533348083,-0.32379862666130066,-1.1905149221420288,0.44311121106147766,0.08957215398550034,-1.5646291971206665,0.021637380123138428,-1.6382838487625122,0.38813096284866333,0.10786303877830505,-0.7580344080924988,-0.8565253019332886,-1.0706206560134888,0.1819460541009903,1.0682328939437866,0.9068610668182373,0.18754982948303223,0.8981834053993225,-1.714717149734497,0.25258344411849976,-0.765397310256958,0.24922408163547516,0.3971673250198364,0.016573749482631683,2.5688416957855225,-0.1655968278646469,-0.25956928730010986,1.0413484573364258,-1.1824411153793335,-2.240713357925415,-0.36419060826301575,0.005382312461733818,-0.12048467993736267,2.2529377937316895,-4.592884540557861,-0.6791893243789673,-0.2066752314567566,-1.1501049995422363,-1.539507269859314,-0.3096034824848175,-2.0189316272735596,-0.7702440023422241,1.7683175802230835,-0.8930886387825012,0.5190441608428955,-0.5517182350158691,-1.1527745723724365,-0.470377117395401,-0.755328357219696,-0.2763459384441376,1.815191626548767,-2.6342411041259766,-2.3900296688079834,0.5336276292800903,0.26303547620773315,2.316718578338623,0.8899611234664917,1.871490478515625,0.1344362199306488,1.324173927307129,0.746835470199585,0.39123037457466125,0.9141287207603455,-0.3335278332233429,1.7397196292877197,1.045566201210022,0.5531817674636841]},"inputBias":{"rows":20,"columns":1,"weights":[-0.7705069184303284,0.20316313207149506,0.04653264582157135,-0.31060320138931274,-0.20302154123783112,0.1537398099899292,-0.5483704209327698,0.5202804803848267,0.3379748463630676,-0.09651394188404083,0.22299104928970337,-0.6386891603469849,0.26245078444480896,-0.5528270602226257,-0.218998983502388,0.0755045935511589,0.6438615918159485,0.2277156412601471,0.04102650284767151,-0.8743064999580383]},"forgetMatrix":{"rows":20,"columns":49,"weights":[0.28747785091400146,-3.207906484603882,0.19149020314216614,-0.4767017662525177,-0.8181471824645996,0.7986754775047302,-0.058305080980062485,1.4730799198150635,-0.23352466523647308,0.15263058245182037,1.5934079885482788,-0.8644174337387085,-2.112436532974243,1.462664008140564,2.586069107055664,0.6694995760917664,1.4560654163360596,-1.5716885328292847,0.326639860868454,-0.3030008375644684,-0.5606215000152588,2.618791103363037,0.19988705217838287,-0.011568095535039902,0.7790266871452332,-0.5836806297302246,-0.48473161458969116,0.6890133619308472,0.24952667951583862,-2.2516989707946777,1.090739130973816,-1.7778030633926392,-0.22263704240322113,1.3734984397888184,0.0372265949845314,0.6473161578178406,0.576844334602356,-1.3023747205734253,1.9920586347579956,0.49843838810920715,-2.0897839069366455,1.0771186351776123,3.3295743465423584,-0.7231972217559814,2.3607101440429688,-0.8948432803153992,-0.06286241859197617,1.547671914100647,0.1594042330980301,-0.5571626424789429,-0.13091769814491272,0.6287527680397034,1.1139612197875977,-1.6385482549667358,-0.5770673751831055,0.8326048851013184,-1.8959994316101074,1.5264588594436646,0.10019369423389435,1.3314493894577026,4.099127292633057,-1.213866114616394,1.7047408819198608,-0.6513646841049194,1.7259432077407837,-1.062269687652588,-0.6884738206863403,-0.9946269989013672,0.005538657307624817,-1.90157151222229,-0.20029279589653015,2.6025638580322266,0.124454066157341,1.3162983655929565,-0.6472935080528259,-0.4705519676208496,1.2848395109176636,1.9385653734207153,-0.8968856930732727,-0.599029004573822,-0.2166231870651245,1.1864275932312012,0.6857117414474487,2.113739490509033,-0.35313183069229126,-2.220942974090576,-0.1199311688542366,-0.46089670062065125,0.9360067844390869,0.936623215675354,3.1484458446502686,-0.030068032443523407,1.1528308391571045,0.09469810873270035,-0.3338835537433624,0.06008800119161606,2.1767892837524414,-1.036591649055481,-2.3346357345581055,0.32516172528266907,0.20323537290096283,-0.37941569089889526,-0.925568699836731,1.5716623067855835,1.377640724182129,-1.404423713684082,1.3182624578475952,0.45886820554733276,-0.9409134984016418,2.0153114795684814,-0.8102048635482788,-0.6600998044013977,0.9028299450874329,-1.5935165882110596,-1.981197476387024,0.8147118091583252,-0.17249950766563416,1.2380237579345703,1.6182457208633423,-0.12882304191589355,0.06948305666446686,-1.6510337591171265,-1.5862442255020142,1.4674937725067139,-0.8717525601387024,0.07024034857749939,0.024318691343069077,0.33957064151763916,-1.0222866535186768,0.732634961605072,0.6297756433486938,-0.994718611240387,0.6878650188446045,1.26337468624115,0.12780557572841644,-4.071713924407959,0.6278467774391174,-0.8034390807151794,-0.12285935878753662,1.3363062143325806,-1.1162185668945312,-1.1714708805084229,-2.2278497219085693,0.9497383832931519,0.763966977596283,1.1267731189727783,-0.5686615109443665,1.5274853706359863,1.3229835033416748,0.7902428507804871,2.067211389541626,-0.7463312149047852,-0.11269301176071167,-0.26213306188583374,1.2213683128356934,2.6190342903137207,-0.3198853135108948,0.4617784917354584,0.9894346594810486,0.6174728274345398,0.6421015858650208,0.2895437479019165,0.8578386306762695,-0.6747986674308777,0.32071539759635925,0.758728563785553,0.27289798855781555,0.4806607663631439,-3.5159945487976074,0.8966374397277832,-1.837777853012085,-1.1991488933563232,-2.0009517669677734,1.9187878370285034,-1.9825353622436523,1.0679248571395874,0.03236473351716995,1.440528392791748,1.9971544742584229,-1.3348718881607056,1.9455442428588867,0.15475481748580933,-0.6276194453239441,1.2915706634521484,2.394798994064331,-0.22053499519824982,-0.3440410792827606,0.7413666248321533,-0.18392227590084076,-2.019422769546509,-1.3639519214630127,0.45410314202308655,-2.449561595916748,0.7529464960098267,-0.3892447054386139,-0.7523157000541687,0.035767607390880585,0.4389578402042389,-0.4580976068973541,0.5767179131507874,0.29951226711273193,2.3288414478302,1.2973190546035767,1.5248883962631226,-0.630856454372406,-2.7085351943969727,-1.5895097255706787,-0.7258419990539551,0.7401939034461975,-1.094030499458313,-1.003844141960144,-0.6796554923057556,-0.4805181324481964,2.162808418273926,0.2562146484851837,0.20530617237091064,1.2014350891113281,-1.030359148979187,-0.3018314838409424,1.1986194849014282,-2.1319057941436768,0.9992559552192688,-0.025914553552865982,-2.0876004695892334,-1.5280336141586304,-0.2733882963657379,-0.47808846831321716,-0.09343408793210983,-1.6442365646362305,-1.3942729234695435,-2.303067445755005,-1.5102671384811401,-0.8900079727172852,-1.3293100595474243,-0.9832772612571716,0.3246749937534332,0.12900738418102264,0.5778121948242188,-1.0056267976760864,-1.73927640914917,-2.1352949142456055,0.31383275985717773,1.4289710521697998,-1.1990444660186768,1.5226515531539917,1.0467227697372437,0.33230486512184143,-1.6961568593978882,-1.0156395435333252,-0.24226661026477814,1.0083235502243042,0.5780206918716431,-0.6765694618225098,-0.835301399230957,0.24120424687862396,-0.20478704571723938,-2.1550424098968506,-0.44550439715385437,-0.8497331142425537,-1.6331487894058228,-0.6324247717857361,0.7991337180137634,-2.9813449382781982,-1.8442142009735107,-1.8518893718719482,0.1880764663219452,2.478607654571533,-1.6839889287948608,1.1736913919448853,2.1497600078582764,2.7483580112457275,-0.9002393484115601,-1.000632405281067,0.8520532250404358,0.1306183934211731,-0.8546732664108276,-0.7656210064888,1.8411744832992554,-0.628337562084198,0.7811514735221863,0.10274726897478104,-1.7670449018478394,-0.4391937553882599,1.3781709671020508,-2.5620217323303223,1.8114502429962158,-1.779543161392212,-0.15962758660316467,0.3066822290420532,0.5978155732154846,1.4604965448379517,0.2086733728647232,2.263150930404663,1.3165708780288696,0.09808015078306198,0.08738458901643753,1.206335425376892,2.1088223457336426,-1.776045560836792,1.7196284532546997,0.11325497180223465,0.7619437575340271,0.9452348947525024,-0.48231226205825806,-1.0195039510726929,-1.301070213317871,0.7287105917930603,0.8966363072395325,-0.8956487774848938,-0.7901954054832458,-1.8580412864685059,1.516739010810852,-1.0753649473190308,-1.1416802406311035,0.9487494826316833,-0.14464421570301056,0.598587155342102,-0.6025843024253845,-2.975830554962158,0.6877045631408691,1.4132304191589355,-1.4758292436599731,-0.8729725480079651,0.8944157958030701,-0.45543140172958374,-1.2688289880752563,-0.043277446180582047,-0.7863181233406067,2.58901309967041,0.48976632952690125,0.029397251084446907,-1.2180275917053223,0.33694908022880554,-1.6648927927017212,1.132615566253662,3.0236310958862305,-3.195864677429199,-0.5628151893615723,-0.9366962909698486,0.9004270434379578,0.6878640055656433,-1.2348085641860962,0.5301529765129089,0.687516450881958,0.47451844811439514,0.3355429172515869,0.8802630305290222,-1.8929692506790161,1.4626007080078125,-0.2787420451641083,0.5219529867172241,0.8918741941452026,-0.5174385905265808,-0.8166463971138,-1.145251989364624,-0.2107088267803192,-0.5873159766197205,0.12973487377166748,-0.5879674553871155,-0.046863239258527756,0.22313189506530762,-2.251542329788208,0.7858790159225464,0.5460209250450134,-1.1571044921875,0.2552543580532074,-0.8392277956008911,-0.9900661706924438,0.8148819804191589,0.6678373217582703,-1.417389154434204,-0.010469767265021801,-1.145871639251709,-0.21243451535701752,-0.07148310542106628,0.40101346373558044,0.003865122562274337,0.7322741150856018,1.1263734102249146,-0.6447044014930725,-0.6390275955200195,0.27774813771247864,-1.114228367805481,0.9249515533447266,0.7148521542549133,-0.9378625750541687,-1.766943335533142,-0.33230578899383545,0.315308541059494,0.4780150055885315,0.8127197027206421,1.1271613836288452,-0.7121255993843079,1.9876503944396973,-1.856841802597046,-0.09750854969024658,0.01530566718429327,-1.3035756349563599,1.2533621788024902,-0.5585634112358093,-0.5260957479476929,1.5363882780075073,-0.3265364170074463,-0.24187085032463074,-1.3654272556304932,-0.535101592540741,-2.9740724563598633,-0.028224313631653786,-0.5077314972877502,0.9068171977996826,0.027973072603344917,0.8717702627182007,-0.1509423851966858,-0.60783451795578,-1.5614646673202515,-0.9725425243377686,-1.40813148021698,-1.0406591892242432,-0.6614893674850464,-1.9064801931381226,1.2842530012130737,0.19985215365886688,-1.4423959255218506,-1.3596627712249756,0.03563842177391052,-1.8435311317443848,-1.0307303667068481,0.8963022828102112,-0.3109503984451294,-0.008923900313675404,-1.6876718997955322,-1.1933348178863525,0.25992071628570557,-0.702145516872406,-2.174994468688965,0.7181318998336792,-0.8756698369979858,1.1605304479599,-1.5796805620193481,-2.1953039169311523,0.3651561737060547,-1.1030707359313965,0.833906888961792,0.31673288345336914,0.7048122882843018,0.8098154664039612,0.14927938580513,-1.524620771408081,-0.4303663671016693,0.43671882152557373,0.5286800861358643,-1.7853623628616333,-0.9230085015296936,0.901658296585083,0.39183148741722107,0.8570080399513245,-0.0021317063365131617,2.1117560863494873,-0.2124961018562317,2.0430734157562256,0.911108672618866,-0.6737986207008362,0.4850069284439087,-1.268250823020935,-0.1928413212299347,0.002257577609270811,0.6063162088394165,0.6539084911346436,-1.1239041090011597,-1.694404125213623,1.1851617097854614,1.640590786933899,0.4672960638999939,-1.6506530046463013,2.7563250064849854,-0.485168993473053,-0.9913593530654907,0.010567818768322468,2.1636409759521484,1.0192164182662964,0.20756080746650696,-0.7099078297615051,0.6286042332649231,-0.07815712690353394,0.2725098133087158,1.1581445932388306,-2.488563299179077,0.5817704796791077,-0.6217278242111206,1.4016252756118774,1.4989570379257202,-0.6731948852539062,-0.027702178806066513,3.096937417984009,-0.41036951541900635,-1.2564176321029663,-0.34475043416023254,-0.6477753520011902,-1.160017728805542,0.3117380738258362,-0.5137443542480469,1.0800377130508423,-2.3956871032714844,1.0515910387039185,1.3808361291885376,0.8069690465927124,0.7944960594177246,-0.22790290415287018,0.4652153551578522,1.5300357341766357,0.6155136823654175,-1.094252109527588,1.2793899774551392,-0.31103965640068054,-1.295555830001831,-1.1711053848266602,2.2939982414245605,-0.9749644994735718,-1.5612564086914062,-2.0435330867767334,2.1249892711639404,0.8281623125076294,-2.6358420848846436,1.8710404634475708,-2.104218006134033,-1.9620931148529053,-1.271665334701538,2.78187894821167,0.025369038805365562,1.791031837463379,-1.4396036863327026,0.6840797662734985,-0.21862533688545227,1.161487102508545,-0.2463972121477127,-2.452435255050659,0.6401183605194092,-2.7847206592559814,0.8264539241790771,-1.5219035148620605,-1.896600365638733,1.2098960876464844,-0.1446574181318283,-0.616539478302002,2.1841795444488525,-0.61128169298172,-0.2100883573293686,0.03329578787088394,-2.6435647010803223,-0.14126645028591156,0.9607532024383545,-0.20942534506320953,0.13889957964420319,0.6628437638282776,0.32718202471733093,-0.6372791528701782,0.053547438234090805,-1.3028523921966553,1.4257898330688477,-0.06670694053173065,2.381423234939575,1.6786861419677734,0.922330915927887,-0.9739453196525574,0.27494296431541443,-1.0085039138793945,1.6208815574645996,0.17715302109718323,-2.089747428894043,-0.9419386386871338,0.24291656911373138,0.8161606788635254,-0.814942479133606,0.11314449459314346,0.7059233784675598,0.02228661999106407,-0.21868275105953217,1.0077954530715942,-0.7313280701637268,0.12388197332620621,0.6043392419815063,0.16991721093654633,0.2252618670463562,-0.4280337989330292,3.1195878982543945,1.025113582611084,0.5398862361907959,-0.7365762591362,1.955946445465088,1.2348003387451172,-1.506575584411621,-0.5586555600166321,-0.24896053969860077,1.9009582996368408,-0.5306612849235535,-1.1802735328674316,-0.4115872085094452,1.5463063716888428,0.24056561291217804,-0.5222793221473694,-0.1496756672859192,-0.22015368938446045,0.7176027297973633,-1.163726806640625,2.205037832260132,-0.4186305105686188,0.03803608939051628,-0.8541266918182373,0.4284417927265167,-0.37201544642448425,-1.3527721166610718,-0.33872750401496887,0.18648335337638855,-0.3074234127998352,0.6944620013237,-1.849940538406372,-0.1593611091375351,-1.1142139434814453,-0.9778401851654053,0.5959578156471252,-0.6941426992416382,-0.4316595792770386,-0.94129478931427,0.736350417137146,0.9539780020713806,0.1713845133781433,1.2574162483215332,-0.8879722356796265,0.7271129488945007,-0.9581146836280823,-0.9488610625267029,-0.492307186126709,-0.02769312635064125,1.1615252494812012,1.0505571365356445,1.052120566368103,-0.5229484438896179,-0.1784033626317978,0.6430969834327698,-2.6998472213745117,-0.4846372604370117,1.3448761701583862,-1.2613943815231323,-1.190624475479126,1.6348586082458496,0.7568348050117493,-0.8200839757919312,-1.2554600238800049,1.9648996591567993,1.899068832397461,-4.484630584716797,-0.5353327393531799,-1.0192145109176636,-1.7603782415390015,-0.21603921055793762,1.3863525390625,2.271036148071289,-1.2798471450805664,2.5504868030548096,-0.22802206873893738,2.129448890686035,0.654184103012085,-0.24252043664455414,-2.1271634101867676,1.8850723505020142,0.11719692498445511,1.4809490442276,0.04789789021015167,-2.615457057952881,0.302995890378952,-0.5871618390083313,1.7626571655273438,1.5147757530212402,0.4351656436920166,0.3035297989845276,-1.8697118759155273,-0.8720330595970154,-0.6092944741249084,1.603991985321045,-0.7636547684669495,0.5035780668258667,0.7980942130088806,-0.9187024831771851,-1.759188175201416,2.3301148414611816,-0.493170827627182,1.9055798053741455,0.04778784513473511,-0.6665882468223572,0.3397679626941681,-1.0805208683013916,-0.687344491481781,0.24374377727508545,-1.7195135354995728,-0.5957850217819214,-2.173032760620117,-0.6754023432731628,-1.3188518285751343,-0.8746679425239563,0.9541964530944824,-0.5786533355712891,0.740605354309082,0.5097861289978027,0.24596703052520752,-1.2064872980117798,0.13749268651008606,-0.22569257020950317,-0.08570971339941025,-1.912508487701416,0.5592336654663086,0.796410083770752,1.445716142654419,1.3997145891189575,-0.607328474521637,-2.3035738468170166,0.09483981877565384,1.1031253337860107,-1.0088204145431519,1.336997151374817,-2.367764472961426,0.5481103658676147,0.036954116076231,-1.3068772554397583,0.4173199236392975,1.0746961832046509,-1.010540246963501,-0.38311436772346497,-0.9983294010162354,0.7162706851959229,-1.272650122642517,-0.25524255633354187,1.259667158126831,1.5073652267456055,-0.2532115876674652,0.7708907723426819,-1.137048363685608,-0.24186207354068756,-0.32181480526924133,0.16761675477027893,-0.7302767038345337,-0.3341686427593231,-0.6039203405380249,-2.0820558071136475,0.0015104081248864532,-0.4176991581916809,0.04398281127214432,1.8654841184616089,-0.6910200119018555,-0.9518033862113953,1.8434406518936157,-0.652694582939148,-1.1999067068099976,-1.7371633052825928,0.40441471338272095,-0.2108958214521408,1.3884940147399902,-0.07038943469524384,0.4931812882423401,0.6151127815246582,1.5925976037979126,1.1486068964004517,-1.546382188796997,-0.3254881501197815,0.0682356134057045,-0.46882694959640503,-0.26783299446105957,-0.0906149297952652,0.3200366497039795,0.08285295218229294,-1.094021201133728,-0.8384630084037781,-1.4915984869003296,-1.5124964714050293,-0.16292618215084076,-1.6919764280319214,0.6802234053611755,-0.13708864152431488,-1.9753774404525757,-1.0987639427185059,-2.2238595485687256,-0.6756709218025208,0.7391936779022217,0.38512882590293884,-0.5513893961906433,1.0246206521987915,1.055245280265808,1.1571542024612427,-0.6400331854820251,0.10697080194950104,-1.0273383855819702,0.36958208680152893,-2.5235049724578857,0.6122251152992249,1.1294056177139282,0.031602855771780014,1.5958869457244873,0.7229424118995667,-0.1734882891178131,0.8275916576385498,-1.9434435367584229,-1.5321582555770874,-0.8521779775619507,0.8647081851959229,-2.2809462547302246,0.08063829690217972,-0.4794401526451111,0.14322875440120697,-0.10371501743793488,0.7528064846992493,0.4829482436180115,1.3120522499084473,-0.8696720600128174,-1.033880352973938,-0.18011924624443054,0.03890442103147507,0.9343089461326599,-1.2279014587402344,0.949527382850647,0.031017282977700233,-0.6146422624588013,-2.3123252391815186,-1.603636622428894,-0.22725613415241241,-0.27713191509246826,-0.7709937691688538,-1.2133793830871582,-0.46857577562332153,0.7097444534301758,-0.6950023770332336,-0.7563818097114563,0.2278972715139389,-0.29309841990470886,-0.4617975056171417,-0.61184161901474,0.7431164383888245,0.8564310073852539,-0.05241239815950394,-1.4261043071746826,0.4058164656162262,-0.20873238146305084,-0.3514891266822815,-0.5710713863372803,-0.7699947357177734,-0.3753901422023773,-0.783361554145813,-0.6684707403182983,1.0150026082992554,-0.07653932273387909,-0.46542486548423767,-0.407569020986557,-0.31484782695770264,-2.2924885749816895,0.7438340783119202,1.3837546110153198,-1.2730153799057007,-1.6072462797164917,-0.8214396834373474,-0.7467924952507019,2.1429226398468018,1.5659161806106567,-1.3311246633529663,-1.1332021951675415,-0.5165765285491943,1.1592705249786377,1.0594724416732788,-0.7135200500488281,-0.5614614486694336,-0.9443655610084534,-0.3654865622520447,-0.9166797399520874,-1.790042519569397,0.21694017946720123,-0.3276814818382263,-0.0706479549407959,1.1294463872909546,-1.9233767986297607,-1.023089051246643,-2.191061496734619,-0.28687140345573425,1.2504316568374634,-0.5505746006965637,0.7468000054359436,0.2134847193956375,2.008668899536133,-1.9577003717422485,-0.614769458770752,-1.3485854864120483,1.0450990200042725,0.18997183442115784,-0.9057894349098206,0.8732150793075562,-0.0932391956448555,-1.4239881038665771,0.25112783908843994,0.192611962556839,-0.30949968099594116,0.9455620646476746,-0.4756840169429779,-0.43326663970947266,-0.8987011909484863,-0.8615574836730957,1.6760326623916626,1.676983118057251,0.017720896750688553,1.3830819129943848,1.9238271713256836,-0.3711773753166199,1.1539638042449951,-1.6935372352600098,-0.8096954226493835,-0.721710205078125,-1.1463160514831543,-1.396698236465454,-1.8082051277160645,0.7614685297012329,-0.046958714723587036,-1.1962627172470093,