{"type":"LSTM","options":{"inputSize":27,"inputRange":27,"hiddenLayers":[20,20],"outputSize":27,"decayRate":0.999,"smoothEps":1e-8,"regc":0.000001,"clipval":5,"maxPredictionLength":100,"dataFormatter":{"indexTable":{"\"":0,"{":1,"\\":2,"r":3,"n":4," ":5,"i":6,"p":7,"u":8,"t":9,":":10,"[":11,"h":12,",":13,"e":14,"l":15,"o":16,"w":17,"d":18,"y":19,"a":20,"s":21,"]":22,"H":23,"!":24,"}":25,"unrecognized":26},"characterTable":{"0":"\"","1":"{","2":"\\","3":"r","4":"n","5":" ","6":"i","7":"p","8":"u","9":"t","10":":","11":"[","12":"h","13":",","14":"e","15":"l","16":"o","17":"w","18":"d","19":"y","20":"a","21":"s","22":"]","23":"H","24":"!","25":"}","26":null},"values":"\"{\\r\\n  \\\"input\\\": [\\r\\n    \\\"hi\\\",\\r\\n    \\\"hello\\\",\\r\\n    \\\"hi there\\\",\\r\\n    \\\"howdy\\\",\\r\\n    \\\"hey\\\",\\r\\n    \\\"heya\\\",\\r\\n    \\\"hai\\\",\\r\\n    \\\"what up\\\",\\r\\n    \\\"whats up\\\",\\r\\n    \\\"howdy\\\",\\r\\n    \\\"hello\\\"\\r\\n  ],\\r\\n  \\\"output\\\": \\\"Hello!\\\"\\r\\n}\"","characters":["\"","{","\\","r","n"," ","i","p","u","t",":","[","h",",","e","l","o","w","d","y","a","s","]","H","!","}","unrecognized"],"specialIndexes":[26]}},"trainOpts":{"iterations":2000,"errorThresh":0.005,"logPeriod":10,"learningRate":0.01,"callbackPeriod":10,"timeout":"Infinity"},"input":{"rows":28,"columns":27,"weights":[-0.5652297139167786,0.573748767375946,0.5892269015312195,0.632880449295044,-0.13032099604606628,-0.2725277543067932,-0.17428764700889587,-0.5322695970535278,-0.5473673939704895,-0.6363394260406494,0.6290715336799622,0.3100431561470032,-0.5882821083068848,0.5593197345733643,-0.7303542494773865,0.6609417796134949,-0.0982566699385643,0.2213759869337082,0.6418442726135254,-0.13288547098636627,-0.5447854995727539,-0.1367536038160324,-0.622674286365509,0.7013350129127502,-0.5675138235092163,0.0720210075378418,-0.6891701817512512,0.8597195744514465,-0.9078724980354309,-1.026777982711792,-0.8983415961265564,0.7785861492156982,0.9080747365951538,-0.2201717644929886,0.9744864702224731,0.9259526133537292,0.9144075512886047,-0.913692831993103,-1.1536192893981934,0.920038640499115,-0.8866540789604187,0.8831779956817627,-0.8672649264335632,0.8197383880615234,-1.0610735416412354,-0.9102392196655273,0.8649289011955261,0.9678574204444885,-0.6695393323898315,0.9370832443237305,-0.8936195373535156,0.9584946632385254,-0.802897572517395,0.902385413646698,0.9933156371116638,-2.6133346557617188,-3.212573766708374,-1.3380874395370483,0.98006671667099,2.956407308578491,-1.277330994606018,2.8866233825683594,1.970058560371399,2.5265026092529297,-1.8803086280822754,0.17812523245811462,2.011226177215576,-1.0772534608840942,-0.26115185022354126,-0.6354278326034546,1.3074134588241577,-2.626192331314087,-3.031259536743164,1.1073428392410278,2.3908944129943848,-2.1103575229644775,2.6996164321899414,-1.876908779144287,3.4603378772735596,-2.641091823577881,1.9966477155685425,0.08765674382448196,-0.13956254720687866,-0.1395280957221985,0.10417897254228592,-0.11850139498710632,0.2780434489250183,0.3965458571910858,0.1725713312625885,0.19156138598918915,-0.09836272150278091,0.026573598384857178,2.0725882053375244,-0.0798620730638504,-0.07554477453231812,-0.14960764348506927,-0.011196683160960674,0.5078529119491577,2.133946180343628,0.06435692310333252,0.2086816281080246,-0.05801603943109512,-1.2515231370925903,0.15988048911094666,0.10548646003007889,0.31300628185272217,0.012663155794143677,-0.3217482566833496,2.3300766944885254,-1.9390366077423096,-2.282353401184082,-2.2949259281158447,0.5363894104957581,1.328343152999878,-0.13282297551631927,2.5292015075683594,2.36491322517395,0.05944349989295006,-1.667950987815857,-0.07734677195549011,2.249732255935669,-0.17964419722557068,-0.28750988841056824,-0.03198575973510742,0.4892920255661011,0.2671642303466797,0.06046617403626442,0.6848596334457397,2.285740613937378,-0.1948302537202835,0.24916672706604004,0.11559952050447464,1.4591577053070068,-0.4033275246620178,-0.4035469591617584,0.859736979007721,-1.0359644889831543,-1.0326817035675049,-0.7724572420120239,1.2033143043518066,1.4231476783752441,-0.24192723631858826,0.993820309638977,1.1211012601852417,0.6730637550354004,-0.9846103191375732,-0.48762843012809753,0.9043948650360107,-0.6221936941146851,0.7049478888511658,-0.7935423851013184,0.9601951837539673,-0.7931599617004395,-0.6735808253288269,1.143157720565796,0.753110408782959,-0.3558284640312195,0.7631528973579407,-0.8234677910804749,1.5941168069839478,-0.9055833220481873,0.7279933094978333,1.2209657430648804,-1.2098803520202637,-1.2075021266937256,-1.2249447107315063,-0.08545739203691483,0.6023303866386414,0.772314727306366,1.1729240417480469,1.1871033906936646,1.2170315980911255,-1.146707534790039,-0.8659906387329102,1.1494718790054321,-1.20150887966156,1.1735775470733643,-1.1528620719909668,-0.04517707601189613,-1.2171757221221924,-1.21192467212677,0.11303424090147018,1.1705063581466675,0.6748823523521423,1.1980928182601929,-1.1185542345046997,1.1730765104293823,0.41002774238586426,1.1373382806777954,1.482172966003418,-1.455241322517395,-1.4933865070343018,-1.4507758617401123,1.3092008829116821,1.420024037361145,-1.156126618385315,1.5139036178588867,1.5124764442443848,1.5106180906295776,-1.4430203437805176,-1.2763919830322266,1.466244101524353,-1.5245025157928467,1.4430128335952759,-1.4762376546859741,1.3689653873443604,-1.5510845184326172,-1.5044065713882446,1.4383890628814697,1.4999825954437256,-1.2953094244003296,1.4628053903579712,-1.4353240728378296,1.4544992446899414,-1.2392332553863525,1.5100454092025757,4.262877941131592,-4.253724575042725,-4.257261753082275,-4.295038223266602,3.9264681339263916,3.9656360149383545,-3.8881893157958984,4.3119120597839355,4.2615509033203125,4.2851080894470215,-4.291697978973389,2.978577136993408,4.249048233032227,-4.253932952880859,4.2751359939575195,-4.290268421173096,4.141071319580078,-4.153074264526367,-4.256016254425049,4.137383460998535,4.236577033996582,-3.9832022190093994,4.3044257164001465,-4.221455097198486,4.303932189941406,-3.905120611190796,4.218788146972656,4.216691017150879,-4.216141223907471,-4.218207836151123,-4.196083068847656,3.8055896759033203,3.819000244140625,-3.558462619781494,4.233747959136963,4.205079078674316,4.192381381988525,-4.210309028625488,1.8848227262496948,4.240152835845947,-4.220210552215576,4.181127548217773,-4.188803195953369,3.9331629276275635,-4.060693740844727,-4.263490200042725,3.969714403152466,4.236947536468506,-3.7732670307159424,4.239157199859619,-4.183725357055664,4.172933578491211,-3.646127223968506,4.16273307800293,2.2007129192352295,-2.2174201011657715,-2.25166392326355,-2.161266565322876,1.6182291507720947,1.6265196800231934,-1.400889277458191,2.2369320392608643,2.176323175430298,2.217862367630005,-2.256936550140381,0.6768350005149841,2.1966333389282227,-2.271435499191284,2.157329559326172,-2.2033724784851074,1.8615763187408447,-1.9882965087890625,-2.1983721256256104,1.8433723449707031,2.1969361305236816,-1.6219879388809204,2.2520487308502197,-2.144615888595581,2.1799678802490234,-1.4965016841888428,2.090298891067505,5.401939392089844,-5.478116989135742,-5.407932281494141,-5.4672980308532715,4.754310131072998,5.004479885101318,-1.881016492843628,5.415306091308594,5.4000115394592285,5.452842712402344,-5.429520130157471,-4.985006809234619,5.420907497406006,-5.411169052124023,5.418912887573242,-5.435897350311279,4.8193864822387695,-5.351241588592529,-5.461493015289307,4.6423187255859375,5.451566219329834,-4.569943428039551,5.391693115234375,-5.45354700088501,5.435004234313965,-4.120986461639404,5.426102638244629,5.589694499969482,-5.666131496429443,-5.557222843170166,-5.545635223388672,4.106873989105225,4.446722984313965,-3.0991265773773193,5.628830909729004,5.566577434539795,5.601922035217285,-5.603590965270996,-1.832044005393982,5.556934833526611,-5.649171829223633,5.3872880935668945,-5.374882698059082,4.371775150299072,-5.016707897186279,-5.525760650634766,4.333469390869141,5.570698261260986,-4.233610153198242,5.562694549560547,-5.411375999450684,5.642850875854492,-3.732973575592041,5.507681846618652,0.9702982306480408,-0.9947687387466431,-1.0021824836730957,-0.981113076210022,0.29116883873939514,0.30493298172950745,0.13246232271194458,1.0610295534133911,0.9466586112976074,0.949844479560852,-0.9772560000419617,-0.9615719318389893,0.9775267243385315,-0.9860451221466064,0.9584536552429199,-0.9609569311141968,0.22188758850097656,-1.0581762790679932,-0.9202693700790405,0.4256269633769989,0.9693087935447693,0.06429844349622726,0.9163100123405457,-1.0256346464157104,0.8668387532234192,-0.13749133050441742,0.985973060131073,1.0949796438217163,-0.934808611869812,-1.018860936164856,-0.8615384101867676,0.3503013849258423,0.4477916359901428,0.13853000104427338,1.1114672422409058,1.0169193744659424,0.8334619402885437,-0.8608235120773315,-1.0917859077453613,0.9920778870582581,-0.8812342882156372,0.9191544651985168,-0.8458752632141113,0.3511335253715515,-0.9597864747047424,-0.8303192853927612,0.5770632028579712,1.0098010301589966,0.11078520864248276,0.8149588108062744,-0.8717562556266785,0.9299975633621216,-0.24287493526935577,0.9555212259292603,1.0326528549194336,-1.0361655950546265,-1.0689061880111694,-0.9876053333282471,0.3290020525455475,0.37636637687683105,0.1351855844259262,1.0674011707305908,1.064231276512146,0.9738823771476746,-1.0384173393249512,-0.8680154085159302,1.0512712001800537,-1.025409460067749,0.9838424324989319,-0.9612055420875549,0.3206915855407715,-1.0661885738372803,-0.9715797901153564,0.4559677541255951,1.046960711479187,0.016901293769478798,0.9795472025871277,-1.0244221687316895,0.9327607154846191,-0.20609872043132782,1.074711799621582,1.1002800464630127,-1.1869217157363892,-1.1662925481796265,-1.1777467727661133,0.8101605772972107,0.6939024329185486,-0.49767541885375977,1.147482991218567,1.1501202583312988,1.177672266960144,-1.1673710346221924,-0.47321006655693054,1.1458183526992798,-1.2351406812667847,0.9207199811935425,-0.984401524066925,0.9171842336654663,-0.9560850858688354,-1.2258503437042236,1.1671538352966309,1.1320438385009766,-0.5821822881698608,1.1678006649017334,-0.928156852722168,1.123037338256836,-0.7635632753372192,1.022264003753662,1.330974817276001,-1.3413704633712769,-1.3293160200119019,-1.2992080450057983,0.3705575168132782,0.4802773594856262,0.022260187193751335,1.3357224464416504,1.3567969799041748,1.3470982313156128,-1.3743257522583008,-0.6571581959724426,1.3549658060073853,-1.3673264980316162,1.2295233011245728,-1.232739806175232,0.37737423181533813,-1.0529940128326416,-1.305503010749817,0.45748794078826904,1.3947422504425049,-0.18193213641643524,1.3656599521636963,-1.3000547885894775,1.2872130870819092,-0.20752035081386566,1.2600027322769165,1.3253933191299438,-1.3678433895111084,-1.3381361961364746,-1.2765158414840698,0.5591333508491516,0.7872117161750793,-0.11728178709745407,1.3795545101165771,1.304620385169983,1.3716920614242554,-1.318050503730774,-0.17528454959392548,1.2612446546554565,-1.338652491569519,1.134799838066101,-1.0780335664749146,0.5236262679100037,-0.8530046343803406,-1.3168410062789917,0.7026260495185852,1.2856225967407227,-0.34741491079330444,1.349834680557251,-1.121964931488037,1.361588478088379,-0.449878990650177,1.2149745225906372,2.2556519508361816,-2.269993305206299,-2.3132691383361816,-2.147015333175659,0.985709547996521,1.3867928981781006,-0.4051739275455475,2.259866237640381,2.2240705490112305,2.27280592918396,-2.230483293533325,-0.006816566921770573,2.2124266624450684,-2.2906336784362793,1.9683470726013184,-1.8093883991241455,1.0704703330993652,-1.4165242910385132,-2.1966159343719482,1.2146660089492798,2.219388008117676,-0.7934238910675049,2.252081871032715,-1.9117560386657715,2.290371894836426,-0.8732433915138245,2.073230504989624,1.0867761373519897,-0.9868290424346924,-1.0539722442626953,-0.9196143746376038,0.3783617913722992,0.5590468645095825,0.16988345980644226,1.1415821313858032,1.050119400024414,0.8346783518791199,-0.9017170667648315,-0.9077039361000061,0.971152663230896,-0.9074398875236511,0.8551380634307861,-0.8766967058181763,0.3786660134792328,-0.9663550853729248,-0.8778163194656372,0.5619912147521973,0.994181752204895,0.04895517975091934,0.8587266206741333,-0.8921368718147278,0.9382296204566956,-0.24615824222564697,0.9100857973098755,1.0076911449432373,-0.9509044289588928,-0.9493223428726196,-0.9111360311508179,0.411334753036499,0.4957730174064636,0.13958819210529327,0.9956514835357666,0.9535340666770935,0.8526166081428528,-0.9468785524368286,-0.8068036437034607,0.9849662780761719,-0.8930505514144897,0.8610476851463318,-0.8935497403144836,0.3429127335548401,-1.0061416625976562,-0.8195830583572388,0.5877174735069275,0.9689741134643555,0.007870868779718876,0.8313294649124146,-0.9347344636917114,0.8860689401626587,-0.2802589237689972,0.9295520186424255,4.030063152313232,-4.211340427398682,-4.199060440063477,-3.8984625339508057,2.420959949493408,3.1554384231567383,-1.3493926525115967,4.101883888244629,4.046746730804443,4.134505748748779,-4.006157398223877,1.050369381904602,3.947291612625122,-4.16085147857666,3.4840869903564453,-3.1020026206970215,2.650604009628296,-2.3893065452575684,-4.010468482971191,2.955920696258545,4.024008750915527,-2.3974292278289795,4.11448860168457,-3.3163933753967285,4.181847095489502,-2.3315858840942383,3.678185224533081,3.8373639583587646,-3.9695093631744385,-3.967482328414917,-3.6305720806121826,1.9853127002716064,2.745832920074463,-1.0226956605911255,3.8295230865478516,3.817448616027832,3.8905491828918457,-3.7516567707061768,0.7437029480934143,3.672429084777832,-3.8966434001922607,3.2245030403137207,-2.8681769371032715,2.2700228691101074,-2.1528491973876953,-3.677401065826416,2.4706530570983887,3.6993539333343506,-2.02455997467041,3.912332534790039,-3.0735220909118652,3.8756582736968994,-1.8977768421173096,3.3684544563293457,5.114496231079102,-5.210867404937744,-5.1557393074035645,-5.007655143737793,3.4950151443481445,4.219910144805908,-2.1036911010742188,5.126399517059326,5.0996198654174805,5.145463943481445,-5.095819473266602,1.051835298538208,5.023764610290527,-5.141082763671875,4.758033752441406,-4.543642044067383,3.736290693283081,-3.859816789627075,-5.060792922973633,3.9254796504974365,5.030759811401367,-3.52126407623291,5.131771087646484,-4.763534069061279,5.160633087158203,-3.3327784538269043,4.822409152984619,5.648916721343994,-5.702398300170898,-5.687615394592285,-5.632382392883301,4.758983612060547,5.148326396942139,-3.6051642894744873,5.69194221496582,5.68079137802124,5.630734920501709,-5.67744779586792,1.3388407230377197,5.652491092681885,-5.646603107452393,5.545848369598389,-5.475810527801514,4.930446624755859,-5.063483715057373,-5.659475326538086,5.008995056152344,5.617830276489258,-4.846646785736084,5.639649868011475,-5.4783220291137695,5.706315994262695,-4.530558109283447,5.526895523071289,5.735713481903076,-5.7153544425964355,-5.71543025970459,-5.6542863845825195,4.840628623962402,5.2231550216674805,-3.8396127223968506,5.685496807098389,5.705740451812744,5.701534748077393,-5.704022407531738,2.0048089027404785,5.660205364227295,-5.743558406829834,5.561042308807373,-5.5674519538879395,5.008893966674805,-5.145288944244385,-5.723141670227051,5.070281505584717,5.662461757659912,-4.984913349151611,5.737287521362305,-5.6065168380737305,5.678062438964844,-4.731115818023682,5.653478145599365,0.03882666304707527,-0.007762518711388111,-0.0015718694776296616,0.036914803087711334,-0.0038356659933924675,0.0463743694126606,-0.0068985456600785255,0.01268966868519783,-0.015093551948666573,-0.020594371482729912,0.0071726953610777855,0.038603805005550385,-0.035245563834905624,0.03279772028326988,0.011861350387334824,0.015162136405706406,-0.04003376513719559,0.02617853321135044,-0.039546720683574677,0.024929432198405266,-0.03183697164058685,-0.027696309611201286,-0.03966766595840454,-0.035962462425231934,0.03977113217115402,0.03644607961177826,-0.023345613852143288]},"hiddenLayers":[{"inputMatrix":{"rows":20,"columns":27,"weights":[-0.30824410915374756,0.337268590927124,0.3084358870983124,0.3371853828430176,-0.0029482815880328417,-0.1255679875612259,-0.1225331649184227,-0.26524683833122253,-0.296072393655777,-0.3892386853694916,0.37885546684265137,0.3108278810977936,-0.3246375024318695,0.29863104224205017,-0.40468505024909973,0.40193185210227966,0.02910272590816021,0.3691953420639038,0.33849456906318665,-0.03372117504477501,-0.3334425985813141,-0.24556773900985718,-0.3307904899120331,0.40002772212028503,-0.31379804015159607,-0.025963401421904564,-0.342922568321228,0.1517712026834488,-0.08328063786029816,-0.11572720855474472,-0.07389490306377411,0.044118136167526245,0.11077343672513962,-0.018791938200592995,0.12919288873672485,0.1423804610967636,0.021971920505166054,0.02395622804760933,0.040879588574171066,0.0911368653178215,-0.05604490265250206,-0.058895815163850784,-0.02473406307399273,0.036960016936063766,0.004210479557514191,-0.060031384229660034,0.06377869099378586,0.12869378924369812,-0.019918382167816162,0.055228810757398605,0.03768356889486313,0.1288769245147705,-0.017531204968690872,0.0029380382038652897,-0.3134462833404541,0.32278797030448914,0.3483008146286011,0.3174566626548767,-0.06953782588243484,-0.13982397317886353,-0.03376137465238571,-0.27000561356544495,-0.33010250329971313,-0.37236976623535156,0.31969454884529114,0.3193599283695221,-0.3331921398639679,0.2769280970096588,-0.372761070728302,0.31216442584991455,0.0416928194463253,0.46568188071250916,0.35064148902893066,-0.03865992650389671,-0.33849549293518066,-0.17221802473068237,-0.31368041038513184,0.31418442726135254,-0.32789236307144165,0.02389512024819851,-0.3853505551815033,-0.23839908838272095,0.24270756542682648,0.2190035730600357,0.23218519985675812,-0.06972873210906982,-0.17365331947803497,-0.10399813205003738,-0.17397275567054749,-0.22596411406993866,-0.2656233012676239,0.20018325746059418,0.2581000030040741,-0.20265954732894897,0.21452713012695312,-0.2894758880138397,0.3115067780017853,-0.05782861262559891,0.3592716455459595,0.2500726282596588,-0.08961399644613266,-0.2669822573661804,-0.14998459815979004,-0.18867343664169312,0.24636432528495789,-0.22428525984287262,0.10088960081338882,-0.2184125781059265,-0.3259478211402893,0.27229225635528564,0.2935388386249542,0.3404562473297119,-0.03424045443534851,-0.15018326044082642,-0.16671648621559143,-0.27767691016197205,-0.2807990312576294,-0.3258242905139923,0.26326054334640503,0.274854838848114,-0.34679412841796875,0.33211004734039307,-0.3341659605503082,0.3462187349796295,0.07750194519758224,0.37934449315071106,0.35882410407066345,0.02705816552042961,-0.3014112114906311,-0.24165350198745728,-0.31480878591537476,0.37605026364326477,-0.31642040610313416,-0.06967808306217194,-0.4137953221797943,0.08685331046581268,-0.13870643079280853,-0.13990209996700287,-0.20209506154060364,-0.10677230358123779,-0.04163721576333046,0.3239070177078247,0.14595429599285126,0.11031562834978104,0.1763938069343567,-0.23420710861682892,-0.23270513117313385,0.15141375362873077,-0.09872408211231232,0.5153118968009949,-0.531816303730011,-0.14171454310417175,-0.05653911828994751,-0.27703019976615906,-0.12174438685178757,0.09596222639083862,0.16390472650527954,0.2095799744129181,-0.5753586888313293,0.14933685958385468,0.11848918348550797,0.17418469488620758,0.11893127858638763,-0.13537947833538055,-0.11604207009077072,-0.17403197288513184,0.14008177816867828,0.09486591815948486,0.026709869503974915,0.16119404137134552,0.18021422624588013,0.09669668227434158,-0.18710853159427643,-0.3755649924278259,0.17268484830856323,-0.0752229243516922,0.1979079395532608,-0.18815837800502777,0.10130535066127777,-0.35690799355506897,-0.14502695202827454,0.12504449486732483,0.1596977263689041,0.008541733026504517,0.10346978157758713,-0.1539367288351059,0.1389097422361374,-0.07688969373703003,0.20424461364746094,0.34684544801712036,-0.2580242455005646,-0.35454800724983215,-0.2822387218475342,0.06456848978996277,0.20427431166172028,0.042497504502534866,0.31721141934394836,0.30391764640808105,0.2478712946176529,-0.24197670817375183,0.19017724692821503,0.24324804544448853,-0.3135354816913605,0.017393341287970543,0.02549188770353794,0.08849559724330902,0.15286578238010406,-0.17517845332622528,0.08632221817970276,0.3148592710494995,-0.09252995252609253,0.3058627247810364,0.02863031066954136,0.3510768413543701,-0.04152180254459381,0.043060947209596634,-0.35997775197029114,0.2957488000392914,0.31539204716682434,0.3209596872329712,-0.10146041959524155,-0.1722172647714615,-0.03904229775071144,-0.2685237228870392,-0.31873297691345215,-0.33415260910987854,0.3960127830505371,0.0842319130897522,-0.30102044343948364,0.28847870230674744,-0.40243351459503174,0.3495316803455353,-0.03011082299053669,0.21257145702838898,0.3601156771183014,-0.11663500219583511,-0.28615954518318176,-0.035061269998550415,-0.3677276372909546,0.40017175674438477,-0.31344932317733765,0.05541668459773064,-0.35718366503715515,0.12481186538934708,-0.1366492062807083,-0.1515434831380844,-0.10333477705717087,-0.15228788554668427,-0.07466232776641846,0.19818896055221558,0.0790519043803215,0.0994214192032814,0.07533475011587143,-0.11907327175140381,-0.0958799347281456,0.1299474686384201,-0.11705861985683441,0.17545437812805176,-0.3557679057121277,-0.06008759140968323,-0.15768519043922424,-0.1640343964099884,-0.0985676720738411,0.12438618391752243,0.07101287692785263,0.12141585350036621,-0.2670782506465912,0.043048612773418427,0.10769694298505783,0.09370893985033035,0.1318380981683731,-0.17828677594661713,-0.14905047416687012,-0.22460463643074036,-0.13635115325450897,-0.05448215827345848,0.2790367007255554,0.13454964756965637,0.1289174109697342,0.13929057121276855,-0.2801414430141449,-0.17009589076042175,0.14433759450912476,-0.15085475146770477,0.4825606942176819,-0.43940889835357666,-0.16166788339614868,-0.06525472551584244,-0.41050225496292114,-0.1613278090953827,0.11317133158445358,0.18329893052577972,0.1956203132867813,-0.5030194520950317,0.174978107213974,0.13752363622188568,0.5348834991455078,-0.3543212413787842,0.27856454253196716,0.27773022651672363,0.3041972219944,0.1407158523797989,-0.044410429894924164,-0.19670705497264862,-0.3460814952850342,-0.29151496291160583,-0.2646040618419647,0.3242548704147339,0.21693898737430573,-0.28248658776283264,0.3085584044456482,-0.2701323330402374,0.24418215453624725,0.14497506618499756,0.20401112735271454,0.2855350971221924,0.19517864286899567,-0.3419419527053833,-0.19105541706085205,-0.3249393105506897,0.2908915877342224,-0.2911175489425659,-0.10283557325601578,-0.2994663119316101,-0.29677656292915344,0.30856701731681824,0.3409669101238251,0.34127745032310486,-0.053840573877096176,-0.082725889980793,-0.01568288914859295,-0.3337180018424988,-0.34138017892837524,-0.38676631450653076,0.3021857440471649,0.330350399017334,-0.3045164942741394,0.34378042817115784,-0.3618590533733368,0.3224039077758789,-0.015685519203543663,0.403005987405777,0.37436795234680176,-0.023974280804395676,-0.3431098759174347,-0.16256777942180634,-0.32541048526763916,0.3877570629119873,-0.29101428389549255,0.01857130043208599,-0.38940438628196716,0.3671506643295288,-0.3493804335594177,-0.4006586968898773,-0.3573198616504669,0.1218557357788086,0.27866846323013306,-0.0033391255419701338,0.3347625434398651,0.40215951204299927,0.39051058888435364,-0.3683740794658661,0.26736676692962646,0.35631221532821655,-0.4060053527355194,0.4138551652431488,-0.32196295261383057,0.261269748210907,-0.04190022870898247,-0.46363380551338196,0.23176464438438416,0.3535209596157074,-0.22109584510326385,0.4003274440765381,-0.377159982919693,0.3787152171134949,-0.16083303093910217,0.36515530943870544,-0.29134249687194824,0.36555901169776917,0.31047871708869934,0.3891957998275757,-0.0905553326010704,-0.20979638397693634,0.06440287828445435,-0.27944451570510864,-0.3301948606967926,-0.322521835565567,0.3384772539138794,-0.025180788710713387,-0.36952152848243713,0.3329581320285797,-0.34106940031051636,0.29648274183273315,-0.1373363733291626,0.14430734515190125,0.3669682741165161,-0.14344199001789093,-0.3676444888114929,0.016830746084451675,-0.3052369952201843,0.33692625164985657,-0.37128835916519165,0.11898727715015411,-0.29487696290016174,-0.3528442084789276,0.2624725103378296,0.31738510727882385,0.3652399778366089,0.021681787446141243,-0.031479157507419586,-0.2086695432662964,-0.2887919247150421,-0.2585706114768982,-0.38252025842666626,0.3596847653388977,0.322835236787796,-0.37774229049682617,0.33968743681907654,-0.3293198049068451,0.3104230463504791,0.14834359288215637,0.4740772843360901,0.34018227458000183,0.1184733659029007,-0.33569085597991943,-0.35096997022628784,-0.3700750470161438,0.3516835868358612,-0.22688092291355133,-0.0936707854270935,-0.3690471053123474,0.09522435814142227,-0.17066800594329834,-0.14672860503196716,-0.19767360389232635,0.09908542037010193,0.09794097393751144,0.037601448595523834,0.17793409526348114,0.16132688522338867,0.13122396171092987,-0.2109902948141098,-0.29810306429862976,0.1848134547472,-0.07034532725811005,0.16579274833202362,-0.19492904841899872,0.12450291216373444,-0.18632656335830688,-0.08810076862573624,0.18161846697330475,0.14060978591442108,0.0507081039249897,0.07871949672698975,-0.19653229415416718,0.15010875463485718,-0.04760688170790672,0.1915152221918106,0.2062740921974182,-0.13294482231140137,-0.2028869390487671,-0.17450207471847534,0.06588086485862732,0.06281141936779022,0.11716099828481674,0.14206157624721527,0.14077918231487274,0.12980660796165466,-0.21527676284313202,-0.33372658491134644,0.21885651350021362,-0.17115376889705658,0.2205507755279541,-0.23410367965698242,-0.0005626918864436448,-0.34619438648223877,-0.12617366015911102,0.08051637560129166,0.230733722448349,0.07414336502552032,0.1450829654932022,-0.20307573676109314,0.11225073784589767,0.017184318974614143,0.15957599878311157,0.19288280606269836,-0.1938897669315338,-0.16853871941566467,-0.10216492414474487,0.0819932296872139,0.10941719263792038,0.0055383117869496346,0.2264506220817566,0.1895149052143097,0.14071108400821686,-0.06482215225696564,-0.09594369679689407,0.11141154170036316,-0.12362197786569595,0.08204462379217148,-0.08615994453430176,0.12252628058195114,-0.010928018018603325,-0.09902913123369217,0.131578728556633,0.16168910264968872,-0.021182948723435402,0.14706839621067047,-0.05696436017751694,0.1839042454957962,-0.08754559606313705,0.07284972071647644,0.13323181867599487,-0.15432317554950714,-0.1414177119731903,-0.193507581949234,-0.0970531478524208,-0.036130599677562714,0.34374240040779114,0.05862103030085564,0.12366414070129395,0.13784758746623993,-0.22994719445705414,-0.22844862937927246,0.15331439673900604,-0.05726967006921768,0.2277168482542038,-0.45496827363967896,-0.12485109269618988,-0.053712762892246246,-0.2085268199443817,-0.06321637332439423,0.07027189433574677,0.18882198631763458,0.20255039632320404,-0.283681720495224,0.183759406208992,0.12188175320625305,0.1457446664571762]},"inputHidden":{"rows":20,"columns":20,"weights":[0.052233751863241196,-0.09796442836523056,0.09156468510627747,-0.11469846218824387,0.05878675356507301,0.04401953145861626,0.09404836595058441,0.014271460473537445,-0.060416363179683685,0.09945046156644821,0.012994488701224327,0.09754959493875504,0.0742313414812088,0.030369769781827927,0.06905132532119751,-0.08448562026023865,-0.10702197998762131,-0.1294383704662323,-0.10756165534257889,0.05390235781669617,-0.27223920822143555,0.007591377943754196,-0.2566484808921814,0.2307472974061966,-0.2939935028553009,-0.0322590135037899,-0.15544486045837402,-0.007024671882390976,0.24583356082439423,-0.2672309875488281,-0.04520759359002113,-0.27738457918167114,-0.204321026802063,0.016964156180620193,-0.31328266859054565,0.18141143023967743,0.21785441040992737,0.23961003124713898,0.06330356001853943,-0.13016164302825928,-0.06149755418300629,-0.07281479984521866,-0.016600746661424637,0.038475919514894485,0.01118767075240612,0.018043838441371918,0.05305526405572891,0.04030764102935791,-0.01246131956577301,0.24540027976036072,-0.02437005192041397,0.005799834616482258,-0.07915066182613373,0.03817027062177658,-0.019605034962296486,-0.0186005812138319,-0.07181455194950104,-0.02996794506907463,-0.0853743925690651,0.03131074830889702,-0.006283833645284176,-0.04484032094478607,0.03146268427371979,0.023166019469499588,-0.02185371331870556,-0.011455036699771881,-0.01295436080545187,0.04296350106596947,-0.030489135533571243,0.017347779124975204,-0.015960363671183586,0.026266533881425858,0.01989181898534298,-0.0238410122692585,0.004856094252318144,0.042838484048843384,-0.02612137235701084,-0.0795772448182106,-0.055316753685474396,0.04014529287815094,0.01802973262965679,-0.014079360291361809,0.024684680625796318,0.006053129676729441,-0.012207149527966976,0.04833540692925453,0.013029214926064014,-0.0018427683971822262,-0.05758344382047653,0.08888504654169083,-0.013432051986455917,0.03210253268480301,-0.0047971694730222225,0.006703668739646673,0.043877411633729935,-0.05740034207701683,-0.054834239184856415,-0.09152256697416306,-0.028652150183916092,0.06291534006595612,-0.5899463891983032,0.15012066066265106,-0.5939351320266724,0.5867078900337219,-0.5891863107681274,-0.16177840530872345,-0.5225064158439636,0.17348456382751465,0.6005815267562866,-0.397640198469162,0.2335931658744812,-0.6293115019798279,-0.6387607455253601,-0.15490081906318665,-0.613879382610321,0.6852772831916809,0.46777063608169556,0.467332124710083,0.16096042096614838,-0.33696553111076355,0.212260439991951,-0.11232931166887283,0.16986802220344543,-0.1868434101343155,0.1759195625782013,0.030554044991731644,0.32174214720726013,-0.025692353025078773,-0.15620861947536469,0.29537227749824524,-0.03532717749476433,0.17106381058692932,0.21992288529872894,-0.0176637414842844,0.20094823837280273,-0.16168685257434845,-0.2887239456176758,-0.3200724422931671,-0.0884208157658577,0.1754259318113327,-0.3035784661769867,-0.0030827783048152924,-0.27139410376548767,0.2720842957496643,-0.3320351243019104,0.05233769863843918,-0.10629598051309586,-0.11714253574609756,0.2607961893081665,-0.16802595555782318,-0.0752054899930954,-0.24235761165618896,-0.2901762127876282,0.050661467015743256,-0.2930387556552887,0.27475425601005554,0.11361861228942871,0.19879290461540222,-0.008586544543504715,-0.1428896188735962,0.15427620708942413,-0.13414905965328217,0.07426077872514725,-0.06095794215798378,0.12026140093803406,0.07202141731977463,0.15315303206443787,-0.007483825087547302,-0.0898461639881134,0.11169862002134323,-0.04796184226870537,0.10087689757347107,0.08203491568565369,-0.04427260160446167,0.1412472277879715,-0.13649974763393402,-0.08000662177801132,-0.14347608387470245,-0.05020640045404434,0.12760594487190247,-0.516554594039917,0.2936951518058777,-0.5065587759017944,0.5084722638130188,-0.48571327328681946,-0.23804448544979095,-0.4973812997341156,0.10228123515844345,0.4679509997367859,-0.4648550748825073,0.23047544062137604,-0.5179938673973083,-0.5012263655662537,-0.07626933604478836,-0.4642096161842346,0.5073103904724121,0.44675737619400024,0.42098695039749146,0.2648361027240753,-0.4240105450153351,-0.6743103861808777,0.17385758459568024,-0.5932514071464539,0.7380990386009216,-0.6454333066940308,-0.1627335250377655,-0.4998820722103119,0.1738489866256714,0.7339710593223572,-0.41972047090530396,0.2081006020307541,-0.6312617659568787,-0.7017374038696289,-0.1087627112865448,-0.6838906407356262,0.656937837600708,0.4444425106048584,0.5678697824478149,0.15473897755146027,-0.2203514277935028,-0.23916886746883392,0.03977512940764427,-0.2005944848060608,0.24576160311698914,-0.21294130384922028,-0.05084484815597534,-0.17026177048683167,0.04244186729192734,0.24693019688129425,-0.22645550966262817,0.02007014863193035,-0.25429269671440125,-0.21696539223194122,0.0012799164978787303,-0.21033179759979248,0.2278970628976822,0.13804271817207336,0.21902965009212494,0.03692471608519554,-0.040268976241350174,-0.0358319990336895,-0.0879630297422409,-0.021807221695780754,0.06867535412311554,-0.001930532860569656,0.04687853530049324,-0.01161826029419899,0.025357631966471672,0.026081666350364685,0.1413363367319107,-0.04219884052872658,-0.02991458587348461,-0.08978936821222305,0.023922761902213097,-0.009846465662121773,0.016515187919139862,-0.05339981988072395,-0.036543503403663635,-0.12573279440402985,0.03905849531292915,-0.2297038435935974,0.00917152687907219,-0.18016742169857025,0.16044503450393677,-0.12998811900615692,0.056405097246170044,-0.08640218526124954,-0.1780010610818863,0.18824760615825653,-0.11001460254192352,-0.15748658776283264,-0.1295698881149292,-0.23858506977558136,0.12555621564388275,-0.15123099088668823,0.20588985085487366,0.13091763854026794,0.15777181088924408,0.008770488202571869,-0.07371938973665237,0.05362959951162338,-0.0894906297326088,0.05277027189731598,-0.04641218110918999,0.04303094372153282,-0.0021725089754909277,0.12186387181282043,-0.030464623123407364,-0.08010212332010269,0.07615408301353455,0.043128691613674164,0.09661166369915009,0.05299613997340202,0.015998918563127518,0.07409386336803436,-0.08692809194326401,-0.06830327212810516,-0.04851372167468071,-0.07930126786231995,0.09449942409992218,-0.025509631261229515,-0.046260230243206024,0.028956953436136246,0.005968153476715088,0.04612597078084946,0.04538965970277786,0.12270735204219818,-0.018481653183698654,-0.03162107989192009,0.2447923719882965,-0.065388984978199,-0.0009629400447010994,-0.004766218364238739,0.046701543033123016,-0.014924278482794762,-0.010056997649371624,-0.08416764438152313,-0.06329222768545151,-0.03913181647658348,0.06342286616563797,0.17400714755058289,-0.15124405920505524,0.1584356129169464,-0.1824130117893219,0.25240275263786316,0.07925431430339813,0.25779563188552856,0.028868328779935837,-0.23186734318733215,0.2697218358516693,-0.036364272236824036,0.21465377509593964,0.20732292532920837,0.012008219957351685,0.20171137154102325,-0.1925102323293686,-0.29038429260253906,-0.3017190396785736,-0.12298654764890671,0.19894754886627197,0.23285122215747833,-0.12410791963338852,0.15634749829769135,-0.23646754026412964,0.2547202706336975,0.035359691828489304,0.31035515666007996,-0.039443910121917725,-0.16861167550086975,0.27307137846946716,-0.0381624735891819,0.18204930424690247,0.19294917583465576,-0.011626049876213074,0.16174553334712982,-0.18799914419651031,-0.3240111768245697,-0.35339444875717163,-0.11945942044258118,0.1808428019285202,0.06191316246986389,-0.12565378844738007,0.07347515225410461,-0.050403568893671036,-0.0031753829680383205,0.033451665192842484,0.08276015520095825,0.0010688613401725888,0.005316880997270346,0.13938307762145996,0.018061332404613495,0.05616143345832825,0.06366537511348724,-0.03155762329697609,0.028159957379102707,-0.0031286608427762985,-0.09063629060983658,-0.03296048194169998,-0.07381787896156311,0.054135002195835114,-0.5195149183273315,0.1981501281261444,-0.5784304141998291,0.5148735642433167,-0.5456088185310364,-0.23281721770763397,-0.4648086428642273,0.18818600475788116,0.5148952007293701,-0.35263481736183167,0.194553941488266,-0.5721087455749512,-0.5684872269630432,-0.14892759919166565,-0.49531060457229614,0.5677376985549927,0.37443095445632935,0.39605817198753357,0.1819698065519333,-0.31055721640586853]},"inputBias":{"rows":20,"columns":1,"weights":[-0.032482460141181946,-0.058214299380779266,-0.0391550175845623,-0.04987379536032677,-0.04442254453897476,-0.1874195784330368,-0.16805008053779602,-0.1278565675020218,-0.006375287193804979,-0.23833748698234558,-0.12373481690883636,0.0677344799041748,-0.021434862166643143,-0.10510452836751938,0.009718555025756359,0.04795607924461365,-0.19536983966827393,-0.1753944307565689,-0.08808807283639908,-0.29454824328422546]},"forgetMatrix":{"rows":20,"columns":27,"weights":[-0.030952943488955498,0.0509185753762722,0.05986081063747406,0.07245528697967529,-0.02345963381230831,-0.09795784205198288,0.006125349551439285,0.002177018439397216,-0.015513263642787933,-0.02158532664179802,-0.04454195126891136,0.005472596734762192,0.05663180351257324,0.022376857697963715,-0.05284452810883522,-0.01727510243654251,-0.03669598698616028,0.005082204006612301,0.08266473561525345,-0.03570420295000076,0.048972148448228836,0.06435301154851913,-0.0897161141037941,-0.04137229546904564,-0.02161242999136448,0.014716262929141521,-0.008858460001647472,-0.014246087521314621,0.05987543240189552,0.03132892772555351,0.01629720628261566,-0.02220352180302143,-0.0029644982423633337,-0.03487073630094528,-0.017470676451921463,-0.03463413566350937,-0.008987742476165295,-0.026724152266979218,-0.026717867702245712,0.05719153210520744,0.00625439640134573,0.020687369629740715,-0.0013564403634518385,-0.010560892522335052,-0.013486095704138279,-0.017995916306972504,-0.026096269488334656,0.057430680841207504,-0.00926914718002081,0.009595712646842003,-0.059625718742609024,0.026269273832440376,-0.03500940650701523,0.042210277169942856,0.07445665448904037,-0.0814640074968338,-0.036019906401634216,-0.10056130588054657,0.028614528477191925,-0.03258363902568817,-0.08425635099411011,0.133676216006279,0.1011519581079483,0.07563094049692154,-0.1726841926574707,-0.2864256501197815,0.18737299740314484,-0.1488564908504486,0.12147608399391174,-0.15157674252986908,-0.05027396231889725,-0.2448674738407135,-0.09342556446790695,0.047671545296907425,0.12611675262451172,0.11741714179515839,0.06656824052333832,-0.1832846701145172,0.10042622685432434,-0.020688723772764206,0.17406070232391357,-0.15802378952503204,0.15749965608119965,0.13293984532356262,0.13859067857265472,-0.09100139886140823,-0.08946391940116882,0.1423209309577942,-0.12327638268470764,-0.18902967870235443,-0.22939828038215637,0.14960911870002747,0.37707310914993286,-0.1700378656387329,0.11462703347206116,-0.1905914694070816,0.11947187781333923,-0.03424413502216339,0.33670660853385925,0.1955004781484604,-0.09109727293252945,-0.1724088191986084,-0.0216453168541193,-0.15783628821372986,0.11844789236783981,-0.15321221947669983,0.1416093111038208,-0.11443773657083511,0.01565007120370865,0.028293753042817116,0.07563164085149765,-0.0023295599967241287,-0.04249013960361481,-0.08484549075365067,-0.016061488538980484,0.029428016394376755,-0.04698772355914116,-0.032175932079553604,-0.02227691560983658,-0.045939549803733826,0.039757631719112396,0.03321273252367973,-0.01663476973772049,0.0011642689350992441,-0.03213973343372345,-0.04983369633555412,0.02664254792034626,-0.020037299022078514,0.014898006804287434,0.04473050311207771,-0.0741531103849411,-0.08681715279817581,-0.06015000492334366,0.004073949530720711,0.02971450611948967,-0.17369866371154785,0.24054521322250366,0.22301004827022552,0.19662423431873322,-0.17226766049861908,-0.17134623229503632,0.13425788283348083,-0.23648180067539215,-0.15658977627754211,-0.22586524486541748,0.14899487793445587,-0.02063221111893654,-0.21968404948711395,0.1933371126651764,-0.21409165859222412,0.16250570118427277,-0.16738590598106384,0.154842808842659,0.15456841886043549,-0.2094050496816635,-0.17179642617702484,0.16958115994930267,-0.1860382854938507,0.13252763450145721,-0.22281818091869354,0.19086605310440063,-0.22565078735351562,0.022211678326129913,0.033152274787425995,0.03787348046898842,0.031055998057127,0.06264913827180862,-0.01529080979526043,-0.04865846410393715,0.022586863487958908,-0.01000942848622799,-0.015262161381542683,-0.07458080351352692,-0.10483743250370026,0.05094081535935402,-0.030957845970988274,0.05703204125165939,-0.13448740541934967,0.03797013685107231,-0.09389946609735489,0.0007605006685480475,0.0012008773628622293,0.059651102870702744,0.011594132520258427,0.035342469811439514,-0.13028070330619812,0.03734878823161125,-0.02541847713291645,0.06115635856986046,0.047797802835702896,-0.028038594871759415,-0.06951525062322617,-0.06906014680862427,0.018964843824505806,0.03269460052251816,-0.006181684788316488,0.07645535469055176,0.034052036702632904,0.08981581777334213,-0.009990486316382885,0.05282009392976761,0.028153888881206512,-0.054375212639570236,0.020191960036754608,-0.021633045747876167,0.08867162466049194,-0.044496163725852966,-0.050990499556064606,0.023511074483394623,0.10969150066375732,-0.089923195540905,0.03506879508495331,-0.07458604127168655,0.04680653661489487,-0.019921278581023216,0.048681341111660004,-0.12142767757177353,0.11031869798898697,0.15353167057037354,0.1773756742477417,-0.061148107051849365,-0.05102600157260895,0.1521153301000595,-0.08869404345750809,-0.09020204842090607,-0.13016709685325623,0.08537277579307556,0.2662476897239685,-0.10500722378492355,0.10632673650979996,-0.1456267088651657,0.06947168707847595,-0.0672401636838913,0.17612296342849731,0.12535817921161652,-0.07375741750001907,-0.09088632464408875,0.017730766907334328,-0.17402134835720062,0.08449626713991165,-0.11448279768228531,0.14900439977645874,-0.15406982600688934,-0.33548352122306824,0.33992668986320496,0.346518337726593,0.30579835176467896,-0.18356862664222717,-0.30614033341407776,0.24930928647518158,-0.2067006379365921,-0.2564694583415985,-0.3132549524307251,0.28738394379615784,0.13019448518753052,-0.2576262950897217,0.26074668765068054,-0.2967793345451355,0.2708192467689514,-0.23208782076835632,0.2010916918516159,0.3298511803150177,-0.2513396441936493,-0.2648894488811493,0.2872377634048462,-0.3292175531387329,0.18481102585792542,-0.2943708300590515,0.2800874412059784,-0.26770347356796265,-0.17735038697719574,0.22203731536865234,0.2288069874048233,0.13998393714427948,-0.164411723613739,-0.1863117814064026,0.0899823009967804,-0.19529607892036438,-0.21536065638065338,-0.17813093960285187,0.12846443057060242,-0.055468007922172546,-0.14769728481769562,0.19453802704811096,-0.19280950725078583,0.1802930384874344,-0.13464482128620148,0.11824621260166168,0.18246053159236908,-0.16394950449466705,-0.2141454964876175,0.1963590830564499,-0.22401097416877747,0.1954042911529541,-0.14900697767734528,0.19357417523860931,-0.1505369395017624,0.02755999192595482,0.010562450625002384,0.03793748468160629,0.05031454935669899,-0.006940170656889677,-0.0544327013194561,-0.001793086645193398,0.023756297305226326,0.005331558175384998,-0.0168958380818367,-0.03485885635018349,-0.15751592814922333,0.08938196301460266,-0.03032885678112507,0.04669126123189926,-0.03108140267431736,-0.059835318475961685,-0.18937136232852936,-0.015895413234829903,0.02546251006424427,0.06501436978578568,0.1358441561460495,-0.055105701088905334,-0.12082823365926743,0.006741385441273451,0.028117505833506584,0.04144362360239029,0.15453453361988068,-0.12611445784568787,-0.12833288311958313,-0.11371780186891556,0.013396255671977997,-0.07242392003536224,0.025611069053411484,0.12635181844234467,0.08115439862012863,0.11970742791891098,-0.12271914631128311,-0.2462414652109146,0.1507638841867447,-0.11051354557275772,0.10113077610731125,-0.12917359173297882,-0.07462207227945328,-0.2857491970062256,-0.15290498733520508,-0.04792064055800438,0.21165908873081207,0.0904107317328453,0.09446703642606735,-0.15733489394187927,0.0412987619638443,0.02475201152265072,0.15223686397075653,0.07176388800144196,-0.08396877348423004,-0.08171252906322479,-0.09441979974508286,0.02782626636326313,0.01702231913805008,-0.05127555876970291,0.060878053307533264,0.05797683075070381,0.06352736055850983,-0.005212212447077036,0.023156339302659035,0.09197018295526505,-0.03875886648893356,0.06031832844018936,0.004138551652431488,0.080403633415699,-0.032019276171922684,-0.04297371953725815,0.030334658920764923,0.021679779514670372,-0.049979742616415024,0.059377096593379974,0.003972106613218784,0.08294492214918137,-0.08715076744556427,0.04257084056735039,-0.12023504823446274,0.19026201963424683,0.20420020818710327,0.1879022717475891,-0.1447429060935974,-0.04247695580124855,0.07751564681529999,-0.10663216561079025,-0.15467815101146698,-0.22946852445602417,0.12684142589569092,0.25457122921943665,-0.08626537770032883,0.17400850355625153,-0.14308695495128632,0.11157457530498505,-0.03439332917332649,0.21829073131084442,0.22265784442424774,-0.059752076864242554,-0.10735966265201569,0.03927953913807869,-0.16529659926891327,0.10813387483358383,-0.15750175714492798,0.08766888827085495,-0.12993161380290985,0.14825645089149475,-0.04830211400985718,-0.07707872986793518,-0.10678496956825256,0.049257997423410416,-0.03165370225906372,-0.06354157626628876,0.16982488334178925,0.11544952541589737,0.1452663540840149,-0.14991796016693115,-0.26936107873916626,0.21746885776519775,-0.10532274842262268,0.1314309686422348,-0.1726396083831787,0.0008064701105467975,-0.19236421585083008,-0.07809355854988098,0.07296745479106903,0.18176089227199554,0.051213588565588,0.08298783749341965,-0.14867544174194336,0.08560112863779068,-0.08666840940713882,0.17784111201763153,0.035726554691791534,0.001780394813977182,-0.012801220640540123,-0.008821392431855202,0.011333594098687172,-0.05280815437436104,-0.08669356256723404,0.03319151699542999,0.040346015244722366,0.028549209237098694,-0.08345472067594528,-0.11346809566020966,0.08030614256858826,-0.03447083383798599,0.026101961731910706,-0.11540106683969498,0.060857899487018585,-0.1067148968577385,0.02326827496290207,0.007620257791131735,0.026635635644197464,-0.039459776133298874,0.05965002253651619,-0.06504359096288681,0.04284778609871864,-0.03430250287055969,0.0716114267706871,0.04096231982111931,0.010266423225402832,-0.039383549243211746,-0.011941831558942795,0.029966814443469048,-0.04863709211349487,0.037542521953582764,0.05746917799115181,0.013819701969623566,0.00022630012244917452,-0.08504444360733032,-0.07287955284118652,0.05249258130788803,-0.023274609819054604,0.09260176122188568,-0.1420263648033142,-0.0493684746325016,-0.11629079282283783,0.034162405878305435,-0.07008256018161774,0.09725765883922577,0.03129974752664566,0.03765654191374779,-0.06302168220281601,0.009797908365726471,0.039023205637931824,0.120634064078331,-0.03742464631795883,0.02453017421066761,0.03180244565010071,0.0037461556494235992,0.028438812121748924,0.008922437205910683,-0.037365108728408813,0.03337523713707924,0.0006429795757867396,0.0010835645953193307,0.0033919387497007847,0.05450640246272087,-0.025772837921977043,-0.0060892351903021336,-0.041870903223752975,0.012815700843930244,0.05185626819729805,0.033803790807724,-0.008627716451883316,0.04095638915896416,0.025777865201234818,-0.03776925057172775,0.00528288958594203,-0.033678892999887466,0.030910929664969444,-0.011023243889212608,-0.018658975139260292,-0.2642947733402252,0.3100750148296356,0.25057563185691833,0.31056147813796997,-0.18098090589046478,-0.2746026813983917,0.1729910522699356,-0.28400149941444397,-0.2716848850250244,-0.3071073591709137,0.23850782215595245,-0.18157179653644562,-0.2987537384033203,0.30750036239624023,-0.30036503076553345,0.2512948215007782,-0.29393061995506287,0.24448798596858978,0.2944156229496002,-0.22086939215660095,-0.2874737083911896,0.20437680184841156,-0.28100067377090454,0.28774526715278625,-0.23578618466854095,0.24109022319316864,-0.25362300872802734]},"forgetHidden":{"rows":20,"columns":20,"weights":[0.1976991891860962,-0.10510212928056717,0.13749605417251587,-0.20996299386024475,0.1967696249485016,0.05230116471648216,0.12554502487182617,0.016459843143820763,-0.14511039853096008,0.18428270518779755,-0.03682250902056694,0.19347530603408813,0.17481349408626556,0.029468365013599396,0.20505645871162415,-0.19802403450012207,-0.20751819014549255,-0.2041720151901245,-0.14710484445095062,0.13495905697345734,0.18095427751541138,-0.13816022872924805,0.1383727490901947,-0.11380928754806519,0.1526506543159485,0.046466123312711716,0.16584746539592743,0.006874145939946175,-0.17909149825572968,0.1602340191602707,0.0257766991853714,0.14472036063671112,0.15127260982990265,-0.024143747985363007,0.16260004043579102,-0.13791850209236145,-0.18179389834403992,-0.18776308000087738,-0.0819089263677597,0.08406582474708557,0.2664845585823059,-0.1475634127855301,0.23501233756542206,-0.2561323642730713,0.1942508965730667,0.012944377958774567,0.18233196437358856,-0.03451695665717125,-0.2287222146987915,0.1841740906238556,0.0026734101120382547,0.272648423910141,0.2422628402709961,-0.038930412381887436,0.2188502699136734,-0.27043554186820984,-0.19054900109767914,-0.16945500671863556,-0.15788763761520386,0.10808946937322617,0.053274232894182205,-0.057368140667676926,-0.009279951453208923,0.004198021721094847,-0.0090336874127388,0.010086975991725922,0.07081297785043716,-0.0020537390373647213,-0.0409402921795845,0.07681701332330704,-0.04982367530465126,0.0005468417075462639,-0.003615549299865961,0.016304602846503258,0.012018886394798756,-0.049587663263082504,-0.04940280690789223,-0.01770046539604664,-0.02307400107383728,0.017057884484529495,0.16179397702217102,-0.09770037978887558,0.1713346242904663,-0.1597082018852234,0.1939023733139038,0.03774530068039894,0.16878247261047363,0.0004666169988922775,-0.16764982044696808,0.2223013937473297,-0.029477152973413467,0.22496773302555084,0.19958753883838654,0.0057315826416015625,0.16476567089557648,-0.20759829878807068,-0.1463717371225357,-0.15481537580490112,-0.12591303884983063,0.09348972141742706,0.037618525326251984,0.012668808922171593,0.0019084539962932467,0.006333474535495043,0.03777068480849266,-0.0601823516190052,0.04741087183356285,0.03006754443049431,-0.038991428911685944,0.04051336646080017,0.05713120475411415,0.016593661159276962,0.06175651028752327,-0.03771689161658287,0.03265618905425072,-0.04424748569726944,-0.04215742275118828,-0.06149652600288391,0.0278901606798172,-0.048568613827228546,0.1532469391822815,-0.16265830397605896,0.24557094275951385,-0.159166619181633,0.23762288689613342,0.036297623068094254,0.1912059187889099,-0.03777538985013962,-0.24016357958316803,0.16315209865570068,0.021671112626791,0.16244903206825256,0.17365550994873047,-0.02436259388923645,0.21895666420459747,-0.18801772594451904,-0.17298352718353271,-0.15879569947719574,-0.13061586022377014,0.08130998909473419,0.04958481714129448,-0.04242450371384621,0.0029208699706941843,0.03671146184206009,0.046721331775188446,-0.03378117084503174,0.05369306728243828,-0.05398431420326233,0.018549581989645958,-0.01306986901909113,-0.05470810830593109,-0.007818774320185184,0.023257674649357796,-0.014460344798862934,-0.03273188695311546,0.013408653438091278,0.001231276080943644,0.014459899626672268,-0.06396133452653885,0.019575264304876328,0.09734005481004715,-0.10877683013677597,0.0044240099377930164,-0.08068913966417313,0.06352249532938004,-0.024841293692588806,0.05755011737346649,-0.03594651818275452,-0.11261839419603348,0.12336204946041107,-0.052572205662727356,0.045375432819128036,0.053205959498882294,0.010311931371688843,0.03134626895189285,-0.053232114762067795,-0.06709381937980652,-0.04210337623953819,-0.10866178572177887,0.060127999633550644,0.16819356381893158,-0.11093690246343613,0.15780742466449738,-0.12608551979064941,0.15863914787769318,0.05210903659462929,0.14445629715919495,0.01379418559372425,-0.17447596788406372,0.1297079473733902,-0.014350185170769691,0.15723104774951935,0.12268906831741333,0.01509715337306261,0.1116582602262497,-0.0876351147890091,-0.15306195616722107,-0.13775599002838135,-0.15636475384235382,0.10442271083593369,-0.011099630035459995,0.04185767471790314,0.017746364697813988,0.03281763195991516,-0.03283044695854187,-0.07210232317447662,0.005867227911949158,0.028046106919646263,-0.02271447516977787,-0.058268141001462936,0.10613638162612915,-0.02651088871061802,0.001821751706302166,0.0028097843751311302,0.008758367970585823,0.010576669126749039,-0.003900321200489998,-0.05373118072748184,0.02422851137816906,-0.060773130506277084,0.21988090872764587,-0.1476353257894516,0.21738022565841675,-0.22793038189411163,0.2807970345020294,0.07488501071929932,0.18207727372646332,0.03898593410849571,-0.2290271520614624,0.22278395295143127,-0.058082614094018936,0.26284265518188477,0.2448360174894333,0.011728699319064617,0.264219731092453,-0.24494898319244385,-0.20611891150474548,-0.23409952223300934,-0.1079070121049881,0.13798002898693085,0.27791842818260193,-0.1337454915046692,0.26951515674591064,-0.22157174348831177,0.21938984096050262,0.05182597413659096,0.2141193300485611,-0.05325529724359512,-0.258104145526886,0.21597149968147278,-0.0076340576633811,0.28855836391448975,0.22689411044120789,-0.035710521042346954,0.23571543395519257,-0.2720915377140045,-0.2652101516723633,-0.17585353553295135,-0.13424277305603027,0.15221823751926422,0.04772159457206726,-0.03108610026538372,0.021901896223425865,0.034286919981241226,0.004269025754183531,-0.01059725508093834,-0.012499995529651642,-0.02364344336092472,-0.017898118123412132,0.03701352700591087,-0.026842810213565826,0.0525459386408329,-0.01790725067257881,-0.03071056492626667,0.03588760644197464,0.022517066448926926,-0.0273964311927557,-0.05251346156001091,0.02249850519001484,0.01843813806772232,0.06391491740942001,-0.04457679018378258,0.06894270330667496,-0.010517542250454426,0.058751918375492096,-0.0035868086852133274,0.08791022002696991,-0.01125576812773943,-0.08327031880617142,0.05889888107776642,-0.036743830889463425,0.035818662494421005,0.07726225256919861,-0.038793738931417465,0.06012851744890213,-0.06228109821677208,-0.06646908074617386,-0.0484849289059639,-0.04586358368396759,0.08646459877490997,0.22269123792648315,-0.17624475061893463,0.2378907948732376,-0.27419018745422363,0.22230491042137146,0.08392438292503357,0.26521605253219604,-0.0018932610983029008,-0.21272847056388855,0.1760232150554657,-0.004748712293803692,0.2721767723560333,0.24335409700870514,0.03632136434316635,0.2689046859741211,-0.3332957923412323,-0.24984675645828247,-0.2180698961019516,-0.1709754317998886,0.09954360127449036,0.2210763394832611,-0.1378694772720337,0.18992553651332855,-0.16356977820396423,0.19111037254333496,0.06293701380491257,0.19910448789596558,0.02474687062203884,-0.14471477270126343,0.22020748257637024,-0.05353953689336777,0.2062719613313675,0.14997343719005585,0.03186505287885666,0.1592617630958557,-0.19310244917869568,-0.2241489589214325,-0.2300499528646469,-0.0643506646156311,0.07701069116592407,0.21817755699157715,-0.143996924161911,0.23306895792484283,-0.16771391034126282,0.18649694323539734,0.035391900688409805,0.17905069887638092,-0.03516996279358864,-0.15642817318439484,0.21465472877025604,-0.023314565420150757,0.1993010938167572,0.17305737733840942,-0.017510851845145226,0.16187870502471924,-0.2196846306324005,-0.2243957817554474,-0.17215177416801453,-0.1554042547941208,0.1754150241613388,0.10285020619630814,-0.05813650041818619,0.12320569157600403,-0.11319776624441147,0.1787606179714203,-0.03242144361138344,0.15579469501972198,-0.027165694162249565,-0.1343938112258911,0.10322389006614685,-0.028170069679617882,0.11377570033073425,0.14398357272148132,-0.01578410714864731,0.08668084442615509,-0.13122500479221344,-0.09861549735069275,-0.10523401200771332,-0.13137218356132507,0.09344234317541122,0.13031700253486633,-0.00680156983435154,0.15090006589889526,-0.11435791105031967,0.09786134958267212,0.012163130566477776,0.07936117798089981,0.045628100633621216,-0.06054631620645523,0.10546357929706573,0.046692267060279846,0.10229923576116562,0.14147984981536865,-0.010493761859834194,0.07492847740650177,-0.11108586192131042,-0.07410165667533875,-0.12522104382514954,-0.04235340282320976,0.0897042453289032]},"forgetBias":{"rows":20,"columns":1,"weights":[0,0,0,0,0,0,0,0,0,0,0,0,0,0,0,0,0,0,0,0]},"outputMatrix":{"rows":20,"columns":27,"weights":[-0.3758416771888733,0.37765005230903625,0.3324109613895416,0.41164690256118774,-0.051673632115125656,-0.20192083716392517,-0.14503765106201172,-0.29672566056251526,-0.2955680191516876,-0.37912964820861816,0.32099664211273193,0.3627530038356781,-0.3066149055957794,0.32753631472587585,-0.3813561797142029,0.41211920976638794,0.054348208010196686,0.36856621503829956,0.43103545904159546,0.0217423178255558,-0.2985196113586426,-0.19663572311401367,-0.40501874685287476,0.3328138291835785,-0.29829803109169006,-0.03671255335211754,-0.37992867827415466,0.2211134135723114,-0.2676767408847809,-0.2603430151939392,-0.09297419339418411,0.02671441249549389,0.17107465863227844,0.021447602659463882,0.2506147027015686,0.21402843296527863,0.16744686663150787,-0.11422158032655716,0.03657064959406853,0.16561321914196014,-0.18637654185295105,0.04070930555462837,-0.08604448288679123,0.049724332988262177,-0.012185144238173962,-0.17454427480697632,0.15159909427165985,0.17564275860786438,-0.09245119243860245,0.2046869993209839,-0.11865938454866409,0.2521958351135254,-0.08204903453588486,0.08552230149507523,-0.3464423716068268,0.34363725781440735,0.31842324137687683,0.38869255781173706,-0.08692794293165207,-0.16915008425712585,0.03706914559006691,-0.31939947605133057,-0.2771841287612915,-0.4547117054462433,0.32738518714904785,0.3491298258304596,-0.34557318687438965,0.2965458929538727,-0.4178110659122467,0.3743869364261627,-0.006614822428673506,0.5497998595237732,0.35681185126304626,-0.11685391515493393,-0.36416932940483093,-0.22878795862197876,-0.32296451926231384,0.37772542238235474,-0.34339815378189087,0.16139757633209229,-0.3700460195541382,-0.22247177362442017,0.2674001157283783,0.2999086081981659,0.31550565361976624,-0.12958666682243347,-0.1973031610250473,0.02330152317881584,-0.2803150713443756,-0.24332024157047272,-0.3039620518684387,0.31089797616004944,0.41509294509887695,-0.2993159294128418,0.29761314392089844,-0.366827130317688,0.2995022237300873,-0.141336590051651,0.5088314414024353,0.3049412667751312,-0.12052341550588608,-0.251989483833313,-0.10215423256158829,-0.28481554985046387,0.2934108078479767,-0.24478164315223694,0.14814843237400055,-0.34217891097068787,-0.2715730369091034,0.3077146112918854,0.33216169476509094,0.35546013712882996,-0.017387734726071358,-0.17200639843940735,-0.17580373585224152,-0.28563374280929565,-0.27550041675567627,-0.4055396318435669,0.34185004234313965,0.3560344874858856,-0.31835660338401794,0.29541024565696716,-0.3598010241985321,0.4061548113822937,0.034579213708639145,0.41568630933761597,0.36822453141212463,-0.00501474691554904,-0.27487385272979736,-0.29398852586746216,-0.3552002012729645,0.32355108857154846,-0.3159915804862976,-0.055681899189949036,-0.37243619561195374,0.00998659711331129,-0.04279141128063202,-0.02391268126666546,-0.15272249281406403,-0.12198711186647415,-0.09535127878189087,0.23988227546215057,0.010899864137172699,0.09673186391592026,0.05149490013718605,-0.18545794486999512,-0.2267143726348877,0.02287568897008896,-0.03262586519122124,0.22984768450260162,-0.56084805727005,-0.18048353493213654,-0.06821110099554062,-0.11299780756235123,-0.10169357806444168,0.07901477813720703,0.1541517972946167,0.13200680911540985,-0.2809448838233948,0.07673552632331848,0.17472301423549652,0.07889528572559357,0.175594300031662,-0.1759667694568634,-0.12058001756668091,-0.17048752307891846,0.15242239832878113,0.130711168050766,0.06201018765568733,0.18227075040340424,0.1614905744791031,0.1466454714536667,-0.22854764759540558,-0.42716726660728455,0.19715291261672974,-0.1595308929681778,0.13635089993476868,-0.20452837646007538,0.09110751003026962,-0.44587522745132446,-0.09568236023187637,0.19531531631946564,0.15311802923679352,0.0011938182869926095,0.10060848295688629,-0.19562740623950958,0.14237886667251587,-0.06796178221702576,0.19166803359985352,0.3004874587059021,-0.31192564964294434,-0.2820536494255066,-0.28299859166145325,0.03170398622751236,0.22907085716724396,0.09938684850931168,0.30535000562667847,0.27531397342681885,0.3451348543167114,-0.2984811067581177,0.17123547196388245,0.27401986718177795,-0.3274470567703247,0.05701161548495293,0.03298337385058403,0.10879955440759659,0.21392473578453064,-0.24213501811027527,0.07363149523735046,0.29642874002456665,-0.16276739537715912,0.352512389421463,-0.030462894588708878,0.2895476222038269,-0.02573391981422901,0.21006596088409424,-0.3175552785396576,0.34326237440109253,0.36682403087615967,0.3951399028301239,-0.14140668511390686,-0.23549480736255646,-0.04334903880953789,-0.31690162420272827,-0.35781043767929077,-0.37859782576560974,0.3534944951534271,0.15695834159851074,-0.36609941720962524,0.3060539960861206,-0.41354984045028687,0.35878846049308777,-0.09280620515346527,0.28402888774871826,0.3334358036518097,-0.11576711386442184,-0.32493022084236145,-0.062420256435871124,-0.3731645345687866,0.32436391711235046,-0.34501299262046814,0.05545917525887489,-0.3684944808483124,0.17520616948604584,-0.22310228645801544,-0.16646431386470795,-0.21898983418941498,-0.22959457337856293,0.011815915815532207,0.25697678327560425,0.12257952988147736,0.22242720425128937,0.14468829333782196,-0.23580554127693176,-0.019046451896429062,0.1570165604352951,-0.16593074798583984,0.24533303081989288,-0.20701323449611664,-0.17992861568927765,-0.11978726089000702,-0.2284729778766632,-0.13823725283145905,0.14044298231601715,0.11569925397634506,0.2502027153968811,-0.21820735931396484,0.14168781042099,0.21405740082263947,0.19684502482414246,-0.0024582238402217627,-0.08608387410640717,-0.0870303213596344,-0.11488968133926392,-0.11885964870452881,-0.0343499556183815,0.19532930850982666,0.030850032344460487,0.021175168454647064,0.027125630527734756,-0.08875725418329239,-0.17505046725273132,-0.019571876153349876,-0.026878289878368378,0.27678102254867554,-0.4651634395122528,-0.1227477490901947,-0.07242400199174881,-0.17057037353515625,-0.15280766785144806,0.05268086865544319,0.20430104434490204,0.03956485912203789,-0.44001299142837524,0.018793180584907532,0.1085326075553894,0.15777544677257538,-0.31577107310295105,0.2782631516456604,0.3524204194545746,0.28406232595443726,0.0916236937046051,0.0076860724948346615,-0.20660825073719025,-0.33099058270454407,-0.3073725700378418,-0.3326449990272522,0.2620561718940735,0.2185339778661728,-0.2868594229221344,0.2853553295135498,-0.34596875309944153,0.2540452182292938,0.1876278966665268,0.2802179753780365,0.27044713497161865,0.195512056350708,-0.29396671056747437,-0.20070509612560272,-0.29936620593070984,0.324712872505188,-0.2911458909511566,-0.12732446193695068,-0.33735963702201843,-0.3710060119628906,0.3359352946281433,0.342244952917099,0.39963430166244507,-0.14162088930606842,-0.11438634991645813,0.031551606953144073,-0.31826651096343994,-0.2928350269794464,-0.46570026874542236,0.36653339862823486,0.4454903304576874,-0.3085606098175049,0.37014007568359375,-0.36352890729904175,0.3596615195274353,-0.003519217949360609,0.5059016942977905,0.4421434700489044,-0.07355443388223648,-0.36655354499816895,-0.16593977808952332,-0.3502982258796692,0.35356321930885315,-0.32370519638061523,0.08606249839067459,-0.4241166412830353,0.3543497323989868,-0.41446247696876526,-0.430610328912735,-0.39651671051979065,0.19825267791748047,0.23414485156536102,-0.050792157649993896,0.3982633948326111,0.3658886253833771,0.4468582272529602,-0.4219173789024353,0.29723647236824036,0.34089770913124084,-0.4157271683216095,0.41730254888534546,-0.42817994952201843,0.24637293815612793,-0.047730278223752975,-0.38963136076927185,0.20794828236103058,0.3518427014350891,-0.2786850035190582,0.45748135447502136,-0.3832869827747345,0.43065744638442993,-0.15294156968593597,0.3466246724128723,-0.3425147533416748,0.3274475336074829,0.36017662286758423,0.34923359751701355,-0.12890249490737915,-0.2689550518989563,0.07424493134021759,-0.3655051589012146,-0.3248823285102844,-0.3886948823928833,0.3306272327899933,0.020681068301200867,-0.3640451431274414,0.36401134729385376,-0.3318241834640503,0.32248881459236145,-0.07645241171121597,0.2064874917268753,0.41418445110321045,-0.13765890896320343,-0.30805617570877075,-0.003995843231678009,-0.3929305374622345,0.38234618306159973,-0.3524390757083893,0.138112872838974,-0.4012288451194763,-0.3189370930194855,0.32367533445358276,0.38455745577812195,0.47102853655815125,0.13218262791633606,0.1306120604276657,-0.21620112657546997,-0.27373993396759033,-0.2550548315048218,-0.4774320721626282,0.38653960824012756,0.4323573708534241,-0.34442055225372314,0.4107763469219208,-0.3759273290634155,0.29010945558547974,0.189681738615036,0.570990264415741,0.4288077652454376,0.11685310304164886,-0.3370271325111389,-0.3676058053970337,-0.40980687737464905,0.390474408864975,-0.1611383855342865,-0.15338627994060516,-0.444925457239151,0.13101698458194733,-0.0937032550573349,-0.19221243262290955,-0.19605547189712524,0.08776460587978363,0.117815300822258,0.007600392214953899,0.15503785014152527,0.13829770684242249,0.10759495943784714,-0.16096308827400208,-0.27459970116615295,0.19353055953979492,-0.12918409705162048,0.1896483302116394,-0.23073430359363556,0.13171599805355072,-0.21027392148971558,-0.14225605130195618,0.16611281037330627,0.1556360274553299,0.019762607291340828,0.1324474960565567,-0.2226739078760147,0.1884719282388687,-0.06435278058052063,0.13005484640598297,0.20633338391780853,-0.14806988835334778,-0.21963639557361603,-0.2102997899055481,0.004683704115450382,0.020204881206154823,0.07288335263729095,0.2554208040237427,0.17631343007087708,0.12834802269935608,-0.20383040606975555,-0.4046414792537689,0.24596965312957764,-0.15580596029758453,0.2161639928817749,-0.2685754597187042,0.020786991342902184,-0.35813573002815247,-0.14812062680721283,0.09889905154705048,0.2326037883758545,0.1270921379327774,0.1791931688785553,-0.26030051708221436,0.08432680368423462,0.0011472516926005483,0.270891934633255,0.2583238184452057,-0.21986965835094452,-0.24566857516765594,-0.12140100449323654,0.11402136087417603,0.21285438537597656,0.01934972032904625,0.27089419960975647,0.2558101415634155,0.10882744938135147,-0.1389368772506714,-0.041156671941280365,0.1606539785861969,-0.16416268050670624,0.09677880257368088,-0.03236868977546692,0.06743162125349045,-0.08225555717945099,-0.11930102854967117,0.10539916157722473,0.1836598515510559,0.009935175068676472,0.09820804744958878,-0.06609193235635757,0.26179173588752747,-0.09204564243555069,0.11520028114318848,0.037994299083948135,-0.08672511577606201,-0.11588185280561447,-0.1738911122083664,-0.10997088253498077,-0.08559252321720123,0.3426419794559479,0.02105807140469551,0.04670562222599983,0.07211045920848846,-0.21831072866916656,-0.2033149152994156,0.029856016859412193,-0.09443812072277069,0.23310813307762146,-0.2990703582763672,-0.11313477158546448,-0.07297929376363754,-0.20412583649158478,-0.08108745515346527,0.05549069121479988,0.20114167034626007,0.10367083549499512,-0.23796173930168152,0.1025652140378952,0.16224674880504608,0.13011851906776428]},"outputHidden":{"rows":20,"columns":20,"weights":[0.09820716828107834,-0.15307839214801788,0.14798752963542938,-0.130506232380867,0.1034855917096138,0.09689673781394958,0.1066136360168457,-0.023839347064495087,-0.1497075855731964,0.16384540498256683,0.0026842078659683466,0.0848788395524025,0.1432994157075882,-0.0022934135049581528,0.10641851276159286,-0.07531684637069702,-0.12899570167064667,-0.17516690492630005,-0.11504276841878891,0.1506926566362381,-0.08489779382944107,0.0008446532301604748,0.011178935877978802,0.1129520833492279,-0.10026483982801437,-0.065403513610363,-0.036178771406412125,-0.039439260959625244,0.0830921083688736,-0.13193513453006744,0.023393258452415466,-0.10806199908256531,-0.010816941037774086,0.010271706618368626,-0.08713885396718979,0.02409704588353634,0.030941743403673172,0.07877513766288757,-0.062034040689468384,-0.09176918864250183,-0.00009561606566421688,-0.1832484006881714,0.05074124410748482,0.029557211324572563,0.011239759624004364,0.09217951446771622,0.0541769340634346,0.008993973024189472,-0.00970121193677187,0.19615612924098969,-0.050047021359205246,0.015436843037605286,0.05704190954566002,-0.0021434929221868515,-0.024446427822113037,-0.014049823395907879,-0.11651558429002762,-0.11568868160247803,-0.17830385267734528,0.14656026661396027,0.09085060656070709,-0.16533225774765015,0.05880659446120262,-0.05622708797454834,0.08014403283596039,0.034038640558719635,0.06449437886476517,-0.003412471152842045,-0.07258863747119904,0.11399491876363754,0.0151120750233531,0.017468035221099854,0.00034859066363424063,0.0005669537931680679,0.015674589201807976,-0.04968714714050293,-0.0812361091375351,-0.13976168632507324,-0.09856700897216797,0.12857964634895325,0.1047268956899643,-0.1629139930009842,0.08481613546609879,-0.10436678677797318,0.11267317831516266,0.03715120255947113,0.181193545460701,-0.033309455960989,-0.14897646009922028,0.14376287162303925,-0.00048155797412618995,0.1210612803697586,0.09411953389644623,0.021859144791960716,0.06904593855142593,-0.07270926982164383,-0.17375096678733826,-0.17645464837551117,-0.12510956823825836,0.17739707231521606,-0.5872893929481506,0.13339799642562866,-0.509735643863678,0.6066226363182068,-0.5459609031677246,-0.20851194858551025,-0.3901439607143402,0.1837470829486847,0.5867310166358948,-0.3673218786716461,0.20978793501853943,-0.5677642822265625,-0.532694399356842,-0.18497855961322784,-0.5733203887939453,0.5308822989463806,0.3576957881450653,0.4155835211277008,0.23076172173023224,-0.27748802304267883,0.1276828646659851,-0.1739014834165573,0.21394696831703186,-0.21618512272834778,0.21472404897212982,0.10751571506261826,0.2271423637866974,-0.03418080881237984,-0.2077486366033554,0.28882697224617004,-0.0738450363278389,0.2020677775144577,0.1794685572385788,0.018988212570548058,0.15991875529289246,-0.22833223640918732,-0.30284684896469116,-0.21128249168395996,-0.142038956284523,0.21852362155914307,-0.2920575737953186,-0.02706148475408554,-0.23630937933921814,0.2818332016468048,-0.2763308882713318,-0.04583026468753815,-0.13057935237884521,-0.11428122222423553,0.32796576619148254,-0.19319652020931244,-0.10965605825185776,-0.2891317307949066,-0.3136321008205414,0.02833741158246994,-0.2789589464664459,0.29641860723495483,0.19218990206718445,0.20679454505443573,-0.020390605553984642,-0.06917665153741837,0.12735578417778015,-0.11906635761260986,0.11189692467451096,-0.15271463990211487,0.1852855086326599,0.09619145840406418,0.1744188666343689,0.0028509495314210653,-0.14179061353206635,0.13585737347602844,-0.05265410989522934,0.17837388813495636,0.07473865896463394,-0.035371504724025726,0.13774308562278748,-0.08197114616632462,-0.1379839926958084,-0.1851176917552948,-0.1494535356760025,0.19933940470218658,-0.49467459321022034,0.3086010217666626,-0.5319510698318481,0.521285355091095,-0.4860726296901703,-0.3486105799674988,-0.4338766634464264,0.18269853293895721,0.5762388706207275,-0.4045398235321045,0.23225811123847961,-0.5420209765434265,-0.5478137135505676,-0.11492817103862762,-0.5406869053840637,0.6392303109169006,0.46666082739830017,0.40916240215301514,0.3177891969680786,-0.34509122371673584,-0.6240591406822205,0.16321468353271484,-0.48430147767066956,0.5942347049713135,-0.5639492869377136,-0.17988020181655884,-0.46427491307258606,0.19184306263923645,0.5539992451667786,-0.37114453315734863,0.2074069380760193,-0.6021466851234436,-0.5679979920387268,-0.15661418437957764,-0.5618597269058228,0.5605035424232483,0.37724214792251587,0.5033862590789795,0.1557706594467163,-0.26688262820243835,-0.14115247130393982,-0.10956612229347229,-0.20185069739818573,0.14529380202293396,-0.15903513133525848,-0.06286902725696564,-0.15302637219429016,0.03733954578638077,0.18075259029865265,-0.06407284736633301,0.08605500310659409,-0.16753733158111572,-0.20984268188476562,-0.025936944410204887,-0.15295416116714478,0.2196517288684845,0.07387995719909668,0.07364954054355621,-0.05701006203889847,-0.024223079904913902,0.01809915155172348,-0.23330429196357727,0.012621639296412468,0.01833304949104786,0.023677190765738487,0.061682987958192825,0.11072851717472076,-0.02967802621424198,-0.028295239433646202,0.22755606472492218,-0.04716910421848297,-0.008216249756515026,0.07334491610527039,0.02720138430595398,-0.015237588435411453,-0.05473127216100693,-0.09944892674684525,-0.0704166516661644,-0.14901793003082275,0.14488519728183746,-0.23702818155288696,-0.0017315236618742347,-0.19139406085014343,0.22998856008052826,-0.16425909101963043,-0.02477440796792507,-0.12142632901668549,-0.1960432231426239,0.19729073345661163,-0.12808969616889954,-0.12601983547210693,-0.21404573321342468,-0.18549776077270508,0.06423540413379669,-0.2076440006494522,0.2457476705312729,0.09212332218885422,0.1119265928864479,-0.05946487560868263,-0.04952256754040718,0.12599457800388336,-0.09940967708826065,0.10615751892328262,-0.11025644093751907,0.1413670778274536,0.03478226438164711,0.07676145434379578,-0.006330186501145363,-0.09179768711328506,0.17700624465942383,-0.023046206682920456,0.07919307798147202,0.11376325786113739,-0.05199665576219559,0.09914812445640564,-0.054725293070077896,-0.07825566828250885,-0.10638992488384247,-0.08141402900218964,0.14045001566410065,0.010100869461894035,-0.20812249183654785,0.010957472957670689,-0.06109914928674698,0.011059454642236233,0.11724114418029785,0.0881611630320549,0.011280594393610954,-0.04079071804881096,0.1691742092370987,-0.05876992642879486,0.04485168680548668,0.07220356166362762,-0.030360233038663864,-0.03478895500302315,-0.09527157247066498,-0.10762280970811844,-0.054263919591903687,-0.24119801819324493,0.18046148121356964,0.13443556427955627,-0.2265891134738922,0.16258445382118225,-0.21845240890979767,0.13959726691246033,0.09827380627393723,0.2856113016605377,-0.04279914125800133,-0.12036433070898056,0.21747292578220367,-0.01981048285961151,0.21240925788879395,0.16238626837730408,-0.023084472864866257,0.16102361679077148,-0.15622691810131073,-0.24999001622200012,-0.2611905336380005,-0.18573206663131714,0.2114449441432953,0.2003953754901886,-0.19013024866580963,0.2157174050807953,-0.21377527713775635,0.2334580272436142,0.11008265614509583,0.23033969104290009,0.018005026504397392,-0.18224939703941345,0.313751757144928,-0.056532423943281174,0.19975274801254272,0.2025255560874939,-0.021050244569778442,0.21478554606437683,-0.17690519988536835,-0.282539963722229,-0.23553915321826935,-0.17026595771312714,0.167444109916687,0.10309722274541855,-0.15708690881729126,0.10541295260190964,-0.08209637552499771,0.08360517024993896,0.07733564078807831,0.13763555884361267,-0.06290995329618454,-0.05290963873267174,0.10169555991888046,-0.04047684371471405,0.048953503370285034,0.08781290799379349,-0.020249800756573677,0.0724889263510704,-0.0931287407875061,-0.15766537189483643,-0.12048663944005966,-0.17302832007408142,0.15127983689308167,-0.5209095478057861,0.20233024656772614,-0.49016904830932617,0.5355697870254517,-0.5793165564537048,-0.21732328832149506,-0.4422845244407654,0.19058075547218323,0.5154889822006226,-0.3812786340713501,0.22745400667190552,-0.5046310424804688,-0.6185771822929382,-0.13067302107810974,-0.517922043800354,0.6049407720565796,0.3696451485157013,0.4009101688861847,0.2010631114244461,-0.3586457371711731]},"outputBias":{"rows":20,"columns":1,"weights":[-0.01626632735133171,-0.1052129790186882,-0.034334827214479446,-0.07912818342447281,-0.019445285201072693,-0.15830779075622559,-0.16313894093036652,-0.14154291152954102,0.004899926017969847,-0.3368639349937439,-0.09697701781988144,0.09720566123723984,-0.01695709489285946,-0.10688535869121552,0.020478108897805214,0.017408961430191994,-0.18804389238357544,-0.18138496577739716,-0.12825317680835724,-0.2967778742313385]},"cellActivationMatrix":{"rows":20,"columns":27,"weights":[0.35875198245048523,-0.31968677043914795,-0.37499120831489563,-0.34393295645713806,0.0799960047006607,0.22018881142139435,-0.1483711451292038,0.374522864818573,0.34684106707572937,0.2888313829898834,-0.3282126784324646,0.20815911889076233,0.3544352650642395,-0.3389679193496704,0.3291761875152588,-0.29686859250068665,0.1232769787311554,-0.0162363201379776,-0.307143896818161,0.08569084107875824,0.280525267124176,-0.17537729442119598,0.33265289664268494,-0.31576263904571533,0.36263805627822876,-0.10792728513479233,0.3065394461154938,-0.233542799949646,0.2861877381801605,0.22004815936088562,0.20215214788913727,-0.2944684624671936,-0.36100107431411743,0.12714701890945435,-0.30799463391304016,-0.26273080706596375,-0.21520087122917175,0.2288210391998291,-0.13622529804706573,-0.20443226397037506,0.19904348254203796,-0.2076091766357422,0.11109407991170883,-0.24901683628559113,-0.08175034075975418,0.15193955600261688,-0.3307279348373413,-0.20452286303043365,0.1398746818304062,-0.21102313697338104,0.20731154084205627,-0.2696042060852051,0.25663822889328003,-0.15402548015117645,0.2683073878288269,-0.2699698209762573,-0.2820664048194885,-0.17400793731212616,0.30437996983528137,0.340302050113678,-0.21884872019290924,0.230446919798851,0.251963347196579,0.22044479846954346,-0.3082052767276764,0.2257593423128128,0.2169172763824463,-0.20352499186992645,0.14500683546066284,-0.10163166373968124,0.32730013132095337,0.1380186527967453,-0.19918952882289886,0.2948790490627289,0.15249161422252655,-0.23709776997566223,0.21392439305782318,-0.24786949157714844,0.3705349564552307,-0.23571285605430603,0.11636653542518616,-0.30567196011543274,0.3464517891407013,0.34425967931747437,0.27369701862335205,-0.14774189889431,-0.2818521559238434,0.1645517200231552,-0.292052298784256,-0.36595678329467773,-0.28914761543273926,0.324616402387619,-0.1740046739578247,-0.37995466589927673,0.29558417201042175,-0.26311448216438293,0.2650075852870941,-0.1237737238407135,0.04503751918673515,0.25683656334877014,-0.13487508893013,-0.26169493794441223,0.17503297328948975,-0.2996729016304016,0.3086276948451996,-0.4093780815601349,0.1434713453054428,-0.27908340096473694,0.37587741017341614,-0.389483779668808,-0.3393104076385498,-0.3025747239589691,0.1334964483976364,0.2638998329639435,-0.11377272754907608,0.2970961928367615,0.3001333475112915,0.28521037101745605,-0.34373751282691956,0.1508154571056366,0.37765365839004517,-0.27075543999671936,0.289592444896698,-0.22249409556388855,0.1528255045413971,-0.0018775135977193713,-0.3429569900035858,0.1568298190832138,0.2754625082015991,-0.2211901992559433,0.3338169455528259,-0.2851649224758148,0.40278127789497375,-0.17769020795822144,0.28682658076286316,0.5099701881408691,-0.46110889315605164,-0.4397425353527069,-0.41794365644454956,-0.0798719972372055,0.04094669222831726,0.19172672927379608,0.5118028521537781,0.5021790266036987,0.47900691628456116,-0.40699049830436707,-0.05668716877698898,0.41609254479408264,-0.523770809173584,0.3897414207458496,-0.4178190231323242,-0.009205448441207409,-0.053001776337623596,-0.42029765248298645,-0.01315863523632288,0.4323596656322479,0.030621465295553207,0.42740610241889954,-0.385532021522522,0.4612221121788025,0.09682729095220566,0.3537828028202057,0.30135515332221985,-0.3716399669647217,-0.2920447885990143,-0.3136707544326782,0.1799403578042984,0.23227956891059875,-0.21828040480613708,0.30477890372276306,0.3371526300907135,0.25578629970550537,-0.3505379259586334,0.12737137079238892,0.3260749280452728,-0.21047496795654297,0.23642484843730927,-0.1647099107503891,0.16899505257606506,0.0019093628507107496,-0.2558997571468353,0.20039334893226624,0.23956958949565887,-0.14494332671165466,0.2864566147327423,-0.25981655716896057,0.3485451936721802,-0.15755999088287354,0.22910448908805847,-0.21466749906539917,0.24233514070510864,0.22792668640613556,0.11962788552045822,-0.2679471969604492,-0.41320255398750305,0.2128773182630539,-0.2630256116390228,-0.25706061720848083,-0.20780639350414276,0.09415966272354126,-0.11706222593784332,-0.16829891502857208,0.16187870502471924,-0.059080880135297775,0.06954941898584366,-0.3161420226097107,-0.08511250466108322,0.11648420989513397,-0.3124401569366455,-0.2099660187959671,0.2163846343755722,-0.19508947432041168,0.12073162943124771,-0.22509725391864777,0.3278854191303253,-0.041487663984298706,-0.2851678729057312,0.3191235363483429,0.28571367263793945,0.2311359941959381,-0.03187425807118416,-0.17115265130996704,0.028902491554617882,-0.21095602214336395,-0.29020342230796814,-0.2768656611442566,0.3994441628456116,-0.0102698914706707,-0.2794415354728699,0.25409355759620667,-0.38726550340652466,0.3040348291397095,-0.047977518290281296,0.15042895078659058,0.2571437358856201,-0.0764094665646553,-0.27039608359336853,0.007277386263012886,-0.29158952832221985,0.3419032394886017,-0.36532923579216003,0.09604819864034653,-0.30795568227767944,0.4833775758743286,-0.49046090245246887,-0.46823152899742126,-0.3917737305164337,-0.050014473497867584,-0.03720720857381821,0.15577447414398193,0.43019112944602966,0.475544810295105,0.4202711284160614,-0.36517056822776794,-0.2629731297492981,0.42423737049102783,-0.4169950485229492,0.3017619252204895,-0.2866668105125427,-0.10483450442552567,-0.21343664824962616,-0.35612040758132935,-0.14515194296836853,0.41978153586387634,0.09650326520204544,0.36927589774131775,-0.33408835530281067,0.44203224778175354,0.09160805493593216,0.3193126916885376,-0.5230004191398621,0.5248796343803406,0.47820159792900085,0.4503774642944336,-0.0460965521633625,-0.05090112239122391,0.023502938449382782,-0.5080951452255249,-0.4346841275691986,-0.5192288756370544,0.5226238369941711,0.10762697458267212,-0.5180709958076477,0.5093573927879333,-0.42549535632133484,0.42836692929267883,-0.049638181924819946,0.30830439925193787,0.4859086573123932,-0.01728285290300846,-0.51912522315979,-0.00016066366515588015,-0.48326003551483154,0.44123438000679016,-0.4980396628379822,-0.021226800978183746,-0.4668286442756653,0.2954636514186859,-0.2993812561035156,-0.2732158303260803,-0.3275368809700012,0.04593239724636078,0.19389525055885315,0.09557986259460449,0.27739208936691284,0.28306180238723755,0.34742143750190735,-0.2857081890106201,0.07197979092597961,0.3050316572189331,-0.29108837246894836,0.3289654552936554,-0.36883923411369324,0.08713788539171219,-0.011436737142503262,-0.30651435256004333,0.08687668293714523,0.28952261805534363,0.002832315396517515,0.3514357805252075,-0.3706568777561188,0.32831984758377075,0.014888595789670944,0.313866525888443,0.24720224738121033,-0.2805672287940979,-0.27241653203964233,-0.22290627658367157,0.30814510583877563,0.4464966058731079,-0.173172265291214,0.29328644275665283,0.27289506793022156,0.23988686501979828,-0.22030548751354218,0.22753065824508667,0.20572052896022797,-0.21511340141296387,0.14137546718120575,-0.16627788543701172,0.2914891242980957,0.10534445941448212,-0.18857894837856293,0.2647583484649658,0.1568068414926529,-0.2134065330028534,0.22731949388980865,-0.19651710987091064,0.3429923355579376,-0.23172950744628906,0.19687123596668243,0.29423466324806213,-0.2474990040063858,-0.2560100555419922,-0.21511413156986237,0.13324764370918274,0.43632620573043823,-0.09255965799093246,0.3087309002876282,0.2937999963760376,0.18426936864852905,-0.20251885056495667,0.04194767773151398,0.2323852926492691,-0.1646527200937271,0.11490070819854736,-0.08652690052986145,0.11483777314424515,0.018701672554016113,-0.1535024344921112,0.12836699187755585,0.21076376736164093,-0.09229147434234619,0.18482770025730133,-0.18651407957077026,0.2871309220790863,-0.1281871348619461,0.08210599422454834,0.18041707575321198,-0.2733750343322754,-0.22130493819713593,-0.21426472067832947,0.06001332774758339,0.14741535484790802,0.06284227967262268,0.13736258447170258,0.1667313128709793,0.29042693972587585,-0.31585630774497986,-0.12073709070682526,0.230384960770607,-0.14467276632785797,0.3204372823238373,-0.26616671681404114,0.0578492246568203,-0.29427269101142883,-0.290338933467865,0.09925053268671036,0.13984641432762146,0.029096471145749092,0.27707692980766296,-0.350886732339859,0.32360604405403137,-0.05168254300951958,0.3755972683429718,-0.2798311114311218,0.2979128658771515,0.31946706771850586,0.15714359283447266,-0.3016168773174286,-0.3965787887573242,0.15900541841983795,-0.22124600410461426,-0.28311023116111755,-0.1873670518398285,0.22323453426361084,-0.2578238844871521,-0.19706594944000244,0.15304984152317047,-0.17141582071781158,0.1251966506242752,-0.337824285030365,-0.2023293823003769,0.16206680238246918,-0.3271273374557495,-0.2083267867565155,0.2760176956653595,-0.24789828062057495,0.166757732629776,-0.2760832607746124,0.3291783332824707,-0.12699487805366516,-0.31204310059547424,0.29714933037757874,0.3662721514701843,0.28070068359375,-0.16022004187107086,-0.2591778635978699,0.19183622300624847,-0.2597056031227112,-0.31932660937309265,-0.2529175281524658,0.37272223830223083,-0.15436212718486786,-0.3138382136821747,0.2709236145019531,-0.2299526333808899,0.14575979113578796,-0.19516558945178986,-0.01980552077293396,0.2606751620769501,-0.13527892529964447,-0.26234960556030273,0.16154806315898895,-0.2987460196018219,0.24218377470970154,-0.3234318494796753,0.22520306706428528,-0.24330683052539825,-0.33397114276885986,0.3694990575313568,0.2917120158672333,0.27752894163131714,-0.17287155985832214,-0.3136224150657654,0.1653173416852951,-0.292715460062027,-0.3263810873031616,-0.34201961755752563,0.28638631105422974,-0.13185334205627441,-0.30447056889533997,0.32065480947494507,-0.2413499504327774,0.2465423047542572,-0.21094998717308044,0.07808694243431091,0.28023362159729004,-0.1873491406440735,-0.24951809644699097,0.21488656103610992,-0.3011274039745331,0.2854142189025879,-0.32435429096221924,0.13741761445999146,-0.2482627034187317,-0.290929913520813,0.29457876086235046,0.2740829288959503,0.23994781076908112,-0.21621793508529663,-0.35818302631378174,0.21694673597812653,-0.3202761709690094,-0.35875940322875977,-0.24645183980464935,0.3028920292854309,-0.11272528767585754,-0.25019246339797974,0.2698235809803009,-0.22222751379013062,0.1513942927122116,-0.2649531662464142,0.05201440304517746,0.25293442606925964,-0.22488956153392792,-0.24733231961727142,0.19350729882717133,-0.31264835596084595,0.2365780770778656,-0.331067830324173,0.2271289974451065,-0.20690372586250305,0.40994352102279663,-0.40194350481033325,-0.3896710276603699,-0.36557021737098694,-0.14728088676929474,-0.014479497447609901,0.20155861973762512,0.4566400945186615,0.4417402148246765,0.35341373085975647,-0.2940368950366974,-0.15091240406036377,0.39168253540992737,-0.35944247245788574,0.28428924083709717,-0.32101505994796753,-0.14586763083934784,-0.07451453059911728,-0.30262091755867004,-0.09721612930297852,0.38794347643852234,0.13082842528820038,0.32229331135749817,-0.29961544275283813,0.4123779535293579,0.1294216811656952,0.28387001156806946]},"cellActivationHidden":{"rows":20,"columns":20,"weights":[-0.12826502323150635,0.06549724191427231,-0.14089375734329224,0.1316239833831787,-0.18307867646217346,-0.11937705427408218,-0.14182458817958832,-0.08462479710578918,0.2145688235759735,-0.23536644876003265,0.06809134036302567,-0.19648635387420654,-0.13590800762176514,0.0038406483363360167,-0.1644359827041626,0.06275199353694916,0.1626695692539215,0.11626764386892319,0.1252375692129135,-0.18863776326179504,0.25519633293151855,-0.09814425557851791,0.19920623302459717,-0.22575877606868744,0.23451098799705505,0.15367449820041656,0.15587754547595978,0.04661531746387482,-0.28605979681015015,0.2578350007534027,-0.06787679344415665,0.2163192480802536,0.1808990091085434,-0.048548344522714615,0.29242274165153503,-0.19892367720603943,-0.17868250608444214,-0.20220814645290375,-0.14178910851478577,0.24165017902851105,-0.5684242248535156,0.006176354363560677,-0.47363170981407166,0.4612341523170471,-0.5580089092254639,-0.10575886815786362,-0.4392535984516144,-0.0422980897128582,0.5385276675224304,-0.41254112124443054,0.07028406858444214,-0.5492935180664062,-0.4975152313709259,0.022966738790273666,-0.4793826937675476,0.4787943661212921,0.37063977122306824,0.39468497037887573,0.06713519990444183,-0.29107311367988586,0.09174910187721252,-0.03576746582984924,0.035743389278650284,-0.0658632218837738,0.14100034534931183,0.06541649252176285,0.11380723118782043,0.05256105214357376,-0.09234175831079483,0.15441709756851196,-0.040920138359069824,0.13345396518707275,0.045315902680158615,0.008234565146267414,0.15328899025917053,-0.07560300827026367,-0.06310760229825974,-0.15025141835212708,-0.08131905645132065,0.2049625664949417,-0.20891661942005157,0.1213841587305069,-0.11193384975194931,0.20404067635536194,-0.188291996717453,-0.059465840458869934,-0.1522754728794098,-0.04666668176651001,0.2172243893146515,-0.23633387684822083,0.025701843202114105,-0.23427309095859528,-0.0887538269162178,-0.010266797617077827,-0.20857298374176025,0.1628139168024063,0.09804490953683853,0.13455405831336975,0.13504885137081146,-0.24449950456619263,-0.08350339531898499,-0.01089556235820055,-0.2326829731464386,0.07093694061040878,-0.0776715874671936,-0.06522916257381439,-0.11789220571517944,0.0748462900519371,0.044420722872018814,0.003335743211209774,0.0689190998673439,-0.024804789572954178,-0.1948530673980713,-0.05210914462804794,-0.08361250162124634,0.2378959357738495,0.06577116996049881,0.11582095175981522,0.023510761559009552,0.046250373125076294,-0.17338982224464417,0.08288823813199997,-0.05724067986011505,0.14800366759300232,-0.1854606717824936,-0.08602575957775116,-0.05906752869486809,-0.037789929658174515,0.16488683223724365,-0.24720102548599243,0.0034389421343803406,-0.1844683140516281,-0.1022849753499031,0.05360071733593941,-0.17538215219974518,0.11547677218914032,0.09225478768348694,0.08628358691930771,0.09206961840391159,-0.21779991686344147,0.37535223364830017,-0.005610712803900242,0.20863796770572662,-0.36060887575149536,0.3367052376270294,0.09112469106912613,0.2925054430961609,0.010844836011528969,-0.4166789650917053,0.3695525825023651,-0.048306453973054886,0.40724503993988037,0.2289646863937378,-0.025841599330306053,0.4247407913208008,-0.24214696884155273,-0.22545397281646729,-0.32942578196525574,-0.025967976078391075,0.3062273859977722,0.11492793262004852,0.06088586524128914,0.03736118599772453,-0.0651669129729271,0.07259618490934372,0.06351297348737717,0.004321155603975058,0.008072327822446823,-0.061516884714365005,0.1607777178287506,-0.004875240381807089,0.09842132031917572,0.025395577773451805,0.014310757629573345,0.059630971401929855,-0.08108488470315933,-0.01525252778083086,-0.026976902037858963,-0.019522536545991898,0.12509508430957794,-0.060101304203271866,0.22901120781898499,-0.16669999063014984,0.11132001876831055,-0.050643905997276306,-0.11480604857206345,-0.12179029732942581,0.04606439918279648,0.040044136345386505,-0.05547816678881645,0.0931878462433815,-0.09441967308521271,-0.0969085544347763,-0.03600098937749863,-0.034275203943252563,0.06641826033592224,0.09004275500774384,0.075975202023983,0.20896406471729279,-0.13823705911636353,0.02034655027091503,0.04730677977204323,0.1184598058462143,-0.0791681632399559,0.0017564961453899741,0.034019265323877335,0.08409786969423294,-0.00007115790504030883,0.0206395722925663,-0.027538593858480453,-0.16284582018852234,-0.01629859209060669,0.17126749455928802,-0.02070600725710392,0.046628423035144806,-0.1583060324192047,-0.1040106937289238,-0.031063470989465714,0.03668240085244179,-0.02522648684680462,-0.2030099332332611,0.13409669697284698,-0.2566331624984741,0.20253878831863403,-0.23055635392665863,-0.08396942913532257,-0.12799109518527985,0.0050990283489227295,0.284469872713089,-0.24822832643985748,0.08802039921283722,-0.2631356418132782,-0.2179560512304306,-0.03537224978208542,-0.2837035357952118,0.17389360070228577,0.20854246616363525,0.13485851883888245,0.1413998305797577,-0.22097362577915192,-0.5540064573287964,0.1051146537065506,-0.5068918466567993,0.5026144981384277,-0.4907839000225067,-0.18970470130443573,-0.39957931637763977,-0.01416095346212387,0.48375770449638367,-0.38840430974960327,0.10598323494195938,-0.5889647006988525,-0.5098898410797119,0.03120018169283867,-0.507131040096283,0.43657729029655457,0.3545635938644409,0.40953031182289124,0.1500726044178009,-0.3335680067539215,-0.40581679344177246,0.09697068482637405,-0.2905864119529724,0.40544483065605164,-0.3975702226161957,-0.3478899896144867,-0.4107370972633362,-0.0780595913529396,0.44311290979385376,-0.43059688806533813,0.2196672260761261,-0.4567982852458954,-0.37041330337524414,-0.017041008919477463,-0.41045838594436646,0.3371378183364868,0.3176601231098175,0.3942907452583313,0.19416265189647675,-0.4184902310371399,-0.1056395173072815,0.02973782643675804,-0.07613684237003326,0.0673828050494194,-0.07033256441354752,-0.052753008902072906,-0.020694969221949577,-0.025831198319792747,0.13938388228416443,-0.17000806331634521,-0.01852273754775524,-0.21130070090293884,-0.11668237298727036,0.04959260672330856,-0.07473840564489365,0.03224650025367737,0.023862594738602638,0.08737488836050034,0.014958681538701057,-0.155278742313385,0.3607240319252014,-0.05750254541635513,0.3450987935066223,-0.3583594262599945,0.36795079708099365,0.10659949481487274,0.2602689862251282,0.029816843569278717,-0.40051159262657166,0.2600117325782776,-0.07863499224185944,0.46536922454833984,0.34348994493484497,-0.04356715828180313,0.3652622699737549,-0.34962669014930725,-0.2418496459722519,-0.29249438643455505,-0.1211533173918724,0.25562790036201477,0.18806692957878113,-0.01953279972076416,0.059441424906253815,-0.11180901527404785,0.11755857616662979,0.08547919988632202,0.09342343360185623,0.016855083405971527,-0.19328364729881287,0.18580055236816406,-0.06026952341198921,0.1909605711698532,0.05328379198908806,0.03077753074467182,0.10728396475315094,-0.0659107118844986,-0.057944003492593765,-0.11147967725992203,-0.055354584008455276,0.12966905534267426,0.20936298370361328,-0.052685122936964035,0.14829027652740479,-0.19996139407157898,0.1614759862422943,0.07083065062761307,0.16509711742401123,0.04824483022093773,-0.16285276412963867,0.27768847346305847,-0.0012409985065460205,0.22612117230892181,0.1231318786740303,0.004630762618035078,0.17252695560455322,-0.15207403898239136,-0.14200377464294434,-0.15644094347953796,-0.14416800439357758,0.23638199269771576,0.2216082513332367,-0.10323566198348999,0.07917226850986481,-0.13097088038921356,0.17926956713199615,0.1406150460243225,0.13747385144233704,-0.006393510848283768,-0.18328437209129333,0.1827370971441269,-0.05196513235569,0.23227129876613617,0.06985072791576385,-0.01816266030073166,0.17621423304080963,-0.09582649171352386,-0.1116480752825737,-0.12384240329265594,-0.13064946234226227,0.17663291096687317,-0.10939580202102661,0.11515142768621445,-0.21752923727035522,0.08675040304660797,-0.06774050742387772,-0.10633432120084763,-0.18529440462589264,0.04344349354505539,0.11785180121660233,-0.08149630576372147,0.057043105363845825,-0.05700886994600296,-0.2147756665945053,-0.05846252292394638,-0.06820525974035263,0.25207316875457764,0.18650512397289276,0.10206611454486847,0.1393018215894699,-0.06576358526945114]},"cellActivationBias":{"rows":20,"columns":1,"weights":[-0.1679888814687729,-0.08589715510606766,-0.11184031516313553,0.1935839056968689,-0.1892777532339096,0.13174907863140106,-0.20966926217079163,-0.2394910454750061,0.23422540724277496,0.044018104672431946,-0.039386335760354996,0.07821357250213623,-0.06409907341003418,0.23159003257751465,-0.18735043704509735,-0.038925737142562866,0.15947474539279938,0.13174326717853546,-0.012526406906545162,0.12820351123809814]}},{"inputMatrix":{"rows":20,"columns":20,"weights":[0.6928769946098328,-0.28904083371162415,0.3609251081943512,-0.6521375179290771,0.7141583561897278,0.4556298553943634,0.1817566454410553,-0.34916621446609497,-0.6573430895805359,0.38861849904060364,-0.6471402049064636,0.7027676701545715,0.29009467363357544,0.5099188089370728,0.6370131373405457,-0.2866800129413605,-0.08651629090309143,-0.1738511323928833,-0.18014732003211975,0.2933557331562042,0.6812021732330322,-0.25435832142829895,0.238431915640831,-0.7435799241065979,0.7033684849739075,0.32193905115127563,0.20299726724624634,-0.3208078145980835,-0.5789474844932556,0.37104302644729614,-0.5076103806495667,0.5653399229049683,0.22724005579948425,0.6033629179000854,0.6699600219726562,-0.229441300034523,-0.10504672676324844,-0.17045484483242035,-0.1488504558801651,0.3118784427642822,0.7658239006996155,-0.3509943187236786,0.33449333906173706,-0.6622065305709839,0.7369033694267273,0.42105573415756226,0.22622627019882202,-0.36596351861953735,-0.7538533806800842,0.4996981620788574,-0.3544256389141083,0.6880429983139038,0.3530483543872833,0.5587177872657776,0.7713222503662109,-0.3147551119327545,-0.17080934345722198,-0.2378198653459549,-0.22958815097808838,0.39215904474258423,0.43862634897232056,-0.7423904538154602,1.0987695455551147,-0.038189686834812164,0.37062886357307434,-0.1487034559249878,0.5275128483772278,-1.0505074262619019,-0.34895291924476624,-0.03373372182250023,0.12544916570186615,0.5494418740272522,1.1556988954544067,1.2802258729934692,0.34537312388420105,-1.0549578666687012,-0.4583967924118042,-0.47231048345565796,-0.736871600151062,-0.07290582358837128,0.7035466432571411,-0.2684846818447113,0.3551364839076996,-0.5911473631858826,0.6660885810852051,0.46475109457969666,0.14390747249126434,-0.30716487765312195,-0.5833123326301575,0.45405641198158264,-0.6345372796058655,0.7189350128173828,0.2783089280128479,0.533856987953186,0.5837269425392151,-0.3026491105556488,-0.09060297906398773,-0.21094612777233124,-0.10939785838127136,0.3695847690105438,0.5908780097961426,0.23086394369602203,0.7842543721199036,-0.48043766617774963,0.5693276524543762,-1.244971752166748,-0.09298636019229889,-0.03555239737033844,-0.5459870100021362,-0.879584550857544,1.4887083768844604,0.5359346270561218,0.8178603649139404,-0.06550545990467072,0.5786911249160767,-0.8348491191864014,0.04991544410586357,0.03508656099438667,0.30920273065567017,-0.8269152045249939,0.8435772657394409,-0.25287172198295593,0.3803271949291229,-0.8837400078773499,0.8928642868995667,0.37462809681892395,0.19226786494255066,-0.3533174395561218,-0.7456297874450684,0.3435720205307007,-0.617710530757904,0.7949237823486328,0.3621109127998352,0.671662449836731,0.7385505437850952,-0.35535570979118347,-0.1375608742237091,-0.2561996281147003,-0.17295603454113007,0.28218966722488403,0.6767035722732544,-0.24354667961597443,0.27059265971183777,-0.7295423150062561,0.6875994801521301,0.37723463773727417,0.1945713311433792,-0.39206650853157043,-0.6490159630775452,0.3955867886543274,-0.570735514163971,0.6516799926757812,0.24602185189723969,0.6218938231468201,0.6324007511138916,-0.2926996052265167,-0.057195309549570084,-0.1941487044095993,-0.15601247549057007,0.285980224609375,0.7082277536392212,-0.2250446081161499,0.28137528896331787,-0.7953824996948242,0.7389262914657593,0.3561200797557831,0.18949151039123535,-0.3772348165512085,-0.7396038770675659,0.32284119725227356,-0.45170876383781433,0.6367306709289551,0.3106151223182678,0.6458179354667664,0.7429644465446472,-0.3000175356864929,-0.11178528517484665,-0.2320767343044281,-0.14648087322711945,0.24883989989757538,0.7335994243621826,-0.30224844813346863,0.37274983525276184,-0.6897339820861816,0.8044396042823792,0.44045084714889526,0.17337283492088318,-0.3707271218299866,-0.6757824420928955,0.4192916452884674,-0.3994344472885132,0.824171781539917,0.4045587182044983,0.5632385611534119,0.5977499485015869,-0.4579409956932068,-0.17102456092834473,-0.20254561305046082,-0.19365644454956055,0.31755247712135315,0.700751006603241,-0.2188912332057953,0.3646893799304962,-0.7001028656959534,0.698651134967804,0.44419074058532715,0.14483557641506195,-0.36656779050827026,-0.6403557658195496,0.5513827204704285,-0.5099784731864929,0.7482721209526062,0.3675527572631836,0.5656054615974426,0.6516312956809998,-0.37124887108802795,-0.08206981420516968,-0.14815624058246613,-0.14934146404266357,0.418501615524292,0.7548258304595947,-0.2717726230621338,0.3555763363838196,-0.7524635791778564,0.7497621178627014,0.4716360569000244,0.16283801198005676,-0.3233972489833832,-0.6605223417282104,0.48443078994750977,-0.564048171043396,0.735925018787384,0.30726391077041626,0.5630165338516235,0.6804242730140686,-0.27930158376693726,-0.13380618393421173,-0.20565152168273926,-0.22437676787376404,0.36353182792663574,0.8067634105682373,-0.007890956476330757,0.3604377508163452,-0.7894280552864075,0.8154200911521912,0.047957129776477814,0.07931710034608841,0.07484108954668045,-0.8121334314346313,0.11141495406627655,-0.04611547663807869,0.7120715975761414,0.3606586754322052,-0.03792143240571022,0.7924895882606506,-0.39625558257102966,-0.07124050706624985,-0.14615800976753235,0.037076931446790695,0.07781847566366196,0.7638474106788635,-0.2568311393260956,0.3334331214427948,-0.7155454158782959,0.7568116188049316,0.36909419298171997,0.1636856645345688,-0.36165937781333923,-0.702632486820221,0.42307940125465393,-0.6156553030014038,0.7013089656829834,0.3613155484199524,0.6360430121421814,0.7142718434333801,-0.321966290473938,-0.06866484135389328,-0.12038595974445343,-0.14828452467918396,0.3451240062713623,0.6618808507919312,-0.2893935739994049,0.2976115643978119,-0.6603853702545166,