{"type":"LSTM","options":{"inputSize":27,"inputRange":27,"hiddenLayers":[20,20],"outputSize":27,"decayRate":0.999,"smoothEps":1e-8,"regc":0.000001,"clipval":5,"maxPredictionLength":100,"dataFormatter":{"indexTable":{"\"":0,"{":1,"\\":2,"r":3,"n":4," ":5,"i":6,"p":7,"u":8,"t":9,":":10,"[":11,"h":12,",":13,"e":14,"l":15,"o":16,"w":17,"d":18,"y":19,"a":20,"s":21,"]":22,"H":23,"!":24,"}":25,"unrecognized":26},"characterTable":{"0":"\"","1":"{","2":"\\","3":"r","4":"n","5":" ","6":"i","7":"p","8":"u","9":"t","10":":","11":"[","12":"h","13":",","14":"e","15":"l","16":"o","17":"w","18":"d","19":"y","20":"a","21":"s","22":"]","23":"H","24":"!","25":"}","26":null},"values":"\"{\\r\\n  \\\"input\\\": [\\r\\n    \\\"hi\\\",\\r\\n    \\\"hello\\\",\\r\\n    \\\"hi there\\\",\\r\\n    \\\"howdy\\\",\\r\\n    \\\"hey\\\",\\r\\n    \\\"heya\\\",\\r\\n    \\\"hai\\\",\\r\\n    \\\"what up\\\",\\r\\n    \\\"whats up\\\",\\r\\n    \\\"howdy\\\",\\r\\n    \\\"hello\\\"\\r\\n  ],\\r\\n  \\\"output\\\": \\\"Hello!\\\"\\r\\n}\"","characters":["\"","{","\\","r","n"," ","i","p","u","t",":","[","h",",","e","l","o","w","d","y","a","s","]","H","!","}","unrecognized"],"specialIndexes":[26]}},"trainOpts":{"iterations":20000,"errorThresh":0.005,"logPeriod":10,"learningRate":0.01,"callbackPeriod":10,"timeout":"Infinity"},"input":{"rows":28,"columns":27,"weights":[-0.5065963268280029,1.1193432807922363,-0.4397966265678406,0.6684779524803162,-0.5226565599441528,0.8212009072303772,1.281569004058838,-0.7019738554954529,-0.606660008430481,1.03742253780365,-0.5770729184150696,-0.7246524095535278,1.0084245204925537,-0.8337326645851135,-0.8050494194030762,-1.3743538856506348,-0.8431271910667419,-0.5513545870780945,0.4336269199848175,0.4905896782875061,0.04666583612561226,-0.8935280442237854,0.6802343130111694,-0.7692926526069641,0.6142578125,0.5987266302108765,0.847118079662323,-1.2299461364746094,0.25706687569618225,-0.8685533404350281,-0.10554397851228714,-1.1675165891647339,0.04250500723719597,0.17611895501613617,-0.0451175794005394,-0.7844882607460022,0.9882254600524902,0.3155103623867035,-0.08183374255895615,-0.002027308801189065,0.012088079936802387,0.028657760471105576,-0.4589426815509796,-0.5221283435821533,0.23504869639873505,0.7632632255554199,1.0443027019500732,0.44505932927131653,-0.029763413593173027,-0.3730229139328003,-0.614045262336731,0.009100508876144886,0.7097848057746887,1.167880892753601,-1.2094324827194214,0.27731379866600037,-0.8512012362480164,-0.08671008050441742,-1.1672873497009277,0.04249964654445648,0.17497967183589935,-0.06287364661693573,-0.776778519153595,0.9958180785179138,0.33150166273117065,-0.09171457588672638,0.0019556833431124687,0.01530651655048132,0.04156697168946266,-0.4596829414367676,-0.4939848482608795,0.23908831179141998,0.7681379914283752,1.0490165948867798,0.43048030138015747,-0.023291680961847305,-0.3775703012943268,-0.5948167443275452,-0.003876270027831197,0.7079086899757385,1.1743518114089966,-1.2317255735397339,0.2530595362186432,-0.8705019354820251,-0.10580343008041382,-1.1674538850784302,0.04142065718770027,0.1714521199464798,-0.04445149376988411,-0.7867993712425232,0.9869740009307861,0.3102121949195862,-0.0820009857416153,-0.0028803956229239702,0.013170388527214527,0.02730615623295307,-0.45301583409309387,-0.520777702331543,0.22628627717494965,0.7677562832832336,1.0442644357681274,0.44788432121276855,-0.029048236086964607,-0.3588002622127533,-0.614359438419342,0.01030778605490923,0.7101089954376221,1.1678154468536377,-1.2321219444274902,0.25694724917411804,-0.871333658695221,-0.1089475005865097,-1.1672132015228271,0.03867878392338753,0.17107239365577698,-0.04793450981378555,-0.7793758511543274,0.9971697330474854,0.2943834960460663,-0.0805145725607872,-0.004917255602777004,0.01610119640827179,0.03000768832862377,-0.45626407861709595,-0.520988404750824,0.22773584723472595,0.7675141096115112,1.0438685417175293,0.4487943649291992,-0.030698426067829132,-0.3641553521156311,-0.6031928062438965,0.007411988452076912,0.7064136266708374,1.1675682067871094,-1.2306103706359863,0.2561858892440796,-0.8675979375839233,-0.10827641189098358,-1.1672216653823853,0.04300983250141144,0.17625825107097626,-0.043867167085409164,-0.7830843329429626,0.9876590967178345,0.3149656355381012,-0.0822765901684761,-0.0018691077129915357,0.012496097944676876,0.027809597551822662,-0.4584216773509979,-0.5219491124153137,0.2327379733324051,0.7629153728485107,1.0439242124557495,0.44422265887260437,-0.029278814792633057,-0.3714161217212677,-0.6141242384910583,0.009160788729786873,0.7081578373908997,1.167590856552124,-1.228440761566162,0.2561158239841461,-0.8680728077888489,-0.10898008942604065,-1.1671736240386963,0.04169115424156189,0.17584264278411865,-0.04465649649500847,-0.7850614786148071,0.9888507723808289,0.3152129352092743,-0.08218909054994583,-0.0033604020718485117,0.013894040137529373,0.028677694499492645,-0.46204301714897156,-0.5219207406044006,0.23105990886688232,0.7635508179664612,1.0439043045043945,0.4466346502304077,-0.028498336672782898,-0.37164708971977234,-0.6136898994445801,0.009728125296533108,0.7106109857559204,1.1675446033477783,-1.224239706993103,0.2650362253189087,-0.8656892776489258,-0.11900315433740616,-1.1669237613677979,0.030186310410499573,0.18797390162944794,-0.059135593473911285,-0.7835341095924377,0.9849968552589417,0.32100164890289307,-0.09593506902456284,-0.015714362263679504,0.003534050425514579,0.04070877283811569,-0.46507251262664795,-0.521781861782074,0.2418251931667328,0.7668966054916382,1.04354989528656,0.45293542742729187,-0.01587136834859848,-0.3750143051147461,-0.6142936944961548,0.02449069730937481,0.7095323801040649,1.1673108339309692,-1.2325035333633423,0.25539374351501465,-0.8550145626068115,-0.1073962152004242,-1.1661067008972168,0.04253765195608139,0.17520637810230255,-0.04417549818754196,-0.7748652696609497,0.9852220416069031,0.31482425332069397,-0.08218716084957123,-0.0020465701818466187,0.012110797688364983,0.027735840529203415,-0.4561864137649536,-0.5221717953681946,0.23044602572917938,0.7645370364189148,1.0447375774383545,0.4392104148864746,-0.029969820752739906,-0.3660999834537506,-0.6068150997161865,0.009539565071463585,0.7007423639297485,1.1678977012634277,-1.2299673557281494,0.2548733353614807,-0.8509664535522461,-0.10713282972574234,-1.1661872863769531,0.04281094670295715,0.17497701942920685,-0.04427627474069595,-0.7727761268615723,0.9861384630203247,0.3153311610221863,-0.08241298049688339,-0.0014604649040848017,0.012669028714299202,0.02731280028820038,-0.4552563428878784,-0.5224835276603699,0.2312059849500656,0.7656415104866028,1.046118140220642,0.43915483355522156,-0.029983635991811752,-0.36372026801109314,-0.605740487575531,0.009181763976812363,0.69929039478302,1.169817328453064,-1.230760097503662,0.2566620111465454,-0.8667578101158142,-0.10864143073558807,-1.1670444011688232,0.04236587509512901,0.17651690542697906,-0.04422818124294281,-0.7833388447761536,0.9876275062561035,0.3153049945831299,-0.08228781074285507,-0.0019723668228834867,0.012927169911563396,0.028388822451233864,-0.45856961607933044,-0.5218656659126282,0.23405420780181885,0.7628389596939087,1.0437473058700562,0.4450747072696686,-0.029641875997185707,-0.36959168314933777,-0.614222526550293,0.009736770763993263,0.7085644602775574,1.1674072742462158,-1.2214512825012207,0.2558099627494812,-0.8519195318222046,-0.10717440396547318,-1.1667017936706543,0.043416090309619904,0.17567656934261322,-0.044042762368917465,-0.7721879482269287,0.9858445525169373,0.31672415137290955,-0.08210323005914688,-0.0017631880473345518,0.012143057771027088,0.02744153141975403,-0.45546579360961914,-0.5231725573539734,0.22927843034267426,0.7665910720825195,1.0483920574188232,0.43804675340652466,-0.03019639663398266,-0.3625304102897644,-0.6032460927963257,0.010104752145707607,0.6973244547843933,1.1748617887496948,-1.2179985046386719,0.2567651867866516,-0.8519320487976074,-0.10747544467449188,-1.1664329767227173,0.043387722223997116,0.17561008036136627,-0.044452689588069916,-0.7706044316291809,0.9840589761734009,0.31700611114501953,-0.08211031556129456,-0.0009869553614407778,0.012010275386273861,0.027324583381414413,-0.4550777077674866,-0.5233353972434998,0.22963137924671173,0.7648919820785522,1.048876166343689,0.43819093704223633,-0.03024420514702797,-0.3620605170726776,-0.6019214987754822,0.009516187943518162,0.6966368556022644,1.1767855882644653,-1.2276995182037354,0.25768887996673584,-0.8674943447113037,-0.10954256355762482,-1.172805666923523,0.04323132336139679,0.17726345360279083,-0.044602371752262115,-0.7824873328208923,1.000208854675293,0.3183424770832062,-0.0827796533703804,-0.0022972007282078266,0.012887542136013508,0.028083816170692444,-0.4623328745365143,-0.5225586295127869,0.23642335832118988,0.7689191102981567,1.0451936721801758,0.4491158127784729,-0.02953401952981949,-0.37520259618759155,-0.6140860319137573,0.009913375601172447,0.7088640332221985,1.1740411520004272,-1.2283076047897339,0.2567785680294037,-0.8680163025856018,-0.10867571085691452,-1.168147087097168,0.04304730147123337,0.17704084515571594,-0.044852230697870255,-0.7855467200279236,0.9917044639587402,0.315675288438797,-0.08265279233455658,-0.0020016804337501526,0.013274410739541054,0.0284285806119442,-0.4603915512561798,-0.5223074555397034,0.2354549616575241,0.7654725313186646,1.0446885824203491,0.44625720381736755,-0.029612598940730095,-0.3743404746055603,-0.61372971534729,0.009930696338415146,0.7115005850791931,1.1685147285461426,-1.2293211221694946,0.2567855417728424,-0.8680774569511414,-0.10811838507652283,-1.1673014163970947,0.04291800037026405,0.17660343647003174,-0.044556792825460434,-0.7846552133560181,0.9887815713882446,0.3151009976863861,-0.08241966366767883,-0.0023502151016145945,0.012847033329308033,0.028093846514821053,-0.45870494842529297,-0.522015392780304,0.2341637760400772,0.7637179493904114,1.0440980195999146,0.4450967609882355,-0.029848448932170868,-0.37333929538726807,-0.6138769388198853,0.009629765525460243,0.7097521424293518,1.1676634550094604,-1.235437035560608,0.25649896264076233,-0.8575087785720825,-0.10778657346963882,-1.166995882987976,0.04272645339369774,0.1752418577671051,-0.044097546488046646,-0.7765171527862549,0.9849070310592651,0.31499212980270386,-0.08245236426591873,-0.0020065871067345142,0.012920314446091652,0.028147010132670403,-0.4570557773113251,-0.5222551822662354,0.23063120245933533,0.7639480829238892,1.0447239875793457,0.4420354962348938,-0.03011024184525013,-0.36547431349754333,-0.6112446784973145,0.00937441922724247,0.7055034637451172,1.1677550077438354,-1.2322871685028076,0.25603753328323364,-0.8655180335044861,-0.10830141603946686,-1.1677125692367554,0.043023426085710526,0.1758846640586853,-0.044391781091690063,-0.7823700308799744,0.9872096180915833,0.3154725730419159,-0.08218564838171005,-0.0023811450228095055,0.012882597744464874,0.028269516304135323,-0.45862695574760437,-0.5222213864326477,0.2327006310224533,0.7630981802940369,1.0444221496582031,0.4454171359539032,-0.029527055099606514,-0.36908045411109924,-0.6147590279579163,0.00988212414085865,0.7088459730148315,1.1680964231491089,-1.227660059928894,0.25755318999290466,-0.868491530418396,-0.10984059423208237,-1.172045111656189,0.04352739080786705,0.1772746592760086,-0.04434289038181305,-0.7829623818397522,0.9981951117515564,0.3179091513156891,-0.08337196707725525,-0.0019201679388061166,0.013115080073475838,0.028763853013515472,-0.46221524477005005,-0.5227087140083313,0.2358589768409729,0.7690187096595764,1.0455031394958496,0.4494136869907379,-0.029784109443426132,-0.375300794839859,-0.6146076321601868,0.009987356141209602,0.7095074653625488,1.1728631258010864,-1.2282179594039917,0.2572433352470398,-0.8679356575012207,-0.10886256396770477,-1.167851209640503,0.043276596814394,0.17696604132652283,-0.044534310698509216,-0.7851616144180298,0.9915885925292969,0.31566137075424194,-0.08254614472389221,-0.0022261266130954027,0.013409560546278954,0.028582144528627396,-0.4597243666648865,-0.5221554636955261,0.23533549904823303,0.7657585740089417,1.0444122552871704,0.4461730122566223,-0.029712075367569923,-0.3731832504272461,-0.6136047840118408,0.009742380119860172,0.7112753987312317,1.168238639831543,-1.2293903827667236,0.2573074400424957,-0.868208646774292,-0.10840817540884018,-1.1688785552978516,0.042967356741428375,0.17694826424121857,-0.04468577727675438,-0.7847532033920288,0.991905927658081,0.31560882925987244,-0.08296655863523483,-0.0023500092793256044,0.01281675510108471,0.02845652960240841,-0.46022188663482666,-0.5224182605743408,0.23465341329574585,0.7655586004257202,1.044913411140442,0.44633257389068604,-0.029719028621912003,-0.37392672896385193,-0.6138983368873596,0.00938412919640541,0.7108809351921082,1.1692395210266113,-1.228452205657959,0.2583906650543213,-0.8684797883033752,-0.1096029281616211,-1.1738637685775757,0.042947567999362946,0.1772492378950119,-0.044527970254421234,-0.7816247344017029,1.000148892402649,0.3191417455673218,-0.08262252062559128,-0.001965965609997511,0.013614712283015251,0.028461361303925514,-0.4624345898628235,-0.5226850509643555,0.236070454120636,0.7692437767982483,1.0455061197280884,0.44975829124450684,-0.029840636998414993,-0.37394842505455017,-0.6133382320404053,0.009380044415593147,0.7080680131912231,1.176013708114624,-1.2285757064819336,0.25735849142074585,-0.8680214285850525,-0.10906600207090378,-1.1709274053573608,0.04327837750315666,0.17717857658863068,-0.044840339571237564,-0.7835085391998291,0.9963867664337158,0.31813082098960876,-0.08310592174530029,-0.0021100586745887995,0.01351166982203722,0.02880655787885189,-0.4610408842563629,-0.5226001739501953,0.23595836758613586,0.7682790756225586,1.045308232307434,0.4481896460056305,-0.029761385172605515,-0.3733260929584503,-0.6132656335830688,0.009606015868484974,0.7094570994377136,1.1720525026321411,-1.2277895212173462,0.2578565180301666,-0.8680660724639893,-0.10939089953899384,-1.1719982624053955,0.042988765984773636,0.17718084156513214,-0.04513733461499214,-0.782805323600769,0.9973621964454651,0.31789839267730713,-0.08285011351108551,-0.002607205184176564,0.013443313539028168,0.028893720358610153,-0.46247386932373047,-0.5226739645004272,0.23584525287151337,0.7689770460128784,1.0454446077346802,0.44957098364830017,-0.029371129348874092,-0.37474870681762695,-0.6133835911750793,0.010193522088229656,0.7089608907699585,1.1730278730392456,-1.2307100296020508,0.2562725245952606,-0.8675059080123901,-0.10822833329439163,-1.1679859161376953,0.04300425201654434,0.17574994266033173,-0.04422421753406525,-0.7836587429046631,0.9874752163887024,0.3148461878299713,-0.0820627436041832,-0.0021788671147078276,0.012756150215864182,0.02787531539797783,-0.4587068557739258,-0.5221036672592163,0.23399117588996887,0.7631481289863586,1.0442503690719604,0.44498419761657715,-0.02925020642578602,-0.3708309829235077,-0.6142512559890747,0.010147924534976482,0.7092541456222534,1.1683545112609863,-1.2239419221878052,0.2563599944114685,-0.853600025177002,-0.10713422298431396,-1.1671359539031982,0.04245442897081375,0.17471502721309662,-0.04452008381485939,-0.7731586694717407,0.9858365058898926,0.3162027895450592,-0.08214937895536423,-0.0014183871680870652,0.012759882025420666,0.02809138223528862,-0.45547759532928467,-0.5228065252304077,0.23023396730422974,0.7667862772941589,1.0480363368988037,0.44026699662208557,-0.029986761510372162,-0.36445507407188416,-0.6051186323165894,0.009627347812056541,0.7012525796890259,1.1701260805130005,-1.228224754333496,0.2565087378025055,-0.8547467589378357,-0.10747198760509491,-1.167439341545105,0.042479075491428375,0.17493879795074463,-0.04430191591382027,-0.7740647792816162,0.9854725003242493,0.3161420226097107,-0.08197516202926636,-0.0014718695310875773,0.012633172795176506,0.027640771120786667,-0.45590898394584656,-0.5227548480033875,0.22928117215633392,0.7661136388778687,1.0472016334533691,0.44023290276527405,-0.02989847958087921,-0.3655780851840973,-0.6060777306556702,0.010085053741931915,0.7036797404289246,1.1691093444824219,0.00014872223255224526,-0.00010888216638704762,-0.0002681354817468673,-0.00014999511768110096,0.00025869824457913637,0.00037289076135493815,-0.000007407800694636535,-0.00032318985904566944,-0.00022140410146676004,0.00043013179674744606,-0.00003103914059465751,0.00030669098487123847,-0.00006167651008581743,-0.00007585040293633938,0.0002839775406755507,0.00028969038976356387,0.00016988236166071147,0.00024876242969185114,-0.0001964565453818068,-0.00012048339704051614,0.00035245096660219133,-0.00016895633598323911,0.00019681232515722513,-0.0004279386776033789,0.00035918716457672417,-0.0002816482447087765,0.00024560271413065493]},"hiddenLayers":[{"inputMatrix":{"rows":20,"columns":27,"weights":[-0.06469548493623734,0.11953555047512054,-0.053972627967596054,0.06724393367767334,-0.06597831100225449,0.08616819232702255,0.13561365008354187,-0.07331621646881104,-0.07000118494033813,0.11910531669855118,-0.05400580167770386,-0.0759272426366806,0.1044420599937439,-0.08610805124044418,-0.08351817727088928,-0.14859835803508759,-0.09339489042758942,-0.05426832288503647,0.05191042274236679,0.06166332587599754,0.009557358920574188,-0.09286243468523026,0.06608694791793823,-0.08684614300727844,0.06383870542049408,0.06930416822433472,0.10214583575725555,-0.1768350899219513,0.1521187275648117,-0.13490483164787292,0.06663524359464645,-0.17300467193126678,0.09817932546138763,0.16365259885787964,-0.08457518368959427,-0.14588385820388794,0.21499194204807281,-0.03752858564257622,-0.09137699007987976,0.11542246490716934,-0.09443608671426773,-0.09011944383382797,-0.20161190629005432,-0.14757513999938965,-0.041230425238609314,0.12445444613695145,0.15790767967700958,0.048810627311468124,-0.10571662336587906,0.04360601305961609,-0.14808212220668793,0.0717334970831871,0.13770216703414917,0.2118666172027588,-0.17667445540428162,0.15293452143669128,-0.13451658189296722,0.06614387035369873,-0.1723608374595642,0.09724918007850647,0.16416314244270325,-0.0844908058643341,-0.14488935470581055,0.21419958770275116,-0.0360749214887619,-0.09000277519226074,0.11562799662351608,-0.09325874596834183,-0.08820503205060959,-0.20164689421653748,-0.14760926365852356,-0.040944524109363556,0.12426949292421341,0.15692992508411407,0.04851507022976875,-0.10433071851730347,0.04224547743797302,-0.14774177968502045,0.07018153369426727,0.1371043175458908,0.21011875569820404,-0.10639744251966476,0.0969066247344017,-0.07907138019800186,0.04272127151489258,-0.10380101203918457,0.06315796822309494,0.10504214465618134,-0.05378159508109093,-0.08728686720132828,0.1318855732679367,-0.022985076531767845,-0.05746302753686905,0.07390308380126953,-0.06098569557070732,-0.05784984678030014,-0.12805059552192688,-0.09124743193387985,-0.026547592133283615,0.07273907959461212,0.09408378601074219,0.026400424540042877,-0.06731642037630081,0.028620343655347824,-0.09030017256736755,0.04459303617477417,0.08221589773893356,0.1293652206659317,-0.17697376012802124,0.1526675969362259,-0.13477326929569244,0.06666016578674316,-0.17327898740768433,0.09777580201625824,0.16391032934188843,-0.08435698598623276,-0.14568406343460083,0.2150510847568512,-0.03698278218507767,-0.09116455167531967,0.1150500476360321,-0.09368502348661423,-0.08904606103897095,-0.20218171179294586,-0.14807601273059845,-0.04081859812140465,0.12424308061599731,0.15713298320770264,0.04904981702566147,-0.1050020307302475,0.04324442893266678,-0.14809110760688782,0.07162503153085709,0.13743947446346283,0.2120945304632187,-0.17725004255771637,0.15193496644496918,-0.13499675691127777,0.06683821976184845,-0.17351382970809937,0.09909967333078384,0.16356249153614044,-0.08482389152050018,-0.14633111655712128,0.21357467770576477,-0.038308579474687576,-0.09119158238172531,0.11590977013111115,-0.09452212601900101,-0.09019719064235687,-0.20058462023735046,-0.14723101258277893,-0.041304342448711395,0.12478307634592056,0.15836964547634125,0.04834277555346489,-0.10591468214988708,0.04331246018409729,-0.1466064155101776,0.07181094586849213,0.1371084451675415,0.2116742581129074,-0.17721062898635864,0.153497114777565,-0.13470202684402466,0.06558410823345184,-0.17331986129283905,0.098245769739151,0.1647149622440338,-0.08462972193956375,-0.14438296854496002,0.21456725895404816,-0.03581484407186508,-0.0898250937461853,0.11517798900604248,-0.09390228986740112,-0.08848870545625687,-0.2010810822248459,-0.14694151282310486,-0.04072331637144089,0.12446161359548569,0.1571018546819687,0.04823033884167671,-0.10407830774784088,0.04230798780918121,-0.14686499536037445,0.07087425142526627,0.13635994493961334,0.2102569192647934,-0.17459307610988617,0.15308816730976105,-0.131720170378685,0.06709570437669754,-0.17098316550254822,0.09967081993818283,0.16386017203330994,-0.08608783036470413,-0.14214812219142914,0.21415048837661743,-0.035309575498104095,-0.09180926531553268,0.11616893112659454,-0.09517726302146912,-0.0907551646232605,-0.20148307085037231,-0.1461571902036667,-0.042712774127721786,0.12154926359653473,0.15446701645851135,0.04615103080868721,-0.1056249663233757,0.043161630630493164,-0.14688508212566376,0.07218023389577866,0.1354883760213852,0.2109447866678238,-0.1773289144039154,0.1531601846218109,-0.13388630747795105,0.0657229870557785,-0.17311634123325348,0.09847625344991684,0.1639551967382431,-0.08497662097215652,-0.1448490172624588,0.2145911157131195,-0.0359109565615654,-0.09066072851419449,0.11571705341339111,-0.0945262536406517,-0.0893097072839737,-0.20201623439788818,-0.14722485840320587,-0.04066641628742218,0.12283709645271301,0.1575772911310196,0.046908602118492126,-0.10522010177373886,0.042007241398096085,-0.14698342978954315,0.07053215801715851,0.13656646013259888,0.21153485774993896,-0.17381651699543,0.15351368486881256,-0.1321018636226654,0.06616609543561935,-0.17207790911197662,0.09906898438930511,0.16354793310165405,-0.08601097017526627,-0.1429695039987564,0.21290697157382965,-0.034485477954149246,-0.09036306291818619,0.1153675988316536,-0.09519583731889725,-0.08862628787755966,-0.2014767825603485,-0.1459420919418335,-0.04029515013098717,0.12073018401861191,0.15511149168014526,0.04694725573062897,-0.1046011820435524,0.0413418672978878,-0.14671148359775543,0.07119280099868774,0.13631020486354828,0.2105199247598648,-0.1784009486436844,0.15350428223609924,-0.13462300598621368,0.0666724443435669,-0.17431184649467468,0.09855535626411438,0.16481131315231323,-0.08493208140134811,-0.14513665437698364,0.21480609476566315,-0.037137411534786224,-0.0911245122551918,0.11669567972421646,-0.09407852590084076,-0.08968184888362885,-0.20262882113456726,-0.1470935195684433,-0.04114361107349396,0.12474293261766434,0.1585923433303833,0.04741736128926277,-0.10590751469135284,0.042549215257167816,-0.1475229263305664,0.071445032954216,0.13567207753658295,0.21151946485042572,-0.17562511563301086,0.15240180492401123,-0.13433416187763214,0.0660470500588417,-0.17209988832473755,0.09746581315994263,0.16335143148899078,-0.08455497026443481,-0.14553683996200562,0.21460135281085968,-0.037200916558504105,-0.09045718610286713,0.11448740214109421,-0.09376773238182068,-0.08972709625959396,-0.20155826210975647,-0.1477864384651184,-0.04200218245387077,0.12454933673143387,0.15657123923301697,0.049783989787101746,-0.10479698330163956,0.043495822697877884,-0.14777785539627075,0.07086167484521866,0.1378791481256485,0.21121110022068024,-0.17081503570079803,0.1360628753900528,-0.12574607133865356,0.05469885841012001,-0.167524516582489,0.08637309819459915,0.14495447278022766,-0.07235626131296158,-0.13579753041267395,0.19903330504894257,-0.024874281138181686,-0.07965842634439468,0.1003335565328598,-0.08126132935285568,-0.07692541182041168,-0.18141546845436096,-0.13273288309574127,-0.029731187969446182,0.11500728875398636,0.1510739028453827,0.04558940604329109,-0.09166771173477173,0.02941731922328472,-0.1341608762741089,0.06059850752353668,0.1264980137348175,0.2005193829536438,-0.10770362615585327,0.0918416902422905,-0.08003279566764832,0.03801685571670532,-0.10558388382196426,0.05822819098830223,0.09877657145261765,-0.049563825130462646,-0.08744967728853226,0.13001127541065216,-0.019354188814759254,-0.05363348126411438,0.06860042363405228,-0.05658050253987312,-0.05278017371892929,-0.12229275703430176,-0.08788810670375824,-0.022461682558059692,0.07373997569084167,0.09581441432237625,0.028802379965782166,-0.06262771785259247,0.023746447637677193,-0.08884019404649734,0.04168710857629776,0.08163801580667496,0.12904223799705505,-0.10803921520709991,0.10070288181304932,-0.08152423799037933,0.04502493515610695,-0.10630268603563309,0.06518125534057617,0.10911893099546432,-0.05587541684508324,-0.0898052230477333,0.1356520652770996,-0.025767575949430466,-0.059847038239240646,0.07730809599161148,-0.0633176937699318,-0.06047583743929863,-0.13222357630729675,-0.09364165365695953,-0.02805655635893345,0.07543473690748215,0.09622525423765182,0.027755344286561012,-0.070152148604393,0.03166775777935982,-0.09319555759429932,0.046891551464796066,0.08455356955528259,0.13189628720283508,-0.17678767442703247,0.15171141922473907,-0.1344745010137558,0.06665095686912537,-0.17342452704906464,0.09759854525327682,0.16258296370506287,-0.08447388559579849,-0.14575210213661194,0.21410271525382996,-0.03684663027524948,-0.09042098373174667,0.11413941532373428,-0.09380774945020676,-0.08967427164316177,-0.20058144629001617,-0.14705225825309753,-0.04102691262960434,0.12408757209777832,0.15760201215744019,0.0496118925511837,-0.10550599545240402,0.0428304448723793,-0.1475003957748413,0.07132358849048615,0.1372474879026413,0.2111152559518814,-0.07807029783725739,0.11340011656284332,-0.06193201243877411,0.06028914079070091,-0.0780014917254448,0.07899349927902222,0.12672296166419983,-0.06772750616073608,-0.07484839856624603,0.12331697344779968,-0.0458044596016407,-0.07117389887571335,0.09584284573793411,-0.07966580241918564,-0.07628948241472244,-0.14313775300979614,-0.09394040703773499,-0.04658413678407669,0.05872910097241402,0.07165589183568954,0.015478940680623055,-0.08538415282964706,0.055449869483709335,-0.08958447724580765,0.05857628211379051,0.0740744024515152,0.11005882918834686,-0.17667576670646667,0.15246255695819855,-0.135367289185524,0.06687672436237335,-0.17359519004821777,0.09852443635463715,0.16282404959201813,-0.08519608527421951,-0.14604723453521729,0.2145991176366806,-0.03759048134088516,-0.09103863686323166,0.11546990275382996,-0.09453640133142471,-0.08975870907306671,-0.2009529322385788,-0.1475284844636917,-0.04152335971593857,0.12432417273521423,0.15816326439380646,0.04943614825606346,-0.10616815090179443,0.04317669942975044,-0.14792418479919434,0.07165492326021194,0.1373143047094345,0.21226324141025543,-0.1751175969839096,0.153487429022789,-0.13417473435401917,0.066100113093853,-0.17194288969039917,0.09737761318683624,0.16394323110580444,-0.08429604768753052,-0.1449475884437561,0.21383991837501526,-0.03578261286020279,-0.08989840745925903,0.11404834687709808,-0.09324605762958527,-0.08827818185091019,-0.2011241763830185,-0.14734512567520142,-0.040873412042856216,0.12410275638103485,0.15593145787715912,0.04995619133114815,-0.10448300838470459,0.04293787479400635,-0.1477212756872177,0.06996084749698639,0.13784147799015045,0.20956026017665863,-0.17688314616680145,0.15201416611671448,-0.13483016192913055,0.06690528988838196,-0.1727885752916336,0.09828788042068481,0.16333431005477905,-0.08432459086179733,-0.14688411355018616,0.2142147570848465,-0.03772555664181709,-0.0913396030664444,0.11539619415998459,-0.0939209908246994,-0.08951626718044281,-0.20104201138019562,-0.1476399451494217,-0.04121468961238861,0.12434827536344528,0.15722644329071045,0.049491364508867264,-0.1056482344865799,0.0436384417116642,-0.14781440794467926,0.07175181061029434,0.1374197006225586,0.2115720808506012]},"inputHidden":{"rows":20,"columns":20,"weights":[-0.00792229175567627,0.006456952542066574,-0.009800612926483154,0.007196668069809675,0.007625250611454248,0.006524227559566498,-0.009530971758067608,-0.008532829582691193,-0.008731570094823837,0.009546000510454178,0.006528381258249283,0.006337853614240885,0.008662094362080097,0.007665023673325777,0.00752807455137372,-0.009417487308382988,-0.00802320521324873,-0.00741643225774169,0.009130395948886871,0.006520013324916363,-0.056918032467365265,0.07173386961221695,-0.0661223754286766,0.050281815230846405,0.06876013427972794,0.07176453620195389,-0.06687284260988235,-0.06816627830266953,-0.06778134405612946,0.06534086912870407,0.07125350832939148,0.07133787870407104,0.053660016506910324,0.04848043620586395,0.05246126279234886,-0.0670897513628006,-0.05522521585226059,-0.0707600936293602,0.06679590046405792,0.07150767743587494,-0.05724683031439781,0.07095649093389511,-0.06773948669433594,0.049569983035326004,0.06837738305330276,0.07120619714260101,-0.06775106489658356,-0.06777641177177429,-0.06799328327178955,0.06763597577810287,0.07098677009344101,0.07089295238256454,0.053384535014629364,0.048687610775232315,0.05205085128545761,-0.06774214655160904,-0.05524423345923424,-0.07005667686462402,0.06772594898939133,0.07109631597995758,-0.03358159586787224,0.046246487647295,-0.04261390492320061,0.02805999293923378,0.04503327235579491,0.04657015576958656,-0.04269751161336899,-0.044749047607183456,-0.04369640722870827,0.042112331837415695,0.04662761092185974,0.04579576849937439,0.029815802350640297,0.0267643965780735,0.029827680438756943,-0.042830049991607666,-0.031173162162303925,-0.04582130163908005,0.04248560592532158,0.04565940052270889,-0.05676998570561409,0.07111623138189316,-0.06773430854082108,0.0502982996404171,0.06832452118396759,0.07143531739711761,-0.06777139753103256,-0.0678228884935379,-0.0682826116681099,0.06761457771062851,0.07117194682359695,0.07119763642549515,0.05334095284342766,0.04881208762526512,0.052426740527153015,-0.06776288896799088,-0.055571675300598145,-0.06988486647605896,0.06767026335000992,0.0710357278585434,-0.0567658431828022,0.07113461941480637,-0.06568150222301483,0.05023695528507233,0.06835971027612686,0.07124696671962738,-0.06664713472127914,-0.06822167336940765,-0.06778013706207275,0.06573713570833206,0.07110580056905746,0.070595882833004,0.05343886464834213,0.04855457320809364,0.05279304087162018,-0.06719419360160828,-0.05559574440121651,-0.07104131579399109,0.06673239916563034,0.07103025913238525,-0.05762502923607826,0.07095798850059509,-0.06784463673830032,0.049847498536109924,0.06848998367786407,0.07099847495555878,-0.0678040087223053,-0.0678514614701271,-0.06787880510091782,0.06768380105495453,0.07112288475036621,0.07091871649026871,0.053292855620384216,0.048459284007549286,0.05253910273313522,-0.0677880197763443,-0.05475158989429474,-0.06891746073961258,0.06769769638776779,0.07132725417613983,-0.05766325443983078,0.07297276705503464,-0.06861141324043274,0.04997608810663223,0.07156474888324738,0.07296498119831085,-0.0680474191904068,-0.0686391070485115,-0.0710701048374176,0.06782084703445435,0.07300440222024918,0.07288632541894913,0.053881146013736725,0.0488559827208519,0.052975062280893326,-0.0694388672709465,-0.05579592287540436,-0.07194174081087112,0.06931941956281662,0.07285702228546143,-0.05788959190249443,0.0720335990190506,-0.0677180215716362,0.050152361392974854,0.07031209021806717,0.0715322196483612,-0.06772904843091965,-0.06851548701524734,-0.06781131029129028,0.06734824925661087,0.07167262583971024,0.07153531163930893,0.05431915819644928,0.0487227737903595,0.052537500858306885,-0.0677204504609108,-0.05565916374325752,-0.07034318894147873,0.06762762367725372,0.0716390311717987,-0.058004315942525864,0.07254175841808319,-0.06780245155096054,0.04964093118906021,0.0709376409649849,0.07262979447841644,-0.06837189942598343,-0.06861081719398499,-0.07048246264457703,0.06762242317199707,0.07215842604637146,0.07210458815097809,0.05440690368413925,0.04828935116529465,0.05214109271764755,-0.06876514106988907,-0.05514903739094734,-0.07145839929580688,0.06886564195156097,0.07224214822053909,-0.0569874607026577,0.07150853425264359,-0.06657782942056656,0.04960191994905472,0.06892339885234833,0.07154355943202972,-0.06749488413333893,-0.06925103813409805,-0.0677037313580513,0.0668942853808403,0.07162953168153763,0.07157282531261444,0.05379313975572586,0.04849095642566681,0.05276227742433548,-0.06670175492763519,-0.055561862885951996,-0.07098738104104996,0.06741643697023392,0.07178342342376709,-0.05657554045319557,0.06805051118135452,-0.06839551031589508,0.05066410079598427,0.06800593435764313,0.06802282482385635,-0.06842391192913055,-0.06761971861124039,-0.06793535500764847,0.06856267154216766,0.068119578063488,0.06786226481199265,0.05351017042994499,0.048434559255838394,0.052801065146923065,-0.06904423981904984,-0.05570869892835617,-0.06803523004055023,0.067900151014328,0.06793021410703659,-0.05763733759522438,0.07376568019390106,-0.070107601583004,0.048659056425094604,0.07225992530584335,0.07366190105676651,-0.07065453380346298,-0.07189103215932846,-0.07117551565170288,0.06937897205352783,0.07341990619897842,0.07380548864603043,0.05277208611369133,0.0467761792242527,0.05190685763955116,-0.06981141865253448,-0.05450333282351494,-0.07351808249950409,0.07011992484331131,0.07372018694877625,-0.035354163497686386,0.04839186742901802,-0.04531625285744667,0.029830023646354675,0.04741218313574791,0.049085065722465515,-0.044799234718084335,-0.04642501100897789,-0.04609939455986023,0.04522931948304176,0.048852212727069855,0.04863990098237991,0.03170696273446083,0.02835601381957531,0.03044654242694378,-0.045617569237947464,-0.03322955593466759,-0.04842928797006607,0.04550795257091522,0.04875536262989044,-0.03230129927396774,0.04560263827443123,-0.042123813182115555,0.027348313480615616,0.04424000158905983,0.04583560302853584,-0.04240205138921738,-0.04360072687268257,-0.04404348134994507,0.04202081635594368,0.04518809914588928,0.04535140469670296,0.029690971598029137,0.025820570066571236,0.02844936214387417,-0.042149875313043594,-0.031432513147592545,-0.0448937751352787,0.04197448119521141,0.04506994038820267,-0.0570257343351841,0.07114426046609879,-0.06733625382184982,0.05044866353273392,0.0681358054280281,0.07133321464061737,-0.06744638085365295,-0.06771790981292725,-0.06802532076835632,0.0661996603012085,0.07137025147676468,0.07093926519155502,0.053555816411972046,0.04812942445278168,0.05250179022550583,-0.06765694916248322,-0.055632490664720535,-0.07072973251342773,0.0674619972705841,0.0713995024561882,-0.016663426533341408,0.015540878288447857,-0.01820138469338417,0.015151822939515114,0.016618719324469566,0.015539146028459072,-0.018766554072499275,-0.017446380108594894,-0.017829854041337967,0.018743688240647316,0.015581375919282436,0.015182584524154663,0.01612781547009945,0.01522016804665327,0.015364179387688637,-0.018565421923995018,-0.015637949109077454,-0.016353003680706024,0.018253566697239876,0.015383327379822731,-0.05749358609318733,0.07130511105060577,-0.06758029013872147,0.050078749656677246,0.06898492574691772,0.07115690410137177,-0.06755666434764862,-0.0677344873547554,-0.06775267422199249,0.06611072272062302,0.07135822623968124,0.07142113894224167,0.05353045463562012,0.04818866401910782,0.05275902897119522,-0.06758227944374084,-0.05551610514521599,-0.07051187008619308,0.06752460449934006,0.07145718485116959,-0.056766413152217865,0.06792573630809784,-0.07065767794847488,0.04984191060066223,0.06925126165151596,0.0679023414850235,-0.07023702561855316,-0.06624454259872437,-0.06805611401796341,0.0705309584736824,0.06799143552780151,0.06779035180807114,0.052776746451854706,0.04882301762700081,0.05247141048312187,-0.0703015923500061,-0.05456411466002464,-0.06792880594730377,0.07005017250776291,0.06786827743053436,-0.056651800870895386,0.07143378257751465,-0.06764701008796692,0.04992326721549034,0.06789528578519821,0.07122084498405457,-0.06608470529317856,-0.06778125464916229,-0.06780853867530823,0.06534093618392944,0.07137039303779602,0.07094933092594147,0.053344618529081345,0.04862441495060921,0.05269721522927284,-0.06734290719032288,-0.0547473318874836,-0.0692661851644516,0.06755038350820541,0.07118421792984009]},"inputBias":{"rows":20,"columns":1,"weights":[0.10324463993310928,0.11501873284578323,0.11428766697645187,0.07529644668102264,0.11438505351543427,0.11526256799697876,0.11423660814762115,0.11529618501663208,0.1139814704656601,0.11543961614370346,0.11549515277147293,0.11431967467069626,0.09987510740756989,0.06897280365228653,0.07632435113191605,0.11384548246860504,0.09506773203611374,0.11469271779060364,0.11273757368326187,0.1144506186246872]},"forgetMatrix":{"rows":20,"columns":27,"weights":[-0.015652433037757874,0.0029927808791399,-0.011114594526588917,-0.0017563377041369677,-0.014555830508470535,0.0008799771312624216,0.002045881934463978,-0.0004457250179257244,-0.010416258126497269,0.012853128835558891,0.0034928752575069666,-0.001397805055603385,-0.0003403183654882014,-0.00014291201659943908,0.00031575566390529275,-0.005540221929550171,-0.006454582791775465,0.00312783638946712,0.0097669567912817,0.013021296821534634,0.005488196853548288,-0.00003403261143830605,-0.0043349964544177055,-0.007426450029015541,0.00020324769138824195,0.00938976276665926,0.014935875311493874,0.1373138278722763,-0.029608121141791344,0.09682638943195343,0.011292565613985062,0.13074138760566711,-0.0056350016966462135,-0.018909184262156487,0.006292048376053572,0.08821216225624084,-0.11187754571437836,-0.03461602330207825,0.01168137975037098,-0.0002699168398976326,-0.0009222027729265392,-0.0017664603656157851,0.05189916491508484,0.056980255991220474,-0.024567097425460815,-0.08485077321529388,-0.11907389014959335,-0.050494011491537094,0.004809441510587931,0.040704309940338135,0.06789078563451767,-0.0029469868168234825,-0.08065113425254822,-0.13107872009277344,0.13748592138290405,-0.030604016035795212,0.09699035435914993,0.011063637211918831,0.13075131177902222,-0.00476292846724391,-0.019031068310141563,0.007062828633934259,0.08775895088911057,-0.11199545115232468,-0.034814637154340744,0.011100590229034424,0.0009065555059351027,-0.00021079389262013137,-0.0010342174209654331,0.05239008367061615,0.05722826346755028,-0.023954546079039574,-0.0846826434135437,-0.11685869842767715,-0.0498613677918911,0.003879926633089781,0.04055742919445038,0.06820959597826004,-0.003428621916100383,-0.08065804094076157,-0.13075347244739532,-0.06150238960981369,0.012802786193788052,-0.043941110372543335,-0.005731638986617327,-0.05919932574033737,0.0016919694608077407,0.008256589062511921,-0.0021002227440476418,-0.03887089714407921,0.04877805337309837,0.01615115813910961,-0.0038803317584097385,-0.0003984020440839231,0.0012197870528325438,0.0018123702611774206,-0.022977659478783607,-0.025844363495707512,0.011494233272969723,0.038394857197999954,0.05215639993548393,0.022669505327939987,-0.000908097077626735,-0.01823713816702366,-0.03032907471060753,0.00042389638838358223,0.03467482700943947,0.05928303673863411,0.13756151497364044,-0.03031720593571663,0.09678780287504196,0.011111673898994923,0.1307515799999237,-0.004592427052557468,-0.01989612728357315,0.0066179498098790646,0.08801846206188202,-0.11291220039129257,-0.03473175689578056,0.011231167241930962,0.00040944726788438857,-0.0008532162755727768,-0.00141635921318084,0.05237637087702751,0.05789998173713684,-0.0246841199696064,-0.08495718985795975,-0.11794266849756241,-0.05041026324033737,0.004112403839826584,0.04052095115184784,0.06823235750198364,-0.002996926661580801,-0.08065886795520782,-0.1309906244277954,0.1373767852783203,-0.029585005715489388,0.09662807732820511,0.011111357249319553,0.1307382732629776,-0.0057651810348033905,-0.01931578665971756,0.005739588290452957,0.08838701248168945,-0.11194412410259247,-0.03428073972463608,0.01145943533629179,0.00005382816380006261,-0.0011116629466414452,-0.0012948582880198956,0.0518980398774147,0.05705884099006653,-0.025189584121108055,-0.08474152535200119,-0.11855901032686234,-0.049663204699754715,0.004500966984778643,0.04126769304275513,0.0678875744342804,-0.0026844984386116266,-0.0800069272518158,-0.1320108026266098,0.13758574426174164,-0.03012027218937874,0.09684060513973236,0.011869552545249462,0.13075165450572968,-0.004677009768784046,-0.018866119906306267,0.007257856894284487,0.08793848752975464,-0.1127895712852478,-0.03484543040394783,0.011350213550031185,0.0012302222894504666,-0.0005448932060971856,-0.0012455049436539412,0.05251306667923927,0.0569370836019516,-0.02421616017818451,-0.084759421646595,-0.11722376942634583,-0.050460249185562134,0.004259892273694277,0.04085737094283104,0.06825055181980133,-0.003815739881247282,-0.08065853267908096,-0.130753755569458,0.1374729722738266,-0.028022397309541702,0.09678909927606583,0.012869569472968578,0.1307460218667984,-0.0040602185763418674,-0.018619557842612267,0.0038061533123254776,0.0882890596985817,-0.11172828078269958,-0.03638182953000069,0.00816147867590189,0.0006768880994059145,-0.002263834001496434,-0.004114808049052954,0.05141790211200714,0.05823129042983055,-0.027513490989804268,-0.0862058773636818,-0.11894835531711578,-0.05036463588476181,0.00247249030508101,0.04328978806734085,0.06817279011011124,-0.0001549629814689979,-0.07956014573574066,-0.13150756061077118,0.1375454217195511,-0.030717140063643456,0.0970757007598877,0.011534444987773895,0.13075174391269684,-0.004972267430275679,-0.019845612347126007,0.006752645596861839,0.08788046985864639,-0.11287321895360947,-0.03545010834932327,0.011303946375846863,0.0006874722894281149,-0.0000692190442350693,-0.0018827709136530757,0.05265329033136368,0.05776270106434822,-0.024342654272913933,-0.0860147550702095,-0.11804547905921936,-0.05012138560414314,0.004130509216338396,0.04078422859311104,0.06822521239519119,-0.0034574130550026894,-0.0806586891412735,-0.13114197552204132,0.13715381920337677,-0.0306586604565382,0.09669118374586105,0.011617732234299183,0.13074180483818054,-0.004509426653385162,-0.01993628777563572,0.0072380066849291325,0.08757492154836655,-0.11267521232366562,-0.03466299548745155,0.01076560840010643,0.0006507556536234915,-0.0005002213292755187,-0.0020049193408340216,0.05349958688020706,0.058258023113012314,-0.0244833305478096,-0.08474874496459961,-0.1170562356710434,-0.05039094761013985,0.0034154350869357586,0.040462180972099304,0.06801165640354156,-0.002596854930743575,-0.0806514099240303,-0.13074389100074768,0.14118942618370056,-0.02961503528058529,0.09665966778993607,0.012499180622398853,0.13152368366718292,-0.005521494895219803,-0.018597394227981567,0.006338962819427252,0.08799032866954803,-0.11278169602155685,-0.03440419211983681,0.011944184079766273,0.000024235489036072977,-0.0009745321003720164,-0.0012156256707385182,0.0518944151699543,0.05594755336642265,-0.025844965130090714,-0.08462528139352798,-0.11905989795923233,-0.04997287318110466,0.004152280744165182,0.0431257039308548,0.0666532814502716,-0.003886194434016943,-0.0806439071893692,-0.1347803771495819,0.137248694896698,-0.03000103496015072,0.09672188013792038,0.010925165377557278,0.13074344396591187,-0.0046355947852134705,-0.018981045112013817,0.006459948606789112,0.08778940886259079,-0.1117435172200203,-0.03376593440771103,0.011405520141124725,0.000479452166473493,-0.00031869139638729393,-0.0016156124183908105,0.051900193095207214,0.05760161951184273,-0.02382429502904415,-0.08464784920215607,-0.11764058470726013,-0.051486898213624954,0.004121640231460333,0.04025476798415184,0.06808610260486603,-0.0032351857516914606,-0.08065243810415268,-0.1307455599308014,0.12895441055297852,-0.02634245902299881,0.08994084596633911,0.01173402089625597,0.12228846549987793,-0.0042938790284097195,-0.017693039029836655,0.003915363922715187,0.08136370778083801,-0.1036439761519432,-0.033065058290958405,0.007717131171375513,0.0005587345804087818,-0.002006235532462597,-0.003601586678996682,0.04748626798391342,0.054035261273384094,-0.02431321330368519,-0.0797373577952385,-0.10952292382717133,-0.04628647863864899,0.00289853080175817,0.03885501250624657,0.06366535276174545,-0.0006151567795313895,-0.07326094806194305,-0.12370294332504272,-0.06357423961162567,0.012559599243104458,-0.04414188489317894,-0.00615136232227087,-0.05959421768784523,0.0014014560729265213,0.00846695713698864,-0.0023581362329423428,-0.04027267545461655,0.050230905413627625,0.01608402654528618,-0.004448165185749531,-0.0006649428396485746,0.000592215801589191,0.002149059670045972,-0.0232777651399374,-0.02609083615243435,0.011780763976275921,0.038986049592494965,0.054161179810762405,0.022373709827661514,-0.0010902301874011755,-0.018803011626005173,-0.031096957623958588,0.0006578307948075235,0.03573615103960037,0.06001599505543709,-0.06436613947153091,0.012910798192024231,-0.04462043568491936,-0.0055942228063941,-0.06079605594277382,0.0021221910137683153,0.008487251587212086,-0.0018096585990861058,-0.040226466953754425,0.051222383975982666,0.01656162180006504,-0.0038841948844492435,-0.0002692671259865165,0.0009564515785314143,0.001506175845861435,-0.02369563654065132,-0.026162980124354362,0.011814205907285213,0.039474599063396454,0.05366038903594017,0.023182442411780357,-0.0010625084396451712,-0.018846822902560234,-0.03126842528581619,0.0003762744308914989,0.03622674196958542,0.06201312690973282,0.13714544475078583,-0.02995363436639309,0.09674383699893951,0.010830549523234367,0.13074332475662231,-0.004713535308837891,-0.020128943026065826,0.00675516203045845,0.08808396011590958,-0.1119152083992958,-0.03440186381340027,0.011176851578056812,0.00021478017151821405,-0.00027834894717670977,-0.0017529599135741591,0.05190003290772438,0.05793537199497223,-0.024009142071008682,-0.08508344739675522,-0.11809337884187698,-0.051482610404491425,0.003736151847988367,0.04041328281164169,0.06802002340555191,-0.0032417243346571922,-0.08065192401409149,-0.13074539601802826,-0.030411120504140854,0.00543303182348609,-0.020800981670618057,-0.002802058821544051,-0.028353219851851463,0.00034318206598982215,0.0031786293257027864,-0.0012980044120922685,-0.01922428235411644,0.02352946437895298,0.007033569738268852,-0.0025684800930321217,-0.00016216385120060295,0.0008661090978421271,0.00039367645513266325,-0.010766872204840183,-0.012048106640577316,0.005244369152933359,0.01815182901918888,0.02540476992726326,0.010740230791270733,-0.00033113075187429786,-0.008479573763906956,-0.014581030234694481,0.000863700348418206,0.017330016940832138,0.027853142470121384,0.13741058111190796,-0.02955354005098343,0.09674584120512009,0.010938483290374279,0.13074758648872375,-0.005287126172333956,-0.019618932157754898,0.006869568955153227,0.08820559084415436,-0.11289631575345993,-0.03411054611206055,0.011306514032185078,-0.00009345344005851075,-0.000716866459697485,-0.002108577871695161,0.05253169685602188,0.058347634971141815,-0.024290021508932114,-0.08552215248346329,-0.11837676912546158,-0.0504569485783577,0.004118071869015694,0.04072856158018112,0.06814951449632645,-0.0029925177805125713,-0.08034218102693558,-0.13074983656406403,0.13665632903575897,-0.029350483790040016,0.0964512825012207,0.010684516280889511,0.13073422014713287,-0.0051088398322463036,-0.019247394055128098,0.006849564146250486,0.08768860995769501,-0.1115400567650795,-0.03422995284199715,0.011595879681408405,0.000027486059479997493,-0.0006410375353880227,-0.0013398091541603208,0.05189583823084831,0.05760127678513527,-0.02390551194548607,-0.08454643189907074,-0.1169537752866745,-0.05030376464128494,0.004476035479456186,0.04042338207364082,0.06777651607990265,-0.0032930586021393538,-0.08064594119787216,-0.1307363212108612,0.137160524725914,-0.0293990857899189,0.09662597626447678,0.011421778239309788,0.1307373195886612,-0.005101932678371668,-0.019559988752007484,0.00607635173946619,0.08812565356492996,-0.11198335886001587,-0.03366653993725777,0.011487435549497604,-0.00040432685636915267,-0.0009388199541717768,-0.0017624192405492067,0.05189725384116173,0.05774828791618347,-0.024401245638728142,-0.08480866253376007,-0.11825753003358841,-0.050791673362255096,0.00451861135661602,0.04051421955227852,0.06793610006570816,-0.002934072632342577,-0.07998032867908478,-0.1307394653558731]},"forgetHidden":{"rows":20,"columns":20,"weights":[-0.008036751300096512,0.008751638233661652,-0.008700058795511723,0.007753931451588869,0.008616292849183083,0.008726738393306732,-0.0085352947935462,-0.00876628514379263,-0.008648240007460117,0.008759334683418274,0.00874288659542799,0.00859450176358223,0.008027137257158756,0.007568044122308493,0.007156881503760815,-0.008378062397241592,-0.00784100592136383,-0.009060707874596119,0.009027528576552868,0.008551239967346191,0.06753542274236679,-0.08448046445846558,0.08054066449403763,-0.05965997651219368,-0.08216237276792526,-0.08449460566043854,0.08053730428218842,0.08066785335540771,0.08082126826047897,-0.0805296003818512,-0.08323810994625092,-0.08426182717084885,-0.06368133425712585,-0.05740240961313248,-0.06210983917117119,0.08054126054048538,0.06608885526657104,0.08394109457731247,-0.08053190261125565,-0.08453940600156784,0.06766744703054428,-0.08114293962717056,0.0818784236907959,-0.06022394821047783,-0.0820951834321022,-0.08126223832368851,0.08178070187568665,0.0805533155798912,0.0818503201007843,-0.08100518584251404,-0.08216015249490738,-0.08182477951049805,-0.06307537853717804,-0.056795358657836914,-0.06208929419517517,0.08188483119010925,0.06624935567378998,0.08206495642662048,-0.08146838843822479,-0.08105283230543137,-0.030421072617173195,0.035531483590602875,-0.03501666709780693,0.02789229154586792,0.035150591284036636,0.03543926775455475,-0.03525540232658386,-0.03550106659531593,-0.03498324006795883,0.03495362401008606,0.03525876626372337,0.03540319204330444,0.0287648793309927,0.02622077986598015,0.028757257387042046,-0.035469427704811096,-0.029781712219119072,-0.03526056930422783,0.03547697514295578,0.034813448786735535,0.06784886121749878,-0.08255349844694138,0.08175736665725708,-0.05986742675304413,-0.08236309885978699,-0.08246567100286484,0.0821952223777771,0.0805564820766449,0.08280049264431,-0.08091503381729126,-0.08273856341838837,-0.08301161229610443,-0.06272003799676895,-0.05678447335958481,-0.06170138344168663,0.08209794014692307,0.06637447327375412,0.08270978182554245,-0.08201661705970764,-0.08240857720375061,0.06761276721954346,-0.08327946066856384,0.08052943646907806,-0.05967816337943077,-0.082586370408535,-0.08409927040338516,0.08053193241357803,0.08054271340370178,0.0805489644408226,-0.08052001148462296,-0.08316115289926529,-0.08400942385196686,-0.06317424029111862,-0.05736741051077843,-0.061694540083408356,0.08053075522184372,0.0660022422671318,0.08404573798179626,-0.0805235356092453,-0.08331935107707977,0.06775014102458954,-0.08094456791877747,0.08231991529464722,-0.06030113250017166,-0.0820329338312149,-0.08086714893579483,0.08220116049051285,0.08055511862039566,0.08199479430913925,-0.08128578960895538,-0.0813068374991417,-0.08073098212480545,-0.0629441887140274,-0.05668292194604874,-0.06213109940290451,0.08186810463666916,0.06634986400604248,0.08205106854438782,-0.08197827637195587,-0.08099134266376495,0.0675012543797493,-0.08318538963794708,0.08077272772789001,-0.05970403552055359,-0.08176001906394958,-0.08285655826330185,0.08055078983306885,0.08076280355453491,0.08172788470983505,-0.0805523693561554,-0.08289799839258194,-0.08259053528308868,-0.06261789053678513,-0.05745301395654678,-0.06208081915974617,0.08064762502908707,0.06552352011203766,0.08231498301029205,-0.08067027479410172,-0.08182618021965027,0.06783503293991089,-0.08136427402496338,0.08227398991584778,-0.06039542704820633,-0.08246956765651703,-0.08123067766427994,0.08218208700418472,0.08055557310581207,0.08233605325222015,-0.08167585730552673,-0.08174894005060196,-0.081705741584301,-0.06285028159618378,-0.05706716701388359,-0.061707064509391785,0.08208315074443817,0.06595936417579651,0.08163495361804962,-0.08160853385925293,-0.08246693015098572,0.06757411360740662,-0.08055491000413895,0.08251884579658508,-0.05975886434316635,-0.08092096447944641,-0.08055626600980759,0.0835588276386261,0.08054202795028687,0.08119301497936249,-0.08227602392435074,-0.08056540042161942,-0.0805417075753212,-0.06306872516870499,-0.057333093136548996,-0.061530597507953644,0.08358194679021835,0.0660172775387764,0.08096665143966675,-0.08341563493013382,-0.08054909110069275,0.06777340173721313,-0.08337241411209106,0.08048970997333527,-0.05915848910808563,-0.08233781158924103,-0.0842013731598854,0.08049888908863068,0.08258974552154541,0.08051793277263641,-0.08044371753931046,-0.08369047939777374,-0.08400475233793259,-0.06349470466375351,-0.057098157703876495,-0.06183605268597603,0.08049710094928741,0.06592757254838943,0.08331093192100525,-0.08045721054077148,-0.08427663147449493,0.0675642341375351,-0.08055472373962402,0.08111611008644104,-0.05973431095480919,-0.08139975368976593,-0.0805811658501625,0.08209197223186493,0.08054539561271667,0.08160406351089478,-0.08088280260562897,-0.08072181046009064,-0.08054716140031815,-0.06252942234277725,-0.05672648549079895,-0.06211595982313156,0.08157029747962952,0.06609800457954407,0.08141803741455078,-0.08187860250473022,-0.0805516317486763,0.0638943761587143,-0.07401936501264572,0.07333152741193771,-0.05832090973854065,-0.07344943284988403,-0.07361766695976257,0.07338186353445053,0.07338323444128036,0.07350905239582062,-0.07326273620128632,-0.07414517551660538,-0.07359617203474045,-0.061356931924819946,-0.05642407760024071,-0.06074250862002373,0.07317198067903519,0.062057014554739,0.07355598360300064,-0.07321491092443466,-0.07378894090652466,-0.0312674455344677,0.03606291487812996,-0.035985980182886124,0.028263647109270096,0.036024633795022964,0.036040499806404114,-0.03600195795297623,-0.03600052744150162,-0.03600591793656349,0.03596489876508713,0.036091193556785583,0.03602590784430504,0.02928731217980385,0.02695542946457863,0.02894139289855957,-0.03597872331738472,-0.03013065829873085,-0.036071695387363434,0.03597930818796158,0.03603403642773628,-0.0321790985763073,0.03646344691514969,-0.036057934165000916,0.02836155891418457,0.035851798951625824,0.03666752576828003,-0.03578588366508484,-0.03584633395075798,-0.035867806524038315,0.03583437204360962,0.03590267896652222,0.03580760210752487,0.02867859974503517,0.027221057564020157,0.028780119493603706,-0.036233674734830856,-0.030879562720656395,-0.036334868520498276,0.035912610590457916,0.036125510931015015,0.06745337694883347,-0.08055812865495682,0.08345163613557816,-0.06026076152920723,-0.08229336142539978,-0.08055344969034195,0.08309029042720795,0.08054206520318985,0.08210531622171402,-0.08309604972600937,-0.08056607097387314,-0.080579474568367,-0.06301337480545044,-0.05746466666460037,-0.06146709993481636,0.08229758590459824,0.0653209537267685,0.08196429908275604,-0.08337132632732391,-0.08069305866956711,-0.014985552057623863,0.016967156901955605,-0.01744343526661396,0.014398250728845596,0.017289195209741592,0.01696012355387211,-0.016757197678089142,-0.017286749556660652,-0.01719425991177559,0.016759494319558144,0.01728050410747528,0.017060259357094765,0.014907358214259148,0.013594533316791058,0.013850275427103043,-0.0168471522629261,-0.01480687316507101,-0.017300628125667572,0.017464876174926758,0.01730474643409252,0.06754688918590546,-0.08283063769340515,0.08211760967969894,-0.06001733988523483,-0.08209431916475296,-0.08289794623851776,0.08220755308866501,0.08055253326892853,0.08259610086679459,-0.08054500818252563,-0.08314208686351776,-0.08266539871692657,-0.06283129751682281,-0.057311516255140305,-0.061877235770225525,0.08225136250257492,0.06586796045303345,0.08256872743368149,-0.08141731470823288,-0.08308661729097366,0.0673016905784607,-0.08308561146259308,0.0805126279592514,-0.05944162607192993,-0.0817418321967125,-0.0826263502240181,0.08051729202270508,0.0805198922753334,0.08059974759817123,-0.0804811641573906,-0.08268832415342331,-0.08196903765201569,-0.06287086755037308,-0.057073261588811874,-0.06195596605539322,0.08051350712776184,0.06563442945480347,0.08076077699661255,-0.08050871640443802,-0.0821852758526802,0.06740768253803253,-0.08424299955368042,0.08053348958492279,-0.059888750314712524,-0.08227667212486267,-0.0843539908528328,0.08053373545408249,0.0805397555232048,0.08056580275297165,-0.08051867038011551,-0.08437766134738922,-0.08389319479465485,-0.0627669021487236,-0.05718611553311348,-0.06174616143107414,0.08053435385227203,0.06560535728931427,0.08309803158044815,-0.08052199333906174,-0.08371084183454514]},"forgetBias":{"rows":20,"columns":1,"weights":[0,0,0,0,0,0,0,0,0,0,0,0,0,0,0,0,0,0,0,0]},"outputMatrix":{"rows":20,"columns":27,"weights":[-0.08881038427352905,0.13938891887664795,-0.07194637507200241,0.07607758045196533,-0.08919709175825119,0.09770200401544571,0.15653996169567108,-0.08446887880563736,-0.089470274746418,0.1471819430589676,-0.05833575129508972,-0.08737204968929291,0.1189240962266922,-0.09784163534641266,-0.09480930864810944,-0.1744254231452942,-0.11266636848449707,-0.05863569304347038,0.06785733997821808,0.08220938593149185,0.0165262334048748,-0.10614614933729172,0.07018889486789703,-0.10688532143831253,0.07290897518396378,0.08793363720178604,0.1296585202217102,-0.194548562169075,0.17415691912174225,-0.14835141599178314,0.07751616090536118,-0.1905360072851181,0.1128445714712143,0.18831169605255127,-0.09729699045419693,-0.16282221674919128,0.24027663469314575,-0.04558485746383667,-0.10457342118024826,0.13278305530548096,-0.10867594927549362,-0.10388875752687454,-0.22996623814105988,-0.16706882417201996,-0.04937728866934776,0.13785333931446075,0.17343348264694214,0.05350005254149437,-0.12116377055644989,0.053032223135232925,-0.16591686010360718,0.08202328532934189,0.15261876583099365,0.23503315448760986,-0.19416457414627075,0.174485445022583,-0.14825108647346497,0.07692167162895203,-0.18989628553390503,0.11263080686330795,0.1878894865512848,-0.09711386263370514,-0.1610831469297409,0.2390579879283905,-0.04393482580780983,-0.10303348302841187,0.13331972062587738,-0.10780902951955795,-0.10267549008131027,-0.22898055613040924,-0.16620779037475586,-0.04865457862615585,0.1375661939382553,0.17354655265808105,0.052659325301647186,-0.12027367204427719,0.052009064704179764,-0.16581566631793976,0.08110226690769196,0.15237031877040863,0.23391418159008026,-0.15581901371479034,0.11231987923383713,-0.1145331934094429,0.04189491644501686,-0.15143267810344696,0.06859365105628967,0.11833307147026062,-0.05885595083236694,-0.12096330523490906,0.1758175939321518,-0.013761703856289387,-0.06466539204120636,0.07935251295566559,-0.06492581963539124,-0.06079946085810661,-0.15301084518432617,-0.1152234897017479,-0.020407268777489662,0.10471799224615097,0.137101411819458,0.0438634529709816,-0.07270979881286621,0.017266176640987396,-0.11812121421098709,0.04843860864639282,0.11236070841550827,0.17885960638523102,-0.19458918273448944,0.17412850260734558,-0.14855779707431793,0.07717441022396088,-0.19047465920448303,0.11291877925395966,0.18791311979293823,-0.09697657078504562,-0.16284820437431335,0.2399268001317978,-0.04513886943459511,-0.1041090339422226,0.13290241360664368,-0.10877855122089386,-0.10355529189109802,-0.22905749082565308,-0.16676995158195496,-0.04913885518908501,0.13808433711528778,0.1743086576461792,0.053346723318099976,-0.12158322334289551,0.05251666530966759,-0.1664104014635086,0.08164718002080917,0.15280073881149292,0.2351788729429245,-0.1965218037366867,0.17298877239227295,-0.14958272874355316,0.07765804976224899,-0.19247333705425262,0.11249643564224243,0.18685033917427063,-0.09669259935617447,-0.1628020852804184,0.23983967304229736,-0.04498421400785446,-0.1044621393084526,0.13301214575767517,-0.10921645909547806,-0.10325109958648682,-0.2286369651556015,-0.16602130234241486,-0.04895205795764923,0.13949333131313324,0.17611809074878693,0.05361652001738548,-0.12177908420562744,0.05267171561717987,-0.16606242954730988,0.0822143480181694,0.1522194892168045,0.23573029041290283,-0.19406314194202423,0.17432571947574615,-0.14836271107196808,0.0770023986697197,-0.19043394923210144,0.11245463043451309,0.18794316053390503,-0.09679161012172699,-0.1610255390405655,0.23939105868339539,-0.04342684894800186,-0.10360816866159439,0.1338384598493576,-0.10836613178253174,-0.1025366336107254,-0.2288092076778412,-0.166383296251297,-0.048842694610357285,0.13771772384643555,0.1736031472682953,0.05256745591759682,-0.12025135010480881,0.052063338458538055,-0.1649860292673111,0.08148586004972458,0.15162627398967743,0.2342631220817566,-0.1923009604215622,0.1752154678106308,-0.14555050432682037,0.07895969599485397,-0.1882099211215973,0.1137249767780304,0.1875763088464737,-0.0991503968834877,-0.1589459925889969,0.23885443806648254,-0.04317627102136612,-0.10553070157766342,0.13454104959964752,-0.11007948964834213,-0.10429326444864273,-0.2291363924741745,-0.16431231796741486,-0.0507945790886879,0.13452045619487762,0.17068400979042053,0.04976688697934151,-0.12204474955797195,0.052683133631944656,-0.1641724705696106,0.08311916887760162,0.15055595338344574,0.23344862461090088,-0.19434064626693726,0.17417868971824646,-0.14749982953071594,0.07736768573522568,-0.19105038046836853,0.11371581256389618,0.18813130259513855,-0.09669563174247742,-0.16176965832710266,0.23985032737255096,-0.04347418621182442,-0.1032111868262291,0.1340051144361496,-0.10851568728685379,-0.10313902795314789,-0.2292768359184265,-0.16574709117412567,-0.0480479933321476,0.13682574033737183,0.17483176290988922,0.05126338079571724,-0.12139608711004257,0.05178629606962204,-0.16510462760925293,0.08180317282676697,0.15223541855812073,0.2354336827993393,-0.19099240005016327,0.17437414824962616,-0.14565618336200714,0.07775085419416428,-0.1891993135213852,0.11397513747215271,0.18704627454280853,-0.09875817596912384,-0.15910981595516205,0.23769022524356842,-0.04367991164326668,-0.10374823957681656,0.13397128880023956,-0.10992768406867981,-0.10297638922929764,-0.22819210588932037,-0.16462181508541107,-0.04882913455367088,0.1343705952167511,0.17091162502765656,0.05015590414404869,-0.12085352092981339,0.051143720746040344,-0.16460534930229187,0.08159877359867096,0.15122416615486145,0.23342545330524445,-0.19581998884677887,0.17530865967273712,-0.14903761446475983,0.07780715078115463,-0.19121551513671875,0.1137470155954361,0.1890811175107956,-0.0976821705698967,-0.16184867918491364,0.24045109748840332,-0.04479096084833145,-0.10392262041568756,0.133965402841568,-0.10941646993160248,-0.10328731685876846,-0.230067178606987,-0.16674378514289856,-0.048865556716918945,0.13771377503871918,0.17428991198539734,0.05237043276429176,-0.12168857455253601,0.05261717364192009,-0.1660013645887375,0.08185438811779022,0.15159109234809875,0.23471207916736603,-0.1939110904932022,0.17361806333065033,-0.1488584280014038,0.07753349095582962,-0.18955357372760773,0.11200133711099625,0.18746072053909302,-0.09698931872844696,-0.16208507120609283,0.23947148025035858,-0.04474099352955818,-0.10420279949903488,0.13287785649299622,-0.10884027183055878,-0.10325012356042862,-0.22878076136112213,-0.1666416972875595,-0.04968499019742012,0.13755810260772705,0.17234520614147186,0.05374542251229286,-0.12074656784534454,0.05336042493581772,-0.1657312959432602,0.08245007693767548,0.1527489721775055,0.23362787067890167,-0.18666225671768188,0.155544713139534,-0.13840161263942719,0.06468253582715988,-0.18346083164215088,0.0999484732747078,0.1670188456773758,-0.08428201079368591,-0.1505403071641922,0.2228662669658661,-0.03225189447402954,-0.09194272756576538,0.11665168404579163,-0.09491929411888123,-0.08966407179832458,-0.2074263095855713,-0.15031568706035614,-0.03752449154853821,0.1274060159921646,0.16549880802631378,0.04885438084602356,-0.10655286908149719,0.03804563358426094,-0.1509598195552826,0.07109148800373077,0.14099323749542236,0.22173835337162018,-0.1580028533935547,0.10652780532836914,-0.1160491555929184,0.03726721927523613,-0.15372063219547272,0.06376738846302032,0.11071030795574188,-0.05481061339378357,-0.11966308206319809,0.1738211065530777,-0.009759434498846531,-0.06014121696352959,0.07322990894317627,-0.05965040624141693,-0.05533647909760475,-0.14566504955291748,-0.11205273121595383,-0.016768282279372215,0.10535407066345215,0.13862024247646332,0.04594290629029274,-0.06781002879142761,0.012303872033953667,-0.11593940109014511,0.04433124512434006,0.11145369708538055,0.17835672199726105,-0.1586638242006302,0.11632609367370605,-0.11818989366292953,0.0443972572684288,-0.15534599125385284,0.07137550413608551,0.12282054871320724,-0.06137656047940254,-0.12327925115823746,0.18011221289634705,-0.01664639078080654,-0.06680465489625931,0.08275487273931503,-0.06720992922782898,-0.06311363726854324,-0.15794146060943604,-0.11877734959125519,-0.02193443849682808,0.10818193852901459,0.14039690792560577,0.045210983604192734,-0.07617457956075668,0.020294997841119766,-0.12160054594278336,0.050586994737386703,0.11526012420654297,0.18260975182056427,-0.19473108649253845,0.1734922230243683,-0.14812856912612915,0.07729528099298477,-0.19011415541172028,0.11248059570789337,0.18692363798618317,-0.09701729565858841,-0.16225627064704895,0.23935790359973907,-0.044823817908763885,-0.10364692658185959,0.13266098499298096,-0.10813121497631073,-0.10350245237350464,-0.22773773968219757,-0.16575269401073456,-0.04873118922114372,0.137709841132164,0.1735967993736267,0.05353199690580368,-0.12087592482566833,0.05220538005232811,-0.16525840759277344,0.08239202201366425,0.15295080840587616,0.23485590517520905,-0.11356811225414276,0.1316043883562088,-0.08775939047336578,0.06508047878742218,-0.11232469230890274,0.0894588977098465,0.14457443356513977,-0.07692207396030426,-0.10107795894145966,0.15950120985507965,-0.04433653876185417,-0.08117224276065826,0.10660605877637863,-0.08817926794290543,-0.08394909650087357,-0.1693727672100067,-0.11549617350101471,-0.04644287750124931,0.08240699768066406,0.1027083471417427,0.026782557368278503,-0.09593768417835236,0.05375726893544197,-0.11176124960184097,0.06560680270195007,0.09742072969675064,0.14821840822696686,-0.1950836032629013,0.17377839982509613,-0.14918513596057892,0.07744347304105759,-0.1912318617105484,0.11350545287132263,0.18698039650917053,-0.09769534319639206,-0.16302193701267242,0.2397327870130539,-0.045682381838560104,-0.1048092395067215,0.1328447014093399,-0.1094246432185173,-0.10386300832033157,-0.22817175090312958,-0.166020467877388,-0.049421586096286774,0.13792024552822113,0.1742520034313202,0.053377456963062286,-0.12211686372756958,0.053124889731407166,-0.16616077721118927,0.08301317691802979,0.1530597060918808,0.23509840667247772,-0.19267019629478455,0.1746833473443985,-0.1483566015958786,0.0770869106054306,-0.18943528831005096,0.11133110523223877,0.18773022294044495,-0.09735356271266937,-0.1617458611726761,0.23861967027187347,-0.04362974315881729,-0.10256155580282211,0.13262121379375458,-0.10804949700832367,-0.10236676037311554,-0.22844372689723969,-0.16620692610740662,-0.04923484846949577,0.1374722570180893,0.17213644087314606,0.055099282413721085,-0.12029987573623657,0.05202843248844147,-0.16570526361465454,0.08117816597223282,0.1532021015882492,0.23287220299243927,-0.19415374100208282,0.173944890499115,-0.1483425796031952,0.07746172696352005,-0.19027456641197205,0.11301451921463013,0.18723857402801514,-0.09707648307085037,-0.16249500215053558,0.24014566838741302,-0.04488404467701912,-0.10453283786773682,0.13275101780891418,-0.10871471464633942,-0.1034107431769371,-0.22923696041107178,-0.16657014191150665,-0.049339111894369125,0.13766106963157654,0.1734214872121811,0.05333941802382469,-0.12140005826950073,0.052861716598272324,-0.1664726883172989,0.08242977410554886,0.1528908610343933,0.23511622846126556]},"outputHidden":{"rows":20,"columns":20,"weights":[-0.01726122573018074,0.015978332608938217,-0.01886064186692238,0.015950532630085945,0.017794238403439522,0.015637286007404327,-0.018804145976901054,-0.018130311742424965,-0.01801564171910286,0.019108042120933533,0.015390806831419468,0.015728231519460678,0.017598018050193787,0.015158049762248993,0.01581074483692646,-0.01968892104923725,-0.016250260174274445,-0.016478316858410835,0.0192944947630167,0.016489312052726746,-0.06124216690659523,0.07637663185596466,-0.07246475666761398,0.05334381386637688,0.07524867355823517,0.0760197713971138,-0.07245779782533646,-0.07263582944869995,-0.07250712811946869,0.07214285433292389,0.07613729685544968,0.0761755034327507,0.05705661699175835,0.05256861820816994,0.05686299875378609,-0.07244329899549484,-0.059085994958877563,-0.07578661292791367,0.07241274416446686,0.07629841566085815,-0.0612836629152298,0.07656454294919968,-0.07271251082420349,0.053095605224370956,0.07527502626180649,0.0762806385755539,-0.0725860595703125,-0.0724802166223526,-0.07409325242042542,0.07205264270305634,0.07670745998620987,0.07612574100494385,0.056923314929008484,0.052043866366147995,0.0563591830432415,-0.07244634628295898,-0.058443691581487656,-0.0756295919418335,0.07242780923843384,0.07618959248065948,-0.056110795587301254,0.07324140518903732,-0.0702439397573471,0.04904261976480484,0.07336626946926117,0.07321082055568695,-0.07049592584371567,-0.07241512835025787,-0.07147011160850525,0.06949669867753983,0.0739780068397522,0.0734432116150856,0.05175107344985008,0.04669884592294693,0.05131998285651207,-0.07038019597530365,-0.05343657359480858,-0.07364695519208908,0.07017193734645844,0.07311127334833145,-0.06134079396724701,0.07646583020687103,-0.07251331210136414,0.053724974393844604,0.07531736046075821,0.07639850676059723,-0.07255852222442627,-0.07406782358884811,-0.0747511088848114,0.07241635769605637,0.07650325447320938,0.07583638280630112,0.057001661509275436,0.05211489647626877,0.05662950128316879,-0.07252316176891327,-0.058836665004491806,-0.07539644092321396,0.07248316705226898,0.0760946124792099,-0.060856305062770844,0.07501287758350372,-0.06956803798675537,0.054104920476675034,0.07465536892414093,0.07425211369991302,-0.06931834667921066,-0.07618960738182068,-0.07242966443300247,0.06976491212844849,0.07511553913354874,0.07401604950428009,0.057524994015693665,0.052697911858558655,0.05670228973031044,-0.06996209174394608,-0.05862066149711609,-0.0750403106212616,0.06954966485500336,0.07494008541107178,-0.061133973300457,0.07671418786048889,-0.0725322887301445,0.05328546464443207,0.07531923800706863,0.07627611607313156,-0.0725158080458641,-0.07253602147102356,-0.07417033612728119,0.07211599498987198,0.07640232145786285,0.07606246322393417,0.057373516261577606,0.05244610086083412,0.05656598508358002,-0.07253158837556839,-0.05873413011431694,-0.07536245882511139,0.07248447090387344,0.07659462839365005,-0.06212088093161583,0.07836119085550308,-0.07461786270141602,0.05406377837061882,0.07682865113019943,0.07839478552341461,-0.07503215223550797,-0.07515420019626617,-0.07560429722070694,0.07468144595623016,0.07750844210386276,0.0779261514544487,0.058080703020095825,0.05261516943573952,0.05666014924645424,-0.07506431639194489,-0.05993174761533737,-0.07698201388120651,0.07491450756788254,0.07816579192876816,-0.06108696013689041,0.07652291655540466,-0.07248695194721222,0.05344625189900398,0.07543406635522842,0.07685765624046326,-0.07263567298650742,-0.07439053803682327,-0.07285698503255844,0.07242166250944138,0.07657533138990402,0.07633796334266663,0.05806957185268402,0.052295833826065063,0.05608118698000908,-0.07263337820768356,-0.05942334979772568,-0.07647471129894257,0.07261373102664948,0.0764119103550911,-0.061837729066610336,0.07822197675704956,-0.0746924951672554,0.05344627797603607,0.07621718943119049,0.07806921750307083,-0.07422027736902237,-0.07497313618659973,-0.07500966638326645,0.07249543815851212,0.07807253301143646,0.07785949110984802,0.05764731019735336,0.052050430327653885,0.05596349388360977,-0.0748816654086113,-0.05883975327014923,-0.07716862112283707,0.07475502043962479,0.07839297503232956,-0.06079564988613129,0.07672250270843506,-0.0725327581167221,0.05359309911727905,0.07539505511522293,0.07672738283872604,-0.07248619943857193,-0.07406986504793167,-0.07283040881156921,0.07243035733699799,0.07691929489374161,0.07634618878364563,0.05726463347673416,0.05216594412922859,0.05666595324873924,-0.07258236408233643,-0.05861027166247368,-0.07573646306991577,0.07250405102968216,0.07635299116373062,-0.060704223811626434,0.07267434895038605,-0.07505477219820023,0.05403797701001167,0.07272785156965256,0.07273140549659729,-0.07507364451885223,-0.07245705276727676,-0.07433223724365234,0.07433424144983292,0.07257965952157974,0.0724574401974678,0.057253602892160416,0.0527520552277565,0.056712664663791656,-0.07506370544433594,-0.05913403630256653,-0.07273249328136444,0.07468846440315247,0.07265517860651016,-0.06006668135523796,0.07839673012495041,-0.0740642175078392,0.051621630787849426,0.0776667594909668,0.0788671001791954,-0.07375387847423553,-0.07752242684364319,-0.07588416337966919,0.0731128603219986,0.07848381996154785,0.07863802462816238,0.05618187412619591,0.050162266939878464,0.05369001254439354,-0.07447701692581177,-0.05807075276970863,-0.07786324620246887,0.07465904951095581,0.0786464735865593,-0.058517955243587494,0.07629495114088058,-0.07283855229616165,0.05036007985472679,0.07556463778018951,0.07606033980846405,-0.0732867419719696,-0.07417664676904678,-0.07402928918600082,0.0723271369934082,0.07625871896743774,0.076145701110363,0.05363718792796135,0.04818914830684662,0.052769143134355545,-0.07254449278116226,-0.05567113682627678,-0.07621608674526215,0.0731114074587822,0.07603392750024796,-0.05564817413687706,0.07346103340387344,-0.0706215649843216,0.04901499301195145,0.07222586125135422,0.07320281863212585,-0.07011792808771133,-0.07176689803600311,-0.07200030982494354,0.07043639570474625,0.07347702234983444,0.07302841544151306,0.05161427706480026,0.04605190083384514,0.05012019723653793,-0.06989159435033798,-0.053384650498628616,-0.07332279533147812,0.07057145237922668,0.07284870743751526,-0.060886479914188385,0.07627096027135849,-0.07242071628570557,0.054058074951171875,0.07525212317705154,0.07618027925491333,-0.07243544608354568,-0.07291531562805176,-0.07266588509082794,0.07238660752773285,0.0762040764093399,0.0754970908164978,0.05731122940778732,0.051915667951107025,0.056541163474321365,-0.07250379025936127,-0.05931822210550308,-0.07612425833940506,0.07238326221704483,0.07619716227054596,-0.031947363168001175,0.03257157281041145,-0.03601154685020447,0.03032507188618183,0.03422372788190842,0.0331718735396862,-0.035805631428956985,-0.03509373217821121,-0.03473372012376785,0.0365699902176857,0.03295960649847984,0.03296676650643349,0.03164493665099144,0.028820428997278214,0.030255628749728203,-0.03583330661058426,-0.03152812272310257,-0.03386829420924187,0.03585289418697357,0.032926443964242935,-0.06161993741989136,0.07596031576395035,-0.07244019955396652,0.05390409380197525,0.07529544830322266,0.07590598613023758,-0.07244174182415009,-0.07423233985900879,-0.0740489810705185,0.0724150538444519,0.07618686556816101,0.0758790373802185,0.05715913325548172,0.05253332853317261,0.056692760437726974,-0.0724397525191307,-0.0594022162258625,-0.0754547119140625,0.07241039723157883,0.07570163905620575,-0.061169009655714035,0.07252966612577438,-0.07539443671703339,0.053525034338235855,0.07392461597919464,0.07264866679906845,-0.07578228414058685,-0.07148628681898117,-0.07528683543205261,0.07503736764192581,0.07265789806842804,0.07248490303754807,0.05660780891776085,0.052162591367959976,0.05629698187112808,-0.07579541206359863,-0.058402109891176224,-0.07251527905464172,0.0756056010723114,0.0725129172205925,-0.060730185359716415,0.07542998343706131,-0.07245795428752899,0.05378099903464317,0.0753277912735939,0.07596223801374435,-0.07245997339487076,-0.07250984758138657,-0.0725305899977684,0.07119810581207275,0.07568801194429398,0.07568233460187912,0.0571848563849926,0.05212827026844025,0.05676437169313431,-0.07245910912752151,-0.05918167904019356,-0.07538145035505295,0.07244034111499786,0.07581327855587006]},"outputBias":{"rows":20,"columns":1,"weights":[0.11742667853832245,0.13261540234088898,0.13191841542720795,0.08064550906419754,0.13211040198802948,0.13250768184661865,0.13187719881534576,0.1330428570508957,0.13157306611537933,0.13344545662403107,0.1331128031015396,0.13204704225063324,0.11669211834669113,0.07371491938829422,0.08181057125329971,0.131506085395813,0.10543286055326462,0.1323360949754715,0.13032092154026031,0.13200338184833527]},"cellActivationMatrix":{"rows":20,"columns":27,"weights":[0.07363081723451614,-0.11014516651630402,0.059351906180381775,-0.06078658625483513,0.07407838106155396,-0.07775063067674637,-0.12295368313789368,0.06709430366754532,0.07232440263032913,-0.11469950526952744,0.048087798058986664,0.07079755514860153,-0.09449878334999084,0.07875389605760574,0.07585901021957397,0.13918006420135498,0.08700310438871384,0.04712946340441704,-0.05644799396395683,-0.06844111531972885,-0.014209185726940632,0.08485707640647888,-0.056426357477903366,0.08320111781358719,-0.0587167963385582,-0.07054329663515091,-0.10385479778051376,0.11799425631761551,0.15072068572044373,0.06842152029275894,0.13348983228206635,0.10544019937515259,0.13483364880084991,0.19170954823493958,-0.11379299312829971,0.02529420517385006,0.012824860401451588,-0.15224480628967285,-0.11195466667413712,0.17462290823459625,-0.14654654264450073,-0.1443396657705307,-0.16049867868423462,-0.0578656941652298,-0.13471288979053497,-0.05277177691459656,-0.09034658223390579,-0.06581233441829681,-0.14984016120433807,0.17926444113254547,-0.02991187572479248,0.10538581758737564,-0.014140565879642963,-0.05180737376213074,-0.11876314133405685,-0.15044082701206207,-0.06987880915403366,-0.13328059017658234,-0.10674165934324265,-0.13467735052108765,-0.19204971194267273,0.11349042505025864,-0.0263839028775692,-0.012207749299705029,0.15148979425430298,0.11144114285707474,-0.1743539273738861,0.14677558839321136,0.144029438495636,0.1607583612203598,0.057276397943496704,0.13404415547847748,0.05432066693902016,0.09069392085075378,0.06708653271198273,0.14949706196784973,-0.179064080119133,0.029885392636060715,-0.10489438474178314,0.01571463979780674,0.051748499274253845,-0.10172898322343826,0.09763725101947784,-0.07670574635267258,0.04468246176838875,-0.09972108155488968,0.06433025002479553,0.10549668222665787,-0.05575407296419144,-0.08352996408939362,0.12977933883666992,-0.02564607374370098,-0.05971134826540947,0.0758938267827034,-0.06219101697206497,-0.059434376657009125,-0.1272568553686142,-0.08910597860813141,-0.029358185827732086,0.07099133729934692,0.09130790829658508,0.025009050965309143,-0.06850989907979965,0.031222153455018997,-0.08712071925401688,0.047157131135463715,0.07750493288040161,0.12345217168331146,0.11844107508659363,0.15070229768753052,0.06953918933868408,0.1331142634153366,0.10634962469339371,0.13478605449199677,0.19179347157478333,-0.11414474993944168,0.026194248348474503,0.014856753870844841,-0.1520264893770218,-0.11198743432760239,0.17395365238189697,-0.14582447707653046,-0.14378146827220917,-0.16088509559631348,-0.05811632052063942,-0.1341766119003296,-0.053517092019319534,-0.09124045073986053,-0.06770778447389603,-0.1494079977273941,0.17914848029613495,-0.029934624210000038,0.1053033396601677,-0.014682529494166374,-0.05247591435909271,0.11976965516805649,0.1506413221359253,0.06841234117746353,0.13490739464759827,0.106962189078331,0.1340685486793518,0.19155655801296234,-0.1146436557173729,0.02565118297934532,0.014262710697948933,-0.15355782210826874,-0.11112500727176666,0.17456883192062378,-0.14645688235759735,-0.14352314174175262,-0.1605469137430191,-0.059061724692583084,-0.13519512116909027,-0.05243358016014099,-0.09161803126335144,-0.06505785137414932,-0.1489768624305725,0.18051661550998688,-0.03147675096988678,0.10477053374052048,-0.012440735474228859,-0.05413428321480751,-0.11859382688999176,-0.15039114654064178,-0.06983158737421036,-0.13338109850883484,-0.10655527561903,-0.13500438630580902,-0.19199049472808838,0.11352648586034775,-0.026598233729600906,-0.01239856518805027,0.15198230743408203,0.11213448643684387,-0.17485149204730988,0.1459873616695404,0.14456510543823242,0.1603359878063202,0.057659491896629333,0.13385465741157532,0.05446677282452583,0.09077884256839752,0.06704003363847733,0.14949367940425873,-0.17875374853610992,0.029426058754324913,-0.10467677563428879,0.014885936863720417,0.052489932626485825,-0.11866677552461624,-0.15104535222053528,-0.06903758645057678,-0.13424980640411377,-0.10682495683431625,-0.1353643238544464,-0.19197773933410645,0.11507243663072586,-0.02744486927986145,-0.010679095052182674,0.15268747508525848,0.1123310923576355,-0.17467328906059265,0.14646843075752258,0.14432096481323242,0.1603868305683136,0.056801848113536835,0.1343946009874344,0.05314859002828598,0.09092047065496445,0.0661940947175026,0.14989380538463593,-0.17927926778793335,0.02921076864004135,-0.10557416826486588,0.014815707691013813,0.052715085446834564,-0.11759699136018753,-0.15056030452251434,-0.06835010647773743,-0.13386118412017822,-0.10542046278715134,-0.13475391268730164,-0.19118814170360565,0.11430259048938751,-0.026556871831417084,-0.012315768748521805,0.1520054042339325,0.11203312873840332,-0.17458827793598175,0.14677287638187408,0.14397966861724854,0.1603037565946579,0.056597013026475906,0.13447271287441254,0.05328025668859482,0.0894603580236435,0.0664067342877388,0.14963723719120026,-0.17885832488536835,0.029048774391412735,-0.10517879575490952,0.014755657874047756,0.05246572196483612,0.11885638535022736,0.15025003254413605,0.06910089403390884,0.13337872922420502,0.1061561331152916,0.1348116546869278,0.1913740485906601,-0.11369801312685013,0.026961104944348335,0.011229308322072029,-0.1520630270242691,-0.11147752404212952,0.17439083755016327,-0.14641925692558289,-0.14400127530097961,-0.16062593460083008,-0.05671728774905205,-0.1334683895111084,-0.053993187844753265,-0.09042803198099136,-0.06663556396961212,-0.149544820189476,0.178708016872406,-0.02935740537941456,0.10475198179483414,-0.015780996531248093,-0.051979225128889084,0.12003501504659653,0.1521511971950531,0.06918513774871826,0.13447828590869904,0.10693955421447754,0.13510483503341675,0.19257484376430511,-0.11461128294467926,0.02575288712978363,0.014305396005511284,-0.1522313356399536,-0.11147262901067734,0.17527766525745392,-0.14712384343147278,-0.1440930813550949,-0.15932171046733856,-0.05919200927019119,-0.1352328211069107,-0.053330134600400925,-0.091913141310215,-0.06620828807353973,-0.1498211920261383,0.18043017387390137,-0.031504638493061066,0.10456980019807816,-0.014394905418157578,-0.05296443775296211,0.11868094652891159,0.1510975956916809,0.06971719861030579,0.13260242342948914,0.1063195988535881,0.13442778587341309,0.1921466439962387,-0.1136041209101677,0.025881163775920868,0.014527471736073494,-0.15137191116809845,-0.11177004128694534,0.17459890246391296,-0.1455824077129364,-0.14375844597816467,-0.1611718237400055,-0.0576099194586277,-0.1334025114774704,-0.05431647226214409,-0.09136927127838135,-0.06731724739074707,-0.14888280630111694,0.17865215241909027,-0.02966291271150112,0.10449307411909103,-0.014794883318245411,-0.05204771086573601,0.11523609608411789,0.14221180975437164,0.06772167235612869,0.12691880762577057,0.10347484797239304,0.12744615972042084,0.18108272552490234,-0.1080760508775711,0.02789534069597721,0.00926902238279581,-0.1450868397951126,-0.10603420436382294,0.1649595946073532,-0.13869796693325043,-0.13663306832313538,-0.1506873369216919,-0.05343305319547653,-0.12810301780700684,-0.05297873169183731,-0.08804640918970108,-0.06338971108198166,-0.1415988802909851,0.17059668898582458,-0.026805538684129715,0.09921249002218246,-0.014866366051137447,-0.05365215614438057,-0.10425373166799545,0.09385185688734055,-0.079062320291996,0.04183333367109299,-0.10243035107851028,0.060744449496269226,0.10212283581495285,-0.051677584648132324,-0.08848588913679123,0.13144512474536896,-0.023588545620441437,-0.056192368268966675,0.07232025265693665,-0.058824293315410614,-0.05518416315317154,-0.12357206642627716,-0.09116120636463165,-0.02623290941119194,0.07410609722137451,0.09265246242284775,0.027735931798815727,-0.06482843309640884,0.028170961886644363,-0.08966434746980667,0.04365602508187294,0.08195289224386215,0.1269730180501938,-0.10397292673587799,0.09808161854743958,-0.07924290001392365,0.04458347707986832,-0.10185704380273819,0.06417743861675262,0.10707507282495499,-0.055233169347047806,-0.08923112601041794,0.1327114850282669,-0.026425914838910103,-0.05844461917877197,0.07696208357810974,-0.06190042197704315,-0.05850987136363983,-0.1282343715429306,-0.09379952400922775,-0.028871094807982445,0.07435430586338043,0.0921831727027893,0.02661021240055561,-0.0688551664352417,0.03125536069273949,-0.09217613935470581,0.04669860005378723,0.0826953798532486,0.1281709522008896,-0.11820125579833984,-0.15016023814678192,-0.06962121278047562,-0.13335195183753967,-0.10637451708316803,-0.13455018401145935,-0.19105201959609985,0.11370856314897537,-0.02639126218855381,-0.0145417470484972,0.15231294929981232,0.1113312616944313,-0.17422150075435638,0.14568540453910828,0.14399059116840363,0.15998367965221405,0.0570780448615551,0.13404273986816406,0.05362151563167572,0.09111316502094269,0.06753751635551453,0.1496274322271347,-0.17841161787509918,0.029415138065814972,-0.1050681546330452,0.014751875773072243,0.05205540359020233,0.08539343625307083,-0.1063607931137085,0.06760464608669281,-0.054277822375297546,0.08494388312101364,-0.07331317663192749,-0.11665163934230804,0.06286397576332092,0.0776023119688034,-0.12040258198976517,0.04052902013063431,0.06710179895162582,-0.08733836561441422,0.0725664496421814,0.07007808983325958,0.13497944176197052,0.0879191905260086,0.040808338671922684,-0.06339110434055328,-0.07908955216407776,-0.019078608602285385,0.07954046875238419,-0.046881865710020065,0.08600860834121704,-0.054159726947546005,-0.07503500580787659,-0.11314951628446579,-0.11853095144033432,-0.15019333362579346,-0.0690290778875351,-0.1336003690958023,-0.10637853294610977,-0.13467948138713837,-0.19149526953697205,0.11395217478275299,-0.02655107155442238,-0.016124745830893517,0.15217839181423187,0.11215487867593765,-0.17413075268268585,0.1458677351474762,0.1440194845199585,0.16015782952308655,0.059714000672101974,0.1342097371816635,0.05360748991370201,0.09161499887704849,0.06751535832881927,0.14918527007102966,-0.17889393866062164,0.0297385361045599,-0.10531987994909286,0.01511234138160944,0.052624523639678955,0.11814610660076141,0.15072928369045258,0.06863673031330109,0.13286395370960236,0.10580283403396606,0.1342974305152893,0.19128450751304626,-0.11342068016529083,0.02679377980530262,0.011415145359933376,-0.15213510394096375,-0.11163490265607834,0.1736610382795334,-0.145941361784935,-0.14447490870952606,-0.1605042964220047,-0.05716069042682648,-0.1338980793952942,-0.05369782820343971,-0.08999106287956238,-0.06664920598268509,-0.14935356378555298,0.17839764058589935,-0.02920292504131794,0.10447066277265549,-0.014837246388196945,-0.05222918838262558,0.11750004440546036,0.15039019286632538,0.06868220120668411,0.13316746056079865,0.10556568950414658,0.13461095094680786,0.19168005883693695,-0.1137605756521225,0.02565031126141548,0.013372709974646568,-0.15263885259628296,-0.1120227500796318,0.17426888644695282,-0.14603538811206818,-0.14414258301258087,-0.16073545813560486,-0.057590827345848083,-0.13417460024356842,-0.053109340369701385,-0.09069746732711792,-0.0659579336643219,-0.1498754620552063,0.17884278297424316,-0.029940960928797722,0.10500870645046234,-0.01417151652276516,-0.052036136388778687]},"cellActivationHidden":{"rows":20,"columns":20,"weights":[0.017393486574292183,-0.01680910773575306,0.01377527229487896,-0.016647351905703545,-0.01632627472281456,-0.016078883782029152,0.014024879783391953,0.018938425928354263,0.01724565215408802,-0.016555823385715485,-0.015998870134353638,-0.01634513959288597,-0.01730532757937908,-0.011938848532736301,-0.013382099568843842,0.014486725442111492,0.017331497743725777,0.016856679692864418,-0.014825353398919106,-0.01647762581706047,0.09834221005439758,-0.1232159212231636,0.11868380010128021,-0.08632172644138336,-0.12082788348197937,-0.12329567223787308,0.11845821887254715,0.11737005412578583,0.1184569001197815,-0.11707781255245209,-0.12340264022350311,-0.12295756489038467,-0.09190179407596588,-0.0851222351193428,-0.09177420288324356,0.1184118464589119,0.09466386586427689,0.12142456322908401,-0.11834900826215744,-0.12301447242498398,-0.09843312948942184,0.12023847550153732,-0.11951320618391037,0.08537538349628448,0.11918448656797409,0.12018834054470062,-0.11889335513114929,-0.11748089641332626,-0.11846376955509186,0.11799908429384232,0.12223996967077255,0.11925051361322403,0.09308195859193802,0.08470449596643448,0.0916740745306015,-0.11851011216640472,-0.09500615298748016,-0.11924587935209274,0.11872589588165283,0.11942946910858154,-0.03093387745320797,0.0433744341135025,-0.039841070771217346,0.026658007875084877,0.04211987555027008,0.04308072477579117,-0.03948759660124779,-0.04117466136813164,-0.0403611958026886,0.03940252214670181,0.043650925159454346,0.042980581521987915,0.029143348336219788,0.025745883584022522,0.027608102187514305,-0.0395456999540329,-0.030205583199858665,-0.042920928448438644,0.039779871702194214,0.04319016635417938,0.09859760850667953,-0.12132826447486877,0.11913046985864639,-0.08575751632452011,-0.1196293979883194,-0.12111497670412064,0.1204209178686142,0.11744511872529984,0.1191786378622055,-0.11808446794748306,-0.1230991780757904,-0.12176361680030823,-0.09292914718389511,-0.08416155725717545,-0.09159564971923828,0.11911732703447342,0.09556332975625992,0.12013567239046097,-0.11900018900632858,-0.12186333537101746,0.09896416962146759,-0.12283188849687576,0.11729752272367477,-0.08705392479896545,-0.11891669780015945,-0.12282415479421616,0.11728964745998383,0.118403859436512,0.11816823482513428,-0.11706628650426865,-0.1229025200009346,-0.12147817015647888,-0.0930473580956459,-0.0839163139462471,-0.09115835279226303,0.11725444346666336,0.09580851346254349,0.119332455098629,-0.11709731817245483,-0.12167956680059433,-0.09828363358974457,0.12024939060211182,-0.11883070319890976,0.08606790006160736,0.12039013206958771,0.12102434039115906,-0.11883703619241714,-0.11656364053487778,-0.1183372363448143,0.11740349233150482,0.12222953885793686,0.1196754202246666,0.09322622418403625,0.08447899669408798,0.09166982024908066,-0.11883942782878876,-0.09496939182281494,-0.1190158873796463,0.11875297874212265,0.1199987456202507,-0.09702172875404358,0.12257813662290573,-0.11796412616968155,0.0852823480963707,0.11990156769752502,0.122450090944767,-0.118022121489048,-0.11721377074718475,-0.11747725307941437,0.1147366389632225,0.12275684624910355,0.12238713353872299,0.09110762923955917,0.08501926064491272,0.09190166741609573,-0.11796660721302032,-0.09243515133857727,-0.12249159812927246,0.11721453815698624,0.12232623249292374,-0.09793652594089508,0.12264928221702576,-0.12005586177110672,0.08549747616052628,0.1208978146314621,0.12180165946483612,-0.12093109637498856,-0.11713661998510361,-0.11869437247514725,0.11700607091188431,0.12286194413900375,0.12237194925546646,0.09224509447813034,0.08491864800453186,0.09137584269046783,-0.11894329637289047,-0.09459038078784943,-0.12149748206138611,0.11834663152694702,0.12182405591011047,0.09806083142757416,-0.12204904109239578,0.12007424235343933,-0.08523475378751755,-0.11918185651302338,-0.12126684188842773,0.11884888261556625,0.114720918238163,0.11822231858968735,-0.11711381375789642,-0.12249263375997543,-0.12033533304929733,-0.09165302664041519,-0.08494342863559723,-0.09176130592823029,0.1184692233800888,0.09360303729772568,0.11969127506017685,-0.11871515959501266,-0.12080759555101395,0.09793265908956528,-0.12296637147665024,0.11788035184144974,-0.08623671531677246,-0.11944340169429779,-0.12294236570596695,0.11745782941579819,0.11746465414762497,0.11814775317907333,-0.11715541034936905,-0.12299929559230804,-0.12257936596870422,-0.09259134531021118,-0.08465899527072906,-0.09125136584043503,0.1179368793964386,0.094643235206604,0.1210143193602562,-0.11724653095006943,-0.12279769033193588,0.09836946427822113,-0.12062656134366989,0.11905298382043839,-0.08600006997585297,-0.12013693153858185,-0.12055563181638718,0.11899850517511368,0.11596455425024033,0.11847169697284698,-0.1183154508471489,-0.12158820033073425,-0.11934740096330643,-0.09245377779006958,-0.08496304601430893,-0.09180864691734314,0.11861280351877213,0.09558539092540741,0.11915911734104156,-0.11847805976867676,-0.1194685697555542,0.09446163475513458,-0.11705201864242554,0.11232701689004898,-0.08301866054534912,-0.11667946726083755,-0.11711251735687256,0.112250916659832,0.11182669550180435,0.11189782619476318,-0.1112353652715683,-0.11778927594423294,-0.11721672117710114,-0.08989690244197845,-0.08318707346916199,-0.08964467793703079,0.11188863962888718,0.08988665044307709,0.11714169383049011,-0.11173460632562637,-0.11689785122871399,-0.030313586816191673,0.043031442910432816,-0.04041287675499916,0.02531992457807064,0.04177817329764366,0.0433499813079834,-0.03982863575220108,-0.03806677460670471,-0.03920038044452667,0.03762313723564148,0.04407542571425438,0.043418098241090775,0.02798500470817089,0.02756955288350582,0.02973524108529091,-0.03890550881624222,-0.027880389243364334,-0.043307170271873474,0.039351046085357666,0.04336114600300789,-0.02809779718518257,0.041911810636520386,-0.038781240582466125,0.02429134026169777,0.04055238515138626,0.04167395085096359,-0.03877528756856918,-0.036416005343198776,-0.037055741995573044,0.036239854991436005,0.042824771255254745,0.041754309087991714,0.026707828044891357,0.026812490075826645,0.028836719691753387,-0.03759331628680229,-0.02603752724826336,-0.040649574249982834,0.03723593428730965,0.04151901230216026,-0.09809684753417969,0.12173731625080109,-0.1189887523651123,0.08565903455018997,0.11964990943670273,0.1218603253364563,-0.12010732293128967,-0.11696704477071762,-0.11840946227312088,0.1179005354642868,0.12258216738700867,0.11960597336292267,0.09321711212396622,0.08436764776706696,0.09121252596378326,-0.11958291381597519,-0.09490974992513657,-0.12101040035486221,0.11847028881311417,0.12030584365129471,0.025585630908608437,-0.02630312368273735,0.023826027289032936,-0.022701168432831764,-0.025573868304491043,-0.025757940486073494,0.023380013182759285,0.029178138822317123,0.02668480947613716,-0.026614133268594742,-0.02534450776875019,-0.026818305253982544,-0.023173969238996506,-0.01794164627790451,-0.01968875341117382,0.024110766127705574,0.025120660662651062,0.026929784566164017,-0.0253496915102005,-0.026008235290646553,-0.09920904785394669,0.12113223969936371,-0.11932498961687088,0.08666643500328064,0.119754359126091,0.12285564839839935,-0.11919990926980972,-0.11773131787776947,-0.11856629699468613,0.11807642877101898,0.12155164033174515,0.12194246798753738,0.09370981156826019,0.08410336822271347,0.09093369543552399,-0.11952013522386551,-0.09640706330537796,-0.11962214857339859,0.11898607015609741,0.12217175215482712,0.09797067940235138,-0.12015695124864578,0.11942974478006363,-0.08587688952684402,-0.12008369714021683,-0.11982494592666626,0.12024317681789398,0.11392740905284882,0.11833706498146057,-0.11802243441343307,-0.121785469353199,-0.11902628093957901,-0.09189864248037338,-0.08514420688152313,-0.09187889844179153,0.11866700649261475,0.09400036931037903,0.11885716021060944,-0.11871495842933655,-0.12086720019578934,0.0983295887708664,-0.12302207201719284,0.1183931902050972,-0.08670350909233093,-0.1195070818066597,-0.12299273908138275,0.11883655190467834,0.11734941601753235,0.11887165158987045,-0.11708071827888489,-0.12318084388971329,-0.12273846566677094,-0.09184762835502625,-0.08483715355396271,-0.09114942699670792,0.11846526712179184,0.09474723786115646,0.12037206441164017,-0.11821317672729492,-0.12280241400003433]},"cellActivationBias":{"rows":20,"columns":1,"weights":[-0.09340586513280869,0.17079919576644897,-0.17206518352031708,0.07980485260486603,0.17253071069717407,0.16961950063705444,-0.17221836745738983,-0.171682670712471,-0.17222769558429718,0.1725807636976242,0.16991931200027466,0.1719053089618683,0.16220246255397797,0.0728057250380516,0.0765656977891922,-0.17298366129398346,-0.08688901364803314,-0.17313964664936066,0.17190885543823242,0.17112208902835846]}},{"inputMatrix":{"rows":20,"columns":20,"weights":[0.08480749279260635,-0.3388515114784241,0.3325835168361664,-0.010716747492551804,-0.33783701062202454,-0.33740708231925964,0.332442045211792,0.33690401911735535,0.3352731466293335,-0.3323618173599243,-0.3380332887172699,-0.33657851815223694,-0.2776416838169098,-0.0017475532367825508,-0.012504232116043568,0.33377498388290405,0.062001705169677734,0.3381640911102295,-0.33239060640335083,-0.3380484879016876,0.09458495676517487,-0.340218186378479,0.33776408433914185,-0.021122433245182037,-0.3396868407726288,-0.3395613729953766,0.33749690651893616,0.33828291296958923,0.3394929766654968,-0.33680814504623413,-0.34150582551956177,-0.33680230379104614,-0.286506325006485,-0.011562303639948368,-0.02218751423060894,0.3376803696155548,0.07332678139209747,0.3399280309677124,-0.33514097332954407,-0.33860960602760315,0.09271293133497238,-0.33865058422088623,0.33921822905540466,-0.021568354219198227,-0.3404226303100586,-0.33738282322883606,0.33986860513687134,0.33671921491622925,0.34033364057540894,-0.33833304047584534,-0.3404412269592285,-0.3353221118450165,-0.2862476110458374,-0.013067529536783695,-0.0243312269449234,0.3404741585254669,0.07121274620294571,0.34047573804855347,-0.3364614248275757,-0.33750879764556885,0.09272783994674683,-0.3377302587032318,0.34026220440864563,-0.021115660667419434,-0.3409776985645294,-0.33716291189193726,0.3404677212238312,0.33809730410575867,0.34117889404296875,-0.33933988213539124,-0.3400030732154846,-0.3343684673309326,-0.2857680022716522,-0.013770822435617447,-0.02408534847199917,0.3407374322414398,0.0709819570183754,0.34052231907844543,-0.3367137312889099,-0.33658596873283386,0.08949794620275497,-0.3376486897468567,0.3341507315635681,-0.014641678892076015,-0.3384684920310974,-0.3361532390117645,0.3341440260410309,0.3436967134475708,0.33700767159461975,-0.33371931314468384,-0.3382776379585266,-0.33587998151779175,-0.27677208185195923,-0.006542333401739597,-0.017346568405628204,0.333681583404541,0.0673830658197403,0.33890941739082336,-0.3322553336620331,-0.3364260792732239,0.09260018914937973,-0.33967211842536926,0.33736664056777954,-0.021086519584059715,-0.3397810161113739,-0.3394947946071625,0.33824652433395386,0.33738386631011963,0.34037235379219055,-0.33683913946151733,-0.34214505553245544,-0.3366469740867615,-0.2858116328716278,-0.01377508882433176,-0.023893818259239197,0.3376690447330475,0.07075214385986328,0.3408069908618927,-0.3348287045955658,-0.3390783965587616,0.09359164535999298,-0.33817291259765625,0.3390159010887146,-0.02077801153063774,-0.3401731848716736,-0.33782196044921875,0.339565247297287,0.3383210003376007,0.3398789167404175,-0.33819809556007385,-0.34012097120285034,-0.33567315340042114,-0.28674522042274475,-0.012206519022583961,-0.022991733625531197,0.33965015411376953,0.07162554562091827,0.3405604958534241,-0.33647415041923523,-0.3370080292224884,0.08997976779937744,-0.33401501178741455,0.33675169944763184,-0.018768001347780228,-0.33723315596580505,-0.3334427773952484,0.3368436396121979,0.3341144621372223,0.3380209803581238,-0.33548468351364136,-0.33651217818260193,-0.3318510055541992,-0.2830941677093506,-0.010207914747297764,-0.020364487543702126,0.3372458815574646,0.0683971494436264,0.33767902851104736,-0.3341381251811981,-0.33281514048576355,0.09720996022224426,-0.3457874357700348,0.3400140702724457,-0.025558777153491974,-0.34152457118034363,-0.3463016152381897,0.340218186378479,0.3408570885658264,0.34122440218925476,-0.33925876021385193,-0.3472122550010681,-0.3414365351200104,-0.28914690017700195,-0.015235300175845623,-0.025982392951846123,0.33888697624206543,0.07589811086654663,0.3411794602870941,-0.33886441588401794,-0.3445509374141693,0.09290965646505356,-0.3389527201652527,0.3386017084121704,-0.021295413374900818,-0.3397473990917206,-0.3381366431713104,0.3392767906188965,0.3369290828704834,0.34021082520484924,-0.33768197894096375,-0.34063711762428284,-0.33588963747024536,-0.2860586941242218,-0.012612100690603256,-0.023221725597977638,0.33926552534103394,0.07169774174690247,0.34002453088760376,-0.3357648551464081,-0.33757051825523376,0.08710600435733795,-0.33595800399780273,0.33368998765945435,-0.017380181699991226,-0.3380904793739319,-0.3350943922996521,0.33397364616394043,0.3423489034175873,0.33783239126205444,