{"type":"LSTM","options":{"inputSize":49,"inputRange":49,"hiddenLayers":[20,20],"outputSize":49,"decayRate":0.999,"smoothEps":1e-8,"regc":0.000001,"clipval":5,"maxPredictionLength":100,"dataFormatter":{"indexTable":{"h":0,"e":1,"l":2,"o":3," ":4,"t":5,"r":6,"H":7,"y":8,"!":9,"w":10,"a":11,"'":12,"s":13,"u":14,"p":15,"G":16,"d":17,".":18,"F":19,"i":20,"n":21,"g":22,"W":23,",":24,"I":25,"m":26,"N":27,"k":28,"?":29,"b":30,"B":31,"v":32,"c":33,"f":34,"j":35,"A":36,"D":37,"C":38,"V":39,"x":40,"Y":41,"X":42,"P":43,"T":44,"z":45,"stop-input":46,"start-output":47,"unrecognized":48},"characterTable":{"0":"h","1":"e","2":"l","3":"o","4":" ","5":"t","6":"r","7":"H","8":"y","9":"!","10":"w","11":"a","12":"'","13":"s","14":"u","15":"p","16":"G","17":"d","18":".","19":"F","20":"i","21":"n","22":"g","23":"W","24":",","25":"I","26":"m","27":"N","28":"k","29":"?","30":"b","31":"B","32":"v","33":"c","34":"f","35":"j","36":"A","37":"D","38":"C","39":"V","40":"x","41":"Y","42":"X","43":"P","44":"T","45":"z","46":null,"47":null,"48":null},"values":[{"input":"hello there","output":"Hey!"},{"input":"what's up","output":"Good."},{"input":"how are you","output":"Feeling great!"},{"input":"heya","output":"Hey!"},{"input":"hello","output":"Hey!"},{"input":"hru","output":"Good!"},{"input":"hey pepper","output":"Hey! Wait, I'm not pepper!"},{"input":"hewo","output":"Hey!"},{"input":"hewoo","output":"Hey!"},{"input":"heya","output":"Hey!"},{"input":"what are you doing right now","output":"Nothing."},{"input":"what are you doing","output":"I don't know."},{"input":"hello?","output":"Hey!"},{"input":"hey there","output":"Hey!"},{"input":"hello!","output":"Hey!"},{"input":"heya!","output":"Hey!"},{"input":"heyy!","output":"Hey!"},{"input":"bye gtg","output":"Bye!"},{"input":"bye gotta go","output":"Bye!"},{"input":"bye have to go","output":"Bye!"},{"input":"bye bye","output":"Bye!"},{"input":"cya","output":"Bye!"},{"input":"see you","output":"Bye!"},{"input":"see ya","output":"Bye!"},{"input":"bye bye","output":"Bye!"},{"input":"byee","output":"Bye!"},{"input":"byeee","output":"Bye!"},{"input":"see you","output":"Bye!"},{"input":"see ya","output":"Bye!"},{"input":"see u","output":"Bye!"},{"input":"why are you here","output":"I don't know!"},{"input":"who created you?","output":"It was Nevah"},{"input":"can you speak?","output":"No?"},{"input":"how many?","output":"I don't know."},{"input":"how much?","output":"How much what?"},{"input":"how often?","output":"I don't know."},{"input":"who is engjell?","output":"A friend."},{"input":"who is you?","output":"I'm an AI."},{"input":"what is life?","output":"Do you mean love?"},{"input":"what is your favourite food?","output":"Nuggies."},{"input":"what do you like to eat?","output":"Food."},{"input":"what can i do here","output":"Write."},{"input":"what is this server about?","output":"Chatting."},{"input":"how many times can i chat here?","output":"As much as you like."},{"input":"how fast are you at responding","output":"I'm fast."},{"input":"how are you","output":"I'm great!"},{"input":"good","output":"Very cool!"},{"input":"when will the next video come?","output":"I really don't know."},{"input":"how many times","output":"How many times, what?"},{"input":"how much","output":"How much what?"},{"input":"what?","output":"?"},{"input":"haha","output":"Alright."},{"input":"lol","output":"hehe"},{"input":"lmao","output":"lol"},{"input":"lel","output":"lol"},{"input":"kekw","output":"lol"},{"input":"oh god","output":"Yeah, I know."},{"input":"hahahaha","output":"Yeah, I'm really funny."},{"input":"XD","output":"lol"},{"input":"xD","output":"lol"},{"input":"very funny","output":"Indeed."},{"input":"funny","output":"yeah"},{"input":"unfunny","output":"No?"},{"input":"well","output":"Hmm"},{"input":"ban me","output":"No."},{"input":"can you ban someone","output":"No."},{"input":"pls ban me","output":"No."},{"input":"can you ban me","output":"No."},{"input":"can you chat in general?","output":"No."},{"input":"can you chat?","output":"Yes, but only in this channel."},{"input":"are you engjell?","output":"No."},{"input":"can i apply for mod","output":"No."},{"input":"am i suitable for mod","output":"I don't know."},{"input":"can i apply for moderator","output":"Probably not right now."},{"input":"can i be admin","output":"No."},{"input":"tell me something special","output":"No."},{"input":"can i be helper","output":"No."},{"input":"helper applications","output":"Probably closed."},{"input":"bot developer","output":"Yes."},{"input":"moderator","output":"No."},{"input":"admin","output":"No."},{"input":"pepper","output":"I don't know."},{"input":"pepperland","output":"This server?"},{"input":"gay","output":"No?"},{"input":"how the heck","output":"I don't know."},{"input":"omg lol","output":"Yeah."},{"input":"xD","output":"lol"},{"input":"very cool indeed","output":"Yeah, I know!"},{"input":"wow why is this working","output":"I really don't know, I think Nevah did great!"},{"input":"hell yeah","output":"Yeah."},{"input":"pls mute me","output":"No, I will not."},{"input":"askdasd","output":"Hmm"},{"input":"laskdfj","output":"Are you okay?!"},{"input":"kfjalshiou","output":"Are you okay?!"},{"input":"akjsdhlkahdcs","output":"Are you okay?!"},{"input":"asfdljkhaflie","output":"Are you okay?!"},{"input":"aslkfcdjheo","output":"Are you okay?!"},{"input":"aslkdfj","output":"Are you okay?!"},{"input":"asljhfsao","output":"Are you okay?!"},{"input":"liasfduoije","output":"Are you okay?!"},{"input":"fkuaszoilvuzher","output":"Are you okay?!"},{"input":"sfldkjosiwe","output":"Are you okay?!"},{"input":"oaiugforia","output":"Are you okay?!"},{"input":"livsaueo","output":"Are you okay?!"},{"input":"very nice","output":"Yeah, I know!"},{"input":"say something pls","output":"Hi!"},{"input":"please tell me something","output":"No."},{"input":"say something please","output":"Hi!"},{"input":"please","output":"No."},{"input":"cmon","output":"No, I'm stubborn."},{"input":"pleaseee","output":"No."},{"input":"give mee","output":"Give you what?"},{"input":"hello!","output":"Hey!"},{"input":"hello?!","output":"Hi!"},{"input":"hey there!?","output":"Hi!"},{"input":"hello, are you here?!","output":"Yes, hi!"},{"input":"are we married?","output":"I don't know."},{"input":"do you want to marry me?","output":"No."},{"input":"marry me?","output":"No."},{"input":"can you marry me?","output":"No."},{"input":"can marry me?","output":"No."},{"input":"you marry me pls!","output":"No."},{"input":"marry me!","output":"No."},{"input":"cmon please","output":"No, I'm stubborn."},{"input":"cmon","output":"No."},{"input":"pleeeasseee","output":"No."},{"input":"are you a programmer","output":"No."},{"input":"do you like to program","output":"No."},{"input":"do you think that pepper is cool","output":"Yes."},{"input":"do you think that i like pepper","output":"Yes."},{"input":"pepper is cool","output":"Yes."},{"input":"pepper is great","output":"Yes."},{"input":"pepper is bad","output":"Yes."},{"input":"pepper is not nice","output":"Yes."},{"input":"will pepper respond to my message","output":"I don't know."}],"characters":["h","e","l","o"," ","t","r","H","y","!","w","a","'","s","u","p","G","d",".","F","i","n","g","W",",","I","m","N","k","?","b","B","v","c","f","j","A","D","C","V","x","Y","X","P","T","z","stop-input","start-output","unrecognized"],"specialIndexes":[46,47,48]}},"trainOpts":{"iterations":"100000","errorThresh":0.005,"logPeriod":1,"learningRate":0.01,"callbackPeriod":10,"timeout":"Infinity"},"input":{"rows":50,"columns":49,"weights":[2.163141965866089,0.2933851480484009,-2.4661359786987305,0.6395207047462463,3.6285030841827393,-0.9364535808563232,-0.46350428462028503,1.7611110210418701,1.2632296085357666,-0.7364019155502319,1.4787447452545166,-0.571374773979187,-0.8471202850341797,1.4244366884231567,0.4374949634075165,-0.4380938410758972,0.4743509888648987,-0.4022548794746399,0.5601381659507751,0.2534538209438324,1.6031886339187622,-2.0707619190216064,-1.416892409324646,-2.0011038780212402,0.9096613526344299,0.10125575214624405,-1.660583257675171,3.0742874145507812,-1.5503162145614624,-2.162764072418213,-2.8682374954223633,0.9832826256752014,0.5072908401489258,1.5503846406936646,0.9105273485183716,0.0299337450414896,-0.4670145511627197,1.057965636253357,0.06225668266415596,-0.819898247718811,1.3407881259918213,1.839218258857727,-1.0865384340286255,0.4778660535812378,-0.24403420090675354,1.699920892715454,-3.084970235824585,3.138340711593628,1.5362694263458252,-0.10863761603832245,-0.7809862494468689,-0.8468546867370605,-1.3654425144195557,-2.6345882415771484,1.1306437253952026,-0.20667698979377747,4.769303798675537,2.5228095054626465,4.211719036102295,0.10625654458999634,-2.862086296081543,0.9833416938781738,1.683449625968933,3.3194708824157715,-1.7230801582336426,-2.676158905029297,0.2579162120819092,0.7899584174156189,-2.8124988079071045,-3.6392595767974854,5.762500762939453,0.06487950682640076,-1.7860621213912964,1.2901591062545776,-1.454559326171875,1.8743281364440918,-2.8497707843780518,4.508853435516357,4.583398818969727,2.460358142852783,1.0088908672332764,-1.404798150062561,0.49694010615348816,-2.907090425491333,-0.16676387190818787,0.41034945845603943,-8.086648941040039,-3.158031940460205,7.755357265472412,-1.4200217723846436,2.0265393257141113,-0.6536211967468262,-2.11159348487854,-0.2496849000453949,-3.1355338096618652,1.6812831163406372,-0.8631829619407654,-8.984307289123535,-1.3799407482147217,-0.046216487884521484,-0.08356020599603653,0.5455818176269531,-0.2188888043165207,-2.80204701423645,0.4763491451740265,0.3113343119621277,-1.795208215713501,5.164412975311279,1.2162871360778809,-1.3070780038833618,-2.5369372367858887,4.109405994415283,1.2984213829040527,1.6506670713424683,0.18482284247875214,-2.5529606342315674,-0.8555834889411926,-3.425600290298462,0.09724343568086624,0.10676352679729462,-0.7163608074188232,-2.1657333374023438,-0.2623138427734375,-0.49594759941101074,-3.1765973567962646,-0.2752792239189148,1.1598864793777466,0.8417407274246216,0.5341488122940063,-0.1267305165529251,-0.07660138607025146,-0.7223268747329712,1.0361353158950806,1.3824821710586548,-0.7554675936698914,-2.749657392501831,-1.406916618347168,-0.9905828833580017,-1.627275824546814,-0.5495852828025818,-1.3932247161865234,-1.8200716972351074,-0.1974235624074936,-4.903902530670166,4.863643646240234,-2.875136137008667,-2.6999919414520264,0.9402210116386414,-3.4934191703796387,0.7891282439231873,-4.661799430847168,-0.9263894557952881,2.561150550842285,5.141397476196289,4.130514621734619,0.5077515244483948,-3.7504515647888184,2.511732578277588,-2.5269527435302734,0.43833497166633606,-0.9793758392333984,-0.6284931898117065,-4.190619468688965,-1.1074151992797852,-0.26605185866355896,5.865243434906006,0.6658585667610168,-1.9279370307922363,-4.829843997955322,-2.5382814407348633,3.954192638397217,1.0435947179794312,1.070941686630249,-2.2039105892181396,-1.3762147426605225,-2.955216407775879,0.2023628205060959,-5.434319972991943,0.6540893316268921,-2.6944568157196045,-4.5897064208984375,1.5984212160110474,0.6196845769882202,1.5829432010650635,0.9837018847465515,2.1247012615203857,-0.01394662819802761,0.789842426776886,1.2705219984054565,2.7322819232940674,-2.818861722946167,-0.5862834453582764,1.7537922859191895,-5.561482906341553,4.707860946655273,-0.3663550317287445,-1.4918526411056519,-2.404977560043335,-4.536384582519531,-2.1624717712402344,2.4286065101623535,-2.0723133087158203,2.956073045730591,-0.839832067489624,-3.529043674468994,1.6326193809509277,0.0569005087018013,-2.1776716709136963,-0.7391988635063171,1.546174168586731,2.660705327987671,-0.3594510555267334,1.342668056488037,-3.3404130935668945,3.2267138957977295,-4.5597944259643555,2.231982946395874,0.4444892406463623,-3.6512913703918457,-2.5326790809631348,0.24075943231582642,-2.98410701751709,-0.07247557491064072,0.47530657052993774,-3.379544258117676,-1.0365873575210571,-0.863109827041626,-0.7437983751296997,-2.620481252670288,3.5294628143310547,-1.261606216430664,-0.6225472092628479,-2.9329800605773926,-2.8951306343078613,2.1275413036346436,2.386003255844116,-2.5126147270202637,-1.440647840499878,1.3637092113494873,-0.1429414302110672,-2.4774346351623535,-2.259690046310425,0.14467401802539825,2.9938652515411377,-0.05876946076750755,1.9805285930633545,-4.104029178619385,-2.9706544876098633,-3.081024408340454,3.652846574783325,1.2377567291259766,-2.1422317028045654,2.1978960037231445,2.884406566619873,-3.0328660011291504,-0.5730898380279541,-1.2938562631607056,3.4482223987579346,1.4019497632980347,1.2132339477539062,-4.340413570404053,0.8682186007499695,1.5788565874099731,2.640716552734375,-0.515102744102478,-0.9237711429595947,-1.4522687196731567,-2.9732260704040527,-2.56262469291687,-1.7966896295547485,-4.259028911590576,-4.3673834800720215,2.784914970397949,4.841110706329346,1.28733229637146,1.7555692195892334,2.227958917617798,7.224640846252441,-2.3136415481567383,-6.178483009338379,1.5446504354476929,0.22051940858364105,1.5384372472763062,-5.161050319671631,1.832857370376587,-0.3761868178844452,-3.46638822555542,-1.5222407579421997,2.2732784748077393,-2.177485227584839,1.2882544994354248,-0.765026330947876,-2.3825724124908447,-0.41003209352493286,3.802201271057129,4.712499141693115,-4.613542079925537,-2.1622796058654785,-8.196757316589355,-2.1634066104888916,4.926280498504639,-6.6168694496154785,-5.7040629386901855,-0.27131664752960205,0.2426123023033142,2.6328649520874023,4.024990081787109,-2.0372185707092285,-4.487837791442871,-3.86110520362854,4.274394512176514,-1.9890908002853394,-2.2264516353607178,-1.780060887336731,-0.3511136472225189,-1.0054718255996704,-7.534908771514893,2.971975326538086,1.2369130849838257,-1.4984123706817627,4.092772006988525,-1.0816526412963867,-2.355290412902832,-10.810674667358398,4.439140319824219,-6.7337422370910645,3.299931764602661,5.551207542419434,-5.842311382293701,-4.470942497253418,3.2636115550994873,-2.805671453475952,4.604513168334961,-2.691537857055664,0.7380347847938538,1.332881212234497,-6.152909755706787,-4.224061012268066,4.617278575897217,3.4649112224578857,-4.810939311981201,-1.9166239500045776,6.183605670928955,-6.955765724182129,2.7360243797302246,1.1457573175430298,-0.18490904569625854,-0.2738451361656189,-1.1405370235443115,-0.947395384311676,-0.7460302114486694,-2.6884872913360596,0.39980852603912354,-1.0557711124420166,3.9474070072174072,0.9340603351593018,-3.538208484649658,1.380358099937439,-1.9295703172683716,-1.8843950033187866,-2.684576988220215,2.310173988342285,0.9777336120605469,1.8494298458099365,1.2405208349227905,-2.3782308101654053,0.04028977453708649,-0.6119745969772339,0.00498547125607729,1.5688880681991577,0.850029468536377,-2.7326202392578125,-3.6509573459625244,1.4173369407653809,-2.2853832244873047,-5.38087797164917,1.3075881004333496,-5.395398139953613,-2.649251937866211,-1.870949625968933,-2.338266372680664,3.9267537593841553,-3.5984978675842285,-0.4079168736934662,5.799922943115234,8.338983535766602,0.955757737159729,0.6185787916183472,-4.2691473960876465,-1.4575700759887695,3.0779221057891846,5.381823539733887,-4.791752338409424,-7.374812126159668,14.998800277709961,-3.723605155944824,-9.835347175598145,-1.7656528949737549,8.49280071258545,-3.8634517192840576,2.390368700027466,8.493613243103027,-4.427399635314941,4.9042181968688965,-0.6852717399597168,-2.259226083755493,3.6856534481048584,8.799793243408203,-9.951339721679688,-10.451996803283691,-2.392932415008545,-1.6271281242370605,0.8151326775550842,-4.3462138175964355,4.23498010635376,2.1711466312408447,8.40011978149414,12.809829711914062,-3.3708016872406006,-1.3993678092956543,0.917752742767334,-3.005842447280884,-6.619314670562744,-0.5381163954734802,-6.4092912673950195,-0.38949182629585266,13.922870635986328,5.811230182647705,-1.557360053062439,1.4851086139678955,0.856890857219696,15.60936450958252,7.433273792266846,3.062688112258911,13.529136657714844,-4.185976028442383,13.43348217010498,10.848237037658691,-8.194252014160156,10.682859420776367,9.990422248840332,0.9783309698104858,3.8811943531036377,-0.8630096316337585,0.539361298084259,-2.0545427799224854,3.3012020587921143,1.910902500152588,-3.8898844718933105,1.9386314153671265,-6.780734062194824,-0.40041863918304443,6.895349979400635,3.2713088989257812,-0.7621679902076721,1.7046509981155396,-3.581965208053589,0.5746970176696777,5.061737537384033,-5.990230083465576,-2.559419631958008,-4.5462799072265625,-2.2433433532714844,0.04697035998106003,2.1729257106781006,3.4058499336242676,4.240661144256592,3.309629440307617,3.0414063930511475,1.4329733848571777,-7.7276530265808105,-6.397495269775391,-2.143160343170166,2.896418571472168,0.45870041847229004,-1.9733847379684448,1.6143590211868286,2.279609203338623,5.695512294769287,1.285333514213562,-2.516005754470825,3.3708603382110596,-1.4250431060791016,-1.7080546617507935,-0.8164663910865784,-5.8370280265808105,3.1129252910614014,-2.9799718856811523,0.6580974459648132,0.6534239649772644,3.7340641021728516,8.046770095825195,-2.523599147796631,5.298686504364014,7.2114787101745605,-8.889555931091309,-4.594034671783447,-3.2503345012664795,-7.795401573181152,-5.389906406402588,-0.12376294285058975,2.5609350204467773,-8.235258102416992,10.189986228942871,0.6386535167694092,-1.1859232187271118,2.2454404830932617,-6.257571220397949,3.698873996734619,5.361404895782471,3.325406074523926,-3.9149858951568604,4.704648494720459,2.322836399078369,11.178027153015137,1.6661436557769775,-4.965281009674072,2.9809653759002686,0.358127623796463,-2.8928585052490234,6.331504821777344,-1.0999990701675415,4.599595069885254,4.878431797027588,-6.520644187927246,1.5890341997146606,8.975234985351562,1.6579346656799316,-6.449183464050293,-7.0426859855651855,5.172945022583008,-2.4997713565826416,-7.859677314758301,-11.994351387023926,-6.429210186004639,4.343589782714844,-0.9066387414932251,5.0824713706970215,-3.4017887115478516,4.707973480224609,-4.9071526527404785,-2.944962501525879,5.954419136047363,-1.0483567714691162,1.105140209197998,-0.8257110714912415,-1.8705663681030273,2.734692096710205,-1.3416526317596436,-1.7765591144561768,-0.18090951442718506,1.3598922491073608,7.760871887207031,2.9670262336730957,5.3989410400390625,4.96642541885376,4.31059455871582,-8.509089469909668,4.075042724609375,2.5408313274383545,-1.1998021602630615,2.2154853343963623,-7.016380310058594,-1.8602309226989746,6.360505104064941,-2.8135080337524414,9.785155296325684,1.7947444915771484,-8.139761924743652,-1.3730729818344116,1.2142760753631592,4.392611503601074,-0.44132861495018005,5.344624996185303,7.5979228019714355,-1.3758951425552368,11.399247169494629,-5.552648544311523,-2.2679266929626465,8.490856170654297,4.669418811798096,-1.3471472263336182,5.270138263702393,-1.9374552965164185,1.345633864402771,-6.333549499511719,-2.116011619567871,1.8239930868148804,-0.36145615577697754,-4.844563007354736,-2.937500476837158,0.6399710178375244,2.9860987663269043,-1.38907790184021,2.5654385089874268,1.339184045791626,-1.1886812448501587,0.0274517722427845,-0.3893188238143921,-1.9148666858673096,-3.159769296646118,1.6898679733276367,2.4807820320129395,-0.476550430059433,4.080090045928955,-3.32863187789917,2.942257881164551,0.8554261326789856,-0.049474865198135376,1.2524412870407104,2.252265691757202,-5.658306121826172,0.4340749680995941,-1.5926533937454224,0.09898358583450317,2.37444806098938,-1.1941800117492676,-0.04156893864274025,1.6728060245513916,-0.6426456570625305,0.5922818779945374,-1.3881288766860962,-4.471651554107666,1.364088535308838,0.6877163648605347,0.7056093215942383,-3.8876938819885254,1.550602912902832,1.1043365001678467,0.296176940202713,2.6919844150543213,-3.202193021774292,-2.606625556945801,-2.2295138835906982,-0.6671401858329773,3.0258636474609375,-0.15973617136478424,-9.22292423248291,-9.761120796203613,-5.407627105712891,-2.9084534645080566,-3.9632294178009033,-2.0985753536224365,12.57757568359375,1.8351746797561646,-1.1206626892089844,3.023723602294922,-1.7672638893127441,-4.687429428100586,-6.67368221282959,-2.853827953338623,6.518646717071533,-0.8065218925476074,-2.3240017890930176,-6.405999183654785,2.5915350914001465,-1.5487335920333862,-5.736079216003418,4.906593322753906,15.03845500946045,-4.148543357849121,-0.07348917424678802,-2.4242136478424072,8.929715156555176,-3.1183111667633057,9.200167655944824,7.681498050689697,-2.6490070819854736,-4.043713092803955,0.790925920009613,-3.1745188236236572,-3.375688314437866,3.1279451847076416,-2.7532896995544434,6.8088531494140625,-6.999242305755615,10.832576751708984,2.059788465499878,-7.795994758605957,7.535598278045654,-3.1329147815704346,-12.007464408874512,-3.0170183181762695,2.384103775024414,-3.447755813598633,-5.848844528198242,-0.9364355206489563,-4.674624919891357,-1.0204391479492188,2.705732822418213,1.063143253326416,-1.8452324867248535,0.7785190343856812,0.9510465264320374,-0.5845293402671814,0.42123374342918396,-2.9701812267303467,-2.8228025436401367,4.9192304611206055,0.060002651065588,-0.896854043006897,2.132779359817505,-0.8164187669754028,-1.6570302248001099,-3.693979263305664,-7.471749782562256,0.793251097202301,6.28474235534668,-7.90975284576416,4.28708028793335,0.11051422357559204,5.358015537261963,-9.533063888549805,-2.9206960201263428,6.636772155761719,-4.359547138214111,-4.7144646644592285,8.449089050292969,-5.206583499908447,2.5856616497039795,0.8461349010467529,-4.142146110534668,-6.027398586273193,-6.685400485992432,3.9455366134643555,1.789181113243103,2.2696776390075684,-5.6090989112854,-0.9667802453041077,2.312790870666504,3.505873203277588,4.8382463455200195,3.48854923248291,-1.844208002090454,1.6324774026870728,-5.215961933135986,1.9329348802566528,1.3332046270370483,0.3218357264995575,-0.7293991446495056,-2.3694307804107666,-0.2844385802745819,-2.7829737663269043,-6.382356643676758,-0.27365583181381226,2.0246520042419434,-1.3754627704620361,-1.8878787755966187,-1.309564471244812,4.8027777671813965,-0.17754264175891876,-2.8166463375091553,-4.597854137420654,-0.2783121168613434,-5.110662460327148,3.662492275238037,-2.9129996299743652,5.291643142700195,-1.2532702684402466,1.2404767274856567,8.568046569824219,3.7484846115112305,-1.311607837677002,1.6164393424987793,0.39525285363197327,3.9459598064422607,-1.9665132761001587,0.9536488056182861,-3.2342581748962402,-8.993332862854004,2.7697529792785645,0.06336760520935059,2.459275007247925,-4.577517509460449,1.2032065391540527,-5.0530571937561035,-5.616216659545898,3.060490846633911,4.104396343231201,-4.921185493469238,1.6107927560806274,3.9568402767181396,3.115055799484253,5.60663366317749,-6.231229305267334,-6.61508846282959,-1.8975123167037964,1.5042362213134766,8.069574356079102,0.10288374125957489,-2.5787477493286133,-1.345402479171753,1.0636014938354492,5.591365814208984,-1.518800973892212,-3.6319921016693115,1.606067180633545,-12.762625694274902,-2.837467908859253,-5.095259189605713,-1.1605151891708374,-3.8288633823394775,4.869330406188965,6.177577018737793,-2.5593955516815186,-10.64104175567627,2.796123504638672,-7.014305114746094,-9.029667854309082,-6.441475868225098,1.4850505590438843,3.563185930252075,-0.7725812792778015,1.5167561769485474,9.05695915222168,5.882411956787109,-4.036584377288818,-1.8380069732666016,-6.816190242767334,3.690171718597412,-0.03699066489934921,-1.6222814321517944,-6.9552226066589355,-1.229168176651001,1.1441388130187988,0.41610535979270935,5.203601360321045,10.234505653381348,-6.212610721588135,-5.566781044006348,1.853392243385315,-3.9941866397857666,6.726294994354248,6.650036811828613,-0.07993389666080475,17.445161819458008,-2.7498281002044678,-4.994395732879639,11.545392990112305,-0.7702212333679199,-12.488402366638184,25.522232055664062,11.48326587677002,20.744047164916992,-14.964542388916016,0.6506673097610474,-14.800755500793457,-4.86313009262085,-0.2275940179824829,0.26817628741264343,10.407682418823242,18.570892333984375,24.181962966918945,10.615180969238281,3.422261953353882,25.49883460998535,3.5561177730560303,-10.406002044677734,-5.95798921585083,32.15631866455078,-15.22952651977539,20.58798599243164,21.794607162475586,-2.656095027923584,-12.873222351074219,0.01003231294453144,-2.176690101623535,7.769785404205322,7.451064586639404,-2.91397762298584,10.349499702453613,2.0943915843963623,25.142274856567383,-14.350485801696777,-11.956951141357422,22.293210983276367,5.115974426269531,18.37934684753418,-3.0560801029205322,12.6342134475708,1.410725474357605,-11.526994705200195,-9.574520111083984,-3.7758805751800537,-1.424435019493103,-4.684388637542725,4.039353847503662,0.7158601880073547,-5.285334587097168,-1.3410310745239258,1.696938395500183,2.1213862895965576,-2.2716970443725586,0.3192727863788605,-2.2181739807128906,-3.416700839996338,-5.944572925567627,1.1436340808868408,-8.689515113830566,-3.4538655281066895,-3.8643887042999268,-3.3077080249786377,-5.773892879486084,-0.24167607724666595,0.7228941917419434,3.7124741077423096,-5.069361686706543,-2.0454397201538086,-4.583261966705322,0.4065393805503845,4.804603576660156,8.35300064086914,-8.456945419311523,-7.227085590362549,-3.9954915046691895,-4.9552483558654785,-1.233246088027954,3.5358145236968994,-0.31968337297439575,0.3356207311153412,-2.3032593727111816,9.796746253967285,-5.006499767303467,-9.69464111328125,1.2330929040908813,0.5736377239227295,-0.9110637903213501,-3.6327693462371826,-3.466782569885254,-3.9382786750793457,-9.563346862792969,-4.642763137817383,-2.6841483116149902,4.830789089202881,-2.226332426071167,-0.745923638343811,-5.494386196136475,2.4744925498962402,5.677894115447998,-4.95417594909668,0.43292975425720215,0.05440102145075798,-1.1121364831924438,-0.031061338260769844,-2.103926658630371,-7.186156749725342,0.5197550058364868,-0.055319033563137054,-5.985921382904053,-1.3112924098968506,-4.479133129119873,5.264275074005127,1.3066654205322266,0.2081676721572876,0.6656522750854492,-11.101211547851562,-3.7878501415252686,-2.0150370597839355,-3.1593739986419678,4.6894145011901855,-10.33872127532959,-1.4875606298446655,-1.9308441877365112,-1.7031499147415161,0.34841984510421753,9.800878524780273,5.684572219848633,-8.398292541503906,-12.651187896728516,2.1528871059417725,-1.8141779899597168,-6.8263750076293945,0.9100232124328613,-3.118023157119751,-1.1511626243591309,0.5936561226844788,-8.351569175720215,7.033438682556152,2.8513951301574707,5.138339996337891,15.521099090576172,15.202530860900879,2.1492764949798584,21.52766990661621,4.630789756774902,-14.260424613952637,18.991455078125,-29.03385353088379,2.9414665699005127,-13.858721733093262,-27.154266357421875,14.942203521728516,-9.579262733459473,6.229844093322754,13.864533424377441,-15.123497009277344,-17.028921127319336,12.104085922241211,9.413857460021973,-17.71952247619629,1.182294249534607,-25.34037208557129,15.608903884887695,7.1898579597473145,7.2443623542785645,22.73603057861328,-9.986340522766113,-8.741276741027832,15.852011680603027,6.662367343902588,13.669734954833984,4.33450984954834,20.321212768554688,20.872312545776367,-3.108680248260498,5.749156475067139,19.649280548095703,20.061887741088867,6.884504795074463,-9.944457054138184,24.244726181030273,43.99930953979492,-2.793762683868408,18.749290466308594,8.629313468933105,5.785606861114502,-11.453364372253418,4.956371307373047,1.8081687688827515,-1.817580223083496,0.5427478551864624,2.5360379219055176,-2.0327706336975098,1.4234247207641602,3.5463345050811768,0.38132041692733765,-1.9610698223114014,1.8899853229522705,4.58204984664917,1.9769408702850342,3.1364212036132812,-1.736509084701538,-1.6503697633743286,3.7823166847229004,0.5191258192062378,-3.924619674682617,-0.11602979898452759,-5.424665451049805,-1.616072177886963,-3.115766763687134,-2.860844135284424,2.1796951293945312,0.09828221052885056,-2.526440143585205,1.187171459197998,1.7151926755905151,-3.8862550258636475,6.638907432556152,1.7607611417770386,1.1268367767333984,-4.2399773597717285,-0.3337225019931793,3.5756678581237793,-2.3795297145843506,3.5505526065826416,-1.916558027267456,-0.45761558413505554,2.86409330368042,-0.7695685625076294,-2.7785022258758545,-1.5790704488754272,5.879115104675293,3.15146803855896,-1.1850316524505615,-3.8206913471221924,3.596576690673828,-2.353672504425049,0.5990108251571655,0.4906338155269623,1.7656097412109375,3.128068685531616,5.214939117431641,-3.394211530685425,0.9011694192886353,-3.081453323364258,-0.07220584899187088,-3.888934850692749,2.1554903984069824,5.001294136047363,0.3217451870441437,4.17139196395874,-1.0229238271713257,-8.503424644470215,4.153468132019043,3.9796907901763916,-3.3831634521484375,3.944847822189331,2.0607731342315674,-1.8783447742462158,-5.307550430297852,-1.724899172782898,2.3367831707000732,-3.2273671627044678,-6.247854709625244,-4.4466023445129395,-0.786879301071167,1.8668402433395386,-2.0981433391571045,0.630131185054779,-1.7635726928710938,-5.396595001220703,0.7546162605285645,6.372239112854004,-1.0323352813720703,-1.2104501724243164,-5.756394386291504,0.27624136209487915,0.48461049795150757,-3.788569927215576,-3.3497254848480225,-6.782690048217773,-3.0896217823028564,3.864773988723755,1.3962397575378418,-1.0080291032791138,-2.8468096256256104,0.12240452319383621,9.226223945617676,-0.8245296478271484,5.802021026611328,5.531627655029297,-5.9177470207214355,-10.436527252197266,-1.5954171419143677,-2.775975227355957,-1.7437262535095215,4.270089626312256,-1.8641315698623657,3.8759875297546387,2.1648197174072266,4.4017229080200195,4.074023246765137,-8.094974517822266,2.483135938644409,-6.884329795837402,-4.707498550415039,0.1509532332420349,4.1998677253723145,-5.2968573570251465,-8.919393539428711,-3.4227099418640137,6.630945682525635,4.423153877258301,-1.9669257402420044,7.565084457397461,-1.280645489692688,0.6598942279815674,-3.759586811065674,3.702813148498535,2.8707656860351562,4.466708183288574,-1.4439276456832886,4.473632335662842,4.841412544250488,-6.481603145599365,-5.048825740814209,-7.779244422912598,3.449970245361328,7.04094934463501,1.8377330303192139,-11.050472259521484,-7.7476654052734375,-4.193763256072998,0.16666258871555328,7.749807357788086,-5.2592034339904785,2.063971519470215,35.31433868408203,3.61568021774292,-21.38666534423828,-7.174558639526367,-3.618560314178467,2.265423536300659,3.8204848766326904,9.874762535095215,3.884242057800293,-21.47832679748535,19.903564453125,31.254974365234375,-10.973599433898926,8.566575050354004,0.903732180595398,19.17096519470215,28.153621673583984,3.627944231033325,5.5629143714904785,-12.027814865112305,11.577943801879883,-1.2177479267120361,11.064949035644531,-5.82781457901001,26.717252731323242,14.36970043182373,12.598238945007324,-16.210369110107422,-8.44664478302002,0.7868858575820923,-9.170549392700195,31.257328033447266,29.531770706176758,-0.4450575113296509,-14.966225624084473,-15.139894485473633,-8.467966079711914,17.50148582458496,-7.428011894226074,-23.79578399658203,19.874540328979492,0.3563730716705322,18.2158260345459,0.38927149772644043,-6.058544635772705,-8.41232681274414,16.040084838867188,15.106321334838867,-10.86136531829834,-6.874515533447266,5.7506303787231445,-2.859461784362793,12.267446517944336,6.864683628082275,-0.673603892326355,19.67271614074707,6.762762069702148,6.9071221351623535,2.916919469833374,-12.309876441955566,4.745943069458008,11.160382270812988,-5.105813026428223,11.538158416748047,-3.053009271621704,14.115727424621582,-8.736151695251465,-12.023965835571289,1.0906224250793457,6.415865421295166,-13.693004608154297,5.916208267211914,-4.042483806610107,1.8225548267364502,-1.716170310974121,8.325568199157715,4.193845272064209,4.890093803405762,6.3397369384765625,11.912362098693848,-2.927619695663452,-5.772424221038818,-2.861445188522339,0.18834757804870605,-0.718101441860199,-10.97815990447998,2.00997257232666,-3.378662347793579,-1.8788871765136719,0.5161522030830383,1.922142744064331,8.289173126220703,6.876314163208008,-8.840309143066406,12.821114540100098,-13.636348724365234,-10.490055084228516,1.0184025764465332,5.255305290222168,-0.5147165060043335,3.9040472507476807,-3.666937828063965,-13.929673194885254,-3.621173143386841,-2.9451839923858643,-5.801286697387695,4.171905517578125,5.244930744171143,5.464620590209961,-9.112602233886719,6.507713317871094,-2.4981155395507812,-9.134037971496582,-4.710335731506348,7.793322563171387,2.059192657470703,3.225050687789917,2.1278152465820312,0.34172332286834717,5.947081089019775,10.101099014282227,-0.4631366431713104,-2.216269016265869,6.151459693908691,0.6651679277420044,-2.0329813957214355,6.927968978881836,6.9900922775268555,-13.419171333312988,8.01215648651123,4.508357524871826,-8.021505355834961,0.6718807816505432,10.89738655090332,6.566446781158447,3.988887071609497,5.210153579711914,-3.989238977432251,-1.547357201576233,6.291042804718018,-4.840432167053223,-1.2197957038879395,2.28317928314209,-1.7553712129592896,1.1251150369644165,3.3796985149383545,-6.277439117431641,-1.2939420938491821,3.121100664138794,-1.8111522197723389,3.5466039180755615,-8.827125549316406,1.7666902542114258,-8.234943389892578,7.698216915130615,-4.289825439453125,-1.022655725479126,4.765743732452393,0.41518571972846985,-3.1518735885620117,10.813777923583984,-1.5743855237960815,1.2055882215499878,0.17190828919410706,0.8242660164833069,-4.8275861740112305,9.150203704833984,-9.102721214294434,3.5620856285095215,1.1056891679763794,3.656322956085205,0.3424975872039795,-1.0374882221221924,-1.5118376016616821,-3.0870330333709717,3.7746376991271973,-3.4696648120880127,2.071051597595215,5.250296592712402,-5.217936992645264,-4.859010696411133,8.689753532409668,4.732481002807617,6.005608081817627,1.4181784391403198,-4.430087566375732,-9.177618980407715,-1.562632441520691,4.2596917152404785,5.276368141174316,-6.192378520965576,11.92780876159668,1.5949574708938599,3.3248255252838135,8.527734756469727,-7.996092319488525,-0.7779248356819153,2.7028305530548096,-6.459409236907959,4.951688289642334,-3.5979697704315186,-7.302812099456787,1.836560845375061,-4.732653617858887,-4.787399768829346,1.1157556772232056,-1.7460532188415527,0.19348302483558655,-10.69067096710205,2.673417091369629,4.5847344398498535,-13.68063735961914,-2.014153003692627,1.4733058214187622,-0.3493026793003082,4.794035911560059,-10.218463897705078,3.838230609893799,3.7098746299743652,-8.395423889160156,3.4366672039031982,-7.176954746246338,-9.891036987304688,-5.509313583374023,7.59126615524292,2.0340867042541504,2.6596689224243164,2.184936046600342,-15.963282585144043,-9.232242584228516,2.710901975631714,6.2574005126953125,2.2094838619232178,-3.0586636066436768,2.628659248352051,-7.198628902435303,-0.689837634563446,-2.4628400802612305,3.6575474739074707,4.7516326904296875,3.3656444549560547,-9.313753128051758,0.5547739267349243,5.303002834320068,2.7436769008636475,-1.1644223928451538,-6.562716007232666,-0.6618837118148804,-1.2771762609481812,0.8021982908248901,0.05148754268884659,3.4295482635498047,-1.5857222080230713,-15.720226287841797,7.389883518218994,3.0338099002838135,2.6309101581573486,3.8026442527770996,3.334648609161377,-12.418013572692871,3.0469930171966553,-7.399163722991943,13.448415756225586,12.301264762878418,0.08635259419679642,-2.96333646774292,-3.9044971466064453,0.2761698365211487,5.327651500701904,-1.4565227031707764,1.6333563327789307,1.5656514167785645,-9.341384887695312,-3.873584747314453,-4.513123512268066,-1.1337827444076538,-3.7278878688812256,-2.3209376335144043,-7.2529988288879395,-7.827010631561279,0.14978152513504028,7.277358055114746,2.9113359451293945,-3.384261131286621,1.2027301788330078,-0.17115889489650726,8.454806327819824,-0.0794885978102684,-5.376087665557861,-1.6692895889282227,3.7197959423065186,5.5815839767456055,7.169892311096191,3.6000616550445557,2.3325161933898926,8.620931625366211,-4.053706645965576,-4.676482200622559,-2.75555419921875,-2.2608160972595215,2.1160099506378174,-5.742812633514404,6.183101654052734,3.0937397480010986,1.7229301929473877,-2.6344122886657715,2.026353597640991,-2.5170955657958984,-8.1680326461792,3.6908059120178223,3.2418994903564453,-4.163215637207031,3.6339669227600098,2.8340137004852295,-3.322883129119873,4.026665687561035,-1.505866289138794,5.502511978149414,4.314366817474365,-2.1126248836517334,2.203538179397583,-4.704530239105225,6.265413284301758,2.729076862335205,-0.4574506878852844,5.655596733093262,-3.588308811187744,1.5336512327194214,-3.853034496307373,4.143528938293457,0.41088739037513733,-1.6813082695007324,-2.9614570140838623,-2.591933488845825,2.9101908206939697,-2.1399807929992676,-4.184485912322998,-2.083801031112671,4.971900939941406,-2.474411725997925,1.2108790874481201,-4.193519115447998,-15.384108543395996,3.536874532699585,-5.655191898345947,-1.278394103050232,6.479704856872559,2.616741418838501,0.8314844369888306,10.612251281738281,-1.5767745971679688,-10.591833114624023,0.27790355682373047,6.09965181350708,-10.071435928344727,3.8823351860046387,-5.046529293060303,2.2646493911743164,4.253436088562012,-2.371317148208618,9.947420120239258,3.0279791355133057,0.8578569889068604,-2.7504043579101562,6.86613655090332,10.640445709228516,-14.011669158935547,6.524827003479004,8.123411178588867,2.1498987674713135,-7.340454578399658,2.8563640117645264,3.335819959640503,-2.8735437393188477,-4.772909164428711,-6.045922756195068,1.9530906677246094,-1.5361833572387695,7.037415027618408,13.366642951965332,-0.31952980160713196,-6.468527793884277,5.834125518798828,-0.7663229703903198,4.924114227294922,10.729310035705566,-1.9869154691696167,-10.928208351135254,10.548174858093262,-6.474173545837402,-1.8132078647613525,-5.003829479217529,-7.543173789978027,-2.1044116020202637,6.401709079742432,7.721016883850098,-6.337660789489746,9.515157699584961,-0.16540409624576569,-11.470171928405762,2.3155219554901123,4.500550746917725,-10.825366973876953,-5.296614646911621,4.411581516265869,-2.8547170162200928,11.856329917907715,-6.04267692565918,-7.2340216636657715,5.736570835113525,-2.3052310943603516,5.735870838165283,4.26640510559082,-11.336126327514648,6.742711067199707,10.663498878479004,5.853004455566406,-1.337732195854187,-1.9570786952972412,7.166316032409668,10.790124893188477,12.66299819946289,1.3817718029022217,-6.806626796722412,-9.258718490600586,-6.105986595153809,-1.6299724578857422,-1.6693063974380493,-4.692666053771973,-9.197542190551758,-0.48648494482040405,10.628061294555664,3.4935827255249023,12.03824520111084,-7.827805519104004,-5.775968074798584,-0.8055777549743652,3.576596975326538,-9.978090286254883,-4.512231349945068,-10.212310791015625,-5.909211158752441,-0.37619510293006897,-6.050529956817627,2.705029010772705,8.71965217590332,-8.164939880371094,-2.3857247829437256,-0.36941054463386536,-2.0623128414154053,-2.846259117126465,4.146935939788818,1.3467909097671509,5.522873878479004,10.801498413085938,-2.8851516246795654,7.033172607421875,16.02678108215332,-9.931978225708008,-7.923986434936523,-3.0753767490386963,18.299001693725586,3.2576205730438232,2.979456663131714,3.9664812088012695,9.061971664428711,-2.85979962348938,-0.9924768209457397,-10.788128852844238,3.368265390396118,-0.8792034387588501,1.0117079019546509,12.50446891784668,3.193169355392456,-2.9619622230529785,-0.3925589621067047,-6.522099018096924,-0.617016613483429,6.0342793464660645,-3.808746099472046,-3.0342538356781006,-2.943700075149536,10.697494506835938,6.112773895263672,-0.4888538420200348,-2.1329941749572754,8.386213302612305,-4.8124613761901855,-14.482540130615234,-2.2710604667663574,-0.6609451770782471,8.636710166931152,0.587010383605957,4.078303813934326,-2.820124626159668,-2.523857593536377,-8.971430778503418,1.567838430404663,2.0741541385650635,-3.734794855117798,5.46665096282959,-0.5840425491333008,0.7206826210021973,4.828638553619385,-0.8340495824813843,-3.0374200344085693,-6.522137641906738,-5.205151557922363,0.22697792947292328,-1.6265324354171753,-2.1493988037109375,-0.9280417561531067,-10.053932189941406,-6.2095465660095215,-3.337101697921753,-1.152931809425354,-1.969657301902771,4.849878311157227,2.220815420150757,0.24594154953956604,4.271223545074463,0.7531137466430664,5.473816394805908,-5.332292556762695,6.8622307777404785,-4.815442085266113,-2.160861015319824,5.171764850616455,-1.4701142311096191,-3.608652353286743,5.481558322906494,4.092844009399414,1.9348200559616089,9.096144676208496,-7.396851539611816,4.734265327453613,3.8338406085968018,4.094789981842041,3.600555658340454,6.299173355102539,2.7441725730895996,3.0093793869018555,-0.006948500871658325,-10.930377006530762,2.870220899581909,-8.246416091918945,2.019134759902954,5.408376216888428,-8.474934577941895,1.1675599813461304,3.10042142868042,-2.852248430252075,-4.8508501052856445,-8.766679763793945,-5.063823699951172,-5.429586887359619,-1.9637885093688965,3.6924123764038086,-6.854928493499756,-9.329144477844238,4.132025241851807,-2.27154278755188,9.727204322814941,7.345878601074219,-6.612051963806152,2.8348782062530518,-6.555093765258789,1.2022758722305298,4.324359893798828,-11.638021469116211,-2.3882429599761963,11.723978996276855,-3.6889498233795166,7.415423393249512,4.78244686126709,1.093213438987732,1.0968716144561768,-6.009439945220947,2.51073956489563,2.409721612930298,7.001396179199219,-3.3843467235565186,-3.498786449432373,14.313738822937012,-11.559499740600586,-0.059031132608652115,-2.0610337257385254,13.548184394836426,-6.874972343444824,-7.848637104034424,-9.710098266601562,4.868812561035156,1.5634227991104126,13.480518341064453,-3.5879275798797607,-1.378496766090393,-3.4016497135162354,-11.913185119628906,-5.304220199584961,2.8600685596466064,-4.859982967376709,-16.311630249023438,-1.2281272411346436,-0.810722291469574,3.069988250732422,-7.609221935272217,0.8793289661407471,-0.9289311170578003,12.860590934753418,-11.043180465698242,-11.48044204711914,10.655369758605957,-12.730072975158691,0.2108832597732544,15.047417640686035,5.326355457305908,-4.135478973388672,8.576454162597656,1.448340892791748,-5.058432102203369,-3.3820321559906006,-20.740901947021484,3.7109711170196533,-3.5414280891418457,-10.653243064880371,-19.930635452270508,4.5829877853393555,7.982418537139893,4.123374938964844,0.013959459960460663,-14.541827201843262,-4.47138786315918,-8.19175910949707,12.031328201293945,-0.40552428364753723,-5.105922698974609,-3.5918617248535156,-11.049504280090332,-1.457810640335083,-8.11121654510498,12.028379440307617,-0.46191680431365967,0.16397163271903992,2.1158883571624756,-3.2458951473236084,1.3923438787460327,-0.3137702941894531,-15.872611999511719,-8.438097953796387,-5.32989501953125,4.878129482269287,1.5469505786895752,-8.538277626037598,-10.496142387390137,-4.31053352355957,-1.8621361255645752,4.540205955505371,-1.5780808925628662,1.1020197868347168,-0.7336742281913757,-2.7995448112487793,2.5806469917297363,-2.141211986541748,-6.081357479095459,2.853440284729004,9.244569778442383,1.6492544412612915,0.015883659943938255,-5.930214881896973,-16.95431137084961,-11.55173397064209,4.103346347808838,5.277660846710205,-2.585674524307251,-3.7814576625823975,2.1647918224334717,4.426217555999756,-11.067130088806152,3.0238773822784424,1.3973885774612427,-1.0106267929077148,-2.5043561458587646,0.19391432404518127,-1.651627779006958,4.3438029289245605,-7.4781718254089355,6.006085395812988,6.615664482116699,2.6626880168914795,14.430100440979004,-13.750184059143066,-10.335765838623047,5.959686756134033,2.6320998668670654,9.93649673461914,-3.894693613052368,-13.965089797973633,1.76458740234375,-2.9016661643981934,5.8519721031188965,-0.0948716402053833,-5.120734691619873,-3.8145391941070557,-20.479093551635742,1.2963310480117798,6.210552215576172,5.778014659881592,-14.986799240112305,7.354919910430908,0.37742188572883606,-2.859813690185547,-21.121976852416992,-0.6338022351264954,4.174071311950684,4.612330436706543,-13.197141647338867,4.064039707183838,-17.17362403869629,-2.3460471630096436,7.819396018981934,8.783857345581055,8.681431770324707,-16.293601989746094,10.351371765136719,27.86456871032715,-16.165931701660156,3.2317848205566406,-14.942028045654297,-0.49040061235427856,6.610690593719482,-16.409435272216797,-1.003373622894287,-2.3681774139404297,-9.005321502685547,-6.580322742462158,-48.172142028808594,-18.058195114135742,-28.338510513305664,11.859640121459961,-42.03284454345703,15.160152435302734,1.9939309358596802,-2.7430806159973145,28.166221618652344,-12.28395938873291,12.91806411743164,-27.65273666381836,30.808815002441406,15.441161155700684,24.963180541992188,-15.10534954071045,-67.21819305419922,40.53036117553711,12.914203643798828,-18.458049774169922,28.564966201782227,-12.009748458862305,3.8332648277282715,7.219798564910889,-14.634084701538086,-28.974592208862305,12.433667182922363,25.726411819458008,2.8195111751556396,-14.894989013671875,-0.908570408821106,-44.72880554199219,19.847583770751953,-24.929697036743164,24.813318252563477,6.94157600402832,-10.05490779876709,9.956398963928223,15.35927963256836,1.880007266998291,-32.00635528564453,28.541967391967773,-8.469730377197266,43.63238525390625,6.032206058502197,8.087646484375,3.091294765472412,-6.049580097198486,13.955187797546387,-5.121982574462891,-1.016928791999817,2.761486053466797,0.30154451727867126,33.02568817138672,-26.445106506347656,43.302955627441406,-16.780975341796875,-13.534080505371094,-15.400005340576172,1.3780136108398438,-20.811260223388672,8.480157852172852,-30.11893081665039,-0.7169074416160583,17.351654052734375,19.40411949157715,-24.981069564819336,18.231843948364258,-25.184823989868164,26.276321411132812,-10.628619194030762,35.78562927246094,-22.925928115844727,10.873868942260742,22.607728958129883,38.93894958496094,-39.88616180419922,7.224916458129883,-36.081424713134766,-10.433116912841797,-15.170303344726562,5.471635341644287,38.55841064453125,-13.197916030883789,-0.7423445582389832,-3.909882068634033,6.200323581695557,23.483591079711914,-18.07581329345703,-7.1288676261901855,7.070168495178223,0.920856237411499,-28.41918182373047,-20.682458877563477,4.108067512512207,-3.9219932556152344,-31.300464630126953,16.949167251586914,8.757048606872559,-27.29974365234375,-1.2438733577728271,1.5831360816955566,5.982742786407471,17.030799865722656,-3.2112345695495605,-12.36782169342041,-4.484757423400879,-16.895885467529297,-1.1065340042114258,10.373562812805176,6.976203918457031,-28.675804138183594,19.43088722229004,2.733893871307373,6.753085613250732,23.283071517944336,5.094581127166748,-17.71056365966797,12.52830696105957,-0.4021863341331482,33.39458084106445,20.479534149169922,21.0168399810791,1.1227612495422363,3.6067097187042236,-7.516408920288086,-13.271265029907227,-6.165649890899658,0.9491870999336243,24.841598510742188,16.590267181396484,-27.443395614624023,-12.43088436126709,-4.5454583168029785,-5.580399513244629,-5.02437686920166,-2.279275417327881,25.75351333618164,-28.85890007019043,-5.302102565765381,-9.488228797912598,-9.614459037780762,22.863780975341797,-12.639931678771973,-8.675363540649414,20.732494354248047,-6.4946513175964355,-2.2543156147003174,-4.250149250030518,-2.4235177040100098,2.1115164756774902,-2.545361280441284,7.053249359130859,-7.404954433441162,-7.038843154907227,1.6326136589050293,-11.171648025512695,-2.9320902824401855,3.8968429565429688,-1.2212623357772827,1.2313306331634521,16.81089210510254,-9.274238586425781,-2.2210302352905273,2.2046432495117188,3.8507797718048096,5.663824558258057,-0.5476507544517517,4.548330307006836,17.110509872436523,4.921634674072266,4.898680210113525,-2.536592960357666,-9.110430717468262,7.78751277923584,-7.052229404449463,6.0615997314453125,-10.892757415771484,-6.918379306793213,-8.131572723388672,-1.9431155920028687,-4.204382419586182,9.40584945678711,8.103423118591309,-6.904036045074463,3.7422194480895996,2.36165452003479,-2.001727819442749,6.019017219543457,-0.5227265954017639,-0.31261545419692993,4.028933048248291,-11.351677894592285,-0.058803021907806396,0.0128650963306427,8.202948570251465,3.962906837463379,31.636211395263672,13.388132095336914,-0.6781432628631592,-20.29641342163086,1.704023838043213,0.6803327798843384,8.234479904174805,-10.220589637756348,-31.462339401245117,12.979193687438965,44.46672058105469,35.218299865722656,11.218002319335938,29.020008087158203,12.0086088180542,-12.224888801574707,8.988727569580078,-9.813321113586426,11.44301986694336,2.2717666625976562,-8.244502067565918,-17.424474716186523,1.6685701608657837,-2.4871883392333984,-24.09250831604004,13.412657737731934,-16.007089614868164,-27.504980087280273,-26.1103458404541,-20.463144302368164,14.74623966217041,48.29439163208008,-8.22939395904541,-14.332291603088379,-28.192428588867188,-8.060718536376953,49.253658294677734,-41.320220947265625,-13.658151626586914,-13.960169792175293,21.067073822021484,1.378048300743103,24.01433563232422,33.62445068359375,1.862131953239441,42.23048400878906,18.13620376586914,2.442378282546997,6.654613971710205,-1.0857235193252563,11.16564655303955,15.297587394714355,-10.921506881713867,-20.756011962890625,-2.4276466369628906,15.010673522949219,33.6384162902832,10.699652671813965,7.322856903076172,-13.6572847366333,13.830259323120117,13.918814659118652,-7.05416202545166,-3.9602980613708496,-0.4102846384048462,12.547799110412598,7.006018161773682,-7.620111465454102,16.82342529296875,14.767716407775879,-7.8387603759765625,-2.0009117126464844,-2.833920955657959,-17.21725082397461,-18.71282386779785,5.955266952514648,-5.09180212020874,-9.013687133789062,-17.934663772583008,-23.87162208557129,14.109856605529785,35.75444030761719,11.919245719909668,9.310482025146484,-1.1284778118133545,21.154478073120117,9.187702178955078,-14.22095012664795,8.110340118408203,0.9199993014335632,-7.681654453277588,28.6408748626709,7.021206378936768,-3.8417041301727295,0.648245096206665,8.895537376403809,27.249584197998047,-20.216711044311523,-19.650297164916992,14.039170265197754,6.827174663543701,-26.11794090270996,-13.060108184814453,45.29347229003906,-38.011634826660156,21.498506546020508,23.6513614654541,24.42417335510254,1.9072548151016235,36.21283721923828,7.380521774291992,-15.028759002685547,-1.963348388671875,21.579519271850586,43.16254806518555,26.31505584716797,19.904911041259766,-23.300445556640625,3.0658798217773438,34.52251434326172,-21.533382415771484,-28.543777465820312,-3.382258653640747,16.377824783325195,-15.333447456359863,-24.259366989135742,27.240135192871094,-10.547816276550293,-20.719146728515625,-23.373306274414062,-22.70538330078125,-14.145691871643066,60.945491790771484,25.466989517211914,21.06254768371582,-2.177830696105957,-31.597333908081055,21.42770767211914,29.65326690673828,25.904600143432617,-40.10093688964844,-20.086227416992188,-7.496664047241211,-13.181132316589355,-1.219689965248108,-3.3739523887634277,31.513202667236328,43.23814010620117,24.17462921142578,-25.522279739379883,-17.93759536743164,-0.22956816852092743,-39.130714416503906,-19.45895767211914,9.021164894104004,-23.983041763305664,30.14950942993164,3.49831223487854,20.89845848083496,39.332725524902344,-1.2870814800262451,-18.100204467773438,-7.340816497802734,-12.817194938659668,3.5412306785583496,16.368690490722656,-25.05484390258789,-26.91295623779297,-24.39820098876953,-12.961410522460938,15.139561653137207,9.151250839233398,-20.601856231689453,55.23098373413086,19.239490509033203,13.51873779296875,16.955184936523438,-12.753822326660156,14.546320915222168,0.4820089042186737,-1.0059943199157715,21.827272415161133,5.304772853851318,9.757691383361816,9.01924991607666,-22.137027740478516,-0.34907665848731995,12.977076530456543,-13.931621551513672,-20.850984573364258,-26.002744674682617,33.62958908081055,-7.950231552124023,13.496977806091309,-2.5682899951934814,0.5981808304786682,-1.7306243181228638,0.5413849949836731,0.17557869851589203,-1.184712529182434,-0.35064059495925903,0.3057883083820343,0.2037145495414734,-1.4058208465576172,-0.6135014891624451,-0.5392746925354004,0.5510894656181335,4.610466003417969,0.21035446226596832,6.349074840545654,-1.9498757123947144,-1.068871259689331,-2.6920900344848633,1.2947022914886475,0.3859361410140991,3.464726686477661,0.7187497615814209,3.0787012577056885,1.1921197175979614,3.136981725692749,-0.1833249032497406,2.4001967906951904,0.4104737937450409,-3.782252788543701,-1.72636878490448,-3.5486135482788086,-1.247912883758545,1.6098828315734863,2.0476489067077637,-1.0779057741165161,-2.4109888076782227,1.2310959100723267,1.436729907989502,-0.7073153853416443,3.2920725345611572,-1.0067341327667236,-0.46744945645332336,-2.38796329498291,2.5055088996887207,2.7359702587127686,0.5804975628852844,-0.5792900919914246,0.3569744825363159,0.7638770937919617,2.8551998138427734,0.6423345804214478,2.9253807067871094,0.9667431712150574,1.0777812004089355,-0.6018496751785278,-2.3366665840148926,1.4578678607940674,2.147578716278076,-3.547451972961426,2.109628677368164,-1.629404902458191,-0.3620157241821289,-0.14896859228610992,-2.030635356903076,-1.3477089405059814,0.2839592695236206,-1.7855385541915894,-0.5043551921844482,-1.4442960023880005,1.5935633182525635,0.6259868144989014,-0.6785016059875488,0.6178507804870605,-1.1754693984985352,-0.6402745246887207,1.6264461278915405,0.3930078446865082,-0.604134738445282,-0.755141019821167,2.1101837158203125,-0.9288635849952698,2.8408308029174805,2.2261269092559814,0.0394701324403286,-1.738931655883789,-0.3391498327255249,-1.3249083757400513,1.695313811302185,1.1438857316970825,6.852814674377441,-2.612730026245117,-2.8364694118499756,1.6897032260894775,0.11778524518013,-1.3607099056243896,-0.8718751072883606,-1.0376554727554321,5.347517983977923e-8,2.0893535790378337e-8,-5.4943964045151006e-8,-6.760369331004767e-8,3.8147749847894374e-8,3.208658228004424e-8,-9.284816826493625e-8,1.5153208465790158e-8,-1.2893811351943896e-8,8.376707683055429e-8,6.06695991223205e-8,4.236358108755667e-8,3.5645442153509066e-8,-1.0947258033411345e-7,-3.307529894414074e-8,2.6619064286137473e-8,-1.0183863707879937e-7,-3.295393113944556e-8,-9.064646633305529e-8,-3.3214227812550234e-8,9.269032119618714e-8,-4.041006818056303e-8,9.102878451017204e-9,2.8259471207547904e-8,-8.475266355389977e-8,2.07874943924935e-8,-6.001548769063447e-8,9.97699984850442e-8,-9.857230764964697e-8,6.736448909805404e-8,-4.705698231077804e-8,-1.1314391090699871e-10,4.8303689936801675e-8,-5.6963195049775095e-8,1.1129344557048171e-8,-3.096876000086013e-8,5.8003536196338246e-8,-1.308480523931621e-8,-7.063051477018689e-9,-7.201769847142714e-8,-2.3126787596083886e-8,-7.913740773801692e-8,6.37207335785206e-8,-1.0080511003707215e-7,-5.8526005375370005e-8,3.568372619611182e-8,9.251321841929894e-8,4.327840130713412e-8,-6.876087610407922e-8]},"hiddenLayers":[{"inputMatrix":{"rows":20,"columns":49,"weights":[-1.8888384103775024,1.2239097356796265,0.7134736776351929,0.8225436806678772,0.3801862299442291,-1.4241122007369995,-0.13258428871631622,-1.1291851997375488,-1.390329122543335,-0.8379819989204407,-0.40036195516586304,-0.1012364998459816,-0.9096994400024414,-0.18534480035305023,0.21089912950992584,-0.8526339530944824,0.17310231924057007,-1.7263455390930176,-1.0911180973052979,1.1823830604553223,1.2600843906402588,-1.989200472831726,0.3029961585998535,1.390289068222046,-0.5624936819076538,-1.5765390396118164,0.9328516125679016,-1.066781759262085,-3.4367735385894775,1.6879693269729614,2.722843647003174,-0.004806488752365112,0.4511558711528778,-0.9033169746398926,-1.1765598058700562,-0.26979872584342957,2.7053356170654297,-0.43655189871788025,-0.28529343008995056,0.1398809403181076,-0.2332683950662613,1.3430216312408447,-0.1993400752544403,0.16396842896938324,1.159504771232605,0.3428247272968292,-0.638359546661377,0.7630742192268372,0.49321848154067993,1.200034260749817,-2.8554694652557373,-2.1290764808654785,0.8774492740631104,1.3493165969848633,0.9101153612136841,1.6894898414611816,1.4702746868133545,0.31361451745033264,-2.177983522415161,0.8946986794471741,-2.6244304180145264,2.609992742538452,1.121901273727417,-1.2374366521835327,1.4247503280639648,3.060257911682129,0.8096315860748291,0.522988498210907,0.6348125338554382,-0.5186322927474976,-0.07697507739067078,-2.0366592407226562,1.2755944728851318,-2.358973503112793,1.1470762491226196,-1.2187259197235107,1.2058669328689575,-2.63435697555542,-1.8712986707687378,-2.3624017238616943,-0.39334890246391296,0.5942251682281494,-0.9160636067390442,2.134841203689575,1.0860209465026855,-1.280177116394043,2.0124094486236572,0.06838024407625198,-0.988326907157898,-0.29554522037506104,0.07054881751537323,-2.1171371936798096,0.3777692914009094,-0.5703896880149841,-0.20827502012252808,-0.6053598523139954,-0.7693925499916077,2.275470018386841,-3.3504204750061035,-1.9261785745620728,-1.5338537693023682,0.27806103229522705,0.4299764931201935,0.738804042339325,1.6371256113052368,0.16041813790798187,-1.5310378074645996,-0.2934548854827881,-0.8171039819717407,-1.9373875856399536,-1.2903475761413574,1.159958004951477,-1.2713474035263062,2.5314552783966064,-0.10318416357040405,-1.7561132907867432,2.3946893215179443,-2.647700548171997,-0.9935169816017151,3.6671180725097656,-0.11649049073457718,0.7548742890357971,1.7575417757034302,1.365655541419983,0.7725043296813965,-0.007499687373638153,-2.293989419937134,-0.1525164693593979,-1.9166682958602905,0.8333693146705627,-2.078559160232544,0.3632626235485077,-1.067312479019165,-1.434627652168274,-2.0172998905181885,-1.4871208667755127,-0.5626166462898254,0.061617132276296616,2.2869935035705566,-0.2641197144985199,2.806443691253662,-1.948477864265442,-0.28531375527381897,-0.974643349647522,1.472030758857727,-0.46520671248435974,0.057712700217962265,-0.48801711201667786,-0.9196105599403381,0.92303866147995,0.22768238186836243,0.9758255481719971,1.9711860418319702,0.4471736252307892,-0.711828887462616,1.3008219003677368,-0.9572608470916748,-1.2399656772613525,1.5195101499557495,-0.05924293026328087,-0.8100886940956116,-1.497382402420044,-0.6261851787567139,-0.5182846784591675,-0.22177115082740784,1.4162606000900269,1.0285426378250122,-2.1556544303894043,-3.9428768157958984,0.15617609024047852,-0.7148258686065674,-1.987085223197937,-0.45165523886680603,-0.510816216468811,-1.2530381679534912,-2.391188383102417,-3.0421364307403564,-0.7703884243965149,0.6409086585044861,-0.5341029763221741,0.6731565594673157,0.446970134973526,0.86933833360672,-1.6402039527893066,1.2577707767486572,0.24597559869289398,-1.2241544723510742,0.6252507567405701,1.840787410736084,0.0652518942952156,0.8958234786987305,3.207737922668457,1.2375521659851074,-0.739081621170044,-0.5785377025604248,3.082530975341797,-1.2238919734954834,-2.9770874977111816,-1.4963440895080566,-0.6893067955970764,-1.5809177160263062,1.0230432748794556,-0.1645687222480774,-0.18639183044433594,1.4433380365371704,-1.9889721870422363,-0.14995919167995453,-1.286017894744873,1.7198799848556519,-0.6463005542755127,-1.6110453605651855,0.7770488858222961,-1.7927467823028564,0.32554861903190613,0.8390067219734192,0.6897202730178833,0.14196713268756866,0.370969295501709,0.5696828365325928,2.002662420272827,0.6041826605796814,-0.4252285659313202,-1.2118959426879883,0.36827197670936584,2.938281536102295,-3.0399506092071533,-1.2439846992492676,-2.160428524017334,-1.9644291400909424,-4.659056663513184,1.5241467952728271,0.6247096061706543,0.09836822003126144,0.6169047355651855,-0.7645869851112366,2.0344460010528564,2.3495771884918213,-2.211045265197754,-1.4358693361282349,-0.5449962615966797,0.366964191198349,0.4877057373523712,-0.5133079886436462,0.1279829442501068,-1.5440245866775513,-0.20145724713802338,0.6813644766807556,1.9097427129745483,0.15100152790546417,-2.7692787647247314,-1.7852389812469482,-1.8913788795471191,-0.9063943028450012,-2.6277427673339844,0.9211421608924866,-1.7632302045822144,4.051572799682617,-1.8876652717590332,-2.8760805130004883,-1.821798324584961,-2.3498618602752686,-0.8024111390113831,0.19687961041927338,-0.8091246485710144,-0.11272004246711731,-1.5656360387802124,0.4477899968624115,-0.4522102475166321,0.32528480887413025,0.08456044644117355,-0.3724825084209442,0.8948094844818115,0.4744175970554352,-1.3771921396255493,-1.374667763710022,1.1888062953948975,-0.9774918556213379,1.5560352802276611,-0.20938773453235626,-0.6737569570541382,-0.3988924026489258,0.5594619512557983,-3.0237112045288086,-0.9578889608383179,-0.6254987716674805,-2.9164791107177734,0.7238107323646545,-2.5665555000305176,-1.6890355348587036,-2.032881498336792,-3.56490159034729,-0.5873039960861206,-2.8492956161499023,-2.058122396469116,0.6939298510551453,-3.022721529006958,-1.2724483013153076,-1.4033663272857666,0.21771661937236786,2.3132543563842773,1.7556955814361572,1.172071099281311,1.1462844610214233,-2.027855157852173,1.2920228242874146,-1.8040244579315186,0.53973388671875,-0.5431710481643677,2.372454881668091,-2.2355995178222656,2.1909053325653076,1.4558110237121582,0.6951921582221985,-0.26298007369041443,-0.19055919349193573,-0.2636900842189789,0.6864243149757385,-1.041670560836792,-0.1750245988368988,0.24077817797660828,1.762383222579956,0.6225886940956116,-0.4951164424419403,-1.4513880014419556,-0.558154821395874,0.762583315372467,0.5033412575721741,-0.39795491099357605,-1.7414413690567017,-0.6376889944076538,0.6099333763122559,2.462620973587036,-0.22261227667331696,0.5425896048545837,3.330615282058716,-0.6836217641830444,0.6344501972198486,1.8619002103805542,-4.620624542236328,0.02997070550918579,-0.42132216691970825,0.41487205028533936,2.082371711730957,-0.3263346552848816,0.5285049676895142,0.21825602650642395,-1.3859621286392212,1.127936601638794,0.7994515895843506,1.3349432945251465,-0.7968958616256714,-1.1466060876846313,0.17086181044578552,0.43542447686195374,-1.4684908390045166,-0.4630560278892517,-1.3466993570327759,-2.029850959777832,0.9094247817993164,-0.6781765222549438,2.6708638668060303,-2.387014150619507,-1.2453900575637817,-0.41053056716918945,-1.2659697532653809,2.4989449977874756,4.064464092254639,-0.7895639538764954,1.4211105108261108,1.5859602689743042,-0.8461998701095581,0.2905571758747101,0.7276678085327148,2.4530696868896484,-0.4002580940723419,1.6675478219985962,-0.30054762959480286,-1.7815449237823486,0.43217915296554565,0.7469183802604675,3.186743974685669,-1.0727319717407227,-1.001937747001648,2.382338762283325,-0.44972527027130127,1.5449833869934082,2.4067702293395996,-1.5449151992797852,0.5585198998451233,-1.463645577430725,-2.1798548698425293,-0.5454810857772827,2.6205995082855225,0.0753425806760788,-0.39051562547683716,-0.9671098589897156,-1.2130398750305176,0.37768465280532837,0.896592915058136,0.4333155155181885,-0.6933063864707947,-2.8580257892608643,0.9624682664871216,0.1716032773256302,1.2112984657287598,0.6483903527259827,-2.4290027618408203,0.8220821022987366,1.0764557123184204,-0.1075960099697113,1.1026302576065063,1.6669013500213623,0.45719802379608154,-1.2487396001815796,1.0264782905578613,2.1792938709259033,1.2134398221969604,0.6701698303222656,0.8867112994194031,-0.35860300064086914,-0.2623375654220581,-0.4314810037612915,-0.8724319934844971,-1.7751975059509277,2.333059787750244,-1.9733856916427612,1.2272002696990967,-0.5828689932823181,1.535416603088379,1.6690598726272583,-0.46951454877853394,-1.58250892162323,1.1827811002731323,-0.04447140172123909,-0.8885065913200378,0.06445202976465225,0.6280392408370972,2.1187987327575684,-1.291405439376831,1.1893771886825562,-0.13561470806598663,-1.869907259941101,1.56082022190094,-0.38552096486091614,-2.0435397624969482,-2.8798294067382812,0.7469082474708557,0.45213672518730164,1.0069221258163452,0.12676629424095154,-0.3742814362049103,1.3402438163757324,0.7959632277488708,0.3893721103668213,1.3388850688934326,0.887974202632904,1.3302291631698608,0.22136008739471436,2.183861494064331,-1.4786996841430664,-2.5086514949798584,-0.15480175614356995,1.0051709413528442,2.0293569564819336,2.349637269973755,-0.19601592421531677,-0.7243995070457458,3.2860043048858643,-1.1990711688995361,-0.810149073600769,0.5333828330039978,-0.8879674673080444,-1.9386622905731201,3.20090913772583,-0.23720748722553253,0.5771244764328003,-0.2935809791088104,0.5148952603340149,0.7142794132232666,0.5506200194358826,1.2313307523727417,-0.21686334908008575,-0.8830113410949707,-1.3630677461624146,-0.12126625329256058,0.10538150370121002,-0.09228482097387314,0.9854939579963684,-1.4920951128005981,-1.5695252418518066,-1.2950478792190552,2.1379129886627197,1.0252574682235718,-0.5693211555480957,-2.3663852214813232,0.9828779101371765,0.46569952368736267,0.3146740198135376,-0.9627895355224609,0.0067945257760584354,0.7416386604309082,1.407942295074463,0.9657418131828308,-3.1084415912628174,0.2654726207256317,-0.7273741364479065,1.2397899627685547,0.5695006847381592,1.894970417022705,1.381463885307312,-1.5470741987228394,-2.5351643562316895,0.779796838760376,1.4540654420852661,-2.0712711811065674,0.2702944576740265,1.4682334661483765,-2.145430088043213,-1.3494727611541748,-0.17862819135189056,2.948019027709961,-2.9093637466430664,2.328272819519043,-1.2986712455749512,-0.13966546952724457,-2.393434524536133,1.9011898040771484,0.008836491964757442,1.254233717918396,-1.5991703271865845,-1.0942189693450928,0.7677010893821716,0.4121410548686981,1.3499678373336792,1.1173356771469116,1.9037874937057495,-2.477238655090332,-1.614747166633606,1.4240801334381104,0.7595787644386292,-1.761277675628662,0.16709257662296295,-0.06325632333755493,0.8911194205284119,-1.44722318649292,-0.9109414219856262,0.20361483097076416,0.1744544357061386,-0.3445931673049927,-1.0830754041671753,0.05581685155630112,0.28140226006507874,0.20815347135066986,-0.3929711878299713,-2.509371042251587,-0.5743763446807861,1.6728190183639526,0.9365434050559998,-0.031042717397212982,0.6182001829147339,-0.38868284225463867,0.17076437175273895,-0.09000767022371292,-0.13827919960021973,3.0999937057495117,-1.1026347875595093,-1.383961796760559,-1.5986368656158447,1.3181017637252808,-2.0741796493530273,1.5009015798568726,1.2176002264022827,-0.43718311190605164,-1.9965347051620483,0.2377871721982956,0.21565860509872437,0.8137691020965576,-1.610622763633728,-1.921699047088623,-0.47650018334388733,-1.6178905963897705,-0.44105371832847595,4.334288120269775,-0.6958394646644592,1.3097587823867798,-1.3347783088684082,1.2756016254425049,3.179539203643799,-1.6428771018981934,-1.5476592779159546,-1.3697808980941772,-2.7574877738952637,0.9205211997032166,-0.7058917284011841,0.3311735987663269,0.36232781410217285,-1.57734215259552,0.5809532403945923,0.5834037661552429,-1.2680636644363403,-1.69047212600708,0.6806026101112366,0.6463815569877625,0.6470159888267517,1.710720181465149,1.2143243551254272,-1.6690093278884888,-0.9323452115058899,2.0143165588378906,1.101556658744812,1.2324999570846558,-2.6843056678771973,-0.5783020853996277,-0.4876614511013031,-1.1875003576278687,-1.4978251457214355,0.2423890233039856,1.1532633304595947,1.9943833351135254,0.8564335107803345,0.3284565210342407,-1.3013807535171509,-0.13821391761302948,0.6232823133468628,0.33342140913009644,-0.22617760300636292,-1.8334805965423584,0.710077166557312,-0.793187141418457,1.2032625675201416,1.3638864755630493,2.25836443901062,-0.2232183814048767,-0.7531531453132629,1.01688814163208,-1.9390501976013184,-1.8620867729187012,1.6394150257110596,0.3793106973171234,-1.9145355224609375,0.2520633041858673,-0.337164968252182,0.24410684406757355,0.22484584152698517,-2.7567923069000244,-0.729019820690155,-0.04072926193475723,1.6180341243743896,0.5261671543121338,3.688830852508545,0.02641887217760086,1.4966609477996826,-0.52019864320755,2.9915285110473633,1.4134329557418823,1.6187785863876343,-1.4000955820083618,0.36922287940979004,-2.710519552230835,-0.8571523427963257,-3.864453077316284,1.3463683128356934,-1.188148021697998,0.9764958024024963,0.2427012324333191,0.7582840323448181,0.016302378848195076,2.872631788253784,-0.3857443928718567,1.5284910202026367,1.2602972984313965,-2.8167574405670166,0.7329512238502502,0.20162545144557953,1.5001693964004517,0.32600846886634827,-0.9790289998054504,0.054748475551605225,1.254164695739746,0.9273377656936646,1.7228007316589355,-1.6922080516815186,1.3087650537490845,-1.6775195598602295,1.820935606956482,1.1865880489349365,-0.7913614511489868,0.6183357238769531,1.3161664009094238,2.49822998046875,1.9173848628997803,-1.8604426383972168,-1.4603968858718872,-0.6357759833335876,0.7543469667434692,1.7429028749465942,-0.735863983631134,-0.6629424095153809,0.7733637094497681,2.617555618286133,1.6582093238830566,0.974348247051239,3.8017771244049072,-1.6915106773376465,-0.5451160669326782,-0.8675538897514343,0.6349091529846191,-0.2594445049762726,-0.8337731957435608,-0.319383829832077,-0.31507477164268494,1.3331106901168823,-1.4887357950210571,-0.5534770488739014,0.21545185148715973,1.2254610061645508,-2.2345902919769287,1.05769681930542,-0.08370179682970047,3.150923013687134,1.9586548805236816,1.7275409698486328,-1.715030550956726,-1.5946106910705566,2.7473833560943604,-1.3853434324264526,-2.0174386501312256,0.6725907921791077,0.22864869236946106,1.0230813026428223,1.4351998567581177,0.9682356119155884,1.1328837871551514,0.5020572543144226,1.425004243850708,-1.077277421951294,-0.5890357494354248,0.022504104301333427,0.33395135402679443,0.7913885712623596,-1.450567603111267,0.2110353261232376,-3.6148996353149414,-1.3185210227966309,0.13085462152957916,-3.129769802093506,-0.048449672758579254,0.8756282925605774,-1.8528423309326172,1.0595026016235352,2.951786994934082,-0.30431845784187317,-1.9823672771453857,-1.016039252281189,-1.2219821214675903,0.41198307275772095,-2.005065441131592,-0.45901259779930115,0.15913231670856476,2.096311569213867,0.3660595118999481,-2.9827611446380615,0.1275775134563446,0.08535351604223251,-1.4556517601013184,-2.0346503257751465,-0.1095137745141983,0.3372647762298584,0.6357125639915466,-0.17378221452236176,1.2278670072555542,-0.6298317909240723,0.15395276248455048,-2.61629319190979,-0.7958803772926331,0.9204957485198975,-0.5648183822631836,-2.3819849491119385,-0.9212126731872559,1.0715975761413574,2.1658132076263428,-0.9287868142127991,1.6862682104110718,1.2331311702728271,1.7452915906906128,1.8716380596160889,0.08307981491088867,1.8505476713180542,0.2094426304101944,-0.03251223638653755,-2.1980223655700684,-1.1706148386001587,4.205241680145264,-1.8180038928985596,-0.8819597363471985,1.2265584468841553,1.0662257671356201,0.14608284831047058,-0.5383548736572266,0.905516505241394,-0.6591629981994629,-1.7574037313461304,0.6089560389518738,2.2641074657440186,2.2704896926879883,-0.6600824594497681,1.161096453666687,-1.2131227254867554,0.5294750928878784,1.8675003051757812,-3.274444580078125,1.920715570449829,0.9508052468299866,-1.0357346534729004,-2.235640287399292,1.1520150899887085,0.5896889567375183,2.0515925884246826,0.16349132359027863,2.8632233142852783,-1.3478453159332275,0.8953563570976257,-0.47652024030685425,-1.1968357563018799,0.2074630856513977,-2.2289202213287354,-1.4253549575805664,0.8612471222877502,0.3465656340122223,1.951270341873169,-1.184127688407898,1.1910699605941772,2.520050525665283,2.935520648956299,5.446157455444336,-0.29701265692710876,0.9611421823501587,-0.3240581750869751,-0.3451228141784668,-1.273834228515625,-1.444555401802063,-0.7069672346115112,0.7669243812561035,0.5567469000816345,1.070725679397583,-2.0503180027008057,0.24508503079414368,-1.6540526151657104,-0.1956685483455658,0.1554393172264099,1.9572725296020508,1.2318618297576904,-2.3352270126342773,-2.0989251136779785,1.6937909126281738,1.2473913431167603,1.8033010959625244,1.1015006303787231,1.2638524770736694,0.3402416706085205,0.4199855625629425,-0.3998241722583771,0.3731483221054077,-1.6228657960891724,-0.8834707140922546,1.759342074394226,1.1725101470947266,1.0505926609039307,-1.5119225978851318,-0.07833923399448395,0.1209012046456337,2.5542802810668945,-2.1831893920898438,0.08450102061033249,0.5504228472709656,-2.0279312133789062,-1.8104182481765747,0.9160900712013245,3.10740327835083,-0.8630537986755371,-1.5288372039794922,1.0818476676940918,-0.9301774501800537,1.2008808851242065,1.4208743572235107,-0.46268579363822937,-0.11872545629739761,-1.9256353378295898,-0.23383021354675293,0.31938180327415466,-0.4290553629398346,0.45984959602355957,0.41559478640556335,3.2892398834228516,1.6605275869369507,-0.43858960270881653,-0.620396614074707,2.2622482776641846,-0.9137973189353943,0.3799060583114624,-0.579076886177063,-1.3993021249771118,0.15218043327331543,2.014503002166748,-1.7471048831939697,2.9233291149139404,-1.27753484249115,0.07966501265764236,1.2928529977798462,-0.549602746963501,1.8033552169799805,-1.647093653678894,-0.40282031893730164,-1.7184672355651855,-0.5717484951019287,-0.3462584316730499,-0.850380003452301,-1.3704967498779297,-1.1250782012939453,-1.1280159950256348,2.7250630855560303,-1.2524687051773071,-3.0801849365234375,-2.5955936908721924,0.9901599884033203,0.1409061849117279,2.4511847496032715,1.7623172998428345,-0.11529772728681564,-1.11890709400177,3.487687826156616,-0.20843613147735596,-1.4382600784301758,0.932938277721405,-1.387589454650879,-1.0417948961257935,-0.06333451718091965,1.2478207349777222,0.9770998954772949,-2.8093068599700928,0.683646559715271,2.229462146759033,-0.5910639762878418,-0.48392122983932495,-0.6177183985710144,-0.18105179071426392,-1.035810112953186,1.0159645080566406,-1.9309910535812378,4.688129901885986,1.1977168321609497,0.9512236714363098,-1.478345513343811,2.364237070083618,-0.4329511523246765,-0.11704271286725998,-2.8220112323760986,-0.41714051365852356,-1.2528002262115479,0.8852823376655579,2.01196551322937,0.33356088399887085,-1.4937630891799927,-1.2650010585784912,-1.0983378887176514,0.8209139108657837,0.439255952835083,-0.2461911141872406,0.7996041774749756,-0.3794099688529968,0.7811682820320129,-1.8424522876739502,-0.8101662397384644,1.1929397583007812,-0.9561391472816467,-1.2446414232254028,-0.5305631160736084,2.649080991744995,0.2289656400680542,-0.33493226766586304]},"inputHidden":{"rows":20,"columns":20,"weights":[-0.8565014004707336,2.128491163253784,-1.6064748764038086,0.3108176290988922,0.3325441777706146,0.22973300516605377,0.1361173689365387,0.19788776338100433,0.1169319823384285,-0.4353638291358948,2.118751287460327,-2.084691286087036,0.31544816493988037,-0.5959500670433044,-1.1855179071426392,0.4844278395175934,-1.8689610958099365,-0.9888220429420471,-0.5028959512710571,0.6671181321144104,2.0922935009002686,-1.427449107170105,-2.097414255142212,-1.1756083965301514,1.0805330276489258,1.4782836437225342,-1.6047520637512207,0.1710847169160843,1.9382963180541992,-0.810348391532898,0.1982719451189041,-0.4106573760509491,-0.774704098701477,0.635935366153717,0.11467412114143372,-2.7109179496765137,1.055126428604126,1.0246925354003906,0.3599088490009308,-0.2435736358165741,-1.6527279615402222,0.9785484075546265,2.56010103225708,-3.502586603164673,-0.08408702164888382,-3.029331922531128,-6.8246169090271,3.3877615928649902,2.9142911434173584,0.7927297949790955,2.1114213466644287,-0.5012102127075195,1.74461829662323,-3.2096009254455566,0.444928914308548,-5.874230861663818,1.608399748802185,2.5271685123443604,-5.539620399475098,-7.27085542678833,1.0535995960235596,0.36909839510917664,-0.5467604398727417,-0.4203760325908661,2.571934223175049,-0.545546293258667,4.048580646514893,-0.4024626314640045,-1.1163240671157837,0.7213228344917297,-0.6306230425834656,1.2889256477355957,-0.5090665221214294,-0.11641352623701096,0.870387613773346,-2.1634483337402344,0.7694072723388672,-1.7707641124725342,-1.0802381038665771,-1.6779152154922485,1.4733046293258667,-0.863183319568634,-0.19667725265026093,-0.052862316370010376,-0.5903744697570801,0.3090672492980957,-0.4360145330429077,1.027044415473938,-0.9262502193450928,-1.2518401145935059,1.1029399633407593,0.3410927653312683,-0.7230520248413086,-0.4279809594154358,1.851173758506775,0.6088342070579529,-1.1951619386672974,-0.11676734685897827,-1.2083380222320557,-0.46794188022613525,-0.22998522222042084,-0.4788605868816376,0.8376564979553223,-0.40314650535583496,-0.15784597396850586,-0.5113596320152283,2.145745038986206,0.5910490155220032,-0.17314308881759644,0.4463886618614197,0.38258352875709534,2.8183605670928955,0.7188665270805359,0.48718392848968506,4.034658908843994,-2.172839879989624,0.03570549190044403,-1.4520872831344604,-0.17424359917640686,-0.2758927643299103,2.314359188079834,0.13150811195373535,3.973378896713257,2.258495569229126,5.207962989807129,-0.83694988489151,5.119784832000732,1.0305123329162598,1.4233843088150024,-3.5371956825256348,-0.8566075563430786,0.0674784779548645,4.242065906524658,0.5550628900527954,0.7048467993736267,0.19412553310394287,-1.3384150266647339,-4.163596153259277,-5.718414783477783,-2.942990779876709,1.1315388679504395,2.837606430053711,0.5646587610244751,0.7740390300750732,-1.0975817441940308,1.3119451999664307,-0.7110835313796997,-0.8237015604972839,0.5236048698425293,-1.1253339052200317,-0.2797563672065735,-0.10348615795373917,-0.08061458170413971,1.1517510414123535,-4.18672513961792,0.19100888073444366,1.1021006107330322,-1.1328774690628052,0.9566092491149902,2.1312403678894043,-0.11905943602323532,-0.30446651577949524,0.004478110000491142,-1.1233744621276855,3.5805470943450928,-2.293789863586426,-0.11977821588516235,-0.31885674595832825,0.9918760657310486,0.018686704337596893,0.3891253173351288,0.16884475946426392,-0.1301877349615097,1.9558876752853394,0.03622964397072792,0.3566758632659912,0.0431285984814167,0.40860843658447266,0.6435987949371338,1.4366698265075684,1.5664151906967163,-1.8690882921218872,-0.8509382009506226,2.572946548461914,-2.7886292934417725,-0.913063108921051,-3.438508987426758,0.14677660167217255,0.2848774790763855,0.3757513463497162,-2.140707015991211,1.4892637729644775,1.581629753112793,-4.515801906585693,-2.307194232940674,-3.342292308807373,2.1546831130981445,-1.0315414667129517,2.4697699546813965,0.6952325105667114,0.8849515914916992,0.5744085907936096,2.078219413757324,-2.3389780521392822,-1.9036574363708496,-0.168782576918602,2.028981924057007,-0.4623504877090454,0.11909202486276627,-1.1535515785217285,2.195631265640259,0.26842865347862244,-1.2596895694732666,2.02105712890625,-1.2591664791107178,0.6111056208610535,0.37703049182891846,-0.6255631446838379,-0.07968443632125854,1.066513180732727,0.13047218322753906,0.7772909998893738,1.109604001045227,1.2641981840133667,-0.22700417041778564,0.2879783809185028,0.4013881981372833,-0.8096833229064941,-0.06440885365009308,0.30404970049858093,1.7065727710723877,-0.03384982794523239,1.284438133239746,-1.2153764963150024,1.4595087766647339,0.7204971313476562,1.5525813102722168,0.7571644186973572,-0.8873717188835144,1.2299058437347412,1.0735095739364624,0.050142183899879456,0.49644413590431213,-1.8103890419006348,0.341291606426239,0.9328204989433289,-1.1767911911010742,1.0201176404953003,-0.5443002581596375,0.7613272666931152,-3.801255941390991,-0.9922324419021606,-1.9326494932174683,-1.8127732276916504,-1.0117300748825073,1.5403673648834229,1.4228312969207764,0.307698130607605,0.5827483534812927,0.6160708665847778,-1.2219982147216797,0.6461309194564819,0.5218049883842468,0.1073494553565979,0.33090969920158386,-0.14487163722515106,-0.7445530891418457,0.1855575144290924,-0.7447211742401123,-1.196088433265686,1.455938458442688,-0.7900684475898743,0.5968445539474487,-0.7546902298927307,1.3604397773742676,-1.3183519840240479,-2.0257933139801025,-0.48653966188430786,-0.41551724076271057,-1.2367111444473267,0.34170079231262207,0.0815238356590271,2.4941959381103516,0.7445878386497498,0.10349899530410767,0.8056561946868896,0.4948161244392395,1.1703991889953613,0.31738045811653137,-0.4364570677280426,-0.034974537789821625,0.21075357496738434,1.6469510793685913,-0.07909836620092392,0.15343651175498962,1.6128448247909546,0.03721603378653526,-0.8021465539932251,1.3912664651870728,-0.18014225363731384,0.1617206633090973,2.228729248046875,-0.9028615355491638,-0.7183989882469177,1.512871265411377,2.455707311630249,3.761120557785034,0.28642386198043823,1.1501102447509766,3.0656962394714355,-2.815739870071411,0.06925977021455765,-0.5075243711471558,0.6587923169136047,-1.3067573308944702,1.6689704656600952,2.409259080886841,-2.899604082107544,0.4066772758960724,0.3283673822879791,-0.0756084993481636,2.5159144401550293,-0.5139997601509094,-0.3187492787837982,1.2258164882659912,-1.143060326576233,-1.8169878721237183,-1.4489306211471558,-0.4844573736190796,1.732361078262329,-0.7803661227226257,-0.3577364385128021,1.1716728210449219,0.808890163898468,-2.67039155960083,0.9316929578781128,1.0308624505996704,0.6068024635314941,-2.6278882026672363,-1.2839324474334717,-0.859310507774353,-0.7871821522712708,-1.7606886625289917,2.458402156829834,0.9649931192398071,-1.0322767496109009,2.178149461746216,0.8561779856681824,-0.3594629168510437,-0.7372556328773499,0.3750205934047699,0.30514806509017944,-2.114697217941284,1.2960015535354614,-0.34366387128829956,-3.9626989364624023,-1.1975177526474,4.493686199188232,2.6847734451293945,1.1938602924346924,-0.9257258772850037,-0.8966450095176697,1.268913745880127,-0.6447880268096924,1.2477117776870728,2.24006724357605,1.0203291177749634,1.4671170711517334,0.0057599409483373165,0.025385543704032898,2.312824249267578,-1.9981626272201538,-0.8046751022338867,1.6860456466674805,0.5900994539260864,1.0320942401885986,0.5084316730499268,1.223475694656372,-0.8536884188652039,-1.2271488904953003,-2.3879430294036865,1.0512714385986328,-2.437488317489624,0.305599570274353,0.818572461605072,0.14372894167900085,-1.6743322610855103,0.5474017858505249,0.14569838345050812,-1.6614700555801392,1.0670334100723267,-1.3202216625213623,-2.160593032836914,3.1041488647460938,0.9867594242095947,0.0034888731315732002,-0.48448294401168823,-0.3477964401245117,0.5390050411224365,-3.5623159408569336]},"inputBias":{"rows":20,"columns":1,"weights":[0.018248291686177254,0.6768602728843689,-0.35134902596473694,0.08863305300474167,-0.1472860872745514,-0.10386386513710022,0.28115198016166687,0.017512070015072823,0.140829935669899,-0.1684120148420334,-0.4524950683116913,-0.08344139158725739,-0.22821557521820068,0.45738425850868225,0.6101484298706055,-0.1565571278333664,0.08211489766836166,0.23025940358638763,-0.6589158773422241,0.15446056425571442]},"forgetMatrix":{"rows":20,"columns":49,"weights":[-0.6986352801322937,1.0330822467803955,-0.09936682879924774,-1.102639079093933,0.8971139192581177,-1.7319616079330444,1.212044358253479,-1.2761962413787842,-1.592989444732666,-0.24938687682151794,0.7200201749801636,0.8926041722297668,-0.6064459085464478,-0.07733183354139328,-1.5803380012512207,-0.7497230172157288,0.9729657173156738,-1.2169657945632935,1.4076718091964722,-1.3509315252304077,0.9814274907112122,-1.5995516777038574,-1.2453670501708984,0.5526821613311768,0.20331639051437378,-0.07650761306285858,0.9862040877342224,-1.0712945461273193,-1.029608964920044,1.3411043882369995,0.6611058115959167,0.4062816798686981,-1.064149260520935,-0.4934743046760559,-1.7227463722229004,0.07215224206447601,2.1097841262817383,-0.4242839515209198,-0.5263028144836426,-1.007124662399292,0.030988018959760666,2.369483232498169,-0.35911130905151367,-0.6481778621673584,1.4232559204101562,-0.3133038878440857,1.2528622150421143,1.1497656106948853,1.8416502475738525,-1.0505050420761108,-1.106398582458496,-0.21707569062709808,-0.7463359236717224,0.061227113008499146,1.429230809211731,0.770742654800415,-2.4378044605255127,1.7846324443817139,1.625051736831665,-1.059188961982727,1.2304309606552124,2.3956332206726074,-1.1401736736297607,1.0195553302764893,0.8506370782852173,-2.4819185733795166,1.7269737720489502,-1.699873685836792,-0.9705682992935181,-1.2477695941925049,1.5834437608718872,0.4322512447834015,-0.5646050572395325,-1.180108904838562,0.6122700572013855,1.3425711393356323,-0.7408204078674316,1.3079731464385986,-1.7354625463485718,-1.186483383178711,0.2807186245918274,-1.552553415298462,0.9173837900161743,1.0794503688812256,-0.35196956992149353,-2.0864994525909424,0.03001520223915577,2.2005820274353027,0.5175061225891113,1.0167449712753296,1.0947352647781372,1.071363091468811,0.6197549700737,2.7875680923461914,0.7099135518074036,-0.6755466461181641,-0.37719157338142395,1.3090672492980957,-0.22437171638011932,-1.2913957834243774,1.4023256301879883,2.4519870281219482,-0.8696267008781433,-1.3929423093795776,2.001206636428833,-1.6996688842773438,-3.1880500316619873,0.12665560841560364,0.01530130673199892,-0.108958400785923,-2.988032102584839,-0.6381726861000061,-0.6852396130561829,-0.23601001501083374,1.7141801118850708,-2.0918080806732178,0.7677783966064453,-0.38762858510017395,2.2639200687408447,-0.9557511210441589,-1.5122874975204468,-0.34261664748191833,0.12472432106733322,-0.5226441025733948,-0.1827346831560135,-0.9333645105361938,0.07038410007953644,-0.1608259081840515,1.8601914644241333,2.242790699005127,0.1444266140460968,0.661395788192749,0.8576148748397827,-0.43666648864746094,0.5670536756515503,-0.898412823677063,-0.24875608086585999,1.5803757905960083,-0.3510013222694397,0.045821793377399445,0.6903787851333618,-1.0693368911743164,0.3727132976055145,-0.09490668773651123,0.7205699682235718,0.5680138468742371,1.127509593963623,2.8039634227752686,-1.3391739130020142,-0.01741604134440422,2.2410478591918945,0.9084475040435791,0.36139506101608276,-0.7359448075294495,-1.2908190488815308,1.1471326351165771,-2.0756101608276367,-2.941220760345459,1.3153986930847168,1.457790732383728,1.6180872917175293,0.11246871203184128,1.5795502662658691,1.2431902885437012,-0.896013081073761,-0.0786813348531723,-0.4730161130428314,-0.5693105459213257,-0.6836172342300415,1.0351794958114624,-1.1664448976516724,0.7983102202415466,0.11563926935195923,-0.3768295347690582,0.18334102630615234,1.261135458946228,0.5006818175315857,-1.9289515018463135,1.672649621963501,2.554048538208008,1.962157964706421,-1.7444634437561035,1.513174295425415,-1.2720284461975098,2.1211142539978027,-0.44982612133026123,-0.0550730861723423,2.0595102310180664,1.6202118396759033,1.195318579673767,0.7686133980751038,0.6998502612113953,0.7632006406784058,0.4329788088798523,1.373295783996582,0.33425769209861755,1.332655429840088,0.5744888782501221,1.2856113910675049,-0.7876741886138916,1.2131273746490479,0.2981703579425812,-0.6455080509185791,1.15074622631073,0.709372878074646,-0.2707825303077698,-0.9091299176216125,-0.6317688226699829,0.6094573736190796,-2.953916549682617,-0.8139535784721375,-1.0134276151657104,0.8611195683479309,-0.7185669541358948,0.8578062057495117,0.5057757496833801,0.9850107431411743,-1.4525998830795288,-1.1267222166061401,0.29622018337249756,-0.4430488348007202,-2.8112146854400635,0.000005996627805870958,0.5613588690757751,-0.6162015199661255,-0.8063068985939026,0.9688988924026489,-0.13879680633544922,1.132348656654358,-2.538130044937134,0.023939982056617737,-1.2560174465179443,1.0023695230484009,-1.4848170280456543,0.6014803051948547,-0.18166793882846832,0.060898128896951675,0.8342320919036865,-0.9331558346748352,1.1967136859893799,1.4743473529815674,0.07662343978881836,-1.6607528924942017,1.565908432006836,-0.11555039882659912,-0.2551271915435791,-0.7044274210929871,2.8783624172210693,-1.2072362899780273,-0.5669664740562439,0.926777184009552,-1.522234320640564,0.5283182859420776,0.8043866157531738,0.6497206687927246,1.0857471227645874,-0.39285019040107727,-0.08120576292276382,-2.5841636657714844,-1.0335413217544556,-1.4127000570297241,0.05402135103940964,-0.8791738748550415,-0.12561233341693878,3.1595377922058105,0.7247902750968933,-1.232418417930603,-0.7984490990638733,-1.2392420768737793,-1.058727741241455,-0.5810111165046692,0.014964709989726543,1.1780223846435547,-2.3113746643066406,1.308106780052185,-1.272756576538086,3.699450731277466,-0.8677121996879578,-2.0191898345947266,0.29072999954223633,-0.18812644481658936,-0.8200401663780212,-1.00724458694458,-0.4521942436695099,1.1395483016967773,-0.8415008783340454,-1.0271857976913452,1.293994426727295,0.1824445277452469,1.0686228275299072,0.34724149107933044,0.11125025153160095,1.8187097311019897,1.9472061395645142,0.6253185868263245,0.5084682106971741,0.7606004476547241,0.556819498538971,-1.3565223217010498,0.7496092319488525,0.604898989200592,-0.5167490839958191,-1.187791347503662,-1.2805039882659912,2.5841639041900635,-0.08977825939655304,-0.3555094301700592,-0.5937508344650269,0.1485537588596344,-2.0264034271240234,1.6172384023666382,-1.5581636428833008,2.4677844047546387,0.40653127431869507,-0.7103034853935242,-2.3555517196655273,-0.32036536931991577,1.6860578060150146,-0.9621827602386475,-0.3437054455280304,0.9596285820007324,-0.018398169428110123,-0.23850391805171967,-0.46457281708717346,1.8319518566131592,0.9903680086135864,1.383988857269287,-0.4261195957660675,-1.0774791240692139,-0.25383231043815613,2.991708755493164,0.5295053720474243,0.17005373537540436,-0.1045713871717453,0.39543870091438293,-0.311438649892807,-0.49349138140678406,-0.3121117949485779,-2.2033674716949463,0.9044687151908875,-1.8323866128921509,0.858241081237793,-0.06829871237277985,1.916216254234314,-0.136174276471138,-0.613670289516449,0.6284470558166504,-1.4978762865066528,2.5982017517089844,-0.4813196659088135,1.6581311225891113,2.2502667903900146,-3.3472654819488525,-0.1514526903629303,-2.1907131671905518,2.1593825817108154,0.45469504594802856,0.8242724537849426,-0.6817552447319031,-0.39338910579681396,1.9471867084503174,-0.6886411905288696,-0.5028873085975647,0.5156344175338745,1.5443975925445557,-1.2278201580047607,0.15460219979286194,0.7035554051399231,-0.14449267089366913,-0.44879305362701416,-1.1492549180984497,0.9917395710945129,1.1224544048309326,0.38489291071891785,2.002009630203247,1.9671778678894043,0.6181827783584595,0.52942955493927,-0.3803374469280243,0.46706056594848633,-0.48174890875816345,0.24178867042064667,1.0623375177383423,1.148498296737671,0.21485881507396698,-2.621851682662964,-0.5254525542259216,0.6066873073577881,1.30036461353302,-0.016416525468230247,-1.2778733968734741,-1.3635958433151245,1.3572163581848145,1.8699438571929932,-0.5428396463394165,1.9479483366012573,0.9231610298156738,-0.12699590623378754,0.05464860051870346,-1.1445280313491821,-0.739136278629303,-0.6348459124565125,1.2647340297698975,-1.842239499092102,-0.5560131669044495,1.8113971948623657,-1.0043076276779175,-0.4870263636112213,2.7750918865203857,0.4337974786758423,2.258664846420288,1.5381733179092407,0.05741230770945549,-1.0783816576004028,-0.6283144354820251,-0.3204459249973297,1.5920852422714233,-0.2071954756975174,0.22508130967617035,-0.23469941318035126,-2.109020709991455,-0.03504743427038193,-0.02278786525130272,-0.7818754315376282,1.4180943965911865,1.324902057647705,0.3332710862159729,0.1683044731616974,0.9553611278533936,0.43339216709136963,0.907105565071106,0.8526178598403931,0.6968363523483276,0.5161267518997192,-0.8540118336677551,0.7008113861083984,-0.3426031470298767,0.767524003982544,0.5841858386993408,2.4835286140441895,0.7255820631980896,0.563568115234375,0.07796881347894669,0.7697755694389343,0.15531578660011292,-0.42662397027015686,1.4473891258239746,-1.015196681022644,-1.5695385932922363,1.5028042793273926,-0.4605960547924042,-1.3812600374221802,1.4863383769989014,1.0005391836166382,-1.8121510744094849,-0.008821306750178337,2.375199556350708,-0.8019761443138123,-0.6180425882339478,-1.024383306503296,0.17719796299934387,-1.0955278873443604,-0.04135381802916527,1.421259880065918,0.8010122179985046,-0.08907090872526169,-0.9558086395263672,0.06977526098489761,0.1890845000743866,-0.16229985654354095,-0.4083258807659149,-0.14769284427165985,-1.0577625036239624,0.7962435483932495,2.154849052429199,0.28035983443260193,-1.4777944087982178,-0.6514649987220764,0.6209668517112732,2.377798318862915,-0.047838419675827026,-1.030187726020813,0.041084107011556625,-0.1227404996752739,0.4405737519264221,1.8576966524124146,2.8974549770355225,-2.053565740585327,-1.2396793365478516,0.2597692608833313,0.5337976217269897,-0.5403065085411072,1.4211500883102417,1.1550557613372803,1.2717974185943604,0.6104554533958435,0.5116856694221497,-1.3004857301712036,0.7161427140235901,-0.1280592679977417,-0.16495423018932343,-1.8577907085418701,-0.9911854267120361,0.7936820983886719,0.35664406418800354,-1.0651990175247192,-1.4099607467651367,0.48156261444091797,-1.724621057510376,-0.8516688942909241,-1.080338478088379,0.7170016765594482,0.036109693348407745,0.40742459893226624,1.4395039081573486,1.7426574230194092,-1.0088590383529663,1.6879189014434814,0.9092361927032471,-0.3907221555709839,-1.4428538084030151,0.9686951637268066,-0.38479122519493103,0.6065323948860168,1.6524182558059692,0.1773749738931656,0.9600706696510315,0.6514217853546143,-2.9520299434661865,2.5741708278656006,2.9453916549682617,-1.1039637327194214,1.220075249671936,-2.0949606895446777,-1.379305362701416,1.7422492504119873,-1.3461452722549438,-1.480057954788208,-2.7372145652770996,1.5703136920928955,-1.2628031969070435,-0.8860567212104797,0.21343719959259033,-0.34345030784606934,2.5801775455474854,1.1361137628555298,0.4699399769306183,1.0944753885269165,-1.8513448238372803,1.1549346446990967,-2.070204973220825,1.5413390398025513,2.2831180095672607,-1.2538692951202393,1.2099575996398926,0.08761651068925858,1.2092866897583008,2.055180549621582,1.3132489919662476,2.0125579833984375,0.4910636246204376,-0.19470149278640747,-0.3550760746002197,-0.07773854583501816,1.6759439706802368,-0.9901431798934937,1.198103427886963,-0.821962833404541,-2.3270037174224854,1.3137805461883545,-0.9228357672691345,1.2766530513763428,0.3211174011230469,1.0128605365753174,-1.469409465789795,0.37917935848236084,-2.9546520709991455,1.596428394317627,-1.7666367292404175,1.7392555475234985,-0.8443870544433594,-0.21987351775169373,0.702120304107666,1.2250008583068848,1.725900650024414,0.21574927866458893,1.4537409543991089,1.6263360977172852,-0.5567388534545898,-0.3765197992324829,-1.2165231704711914,0.3932879865169525,0.839280903339386,1.8388866186141968,-1.4002240896224976,1.8079372644424438,-0.3617885410785675,0.22755016386508942,0.34856584668159485,-0.992896556854248,-0.3533816337585449,0.8150939345359802,0.2729489803314209,1.6938658952713013,-0.19264529645442963,-0.08302057534456253,-1.5930241346359253,-0.6469123959541321,1.691809058189392,0.27732983231544495,-1.2558633089065552,-0.02862861566245556,-2.0436017513275146,0.8794193863868713,0.18382683396339417,-1.403469443321228,-0.35943758487701416,-0.664693295955658,1.0156828165054321,-0.6545326113700867,-0.8390939235687256,0.9794142842292786,2.249966859817505,-0.23819506168365479,-1.217223882675171,-0.3388829827308655,1.3967688083648682,0.053796980530023575,0.441041499376297,-0.9408271312713623,0.5829969644546509,1.2036068439483643,1.3276273012161255,-0.8547945022583008,0.7447131276130676,-0.4048566222190857,0.5015854239463806,-0.6926537752151489,-0.9974413514137268,0.11155812442302704,-2.2233188152313232,1.439514398574829,-1.2333641052246094,0.48897382616996765,0.9165762066841125,0.852249801158905,2.0881917476654053,-0.9232084155082703,-1.258344054222107,0.7414538264274597,0.8620115518569946,-0.003376289736479521,0.7311981320381165,-2.616962432861328,0.6561658382415771,1.4905503988265991,-1.426702857017517,-0.24436819553375244,1.5110501050949097,0.41314390301704407,-1.6012295484542847,0.04566613957285881,-2.08028507232666,-0.6130847930908203,1.1994192600250244,2.14129900932312,1.5267564058303833,0.6200873255729675,1.1445682048797607,1.4429783821105957,-1.0081934928894043,-2.918910503387451,0.8031095266342163,0.22415949404239655,-1.6874382495880127,-0.6332499980926514,0.825096845626831,-0.6748867034912109,-1.0991421937942505,1.3767812252044678,0.08359119296073914,-0.5939746499061584,0.012231584638357162,1.3404122591018677,-0.3368893563747406,1.0942273139953613,-1.7983934879302979,-1.2022597789764404,-0.14597661793231964,-1.6331957578659058,2.042276382446289,-0.9100524187088013,-1.4217116832733154,-0.3441329598426819,0.5855368971824646,1.156739592552185,0.43859612941741943,0.13729724287986755,-0.6733593940734863,-1.8026412725448608,-0.8680731654167175,0.7623440027236938,0.968215823173523,0.5648821592330933,0.46204936504364014,-0.6940292716026306,-0.03579426929354668,0.12204524129629135,0.01567224971950054,0.32869458198547363,-3.089836359024048,-1.4758082628250122,0.05344362556934357,-1.324864387512207,1.7055070400238037,0.2248360812664032,0.19769753515720367,-0.3525240123271942,-1.3350286483764648,-0.7024813294410706,-0.4837554395198822,-0.41889652609825134,-1.0533373355865479,-1.4585397243499756,-0.010697637684643269,1.3834394216537476,-1.9286699295043945,-1.2963528633117676,-0.5405195355415344,0.8548907041549683,0.44287869334220886,-2.4393155574798584,1.140100121498108,-1.6002479791641235,-0.5461589097976685,0.8803609013557434,-0.5116205215454102,1.19380521774292,-0.1175038293004036,-1.4718846082687378,-0.4153324365615845,-0.6889224052429199,-0.2198226898908615,0.9596009254455566,-0.3008071482181549,-0.6492977142333984,2.3496809005737305,0.5365411043167114,-1.5590611696243286,1.266603708267212,-1.2587238550186157,0.9641126990318298,3.1536757946014404,-1.3642168045043945,-1.2759087085723877,0.683782160282135,-0.5294578075408936,-1.1794822216033936,-0.4431183636188507,0.33836424350738525,0.7105876803398132,1.439449429512024,-0.6091932058334351,1.1858710050582886,1.8390156030654907,-0.7450277805328369,2.0088367462158203,1.6267985105514526,0.09977713227272034,0.3943830728530884,-0.7307173013687134,-0.850285530090332,0.755761444568634,-1.0512902736663818,-0.11889521032571793,-0.440154492855072,1.2484326362609863,-0.5329013466835022,-0.5561501979827881,0.32933545112609863,-1.848166823387146,0.5391904711723328,-0.6397949457168579,-1.7629516124725342,-1.4461318254470825,-1.0458604097366333,-1.5544427633285522,-0.5291840434074402,0.910849392414093,-1.8630412817001343,1.6586343050003052,0.0807773545384407,-0.6416049003601074,-1.128253698348999,-0.5919412970542908,0.5002393126487732,0.38652220368385315,0.39569905400276184,-0.8909337520599365,2.1663384437561035,-1.2467796802520752,-1.5060166120529175,2.4191155433654785,2.617069959640503,-0.5570297241210938,-0.573900043964386,1.6153745651245117,0.8175565600395203,-1.7490191459655762,-0.358401894569397,0.21463117003440857,-1.359009027481079,-2.6993863582611084,0.07682247459888458,1.0214898586273193,-2.070180654525757,-0.8457260727882385,1.4884068965911865,0.09613913297653198,-2.100226879119873,0.6649473309516907,0.4860241413116455,1.422389268875122,-0.7901396155357361,-0.2831251919269562,0.5793524384498596,1.0269674062728882,-0.08443604409694672,1.0497673749923706,1.1021373271942139,-1.8689813613891602,1.1338541507720947,2.1325860023498535,-0.5111673474311829,-0.9970423579216003,-0.952828586101532,-0.776250422000885,0.41431328654289246,-1.355539083480835,0.2478940486907959,0.5278753042221069,-0.3076762855052948,0.2533620595932007,0.2925187945365906,-1.6171188354492188,-0.07354845106601715,0.2942785620689392,0.8931557536125183,-1.1685240268707275,1.136411190032959,-0.8479776978492737,2.4665629863739014,-0.5319360494613647,-2.6319830417633057,0.2794855833053589,2.4474592208862305,-0.2592024803161621,0.2792915403842926,-0.3604904115200043,-1.096427321434021,-0.4463745653629303,-2.6772043704986572,2.0693750381469727,-0.27056679129600525,-0.5205335021018982,1.0358508825302124,-2.118786573410034,-0.07374298572540283,-0.38521498441696167,2.456942558288574,0.9655604362487793,-0.8572466373443604,1.861559271812439,0.1708516776561737,-1.896633505821228,0.6567988991737366,0.33517301082611084,-2.183281421661377,-0.8414822220802307,-1.2057722806930542,-0.32648587226867676,-1.5767604112625122,-0.4022393226623535,0.34683507680892944,0.7496563196182251,0.2090112715959549,-0.8228206634521484,-0.8031437397003174,-0.683573305606842,0.43840479850769043,0.2847445011138916,-0.3346082866191864,1.7448207139968872,0.514826774597168,0.9162006378173828,-0.14621461927890778,-0.8831973671913147,-0.5815568566322327,0.8812190294265747,-0.25332874059677124,-1.5060373544692993,1.1470561027526855,-1.2766144275665283,-3.113731622695923,0.24252744019031525,1.4718272686004639,-0.3820984363555908,1.831154465675354,0.7647467851638794,-0.34667861461639404,-1.162441611289978,-0.22497998178005219,-0.9402573108673096,-1.7218365669250488,0.7131932377815247,1.1843565702438354,1.6385931968688965,-0.5245817303657532,2.0163049697875977,2.094160556793213,0.09129373729228973,-0.9810323715209961,1.3230499029159546,-2.1599791049957275,-0.7637560367584229,0.11302865296602249,-1.1037306785583496,1.2294023036956787,-1.5039434432983398,0.4004475474357605,